solver_type L2R_LR
nr_class 1
label 1
nr_feature 2093
bias 0.000000000000000
w
0.08501186436550516 
0.1015782597616866 
0.05765153701308796 
0.06525428309606238 
0.05346537741172720 
0.04594764185608281 
0.03618717791879026 
0.04470471043488428 
0.03532483437302083 
0.03398271888653692 
0.04463730776856600 
0.02423991984664216 
0.02548687095648028 
0.02149257247590627 
0.01740915387922843 
0.01630585216537840 
0.02177206705691698 
0.04043643146713836 
0.02133090606345045 
0.02912881605026545 
0.009864234096522434 
0.007944695793257076 
0.01709960837326951 
0.01358202671819802 
0.01219772555214650 
0.02138053356278004 
0.007602435876901716 
0.009931852130526254 
0.01336123973687915 
0.01134811801897318 
0.01291906298313127 
0.005695101009500245 
0.001931143562031431 
0.01919711683547760 
0.002250181314426370 
0.004452422669041550 
0.006301515841876471 
0.003894426361800524 
0.008898336482772369 
0.01209452734940843 
0.007276088135381606 
0.001931143562031431 
0.003283763176761402 
0.004965257753451014 
0.003533094654180398 
0.002250181314426370 
0.009899999572899765 
0.002879164779281670 
0.006684054625910102 
0.006941546343924362 
0.006183637405894453 
0.005463372131507819 
0.002250181314426370 
0.006371633368913948 
0.005479429461484704 
0.005088648446661201 
0.006952287875897839 
0.002389518211289419 
0.01217624483769198 
0.004401874390061655 
0.003283763176761402 
0.001449256889359295 
0.002590870572086342 
0.005479429461484704 
0.004593747011087301 
0.002250181314426370 
0.004711650411927678 
0.005153418652063642 
0.004452422669041550 
0.008383904197470538 
0.009926063523265614 
0.002359520328852048 
0.008383904197470538 
0.001496001163040595 
0.001496001163040595 
0.002250181314426370 
0.006521628588505270 
0.004562769664608420 
0.003022293216191465 
0.004085237419603649 
0.004264659297992365 
0.003022293216191465 
0.007320162963070339 
0.003022293216191465 
0.006583644249101253 
0.002250181314426370 
0.005186111991961321 
0.002389518211289419 
0.002250181314426370 
0.002250181314426370 
0.001347914550049360 
0.009551597794345763 
0.001591636630861649 
0.005479429461484704 
0.003186533788739384 
0.003045887708659564 
0.001919370044791450 
0.001919210699872398 
0.001914544345535368 
0.005178266564784784 
0.003022293216191465 
0.002283896396400583 
0.003022293216191465 
0.007649818258473396 
0.004562769664608420 
0.001903497644352873 
0.003783234634492785 
0.006474973345563800 
0.005479429461484704 
0.004562769664608420 
0.002737585461504448 
0.003022293216191465 
0.001903497644352873 
0.002250181314426370 
0.009926063523265614 
0.002283896396400583 
0.004415345693154693 
0.003022293216191465 
0.004562769664608420 
0.003322197009495865 
0.0008303840425113191 
0.001914544345535368 
0.001784526121419159 
0.006521628588505270 
0.003449305909177072 
0.2825751010802904 
0.2052002067860934 
0.1968127528912394 
0.1643120373989832 
0.1044558801269086 
0.07264499240742138 
0.06963874885485886 
0.03020015368868005 
0.02613197705086010 
0.02359214840546097 
0.02790293835354939 
0.01968574684004821 
0.03008040233721228 
0.02923541714839162 
0.02667548511000657 
0.06486251460981533 
0.02383475047498244 
0.01841248888854592 
0.02046775608061038 
0.04871795393202887 
0.02599400096120767 
0.04359645600413837 
0.03634651006911985 
0.01121383910545636 
0.01427421428181456 
0.01950902621750427 
0.02101951905913092 
0.01254514855087228 
0.01376234449241841 
0.01883254998192239 
0.02188109597648908 
0.009323945597201245 
0.01547067610350289 
0.009453557961092773 
0.01468147586093797 
0.003510847330734047 
0.006940072675497741 
0.009239439377695375 
0.02800962942556070 
0.007529469903092559 
0.006315738838718703 
0.01732189605984551 
0.01272224227769132 
0.02813801593468273 
0.007242754475885721 
0.005722315922429337 
0.006318335124630582 
0.01256581819432533 
0.01180950593612426 
0.01583940244256207 
0.008464431037723610 
0.007698889770889049 
0.005007187212753343 
0.006280271845343769 
0.006072757418082728 
0.006072757418082728 
0.01031380510517278 
0.006659124271746347 
0.01729256175388468 
0.007718780436681876 
0.006213553436401118 
0.007011627650612848 
0.004137910349265674 
0.008851741879246776 
0.005502618769635851 
0.005887490367375783 
0.004511411263440887 
0.007804813886617156 
0.004998294009975756 
0.002369649883881636 
0.005726905143384920 
0.003774318710565895 
0.004432615235787609 
0.006611309097391259 
0.01415723780485751 
0.002865539055450011 
0.01557991769414824 
0.006862072074689682 
0.003360975346517568 
0.004901159863711371 
0.007402579989518654 
0.005168664346246470 
0.01288250947518880 
0.009570516534829300 
0.002324117305164911 
0.001382103003970227 
0.009793792994342347 
0.009304973953447447 
0.004284127619242043 
0.008496760330135935 
0.002139891605932533 
0.006072757418082728 
0.003548729426595864 
0.006217664073635726 
0.007348684135002500 
0.006497244655440174 
0.003515169871478378 
0.002043275934169890 
0.006072757418082728 
0.007578641037129108 
0.006093753415897905 
0.002788914870825129 
0.001380046433381484 
0.003903898439310949 
0.01886890130400108 
0.01181416138735069 
0.003283763176761402 
0.002127906603678114 
0.005497921289051719 
0.003962645978961340 
0.006986062762614920 
0.006072757418082728 
0.003283763176761402 
0.003842483527874116 
0.009051863330386790 
0.003788714471167824 
0.001903497644352873 
0.002641860531655529 
0.004652129807039817 
0.001591636630861649 
0.004401874390061655 
0.001785294013386846 
0.002107291801782637 
0.005316069064711451 
0.004497719835463112 
0.2655391115568417 
0.2053105537816603 
0.1925292687338004 
0.1430013078410027 
0.1071613683126601 
0.07264499240742138 
0.06885921382474323 
0.06001316999699638 
0.03020015368868005 
0.03950917855615337 
0.02613197705086010 
0.02359214840546097 
0.05537075403313216 
0.01968574684004821 
0.02923541714839162 
0.03008040233721228 
0.06853152968658390 
0.02667548511000657 
0.04730902187004799 
0.05099838545762891 
0.02046775608061038 
0.01881627498235807 
0.02599400096120767 
0.01950902621750427 
0.01427421428181456 
0.01254514855087228 
0.01281582128418149 
0.01376234449241841 
0.01727271010546616 
0.03825735226644474 
0.02188109597648908 
0.009323945597201245 
0.01195311347669300 
0.01547067610350289 
0.009453557961092773 
0.006940072675497741 
0.009239439377695375 
0.01297466862789028 
0.02387620600298593 
0.02789928242999383 
0.006315738838718703 
0.007529469903092559 
0.02813801593468273 
0.007242754475885721 
0.005722315922429337 
0.006318335124630582 
0.01256581819432533 
0.01583940244256207 
0.009503209296153186 
0.007698889770889049 
0.005007187212753343 
0.006072757418082728 
0.008464431037723610 
0.006280271845343769 
0.006072757418082728 
0.01031380510517278 
0.007718780436681876 
0.006213553436401118 
0.009873719566783455 
0.004137910349265674 
0.005168664346246470 
0.007602435876901716 
0.01286947339080396 
0.005502618769635851 
0.007967181435609913 
0.003875533027262232 
0.004511411263440887 
0.007804813886617156 
0.004998294009975756 
0.002369649883881636 
0.005726905143384920 
0.004432615235787609 
0.003774318710565895 
0.006611309097391259 
0.007602435876901716 
0.006862072074689682 
0.002865539055450011 
0.01871030892505735 
0.003360975346517568 
0.01699173034711853 
0.004901159863711371 
0.007402579989518654 
0.004727731254212265 
0.01078197670267717 
0.004119688465474675 
0.009570516534829300 
0.006567845482846192 
0.006072757418082728 
0.002324117305164911 
0.001382103003970227 
0.009793792994342347 
0.006355920313394423 
0.01288421158720069 
0.01048990825600865 
0.004284127619242043 
0.002139891605932533 
0.008496760330135935 
0.006072757418082728 
0.006217664073635726 
0.01089769162771105 
0.01034245617926180 
0.003548729426595864 
0.007348684135002500 
0.008864705006012089 
0.008796887831531328 
0.002043275934169890 
0.006428313837110468 
0.006093753415897905 
0.01886890130400108 
0.003515169871478378 
0.003903898439310949 
0.001380046433381484 
0.004401874390061655 
0.003283763176761402 
0.003283763176761402 
0.005497921289051719 
0.002127906603678114 
0.003962645978961340 
0.006072757418082728 
0.009051863330386790 
0.003788714471167824 
0.002641860531655529 
0.003842483527874116 
0.004652129807039817 
0.001591636630861649 
0.2400127113973330 
0.1763118169210275 
0.1043186591580001 
0.06163171639372347 
0.06429177023147935 
0.05602813974153036 
0.06700868554230473 
0.03606954996104005 
0.06000395717887783 
0.05348914786701236 
0.02554307401385728 
0.04810355654960417 
0.01040276571336711 
0.01617378294813891 
0.03034728636487928 
0.02561986653693072 
0.01504589118765820 
0.01691987897143102 
0.007585062880799885 
0.01919305987541151 
0.02646409168494575 
0.01199981496822409 
0.01633427851971131 
0.01736015437460082 
0.05209829255553431 
0.008546506748685142 
0.009937952447379106 
0.005421691057310799 
0.01068400724160612 
0.01368450458248211 
0.009227953128863186 
0.009864234096522434 
0.008879694418667336 
0.02793302679452819 
0.01363125635872951 
0.01448352329555366 
0.009375277417321148 
0.005999707248481280 
0.01152793351578046 
0.01902365933179027 
0.004305180089939756 
0.008459784579006608 
0.009513565362795658 
0.006841940880330969 
0.009931852130526254 
0.003491500268702318 
0.01291906298313127 
0.002389518211289419 
0.01057162323701864 
0.003966363212357213 
0.004401874390061655 
0.005631517598006375 
0.003283763176761402 
0.003357861853925591 
0.003266285014932298 
0.004452422669041550 
0.01030311489734294 
0.006132102442829273 
0.005661229982128260 
0.006577795989822674 
0.01208633144022322 
0.01388539592551512 
0.003391698689600075 
0.003966363212357213 
0.002250181314426370 
0.009052142536984050 
0.005395862658390645 
0.004749038540141468 
0.01806156333014566 
0.008729183044101401 
0.002250181314426370 
0.005762308453975682 
0.005479429461484704 
0.01172087100896184 
0.01214121589181547 
0.006952287875897839 
0.005795314719373021 
0.01217624483769198 
0.002446651848233351 
0.002250181314426370 
0.005088648446661201 
0.006961831726354048 
0.003022293216191465 
0.001382103003970227 
0.004452422669041550 
0.008383904197470538 
0.003444919695073875 
0.009926063523265614 
0.005818260842220677 
0.008383904197470538 
0.003325270487798308 
0.002250181314426370 
0.001837349619151472 
0.01289184853808706 
0.002250181314426370 
0.006521628588505270 
0.004562769664608420 
0.004720602298324284 
0.003022293216191465 
0.004085237419603649 
0.001580904733800110 
0.007233206242182965 
0.002250181314426370 
0.005684526699167800 
0.002973266676420977 
0.006583644249101253 
0.002389518211289419 
0.006929792793625308 
0.002389518211289419 
0.002250181314426370 
0.002250181314426370 
0.002946539049995170 
0.001497061775311443 
0.005479429461484704 
0.001919370044791450 
0.003186533788739384 
0.001998412871060817 
0.003783234634492785 
0.005153418652063642 
0.004452422669041550 
0.01248391826664507 
0.005178266564784784 
0.003022293216191465 
0.006583644249101253 
0.003022293216191465 
0 
0 
0 
0 
0 
0 
0 
0 
0 
0 
0 
0 
0 
0 
0 
0 
0 
0 
0 
0 
0 
0 
0 
0.2282007208157439 
0 
0 
0 
0 
0 
0 
0 
0 
0 
0 
0 
0 
0 
0 
0 
0 
0 
0 
0 
0 
0 
0 
0 
0 
0 
0 
0 
0 
0 
0 
0 
0 
0 
0 
0 
0 
0 
0 
0 
0 
0 
0 
0 
0 
0 
0 
0 
0 
0 
0 
0 
0 
0 
0 
0 
0 
0 
0 
0 
0 
0 
0 
0 
0 
0 
0 
0 
0 
0 
0 
0 
0 
0 
0 
0 
0 
0 
0 
0 
0 
0 
0 
0 
0 
0 
0 
0 
0 
0 
0 
0 
0 
0 
0 
0 
0 
0 
0 
0 
0 
0 
0 
0 
0 
0 
0 
0 
0 
0 
0 
0 
0 
0 
0 
0 
0 
0 
0 
0 
0 
0 
0 
0 
0 
0 
0 
0 
0 
0 
0 
0 
0 
0 
0 
0 
0 
0 
0 
0 
0 
0 
0 
0 
0 
0 
0 
0 
0 
0 
0 
0 
0 
0 
0 
0 
0 
0 
0 
0 
0 
0 
0 
0 
0 
0 
0 
0 
0 
0 
0 
0 
0 
0 
0 
0 
0 
0 
0 
0 
0 
0 
0 
0 
0 
0 
0 
0 
0 
0 
0 
0 
0 
0 
0 
0 
0 
0 
0 
0 
0 
0 
0 
0 
0 
0 
0.3321234029985447 
0 
0 
0 
0 
0 
0 
0 
0 
0 
0 
0 
0 
0 
0 
0 
0 
0 
0 
0 
0 
0 
0 
0 
0 
0 
0 
0 
0 
0 
0 
0 
0 
0 
0 
0 
0 
0 
0 
0 
0 
0 
0 
0 
0 
0 
0 
0 
0 
0 
0 
0 
0 
0 
0 
0 
0 
0 
0 
0 
0 
0 
0 
0 
0 
0 
0 
0 
0 
0 
0 
0 
0 
0 
0 
0 
0 
0 
0 
0 
0 
0 
0 
0 
0 
0 
0 
0 
0 
0 
0 
0 
0 
0 
0 
0 
0 
0 
0 
0 
0 
0 
0 
0 
0 
0 
0 
0 
0 
0 
0 
0 
0 
0 
0 
0 
0 
0 
0 
0 
0 
0 
0 
0 
0 
0 
0 
0 
0 
0 
0 
0 
0 
0 
0 
0 
0 
0 
0 
0 
0 
0 
0 
0 
0 
0 
0 
0 
0 
0.03039713400043630 
0 
0 
0 
0 
0 
0 
0 
0 
0 
0 
0 
0 
0.8150169173285526 
0 
0 
0 
0 
0 
0 
0 
0 
0 
0 
0 
0 
0 
0 
0 
0 
0 
0 
0 
0 
0 
0 
0 
0 
0 
0 
0 
0 
0 
0 
0 
0 
0 
0 
0 
0 
0 
0 
0 
0 
0 
0 
0 
0 
0 
0 
0 
0 
0 
0 
0 
0 
0 
0 
0 
0 
0 
0 
0 
0 
0 
0 
0 
0 
0 
0 
0 
0 
0 
0 
0 
0 
0.8150169173285526 
0 
0 
0 
0 
0 
0 
0 
0 
0.1039226821828008 
0 
0 
0 
0 
0 
0 
0 
0 
0 
0 
0 
0 
0 
0 
0 
0 
0 
0 
0 
0 
0 
0 
0 
0 
0 
0 
0 
0 
0 
0 
0 
0 
0 
0 
0 
0 
0 
0 
0 
0 
0 
0 
0 
0 
0 
0 
0 
0 
0 
0 
0 
0 
0 
0 
0 
0 
0 
0 
0 
0 
0 
0 
0 
0 
0 
0 
0 
0 
0 
0 
0 
0 
0 
0 
0 
0 
0 
0 
0 
0 
0 
0 
0 
0 
0 
0 
0 
0 
0 
0 
0 
0 
0 
0 
0 
0 
0 
0 
0 
0 
0 
0 
0 
0 
0 
0 
0 
0 
0 
0 
0 
0 
0 
0 
0 
0 
0 
0 
0 
0 
0 
0 
0 
0 
0 
0 
0 
0 
0 
0 
0 
0 
0 
0 
0 
0 
0 
0 
0 
0 
0 
0 
0 
0 
0 
0 
0 
0 
0 
0 
0 
0 
0 
0 
0 
0 
0 
0 
0 
0 
0 
0 
0 
0 
0 
0 
0 
0 
0 
0 
0 
0 
0 
0 
0 
0 
0 
0 
0 
0 
0 
0 
0 
0 
0 
0 
0 
0 
0 
0 
0 
0 
0 
0 
0 
0 
0 
0 
0 
0 
0 
0 
0 
0 
0 
0 
0 
0 
0 
0 
0 
0 
0 
0 
0 
0 
0 
0 
0 
0 
0 
0 
0 
0 
0 
0 
0 
0 
0 
0 
0 
0 
0 
0 
0 
0 
0 
0 
0 
0 
0 
0 
0 
0 
0 
0 
0 
0 
0 
0 
0 
0 
0 
0 
0 
0 
0 
0 
0 
0 
0 
0 
0 
0 
0 
0 
0 
0 
0 
0 
0 
0.8150169173285526 
0 
0 
0 
0 
0 
0 
0 
0 
0 
0 
0 
0 
0 
0 
0 
0 
0 
0 
0 
0 
0 
0 
0 
0 
0 
0 
0 
0 
0 
0 
0 
0 
0 
0 
0 
0 
0 
0 
0 
0 
0 
0.005394001577909307 
0 
0 
0.03563253516402759 
0 
0 
0 
0 
0 
0 
0 
0 
0 
0 
0 
0 
0 
0 
0 
0 
0 
0 
0 
0 
0 
0 
0 
0 
0 
0 
0 
0 
0 
0 
0 
0 
0 
0 
0 
0 
0 
0 
0 
0 
0 
0 
0 
0 
0 
0 
0 
0 
0 
0 
0 
0 
0 
0 
0 
0 
0 
0 
0 
0 
0.03030733631405954 
0 
0 
0 
0 
0 
0 
0 
0 
0 
0 
0 
0 
0 
0 
0 
0 
0 
0 
0 
0 
0 
0 
0 
0 
0 
0 
0 
0 
0 
0 
0 
0 
0 
0 
0 
0 
0 
0 
0 
0 
0 
0 
0 
0 
0 
0 
0 
0 
0 
0 
0 
0 
0 
0 
0 
0 
0 
0 
0 
0 
0 
0 
0 
0 
0 
0 
0 
0 
0 
0 
0 
0 
0 
0 
0 
0 
0 
0 
0 
0 
0 
0 
0 
0 
0 
0 
0 
0 
0 
0.001382103003970227 
0 
0.01527342963648541 
0 
0 
0 
0 
0 
0 
0 
0 
0 
0 
0 
0 
0 
0 
0 
0 
0 
0 
0 
0 
0 
0 
0 
0 
0 
0 
0 
0 
0 
0 
0 
0 
0 
0 
0 
0 
0 
0 
0 
0 
0 
0 
0 
0 
0 
0.1327509684810348 
0 
0 
0 
0 
0 
0 
0 
0 
0 
0 
0 
0 
0 
0 
0 
0.04484234798698998 
0 
0 
0 
0.005675220603312148 
0 
0 
0.001847597746754244 
0 
0 
0 
0 
0.01024716808293390 
0 
0 
0 
0 
0 
0 
0 
0 
0 
0 
0 
0 
0 
0 
0 
0 
0 
0 
0 
0 
0 
0 
0 
0 
0 
0 
0 
0 
0 
0 
0 
0 
0 
0 
0 
0 
0 
0 
0 
0 
0 
0 
0 
0.01607540136726504 
0 
0 
0 
0 
0 
0 
0 
0 
0 
0.01180706318589125 
0 
0 
0 
0 
0 
0 
0 
0 
0 
0 
0 
0 
0 
0 
0 
0 
0 
0 
0 
0 
0 
0 
0 
0.005675220603312148 
0 
0 
0 
0 
0 
0 
0 
0 
0 
0 
0.005675220603312148 
0 
0 
0 
0 
0 
0 
0 
0 
0 
0 
0.1464229443560261 
0 
0 
0 
0 
0 
0 
0 
0 
0 
0 
0 
0 
0 
0 
0 
0 
0 
0 
0 
0 
0 
0 
0 
0 
0 
0 
0 
0 
0 
0 
0 
0 
0 
0 
0 
0 
0.007117496931815765 
0 
0 
0 
0 
0 
0 
0 
0 
0 
0 
0 
0 
0.8150169173285526 
0 
0 
0 
0 
0 
0 
0 
0 
0 
0 
0 
0 
0 
0 
0 
0 
0 
0 
0 
0 
0 
0 
0 
0 
0 
0 
0 
0 
0 
0 
0 
0 
0 
0 
0 
0 
0 
0.03667507304607324 
0 
0 
0 
0 
0 
0 
0 
0 
0 
0 
0 
0 
0 
0 
0 
0 
0 
0 
0 
0 
0 
0 
0 
0 
0 
0 
0 
0 
0 
0 
0 
0 
0 
0 
0.1310771259033646 
0 
0 
0 
0 
0 
0 
0 
0 
0.04484234798698998 
0 
0 
0 
0 
0 
0 
0 
0 
0 
0 
0 
0 
0 
0 
0 
0.005675220603312148 
0 
0 
0 
0 
0 
0 
0 
0 
0 
0 
0 
0 
0 
0 
0 
0 
0 
0 
0.1368683267047386 
0 
0 
0 
0 
0 
0 
0 
0 
0 
0 
0 
0 
0 
0 
0 
0.2480233363163381 
0 
0 
0 
0 
0.009743255022716400 
0 
0 
0 
0 
0 
0 
0 
0 
0 
0 
0 
0 
0.001491375388361887 
0 
0 
0 
0 
0 
0 
0 
0 
0 
0 
0 
0 
0 
0 
0 
0 
0 
0 
0 
0 
0 
0 
0 
0 
0 
0 
0 
0 
0 
0 
0 
0 
0 
0 
0 
0 
0.03030733631405954 
0 
0 
0 
0 
0 
0 
0 
0 
0 
0 
0 
0 
0.03563253516402759 
0 
0 
0 
0 
0 
0 
0 
0 
0 
0 
0 
0 
0 
0 
0 
0 
0 
0 
0 
0 
0 
0 
0 
0 
0 
0 
0 
0 
0 
0 
0.04526134321054296 
0 
0 
0 
0 
0 
0 
0 
0 
0 
0 
0 
0 
0 
0 
0 
0 
0 
0 
0 
0 
0 
0 
0 
0 
0 
0 
0 
0 
0 
0 
0 
0 
0 
0 
0 
0 
0 
0 
0 
0 
0 
0 
0.1368683267047386 
0 
0 
0.1327509684810348 
0 
0 
0 
0 
0 
0 
0.04011051823030759 
0 
0 
0 
0 
0 
0 
0 
0 
0 
0 
0 
0 
0 
0 
0 
0 
0 
0 
0 
0 
0 
0 
0 
0 
0 
0 
0 
0 
0 
0 
0 
0.04011051823030759 
0 
0 
0 
0 
0 
0 
0 
0 
0 
0 
0 
0 
0 
0.1311931061014265 
0.1206456858714536 
0 
0 
0 
0 
0 
0 
0 
0.1497619174911422 
0 
0 
0 
0 
0.03816047748923799 
0 
0 
0 
0 
0 
0 
0 
0 
0.1677521989494379 
0 
0 
0 
0 
0 
0 
0 
0 
0 
0 
0 
0 
0 
0 
0 
0 
0 
0 
0 
0 
0 
0 
0 
0 
0 
0 
0 
0 
0 
0 
0.4216467092017424 
0 
0.3517234619614686 
0.009005041601466365 
0.008700654962081769 
0.01619988234852206 
0.004497719835463112 
0 
0 
0 
0 
0 
0 
0 
0 
0 
0 
0 
0 
0 
0.003243447417808304 
0.3475118329423267 
0 
0.4605752915926006 
0.006929792793625308 
0 
0 
0 
0 
0 
0 
0 
0 
0 
0 
0 
0 
0 
0 
0 
0 
0 
