solver_type L2R_LR
nr_class 3
label 1 2 3
nr_feature 2097
bias 0.000000000000000
w
-0.03568277554048623 0.3152045340416941 -0.2633250039845149 
0.5443278296433934 0.09608649094134672 -0.5678519955921775 
0.2648694760081398 0.1892172327315016 -0.5343496146791328 
-0.4587688182584693 -0.1011266328892115 0.3010218364813365 
0.2529616027160910 0.3079796771629395 -0.5284966094922201 
-0.1778393076361019 0.8224793783835106 -0.5847844145273273 
1.322091684211633 0.1615077627096212 -1.576646738486152 
0.4966396094785018 0.01264992951496892 -0.1977089500328125 
0.05833797236344620 0.4176549076711902 -0.4794142268058341 
0.1338629040008405 0.5930619800637104 -0.5015311924537033 
-0.02252669938034592 0.1297904804845484 0.03373770892138443 
0.1578876733553196 0.02360952402754359 -0.2528818075914308 
-0.8090140380894566 -0.3638362699776687 0.7836433962354946 
0.1802564700247462 0.5696103066677441 -0.7533148129494031 
0.8274274632146397 -0.1818727398209802 -0.9600597785195708 
0.2226390020908750 -0.1204706006475932 -0.2804687863375782 
-0.3596373973920773 0.2570466983206287 -0.1576184643877148 
-0.02210996211959875 0.5115081461683834 -0.6105138022312189 
-0.8103487154519877 0.009579761431477384 0.7336148664450447 
-0.2052325574289831 -0.2305129331715815 0.4016978983318889 
-0.3238260274048657 -0.03691139547051676 0.2549046886903699 
-0.2167521074685488 0.2747845423994172 -0.1313688266029871 
-0.9876417223625977 -0.06748719812462327 0.8013782112366914 
0.3205534985731741 0.1061849485439955 -0.2987836282472539 
0.1266032812708596 0.1764373185111942 -0.2577774781802962 
0.06961826407198385 -0.3137265166478412 0.1682199051874470 
-0.2310827573800048 0.09087639739178022 0.06382792157991306 
0.02933909675466965 -0.1352815218008896 -0.1319046512501841 
-0.4384811593110913 0.02778757944461633 0.2981369788832887 
-0.4131265713108458 0.1822608487579481 -0.04797790270295985 
0.2767550316601735 -0.06979523577817015 -0.1926273201222349 
0.5013375329292635 0.06494935778964203 -0.7150213881067194 
-0.1167756970172389 -0.2650523063179068 0.1748860349949958 
0.6455827565221871 0.04894619687870128 -0.9076152798043770 
-0.5918910373042388 -0.2515401088853943 0.7547473893644283 
-0.7481168324424021 0.05136239944967425 0.6132619847851158 
-0.03463562400250807 0.4110768656355084 -0.3511974035067458 
-0.1541069765079756 0.04807499203160905 0.05951110639866752 
0.3089105288677804 -0.2755555183103639 -0.2304911591354613 
0.2541428892685025 0.2891412724879522 -0.3699253703537619 
-0.3926735997976283 0.1034481102521135 0.07223495580602386 
-0.1488374748572688 0.07682220083746427 -0.08938334899719078 
-0.2426862148252142 0.05017965789163611 -0.01838092912421021 
0.2984300699845088 0.06025486307923677 -0.4434074913015145 
-0.02599874802045798 -0.04056199221204551 0.01545761087489234 
-0.03133056878344788 -0.04656687535360885 0.005440973026731359 
-0.2575290827203814 0.1948645539201859 -0.1172787442899548 
-0.4154235895216706 0.3264855324496251 0.05318026049677185 
0.07378997434200939 0.04224405232604596 -0.02490956227694507 
0.1121405090679769 0.1165642674761377 -0.1890989336353659 
0.2507805346905245 0.1134929937130972 -0.4225314413709424 
-0.04832238882960067 0.2984130578091572 -0.09553519977800948 
0.1179451903683003 0.07552979931337120 -0.4076630130127827 
0.3686528230035554 0.03769017618491987 -0.4302188378272992 
-0.3773150121283878 0.2304429328348398 -0.05379239119465577 
-0.1699747294051090 0.1711267541578806 -0.05580203771325332 
-0.3143445370904709 0.01708054666581791 0.2891309141054416 
-0.2721463272327777 0.02949423005663143 0.04283840646477947 
0.07792386811163440 -0.07561551472472830 -0.08598257321111225 
-0.07642947860814038 0.1549041592281391 -0.04834833632518997 
-0.08983722631056850 0.7853953044967065 -0.7642232179719517 
-0.3107318728034507 -0.1945986938269683 0.5440507359457050 
0.2128894056334606 -0.03462870486792997 -0.1602326063160041 
-0.09260180637963554 0.06984583705564305 -0.02209793913969794 
-0.06903511483528342 0.005021158161871269 0.1506914824759655 
-0.1318645938772620 0.2082756731930603 0.02072969234551338 
-0.4947640206965080 -0.05155988601725508 0.3849268423850677 
-0.1503898285011247 -0.04747955955232419 0.2508888909690366 
-0.1047143037131412 -0.8086673209391763 0.7957196382471419 
0.4881879447592461 0.07448270841290000 -0.6446523689551630 
-0.02339411043196281 0.03418374111109079 -0.004805950466305079 
0.3587854671005004 -0.3149468675058833 -0.01902371249875746 
-0.1261453894754049 -0.2730926516413905 0.2066151894022095 
-0.04332978578552221 0.5368025228296500 -0.6712598172240821 
-0.1026778686802628 0.3148365383479465 -0.2281566489704237 
-0.1545694227245959 0.3493732459037854 -0.3162569871110645 
-0.1467204289306407 -0.1401715817390794 0.3819520307936206 
-0.01456146433322006 0.1185100705475745 -0.07215748287350603 
-0.1307288068675094 0.1195009384513293 -0.02553416952526992 
-0.1409780677857575 0.06410667115464688 0.1360292762925561 
-0.07705179066867780 0.2403838410372837 -0.1434519328687328 
0.04695901369332382 -0.1556229524662531 0.1956651486057539 
-0.1347290727516519 0.1685061504014123 -0.1960120828944962 
-0.09706637161215495 -0.1321180373870854 0.2721133223091347 
-0.1883213538092322 0.01924138475262623 0.001313277459764610 
-0.04037386410840763 0.1621849099307707 -0.1869509933894473 
-0.05852253677900383 -0.2809204163072914 0.3244036849339097 
-0.05077663588287019 0.04174652682482827 -0.03840707181811105 
-0.01200769258759611 0.02767087690394573 -0.05121988708708364 
-0.3074563130197119 -0.04069317730334419 0.3195497558123134 
-0.06837700937511035 0.09401779740398875 -0.06597121125293960 
-0.03888297536426577 0.04038096476524618 -0.02130345635242478 
-0.1386426254017331 0.1669879624769458 -0.07707962698379558 
-0.04101156188558448 0.2724032707910000 -0.2668292068810428 
-0.1301319584099946 0.09175565814138323 -0.04740061340358412 
-0.5469563737046461 0.1461917784862700 0.4520081626238026 
0.04079854453103329 -0.01633986285235467 -0.09388541949187700 
-0.04077844864642449 -0.1035190284285590 0.09941021119056315 
-0.1731150931642717 0.1931152681052002 0.1054249098565983 
-0.02812312469930659 0.05284937170429097 -0.03865764752369537 
-0.2407019885050480 0.1714495262287562 -0.1502942934224611 
-0.03756939807268858 0.05564522063195751 -0.03171253338995232 
-0.01808518814813828 0.02086752975885318 -0.008189995950365910 
-0.1665869368220429 -0.01218184169769948 0.1738440725290134 
0.09996197834665216 0.1560307092584901 -0.1897590395191990 
-0.1039522240577904 -0.03656125978182367 0.1696319774481498 
-0.04808799766362953 0.02458922223774514 -0.005134458890948991 
-0.04870963200793822 0.1056103915775878 -0.1050968192979801 
-0.04808799766362953 0.02458922223774514 -0.005134458890948991 
0.1268203142035398 0.3349897998037613 -0.4282424325653652 
-0.1112602800834505 0.04975996052474416 -0.03296117103862616 
-0.1585895676844775 0.2217434849109310 -0.03268993735059991 
-0.3807811835399493 0.1019932066892988 0.1546617771686382 
0.04329578068405461 -0.009938912580577459 0.1520624529640621 
-0.02445946349795657 -0.3476496338954750 0.4543067451759207 
0.9989381156602384 -0.07267452970700879 -0.8670240674462197 
0.3580181484702492 -0.04984245710648141 -0.2623349467953108 
-0.2702747924519972 0.5890162750395724 -0.1643814306702455 
-0.08548788740961998 0.02745552622853038 -0.004393449248036876 
0.3500468792900878 -0.06696780808964205 -0.1352422796195892 
0.07864074338292876 0.2897291467725923 -0.4322285049572889 
-0.04683844675439297 0.01678577465193704 -0.001652018122774115 
-0.5470221054158299 0.09774819272248028 0.4542838593807286 
-0.3334617637044956 0.2235945228521853 0.06108784363271982 
-0.06853210205433860 0.05113774943290408 -0.03177956242785907 
0.5643771423426598 0.1495507119832850 -0.5220089582243940 
-0.6287424955235686 -0.02439680608075371 0.4713298532639726 
-0.6970453376233146 -0.1763024325922514 0.4904133765588374 
0.1225218743429134 0.03254700281795254 -0.3951939496267135 
0.02970276576610086 0.1225957235818400 -0.1240512499852141 
0.2433274610883461 -0.1178152474818437 0.1300941437111436 
0.7463747129421919 0.2411015197440591 -0.6993162311020922 
0.5429119248869579 0.3839474662139193 -1.074222678056827 
-0.1559648362895221 -0.04538759613871512 0.1849508442860195 
0.2470602044938364 -0.03675137671182611 -0.8663480243549794 
0.4755397098123910 -0.7633916205748840 -0.08708385560721130 
0.5910496231091170 -0.3148545788154361 -0.6975081266259454 
1.044671308797887 -0.3720417142491151 -0.9714141394502005 
-0.08981448563378443 -0.1274078728558455 0.1482727556162185 
-0.8786817413031904 0.6432395453216536 -0.06650331170510473 
-0.1701825624720122 0.1225040259745571 -0.2146821473844229 
-0.09138614073995106 0.6239927078242227 -0.4751392791151941 
0.2407537382032181 0.2637389962393801 -0.5224850076812105 
0.4411512668973314 -0.5068094455950531 0.4608579453234609 
-0.08653222575230968 -0.1187297977256639 0.1242174723375074 
0.3230133716168935 0.4841881193330642 -0.8319970541685131 
0.1912653151410649 0.6172697312230614 -0.9172038470243978 
0.3898016862825572 -0.1841462186045324 -0.05890296331615553 
0.1228054300542851 0.2948398379556094 -0.4502594275100658 
-0.2664099072421399 0.5101477887238661 -0.1735911556709360 
0.8908046343801344 -0.4769745390804390 -0.2795983725946614 
-0.02317007120253720 -0.1125357490079396 -0.01988450046035119 
0.1275268238819226 -0.1582931765771549 0.09768212988353088 
0.04983765533198480 0.4220756050794567 -0.4292138868518133 
0.07210822218047440 0.04114756803166882 -0.09920744354623941 
-0.2368950406911879 0.4658823068630253 -0.3534174508896975 
0.3481773466487957 -0.07080283776152721 -0.09685392473187090 
0.1576509569290058 0.04411257607529389 -0.2963383150106342 
0.3269347009201784 -0.2493376282126190 -0.1134213219032515 
1.238079569834080 -0.7267135885849794 -0.6955400092238709 
0.6277768130841105 -0.1609592998353457 -0.6507469483942412 
-0.2763762790826949 0.1454764290710889 -0.06103935163646537 
0.2094045596262637 -0.04462844179850482 -0.2736801775261684 
-0.2758185477037665 0.1253123452185321 -0.06072491503306879 
-0.1098615160770693 -0.2225086675918839 0.3421494545436104 
0.1880874115956952 0.2442585574803851 -0.3440452906211766 
0.3842847311244625 0.2835160898831822 -0.5360425298006332 
-0.03148552286264114 0.06761229138060255 -0.1122519264270160 
0.6123575797690912 -0.4084502929822128 -0.2494547698379631 
-0.1726750638731575 0.2448166731656012 -0.2074675399873418 
-0.1335395649377335 0.02236840910909155 0.1158492137851172 
0.04602095453126933 -0.08772367286107384 -0.02359917204168080 
0.5280296793484521 -0.2415265024984001 -0.2248718700596412 
-0.1160961185200121 -0.7105627528090596 0.5801907563183917 
0.05053770418254919 -0.02997336088807144 -0.06457723781589830 
-0.4069016566939087 -0.2214869734404340 0.4701501911774922 
-0.2462421741844403 0.1294246423020741 -0.02245284911877698 
-0.6090469011420970 0.09024185119010215 0.5815011971002885 
0.6539064534071423 -0.06725092314559954 -0.2681529075586013 
-0.1311625853815235 0.09940808797468717 0.1026783954261586 
-0.4208560114172300 -0.1877626053209865 0.3523473560576030 
0.2832752299960521 -0.04551740540482175 -0.2049328150542176 
-0.1151157800521570 -0.1106888913977540 0.07852833958735739 
0.03952970441076207 -0.02619582954919339 -0.05945245286660198 
-0.1756155145393314 -0.003885261382459712 0.07218077963545570 
-0.3265297316071437 0.2303797848526344 -0.1480184252059236 
-0.003287397383881147 0.1707397634013385 -0.1882066776684114 
-0.5602068432509140 0.1994819221045230 0.04075163759786155 
0.2127858375837844 0.1173117588307369 -0.2988018671391939 
-0.1016289838539759 -0.07209034614046820 0.1135384372128570 
0.3194850946055644 0.2584997597494817 -0.2601397504612522 
-0.4775962609386519 -0.2954491845307150 0.4628760965437782 
-0.2633103644172768 0.2368415527451541 -0.1237843968726288 
-0.01403507995587840 0.008449713986578527 -0.1322961281913691 
-0.07606635390292081 0.1390418821521274 -0.01195596339457384 
-0.2366919681455028 -0.2242572241904192 0.3133262437058474 
-0.1949083756929556 -0.01655216861292473 0.1218895318390336 
-0.3318529037633876 0.1935289503441290 0.1032084225637824 
-0.1830638930390279 0.2910195859399078 -0.2649311490995395 
0.5018272259402221 -0.07125789577442054 -0.5678133229506132 
-0.1705333565342800 0.08625942431374198 0.1102523949886870 
0.5454334955133121 -0.3993993263428133 -0.2736497141575205 
0.2544429635094923 -0.1717462574172343 -0.1883382085510169 
0.1883173718769257 0.04665203676987963 -0.4130445140354889 
-0.4902728067054914 -0.3838527737533993 0.8853705247145038 
0.7559446869738214 -0.5977882646557048 -0.3013277307471871 
-0.5040801742084294 0.03194225863589604 0.6436190210023519 
0.3500003447784333 -0.5621823899259390 0.2085137238942607 
0.4157968995783858 -0.04708702394195267 -0.5216827262690684 
0.08403819913148595 -0.006617785569997550 -0.1613468039035447 
-0.3910140621324250 0.1106273159098079 0.2355293802919678 
-0.02628618454084090 0.2648130250933721 -0.2157764929090501 
0.08403819913148595 -0.006617785569997550 -0.1613468039035447 
-0.1738001531509639 0.1320850873702878 -0.001090966225887868 
-0.1564190653727594 0.2213902207206420 -0.02795921737185592 
-0.3735933034058143 0.4130646443216908 -0.09270993726181505 
-0.2587559078111716 0.1942853604090848 -0.001861847791970293 
-0.1564190653727594 0.2213902207206420 -0.02795921737185592 
-0.1564190653727594 0.2213902207206420 -0.02795921737185592 
0.06703563121148912 -0.01478498736055260 -0.1086613734523876 
0.1817758808601662 0.2119205955327532 -0.09210550319333713 
-0.01851406956932716 0.1267147426411733 -0.2516418163890671 
-0.2128581191069660 0.1405726874625099 0.02984979934486852 
-0.1311734500510852 0.4770997918513398 -0.2587745531550737 
-0.5298077110671394 0.3941539977904243 0.2224628366875819 
-0.3624117416642036 0.2480614031869148 0.08105514106589648 
-0.2691330799906618 0.5463578035815870 -0.2641593965522945 
-0.08680964059648012 0.2647730358719519 -0.1079371559106225 
0.6581446481180163 -0.4106482581871194 -0.3441274625702950 
-0.3734674603042287 0.006295274614504863 0.1343530300758077 
0.1981533449496911 0.07859337912699440 -0.2252665234946491 
-0.01645013916792100 0.1054526665339542 -0.07067473194571788 
-0.06611221394535796 0.1775516614808119 -0.05415512624703732 
0.09642022339796599 -0.09577294310928613 -0.006395484150517486 
0.2030261572438394 0.09971671427034727 -0.2128763116196725 
-0.1822242319778381 -0.1979859912359522 0.2844093776086314 
0.06832755272846530 -0.04498222983399262 -0.04391500021502835 
-0.2812412221302976 0.01998091270391888 0.3360797094401727 
0.2776434281725173 -0.2306153870333030 -0.1463384783020751 
0.02177282627142180 -0.009592114748939399 -0.03822992714918037 
0.02234666297794922 0.1345358949269974 -0.1501784193585921 
-0.05572728262635998 0.06141901171590762 -0.04348372506411376 
0.2885561540242360 -0.04302372565009867 -0.2774252761049369 
-0.1375134451746173 0.2643030627255585 -0.09299580464643978 
0.04015918545033052 -0.05020218282676345 -0.02607135377350845 
-0.1016938301542352 0.08334941184061623 0.1495624808982563 
-0.1069951127536308 0.4413811102505173 -0.3501119861060733 
-0.08766548253942794 0.04290485127686636 -0.001316530502459709 
-0.02484808629455648 -0.5524095197357172 0.5425495689878925 
0.5720423145529335 -0.2252892210662757 -0.4015537227911121 
0.5430388020366249 0.5728980368219644 -0.8217669138579177 
0.9204604350389200 0.2180317496213673 -0.9309005183049975 
0.2778874345365251 -0.08850084538443930 -0.1644240535203825 
-0.3889969414793497 0.1138754644139526 0.4056017323465556 
0.3487155874492867 0.4812369245061035 -0.6388163064777190 
0.1202967832052919 -0.6558554159456155 0.4359881848883517 
0.08412422710038053 0.2877235695550293 -0.4274779718726725 
0.03014891540889796 -0.5001598399867971 0.3251857492108638 
0.5380647701874608 0.09739084880513119 -0.6942451923745959 
0.3620784376608494 -0.6553321189512344 -0.07420343038797926 
-0.04289251431413876 -0.04767916283696149 0.01935318412540994 
0.5010791509631417 -0.5071903459099871 -0.3377826218048092 
1.339516928698093 -0.5310445525378810 -1.076863017084655 
-0.6585850538166285 -0.09077489625683700 0.5737550310841956 
-0.2837886399156220 0.07356164068227897 -0.09701278877575080 
-0.3661573320895735 0.5780426823830492 -0.2416818882482985 
-0.1840243660099271 0.1152756242286055 -0.07655417499300927 
-0.05589382306873500 0.4914381172424499 -0.4042656813138366 
0.4120871103103060 0.2624839910992834 -0.6971357411384935 
0.3017959726931428 0.2443954501048146 -0.4730028763367471 
-0.4750988857619147 -0.2690673010908671 0.6563048620965798 
-0.002489810021162685 -0.1298052164384883 0.1483720769743165 
0.4261768855573022 0.4498013943547724 -0.6310198747761497 
0.3230133716168935 0.4841881193330642 -0.8319970541685131 
0.6567140807427226 -0.3767625800117120 -0.2966495804308475 
0.1090675617246945 0.1623978913021153 -0.4556966746195248 
0.5058408778540837 -0.2301779689148297 -0.1735077461127825 
-0.2363422323099490 0.08377489244662586 0.2257596942159769 
-0.6566858772661050 -0.1050991649225379 0.6384630505061806 
-0.1254901312771055 0.4443140243819523 -0.2584633375143891 
0.1481936916397821 0.06273269155279855 -0.1023503741536218 
0.1524412032554961 0.1511624165381557 -0.1532569231447897 
0.4152810201493778 0.02167001280348832 -0.4589792037458728 
-0.3676289267489019 0.02951839772945997 0.1138607994656446 
0.6662330551934086 0.1892499004772354 -0.5159799524592766 
-0.1049739027755833 0.02987604543889821 -0.1376833356536897 
0.2094045596262637 -0.04462844179850482 -0.2736801775261684 
1.001846742126520 -0.5220588441644978 -0.6567981975651200 
-0.1788178057175578 -0.2639916801827671 0.5335173918553690 
-0.3908353288997632 -0.1870918686775848 0.3987047220289870 
-0.4336629679912494 0.3028835922425327 0.06334003406532906 
-0.2699641910743488 0.4078844024426142 -0.2170643643472674 
0.02736626659639467 0.3001954911134940 -0.1469435057372745 
-0.03146914812425764 0.3526653078852701 -0.4329211021037540 
-0.5646588317262301 -0.3300730040939300 0.7978191605140004 
0.6730837364541469 -0.4014761716272932 -0.2965528423658972 
-0.2632763482536190 0.2186219537723452 -0.1381144256266190 
0.5280296793484521 -0.2415265024984001 -0.2248718700596412 
0.05053770418254919 -0.02997336088807144 -0.06457723781589830 
-0.05395823181632743 0.06098289926743887 -0.1293504810338273 
-0.1387465892901525 0.03384831964552260 0.1491843891458328 
0.5568022170410340 -0.06520161533914778 -0.3258999626755316 
-0.2147073502646273 0.03079470053587595 0.06899388564322200 
0.2543426658364908 0.1482972001295330 -0.3508475664036501 
-0.2366438897712784 -0.02949236649413221 0.3204148199324579 
-0.3942788796898482 -0.02405053707274930 0.1089554318168062 
0.03952970441076207 -0.02619582954919339 -0.05945245286660198 
0.1397246388981044 0.1200710521625119 -0.2960314500238639 
0.1810190773620355 0.1986047879849885 -0.6811866193231677 
-0.03263018606023226 0.03317300067328161 -0.1753617025655964 
-0.3224810684361578 0.3266626697981879 -0.1780786539924480 
0.3016122170414516 -0.07083815424500384 -0.1099401228367863 
0.3165784295875307 0.2029644620479445 -0.4615855974657813 
-0.5261850963781928 0.07785505864558713 0.1272866626995031 
-0.1682992742705731 -0.2636773428291213 0.3655006475010525 
-0.1672246926017362 0.1578213082397580 -0.05256794780746811 
0.3671622402371405 -0.4416381348101913 0.3177722113022677 
-0.1619963412331281 -0.02298312009391927 0.08253063933352069 
0.9673691868278754 -0.1157887707397248 -0.9016165597669931 
-0.3349568501867397 -0.06542529007665797 0.2256411532651572 
0.4344035616679142 -0.5548485270109840 0.1135726753423244 
0.8457113667423801 -0.09495470635822567 -0.7241017757072012 
-0.07667054961934560 0.3561386963317316 -0.2730283333478780 
0.5687616404588052 -0.03896980280785680 -0.5247505536774106 
0.2544429635094923 -0.1717462574172343 -0.1883382085510169 
0.5018272259402221 -0.07125789577442054 -0.5678133229506132 
-0.5777643642128562 0.5236388770118320 0.09105892684106418 
-0.2700737249155519 0.2594976929848239 -0.01774039979714538 
-0.5237908671292487 0.03263537422479725 0.6435508108829473 
0.8007155862485299 -0.8552994656647835 -0.3028114249573111 
-0.7399977732387439 -0.1197932513475445 0.9975012670999388 
0.5454334955133121 -0.3993993263428133 -0.2736497141575205 
-0.1218319590366628 0.1401248891498062 0.04714961595238022 
-0.02760659157139118 -0.1588486642286888 0.1380479788517169 
-0.1920164712349476 0.3862767529641312 -0.1314198441478494 
0.1883173718769257 0.04665203676987963 -0.4130445140354889 
0.2668711022130264 -0.2855666187131539 0.1543048388256044 
0.08403819913148595 -0.006617785569997550 -0.1613468039035447 
0.08403819913148595 -0.006617785569997550 -0.1613468039035447 
0.1006164461939603 -0.5588259667818004 0.4438818424789470 
-0.1465781823119354 0.1720948581200918 -0.1377798101416839 
-0.1564190653727594 0.2213902207206420 -0.02795921737185592 
-0.1564190653727594 0.2213902207206420 -0.02795921737185592 
-0.2937003580480065 0.2949223616899458 0.1415839773262296 
-0.03468188324055332 -0.3190035743024358 0.2398733799403095 
-0.1896097069709499 0.2677959415575502 -0.2472307674355424 
-0.004634895027396457 0.5475530555123383 -0.5636254767788910 
-0.1564190653727594 0.2213902207206420 -0.02795921737185592 
0.06703563121148912 -0.01478498736055260 -0.1086613734523876 
-0.01791962695663130 0.1272629480461321 -0.2492906530309518 
-0.2906228945291452 -0.003523062190596443 0.4537785319964237 
-0.08933134025446235 0.09293144133937391 -0.09273771169537460 
-0.4458830082382832 0.08154963664593776 0.3807845570965772 
0.3822079293685553 -0.4202596744221167 -0.1175959294993452 
-0.06474221704399552 0.3079533767028242 -0.2198133870837652 
-0.1401508691125864 0.3220698582322331 -0.1374156510964978 
-0.3044545127265636 -0.04914854427203047 0.2746821207675754 
-0.3638017238219160 0.5832758785357072 -0.4183753672548770 
-0.1155074669319557 -0.008683694932278895 0.07232651953297000 
-0.2541295933303233 0.2072115775922594 0.1463967219574638 
-0.04434469818548592 -0.3099387056875771 0.1452715325058216 
-0.2916901732251850 0.3756042355609431 0.02447669591909932 
-0.3692036371039641 -0.003942703685278055 0.1283664366182545 
0.08453939225738831 0.05672562874799313 -0.1643478766301114 
-0.07950448298592990 -0.03718713882550475 0.1328668647977465 
0.1527703899598851 -0.4292090929935847 0.1639133740214781 
-0.2605263971188414 0.08386471685066318 0.1735868134305901 
0.5720423145529335 -0.2252892210662757 -0.4015537227911121 
-0.06508911895651545 0.08776150962174670 -0.06443438648999927 
0.2776434281725173 -0.2306153870333030 -0.1463384783020751 
0.5784624458582048 -0.2450567165893273 -0.1465814557821488 
0.04075763949704174 -0.03446649462060712 -0.05297334071800843 
-0.05572728262635998 0.06141901171590762 -0.04348372506411376 
-0.02354817779473762 -0.5386008044664347 0.6253070136021013 
0.2097172829873260 -0.01284638075651371 -0.1941828435596426 
-0.4243760346079556 -0.01764708344208194 0.2063882169025173 
0.5191235923144435 -0.1377742237263974 -0.2077881951401760 
0.3888470198601278 -0.4923718331566416 0.1085435160788449 
0.1402420210491992 -0.1477315247802823 0.03536730447781039 
-0.004546350990851023 -0.1525785134733617 0.06801404756654394 
0.3443243442887979 0.08135129946715153 -0.4195786385968392 
0.6209831311076330 -0.3834198605056939 -0.1519812069003298 
0.2867456306766782 -0.1915359490021496 -0.3513479589520169 
0.008597623457828281 -0.1670458379561937 0.02260231164732477 
-0.2395734200196591 0.3591605782638053 -0.2327325824334206 
-0.3825632956185829 0.3018680665826350 0.1436500586254874 
0.4660690481474342 -0.2868125190454148 -0.5204095611343892 
0.8184777308826412 0.5111616368666402 -1.372057549371303 
-0.06307059222184547 0.01211267877155520 -0.1168092728068355 
0.05964744336967527 -0.1384543102687631 -0.1583452655658527 
-0.2781075781138929 0.1544597215404789 -0.1783010355135704 
0.8101811979803553 0.2789577721441128 -0.7375413384622521 
-0.5760294969910837 0.1782337364175061 0.09549446730228140 
0.5389652858792764 -0.1568301920600930 -0.5874044385616779 
0.3022096493543136 0.3856936727341747 -0.8209763182017829 
0.3143041966936668 -0.03659058896808827 -0.3409656274390041 
0.1365804454802898 0.07971128703614369 -0.1942605228853846 
-0.3551471013951386 0.3151567495218893 -0.1620215837441773 
-0.3443280648446792 0.1790776634660815 0.08554641961763543 
0.3374754565135758 -0.4031543018158545 0.1850555178855148 
-0.2488978707077887 -0.2711476460258351 0.3806957167039231 
0.1821968360446621 -0.1098985126290549 0.005285221168503146 
-0.1109347805683422 0.04683240236329404 -0.08132864989341661 
-0.2478384558843504 -0.1968027552318480 0.1644841674564270 
0.1569061750748188 0.1771634796074263 -0.1099735319279586 
0.2808806192113834 -0.2245666632856690 0.009835920188053186 
-0.6138391091468449 0.1201614568515126 0.4004868499573178 
0.09413117008859634 -0.2641165019419178 0.1470846319629198 
-0.3654641121516164 0.1278462138561512 0.1017692506480806 
0.4640833147347071 -0.01104043390744895 -0.4526814069869574 
0.4721344245318835 -0.8577979676190450 0.5666587640687643 
0.1223481713805546 0.1947463618700007 -0.09160009397386813 
-0.2979073036160709 0.07035463358785530 0.01930305946668939 
-0.0008889525492902646 -0.03106576832905077 -0.01768008567729961 
0.2888389962263421 0.1262760214491026 -0.5643704651728372 
0.3140354121986689 -0.08433651646688455 -0.4793600249283571 
0.4136441119193623 -0.2000481828277821 -0.2288771257726976 
-0.3575242229521943 0.07232508815159973 0.2182312208028768 
-0.1003936943745647 -0.03662623165846395 0.03186839932122591 
0.1418784678550143 -0.02650673912731648 -0.03360991446937282 
-0.1905761824352998 0.1684373888528695 -0.02710178524500162 
0.09885715938270373 -0.06989507433109873 0.07987774460847262 
-0.1556311115446842 0.2776903101054384 -0.07237876114687158 
0.9260761421562210 0.08263508809416150 -0.7645685057185386 
-0.3008508437507901 0.08553600793495500 0.006861802224667309 
-0.2165635968532889 0.02874288151337753 -0.1132565220838916 
0.3027475466214208 -0.2173399678315443 -0.09484487141721382 
0.05310759385084709 -0.05988930485515935 -0.01397644032819864 
0.4320503204385254 0.05886189624375204 -0.7019360753709799 
-0.4210559825899586 -0.007435162145690458 0.3186531664307473 
-0.2327391712053923 0.1207318175896917 -0.05401826824954021 
0.5535481008251469 0.008175089521415480 -0.5037470011946983 
-0.3115221750308686 0.02833911564615520 0.1317407711352151 
-0.2824841552576070 0.03294387194859646 0.1581545931335816 
1.402008966460648 -0.1675401541537210 -1.553396926292971 
0.2511737096719792 -0.03869179378787089 -0.3687609458864795 
-0.07669088189949315 0.1550023884931314 -0.04835388008417031 
-0.1696028707895523 -0.07905845352454424 0.3259094978102706 
-0.2029841891193089 -0.1365020864151452 0.3303364163384077 
-0.02374025300313716 0.08873761041640263 -0.2107597122945533 
0.3547243003775885 -0.1930405781292906 -0.3007720971480337 
0.2655784485475241 0.2250986843300691 -0.3210358741338640 
0.3072529978946777 -0.3709684644074569 -0.1488976716920908 
-0.2717074415867352 0.2174198617620892 -0.008040122941862592 
-0.1028349517554847 0.1140122936341028 -0.1092968340429628 
-0.06932704591710923 0.003367727266969388 0.03693923764275046 
0.2595443642773215 -0.2060879378067358 -0.1557192982348299 
-0.01200769258759611 0.02767087690394573 -0.05121988708708364 
0.006628900686535974 -0.08882969138342839 0.1632404884924901 
-0.01609158736729601 -0.5499813323698539 0.4979582156803491 
0.04809280498724627 -0.3298206594491145 0.3141401581653583 
-0.1283594679240671 0.08481553955934788 -0.01389199309672172 
-0.1973036501163486 -0.1392891007019803 0.3827080448858072 
-0.05247069578860412 0.05187761280122576 -0.05236194883246002 
0.09826948245533282 0.02173757010267168 -0.06074354886088815 
-0.03566419797423696 -0.1065538784240876 0.08962869979515163 
0.8235444884668945 -0.2003027398172682 -0.2304636940826709 
-0.08069705304078015 0.2016557968230519 -0.07940487261664979 
-0.1796435213428340 0.4037135861534196 -0.3640882703101941 
-0.07748226649618402 -0.5608430034390722 0.7236044692409817 
-0.02086891291841270 0.05806841923519733 -0.03607323192813587 
-0.03055461988195633 -0.3577070332064155 0.4769260601716794 
-0.4813190404731907 0.08917871673795837 0.4886754473215987 
0.3650794499179044 0.1630121405890649 -0.5344413924138480 
-0.1877856081483863 0.02211765736776768 -0.005915417598767737 
-0.02812312469930659 0.05284937170429097 -0.03865764752369537 
-0.05392029301474358 -0.2865821623090528 0.3265036201983281 
0.1564540157060933 0.1370853613135383 -0.2833496773959733 
-0.03305686120117674 0.06065418646433435 -0.03272729363858181 
-0.09728209150693913 0.1320638158757974 -0.02310365648313129 
-0.01808518814813828 0.02086752975885318 -0.008189995950365910 
0.1933094531807315 0.2072283820712733 -0.4320537970632186 
-0.09920289518188612 0.07772150016901377 0.1600883354345780 
-0.2136440775649642 -0.01839316529903053 0.1943390514945147 
-0.04808799766362953 0.02458922223774514 -0.005134458890948991 
-0.04808799766362953 0.02458922223774514 -0.005134458890948991 
-0.1338961280252012 -0.3187301247306396 0.4790790894236657 
-0.05920978458261293 -0.5291155468199880 0.6283589551434671 
-0.1105662816553226 0.1344656454365525 -0.04849786690985711 
-0.09771788063723251 0.02674169274005769 -0.04233592467205695 
-0.1386515664103604 0.2752740350301775 -0.2599044186968794 
-0.07741949628471069 0.5053880547257146 -0.3823564597983480 
-0.4000813007499813 0.07320322824649461 0.5630128583296847 
0.1611879785637346 -0.06540126242937687 -0.1444517173357709 
0.09986895181359295 0.1319555143876521 -0.1730896798021842 
-0.08506783030239234 -0.03538280000779617 0.1614737312808741 
0.3253406040254738 0.01255402672416678 -0.2211436917788600 
-0.1114158331331467 0.07093104454916313 -0.03597671892819408 
-0.2750219322391600 0.6493782041108441 -0.2001816338483098 
-0.1083934302233938 0.1987662338363082 -0.3079880025343285 
0.6354788252113825 0.1452492416088902 -0.9177549407732825 
-0.1358191225988838 0.003362750883147745 0.05062626498112892 
0.2757104970789694 0.1418785093360340 -0.3942475483067202 
0.2560857192119380 0.03348979967060536 -0.3079647613428917 
-0.01354604833174078 0.2634752836225918 -0.2806474273659921 
0.4203752178542927 0.06992991858763359 -0.4713546078123570 
-0.1012852465047985 0.04385270654459271 -0.03053232154976460 
0.2527994249959457 0.5895658204983774 -0.3942545576401594 
-0.3376678236057233 0.1938078734897470 -0.09668794260823622 
-0.03868937276442952 -0.1309237831636350 0.2605972438792694 
0 0 0 
0 0 0 
0 0 0 
0 0 0 
0 0 0 
0 0 0 
0 0 0 
0 0 0 
0 0 0 
0 0 0 
0 0 0 
-1.593465813152943 1.192705445249007 0.6193130666866941 
0 0 0 
0 0 0 
0 0 0 
0 0 0 
0 0 0 
0 0 0 
0 0 0 
0 0 0 
0 0 0 
0 0 0 
0 0 0 
-0.09224471748154618 -0.1427122170086191 0.2211848669222207 
0 0 0 
0 0 0 
0 0 0 
0 0 0 
0 0 0 
0 0 0 
0 0 0 
0 0 0 
0 0 0 
0 0 0 
0 0 0 
0 0 0 
0 0 0 
-0.004420621937055051 -0.2529876536092152 0.2772221376275857 
0 0 0 
0 0 0 
0 0 0 
0 0 0 
0 0 0 
0 0 0 
0 0 0 
0 0 0 
0 0 0 
-0.09554577449582191 -0.1246881359435659 0.2629261088614304 
0 0 0 
0 0 0 
0 0 0 
0 0 0 
0 0 0 
0 0 0 
0 0 0 
0 0 0 
0 0 0 
0 0 0 
0 0 0 
0 0 0 
0 0 0 
0 0 0 
0 0 0 
-0.5690847673618897 0.7434292888152525 -0.4514516686111370 
0 0 0 
0 0 0 
0 0 0 
0 0 0 
0 0 0 
0 0 0 
0 0 0 
0 0 0 
0 0 0 
0 0 0 
0 0 0 
0 0 0 
-0.3764575053707658 -0.006414568097382527 0.1956164516254106 
0 0 0 
0 0 0 
0 0 0 
0 0 0 
0 0 0 
0 0 0 
0 0 0 
0 0 0 
0 0 0 
0 0 0 
0 0 0 
0 0 0 
0 0 0 
0 0 0 
0 0 0 
-1.875277984695165 1.904669808908027 -1.083613786332852 
0 0 0 
0 0 0 
-0.01137029917869215 -0.2063356129135639 0.1784039330302692 
0 0 0 
0 0 0 
1.119171924757592 -0.4487448280086716 -0.5288907631890922 
0 0 0 
0 0 0 
0 0 0 
0 0 0 
0 0 0 
0 0 0 
0 0 0 
0 0 0 
0 0 0 
0 0 0 
0 0 0 
0 0 0 
0 0 0 
0 0 0 
0 0 0 
0 0 0 
0 0 0 
0 0 0 
0 0 0 
-0.02852008168097189 -1.117327779249444 1.423875912993215 
-0.1252468856993827 -0.2216388076226672 0.2633940242097991 
0 0 0 
0 0 0 
0 0 0 
0 0 0 
0 0 0 
0 0 0 
0 0 0 
0 0 0 
0 0 0 
0 0 0 
-0.04338038848399493 -0.1601298148441885 0.3596216279441674 
-6.931064247525404e-05 -0.1671603162714400 0.06360173476319622 
0 0 0 
0 0 0 
0 0 0 
0 0 0 
0 0 0 
0 0 0 
0 0 0 
0 0 0 
0 0 0 
0 0 0 
0 0 0 
0 0 0 
0 0 0 
0 0 0 
0 0 0 
-0.7580116391189948 1.342996706587100 -1.055021714237911 
0 0 0 
0 0 0 
0 0 0 
-0.03069960068618075 0.2324885220929696 -0.06352032115335920 
0 0 0 
0 0 0 
0 0 0 
0 0 0 
0 0 0 
0 0 0 
0 0 0 
-0.8060103481510048 0.8183363391958355 -0.07947447515434969 
0 0 0 
0 0 0 
0 0 0 
0 0 0 
0 0 0 
0 0 0 
0 0 0 
-0.7498202910867477 -0.7809501944596847 1.641029527718488 
0 0 0 
0 0 0 
0.2275146720466365 -0.7340245791550810 0.5380296375934803 
0 0 0 
0 0 0 
0 0 0 
0 0 0 
0 0 0 
0 0 0 
0 0 0 
0 0 0 
0 0 0 
0 0 0 
0.3124433920968073 -0.5161473413935452 -0.03561433786812154 
0 0 0 
0 0 0 
0 0 0 
0 0 0 
-0.2223730489708538 -0.2099371168687018 0.5487532428895706 
0 0 0 
0 0 0 
0 0 0 
0 0 0 
0 0 0 
0 0 0 
0 0 0 
0 0 0 
0 0 0 
0 0 0 
0 0 0 
0 0 0 
0.3124433920968073 -0.5161473413935452 -0.03561433786812154 
0 0 0 
0 0 0 
0 0 0 
0 0 0 
0 0 0 
0 0 0 
0 0 0 
0 0 0 
0 0 0 
0 0 0 
0 0 0 
0 0 0 
0 0 0 
0 0 0 
0 0 0 
0 0 0 
0 0 0 
-0.1826655509395535 -0.04567821554941179 0.2552146956395947 
0 0 0 
0 0 0 
0 0 0 
0 0 0 
0 0 0 
0 0 0 
-0.1826655509395535 -0.04567821554941179 0.2552146956395947 
0 0 0 
0 0 0 
0 0 0 
0 0 0 
-0.1012912083870475 -0.3538216627740226 0.5019373338419971 
0 0 0 
0 0 0 
0 0 0 
-0.02782359936552974 -0.3627598388098681 0.2314390512514612 
0 0 0 
0 0 0 
0 0 0 
0 0 0 
0 0 0 
0 0 0 
0 0 0 
-0.3372062572773326 -0.8951000805019964 0.8968608097650607 
0 0 0 
0 0 0 
0 0 0 
0 0 0 
0 0 0 
0 0 0 
0 0 0 
0 0 0 
0 0 0 
0 0 0 
0 0 0 
0 0 0 
0 0 0 
0 0 0 
0 0 0 
0 0 0 
0 0 0 
0 0 0 
0 0 0 
0 0 0 
-0.01916910019604276 -0.02556869491942048 0.06778193826149463 
0 0 0 
0 0 0 
0 0 0 
0 0 0 
0 0 0 
-0.03069960068618075 0.2324885220929696 -0.06352032115335920 
0 0 0 
0 0 0 
0 0 0 
0 0 0 
0 0 0 
0 0 0 
0 0 0 
0 0 0 
0 0 0 
0 0 0 
0 0 0 
0 0 0 
0 0 0 
0 0 0 
0 0 0 
0 0 0 
-1.225883279436300 1.781505926690858 -1.332792271370080 
0 0 0 
0 0 0 
0 0 0 
-0.01916910019604276 -0.02556869491942048 0.06778193826149463 
0 0 0 
-0.1040341616335889 -0.02386376388944332 0.1153399690775139 
-0.01279917917793657 -0.5227652241453685 0.3861815340765740 
0 0 0 
0 0 0 
-0.007396911506856694 -0.004371150951470408 0.003962342974846600 
0 0 0 
0 0 0 
0 0 0 
0 0 0 
0 0 0 
0 0 0 
0 0 0 
0 0 0 
0 0 0 
0 0 0 
0 0 0 
0 0 0 
0 0 0 
-0.02026082701913652 -0.8587785467524345 0.9262744869604141 
0 0 0 
0 0 0 
0 0 0 
0 0 0 
0 0 0 
-0.05339744381128529 -0.3805952525458641 0.5660839640909776 
0 0 0 
0 0 0 
0 0 0 
-0.02782359936552974 -0.3627598388098681 0.2314390512514612 
0 0 0 
-0.05638309418913415 0.3141766932815910 -0.1057028704806399 
0 0 0 
0 0 0 
-0.09409273060338827 -0.08303208025973037 0.1673542156675743 
0 0 0 
0 0 0 
0 0 0 
0 0 0 
0 0 0 
-0.4877231271644016 -0.3192274601869047 0.6823275511610322 
0 0 0 
0 0 0 
0 0 0 
0 0 0 
0 0 0 
0 0 0 
0 0 0 
0 0 0 
0 0 0 
0 0 0 
-0.05605139844421233 -0.2063759783204957 0.2178639493758761 
0 0 0 
0 0 0 
0 0 0 
0 0 0 
0 0 0 
0 0 0 
0 0 0 
0 0 0 
0 0 0 
0 0 0 
0 0 0 
0 0 0 
0 0 0 
0 0 0 
0 0 0 
0 0 0 
0 0 0 
0 0 0 
0 0 0 
0 0 0 
0 0 0 
0 0 0 
0 0 0 
0 0 0 
-1.542582956398089 2.091518082393652 -1.473954810119282 
0 0 0 
0 0 0 
0 0 0 
0 0 0 
0 0 0 
0 0 0 
-0.1090792900723803 -0.1327384000349467 0.4063283160396863 
0 0 0 
0 0 0 
0 0 0 
0 0 0 
-0.06679839523413417 -0.1641691014112220 0.1601817338462994 
0 0 0 
0 0 0 
0 0 0 
0 0 0 
0 0 0 
0 0 0 
0 0 0 
0 0 0 
0 0 0 
0 0 0 
0 0 0 
0 0 0 
-1.204415835560234 -0.9632803163924634 1.051635612928775 
0 0 0 
0 0 0 
0 0 0 
0 0 0 
0 0 0 
0 0 0 
0 0 0 
2.476325306315314 -2.081455972587329 -0.3676595903627947 
0 0 0 
0 0 0 
0 0 0 
0 0 0 
0 0 0 
0 0 0 
0 0 0 
1.378543889856406 -1.965004679074062 0.5014976551113117 
0 0 0 
0 0 0 
0 0 0 
0 0 0 
0 0 0 
0 0 0 
0 0 0 
0 0 0 
0 0 0 
0 0 0 
0 0 0 
0 0 0 
0 0 0 
0 0 0 
0 0 0 
0 0 0 
0 0 0 
0 0 0 
-0.3674779997473128 1.100901829781251 -1.247457794060274 
0 0 0 
0 0 0 
-1.305411647002402 1.175357413812688 -0.7675011180410416 
0 0 0 
0 0 0 
0 0 0 
0 0 0 
0 0 0 
0 0 0 
0 0 0 
0 0 0 
0 0 0 
0 0 0 
0 0 0 
0 0 0 
0 0 0 
0 0 0 
0 0 0 
0 0 0 
0 0 0 
0 0 0 
0 0 0 
0 0 0 
0 0 0 
0 0 0 
-0.3938347841750789 1.162798824570108 -0.7634327569927744 
0 0 0 
0 0 0 
0 0 0 
0 0 0 
0 0 0 
0 0 0 
0 0 0 
0 0 0 
0 0 0 
-0.7318502128925441 1.422261001246627 -1.219780066213021 
0.2275146720466365 -0.7340245791550810 0.5380296375934803 
-0.3216787464802376 -1.792781555404967 2.191391721383548 
0 0 0 
0 0 0 
0 0 0 
0 0 0 
0 0 0 
0 0 0 
0 0 0 
0 0 0 
-0.001984293193115171 -0.006716504610694558 0.003509362644442651 
0 0 0 
0 0 0 
0 0 0 
0 0 0 
0 0 0 
0 0 0 
0 0 0 
0 0 0 
0 0 0 
0 0 0 
-0.09554577449582191 -0.1246881359435659 0.2629261088614304 
0 0 0 
0 0 0 
0 0 0 
0 0 0 
-0.4877231271644016 -0.3192274601869047 0.6823275511610322 
0 0 0 
-0.04597615126367670 -0.1905799492307117 0.2842336716832243 
0 0 0 
0 0 0 
0 0 0 
0 0 0 
0.5454334955133121 -0.3993993263428133 -0.2736497141575205 
-0.008259254661835368 -0.2585492324970098 0.4976014260328012 
0 0 0 
0 0 0 
0 0 0 
0 0 0 
0 0 0 
0 0 0 
0 0 0 
-0.0009258631363743572 -0.06918866637034815 0.04135440749470130 
0 0 0 
0 0 0 
-1.199756316011647 0.7419363430038259 -0.5796894279163819 
0 0 0 
0 0 0 
0 0 0 
0 0 0 
0 0 0 
0 0 0 
0 0 0 
0 0 0 
0 0 0 
0 0 0 
0 0 0 
0 0 0 
0 0 0 
0 0 0 
0 0 0 
-1.228003982908614 -1.182720912239132 1.880460254064923 
0 0 0 
0 0 0 
0 0 0 
0 0 0 
-0.2813538531584998 0.5399318245014086 -0.2070099533517556 
0 0 0 
0 0 0 
0 0 0 
0 0 0 
0 0 0 
-0.7975176226513799 1.449216064727941 -0.9146391486298229 
0 0 0 
0 0 0 
0 0 0 
0 0 0 
0 0 0 
0 0 0 
-0.01057241115806722 -0.01661185792318830 0.01577709719465893 
0 0 0 
0 0 0 
0 0 0 
0 0 0 
0 0 0 
0 0 0 
0 0 0 
0 0 0 
0.5454334955133121 -0.3993993263428133 -0.2736497141575205 
0 0 0 
0 0 0 
0 0 0 
0 0 0 
0 0 0 
0 0 0 
0 0 0 
0 0 0 
0 0 0 
0 0 0 
0 0 0 
-0.08445868935649949 -0.1479043456570681 0.4324974177255294 
-0.01706030148875992 -0.01519397007861176 0.02953075524841364 
-0.1574316054448741 -0.4044590164353075 0.6814239331684915 
0 0 0 
0 0 0 
0 0 0 
0 0 0 
0 0 0 
0 0 0 
0 0 0 
0 0 0 
0 0 0 
0 0 0 
0 0 0 
-0.01137029917869215 -0.2063356129135639 0.1784039330302692 
0 0 0 
0 0 0 
0 0 0 
0 0 0 
0 0 0 
-0.2037018449532280 -0.07975064194040654 0.2913211519667474 
0 0 0 
0 0 0 
0 0 0 
0 0 0 
0 0 0 
0 0 0 
0 0 0 
0 0 0 
0 0 0 
0 0 0 
-0.007956841976661250 -0.1464531196185728 0.1059943362713211 
0 0 0 
0 0 0 
0 0 0 
0 0 0 
-0.3329396045959109 0.4150455722408240 -0.3156726760528116 
0 0 0 
0 0 0 
-1.229088289620020 1.545801474568864 -0.3518182367277810 
0 0 0 
0 0 0 
0 0 0 
-0.1020756092292468 -0.1720090005770102 0.3180772282942236 
-0.01321512085416532 -0.7799589835809161 0.6604644047235620 
0 0 0 
0 0 0 
0 0 0 
0 0 0 
0 0 0 
0 0 0 
0 0 0 
0 0 0 
0 0 0 
0 0 0 
0 0 0 
0 0 0 
0 0 0 
2.253446809913553 -1.582583816160782 -0.1830898653491558 
0 0 0 
-0.003615299566365112 -0.004741141643614089 0.01336593939089718 
0 0 0 
0 0 0 
0 0 0 
0 0 0 
0 0 0 
0 0 0 
0 0 0 
0 0 0 
0 0 0 
0 0 0 
0 0 0 
0 0 0 
0 0 0 
0 0 0 
0 0 0 
0 0 0 
0 0 0 
0 0 0 
0 0 0 
0 0 0 
0 0 0 
0 0 0 
-0.4173492286178238 0.6498165929451615 -0.3479494772247901 
0 0 0 
0 0 0 
0 0 0 
0 0 0 
0 0 0 
0 0 0 
0 0 0 
-0.1280354497813755 -0.2173058995579644 0.3952004359436778 
-0.1985185359315838 -0.4535865290568708 0.8547720781260327 
0.2275146720466365 -0.7340245791550810 0.5380296375934803 
0 0 0 
0 0 0 
0 0 0 
0 0 0 
0 0 0 
0 0 0 
0 0 0 
0 0 0 
0 0 0 
1.375077584694675 -3.322001939939334 1.939738576869989 
0 0 0 
0 0 0 
0 0 0 
0 0 0 
0 0 0 
0 0 0 
0.2955367273489796 -0.09566400449790297 -0.03953271623162465 
0 0 0 
0 0 0 
-0.2387558888068216 -0.3030682521692166 0.4877349656583603 
0 0 0 
0 0 0 
0 0 0 
0 0 0 
-0.8107327435055453 0.6692570811470245 -0.2541747439062608 
0 0 0 
0 0 0 
0 0 0 
0 0 0 
0 0 0 
0 0 0 
0 0 0 
0 0 0 
0 0 0 
0 0 0 
0 0 0 
0 0 0 
0 0 0 
0 0 0 
0 0 0 
0 0 0 
0 0 0 
0 0 0 
0 0 0 
0 0 0 
0 0 0 
0 0 0 
0 0 0 
0 0 0 
0 0 0 
0 0 0 
-0.01588494365755085 -0.1977489153093896 0.1286318754301183 
0 0 0 
0 0 0 
0 0 0 
0 0 0 
0 0 0 
0 0 0 
0 0 0 
0 0 0 
0 0 0 
0 0 0 
0 0 0 
0 0 0 
0 0 0 
0.2078460500957997 -0.7690129760858909 0.4909349073448356 
-1.553115943063759 -0.5256000317318457 1.836888292099145 
0 0 0 
0 0 0 
0 0 0 
0 0 0 
0 0 0 
0 0 0 
0 0 0 
-0.06662380960227955 -0.2229878362436840 0.2336410465705350 
-0.5779322246085548 -1.481527733141560 2.091671266449438 
0 0 0 
0 0 0 
-0.03035426509815854 0.1065764166416883 -0.04967076504509551 
-0.1642635444195512 -0.2572328552158414 0.2989304785421957 
0 0 0 
0 0 0 
0 0 0 
0 0 0 
0 0 0 
0 0 0 
-0.0004159416762287490 -0.2571937594355476 0.2742828706469881 
0 0 0 
-1.627090393482640 -0.6174241415922797 1.423890603342504 
0 0 0 
0 0 0 
0 0 0 
0 0 0 
0 0 0 
0 0 0 
0 0 0 
0 0 0 
0 0 0 
0 0 0 
0 0 0 
-0.1826655509395535 -0.04567821554941179 0.2552146956395947 
0 0 0 
0 0 0 
0 0 0 
0 0 0 
0 0 0 
0 0 0 
-0.0009258631363743572 -0.06918866637034815 0.04135440749470130 
0 0 0 
0 0 0 
0 0 0 
0 0 0 
0 0 0 
0 0 0 
0 0 0 
0 0 0 
0 0 0 
0 0 0 
-0.09903006653551064 -0.07732010031244382 0.2833695454368416 
0 0 0 
0 0 0 
0 0 0 
0 0 0 
0 0 0 
0 0 0 
0 0 0 
0 0 0 
0 0 0 
0 0 0 
0 0 0 
-1.991085372141789 1.506283008020142 -0.1746706222515480 
0 0 0 
0 0 0 
0 0 0 
0 0 0 
0 0 0 
0 0 0 
0 0 0 
0 0 0 
0 0 0 
0 0 0 
0 0 0 
0 0 0 
0 0 0 
0 0 0 
0 0 0 
0 0 0 
0 0 0 
0 0 0 
0 0 0 
0 0 0 
0 0 0 
0 0 0 
0 0 0 
0 0 0 
0 0 0 
0 0 0 
0 0 0 
0 0 0 
0 0 0 
0 0 0 
0 0 0 
0 0 0 
0 0 0 
0 0 0 
0 0 0 
0 0 0 
0 0 0 
0 0 0 
0 0 0 
0 0 0 
0 0 0 
0 0 0 
0 0 0 
0 0 0 
0 0 0 
0 0 0 
0 0 0 
0 0 0 
0 0 0 
0 0 0 
0 0 0 
0 0 0 
0 0 0 
0 0 0 
0 0 0 
0 0 0 
0 0 0 
0 0 0 
0 0 0 
0 0 0 
0 0 0 
0 0 0 
0 0 0 
0 0 0 
0.4501334286819526 -0.4323593185327795 0.0003910226757060178 
0 0 0 
0 0 0 
0 0 0 
0 0 0 
0 0 0 
0 0 0 
0 0 0 
0 0 0 
0 0 0 
0 0 0 
0 0 0 
0 0 0 
0 0 0 
0 0 0 
0 0 0 
0 0 0 
0 0 0 
0 0 0 
0 0 0 
0 0 0 
0 0 0 
0 0 0 
0 0 0 
0 0 0 
0 0 0 
0 0 0 
0 0 0 
0 0 0 
0 0 0 
0 0 0 
0 0 0 
0 0 0 
-0.07969756532764391 -0.06567202919117394 0.1108243827291903 
0 0 0 
0 0 0 
0 0 0 
0 0 0 
0 0 0 
0 0 0 
0 0 0 
0 0 0 
-0.2030808767511101 -0.04078527932034400 0.1689073351398234 
0 0 0 
0 0 0 
0 0 0 
0 0 0 
0 0 0 
0 0 0 
0 0 0 
0 0 0 
0 0 0 
0 0 0 
0 0 0 
-0.1907402288429046 -0.4272282506689996 0.5146669941292349 
0 0 0 
0 0 0 
0 0 0 
0 0 0 
0 0 0 
0 0 0 
0 0 0 
0 0 0 
0 0 0 
0 0 0 
0 0 0 
0 0 0 
0 0 0 
0 0 0 
0 0 0 
0 0 0 
0 0 0 
0 0 0 
0 0 0 
0 0 0 
0 0 0 
0 0 0 
0 0 0 
0 0 0 
-0.07969756532764391 -0.06567202919117394 0.1108243827291903 
0 0 0 
0 0 0 
0 0 0 
-0.2497692175364401 0.5217398524634371 -0.1984255948730964 
0 0 0 
0 0 0 
0 0 0 
0 0 0 
0 0 0 
0 0 0 
0 0 0 
0 0 0 
0 0 0 
0 0 0 
0 0 0 
0 0 0 
0 0 0 
0 0 0 
0 0 0 
0 0 0 
0 0 0 
0 0 0 
0 0 0 
0 0 0 
0 0 0 
0 0 0 
0 0 0 
0 0 0 
0 0 0 
0 0 0 
0 0 0 
0 0 0 
0 0 0 
0 0 0 
0 0 0 
0 0 0 
0 0 0 
0 0 0 
0 0 0 
0 0 0 
0 0 0 
0 0 0 
0 0 0 
0 0 0 
0 0 0 
0 0 0 
0 0 0 
0 0 0 
0 0 0 
0 0 0 
0 0 0 
0 0 0 
0 0 0 
0 0 0 
0 0 0 
0 0 0 
0 0 0 
0 0 0 
0 0 0 
0 0 0 
0 0 0 
0 0 0 
0 0 0 
0 0 0 
0 0 0 
0 0 0 
0 0 0 
0 0 0 
0 0 0 
0 0 0 
0 0 0 
0 0 0 
0 0 0 
-0.002755718284868047 0.004775015098847932 -0.01796842204019144 
0 0 0 
0 0 0 
0 0 0 
0.1642379290218663 0.3881672286576591 -0.4506647268860195 
0 0 0 
0 0 0 
0 0 0 
0 0 0 
0 0 0 
0 0 0 
0 0 0 
0 0 0 
0 0 0 
0 0 0 
0 0 0 
0 0 0 
0 0 0 
0 0 0 
0 0 0 
0 0 0 
0 0 0 
0 0 0 
0 0 0 
0 0 0 
0 0 0 
0 0 0 
0 0 0 
0 0 0 
0 0 0 
0 0 0 
0 0 0 
0 0 0 
0 0 0 
0 0 0 
0 0 0 
0 0 0 
0 0 0 
0 0 0 
0 0 0 
0 0 0 
0 0 0 
0 0 0 
0 0 0 
0 0 0 
0 0 0 
0 0 0 
0 0 0 
0 0 0 
0 0 0 
0 0 0 
0 0 0 
0 0 0 
0 0 0 
0 0 0 
0 0 0 
0 0 0 
0 0 0 
0 0 0 
0 0 0 
0 0 0 
0 0 0 
0 0 0 
-0.2591922899215529 0.3254434841274824 -0.2452353357613369 
0 0 0 
0 0 0 
0 0 0 
0 0 0 
0 0 0 
0 0 0 
0 0 0 
0 0 0 
0 0 0 
0 0 0 
0 0 0 
0 0 0 
0 0 0 
0 0 0 
0 0 0 
0 0 0 
-0.1871160825939796 -0.02891078055228196 0.1416432453329401 
0 0 0 
0 0 0 
0 0 0 
0 0 0 
0 0 0 
0 0 0 
0 0 0 
0 0 0 
0 0 0 
0.1642379290218663 0.3881672286576591 -0.4506647268860195 
0 0 0 
0 0 0 
0 0 0 
0 0 0 
0 0 0 
0 0 0 
0 0 0 
0 0 0 
0 0 0 
0 0 0 
0.2546851278555344 -0.5725897380971612 0.3752127617029479 
0 0 0 
0 0 0 
0 0 0 
0 0 0 
0 0 0 
0 0 0 
0 0 0 
0 0 0 
0 0 0 
0 0 0 
0 0 0 
0 0 0 
0 0 0 
0 0 0 
0 0 0 
0 0 0 
0 0 0 
0 0 0 
0 0 0 
0 0 0 
0 0 0 
0 0 0 
0 0 0 
0 0 0 
0 0 0 
0 0 0 
0 0 0 
0 0 0 
0 0 0 
0 0 0 
0 0 0 
0 0 0 
0 0 0 
0 0 0 
0 0 0 
-0.2778999560066970 -0.7363848828535959 0.7041691878340056 
0 0 0 
0 0 0 
0 0 0 
0 0 0 
0 0 0 
0 0 0 
0 0 0 
0 0 0 
0 0 0 
0 0 0 
0 0 0 
0 0 0 
0 0 0 
0 0 0 
0 0 0 
0 0 0 
0 0 0 
0 0 0 
0 0 0 
0 0 0 
0 0 0 
0 0 0 
0 0 0 
0 0 0 
-1.204415835560234 -0.9632803163924634 1.051635612928775 
0 0 0 
0 0 0 
0 0 0 
0 0 0 
0 0 0 
0 0 0 
0 0 0 
0 0 0 
0 0 0 
0 0 0 
0 0 0 
0 0 0 
0 0 0 
0 0 0 
0 0 0 
0.1069686340200044 1.157711225140481 -1.132658082060885 
0 0 0 
0 0 0 
0 0 0 
0 0 0 
0 0 0 
0 0 0 
0 0 0 
0 0 0 
0 0 0 
0 0 0 
0 0 0 
0 0 0 
0 0 0 
0 0 0 
0 0 0 
0 0 0 
0 0 0 
0 0 0 
-0.2497692175364401 0.5217398524634371 -0.1984255948730964 
0 0 0 
0 0 0 
0 0 0 
0 0 0 
0 0 0 
0 0 0 
0 0 0 
0 0 0 
0 0 0 
0 0 0 
0 0 0 
0 0 0 
0 0 0 
0 0 0 
0 0 0 
0 0 0 
0 0 0 
0 0 0 
0 0 0 
0 0 0 
0 0 0 
0 0 0 
0 0 0 
0 0 0 
0 0 0 
0 0 0 
0 0 0 
0 0 0 
0 0 0 
0 0 0 
0 0 0 
0 0 0 
0 0 0 
0 0 0 
0 0 0 
0 0 0 
0 0 0 
-0.002755718284868047 0.004775015098847932 -0.01796842204019144 
0 0 0 
0 0 0 
0 0 0 
0 0 0 
0 0 0 
0 0 0 
0 0 0 
0 0 0 
-0.002755718284868047 0.004775015098847932 -0.01796842204019144 
0 0 0 
0 0 0 
0 0 0 
0 0 0 
0 0 0 
0 0 0 
0 0 0 
0 0 0 
0 0 0 
0 0 0 
0 0 0 
0 0 0 
0 0 0 
0 0 0 
0 0 0 
0.2546851278555344 -0.5725897380971612 0.3752127617029479 
0 0 0 
0 0 0 
0 0 0 
0 0 0 
0 0 0 
0 0 0 
0 0 0 
-0.01596479415713054 -0.01187449876806203 0.02726408980688326 
0 0 0 
0 0 0 
0 0 0 
0 0 0 
0 0 0 
0 0 0 
0 0 0 
0 0 0 
0 0 0 
0 0 0 
-1.065095811597595 -1.092579220855792 1.122520722785743 
0 0 0 
0 0 0 
0 0 0 
0 0 0 
0 0 0 
0 0 0 
0 0 0 
0 0 0 
0 0 0 
0 0 0 
0 0 0 
0 0 0 
0 0 0 
0 0 0 
0 0 0 
-0.1370017167355157 0.1274549813924711 -0.06226398478144737 
0 0 0 
0 0 0 
0 0 0 
0 0 0 
0 0 0 
0 0 0 
0 0 0 
0 0 0 
0 0 0 
0 0 0 
-0.006175606069846041 -1.061495072861961 0.9433421695105796 
0 0 0 
0 0 0 
0 0 0 
0 0 0 
0 0 0 
0 0 0 
0 0 0 
0 0 0 
0 0 0 
0 0 0 
0 0 0 
0 0 0 
0 0 0 
0 0 0 
0 0 0 
0 0 0 
0 0 0 
0 0 0 
0 0 0 
0 0 0 
0 0 0 
0 0 0 
0 0 0 
0 0 0 
0 0 0 
0 0 0 
0 0 0 
-0.6618348266747194 -0.005480421326463944 0.4041013120960711 
0 0 0 
0 0 0 
0 0 0 
0 0 0 
0 0 0 
0 0 0 
0 0 0 
0 0 0 
0 0 0 
0 0 0 
0 0 0 
0 0 0 
0 0 0 
0 0 0 
0 0 0 
0 0 0 
0 0 0 
0 0 0 
0 0 0 
0 0 0 
0 0 0 
0 0 0 
0 0 0 
0 0 0 
0 0 0 
0 0 0 
0 0 0 
0 0 0 
0 0 0 
0 0 0 
0 0 0 
0 0 0 
0 0 0 
0 0 0 
0 0 0 
0 0 0 
0 0 0 
0 0 0 
-0.5631156244650459 -0.7137543259849659 0.9435844836925817 
0 0 0 
0 0 0 
0 0 0 
0 0 0 
-0.2717243499368510 0.3251101900083654 -0.2391729816765740 
0 0 0 
0 0 0 
0 0 0 
0 0 0 
0 0 0 
0 0 0 
0 0 0 
0 0 0 
0 0 0 
0 0 0 
0 0 0 
0 0 0 
0 0 0 
0 0 0 
0 0 0 
0 0 0 
0 0 0 
0 0 0 
0 0 0 
0 0 0 
0 0 0 
0 0 0 
0 0 0 
0 0 0 
0 0 0 
0 0 0 
0 0 0 
0 0 0 
0 0 0 
0 0 0 
0 0 0 
0 0 0 
0 0 0 
0 0 0 
0 0 0 
0 0 0 
0 0 0 
0 0 0 
-0.02142500107178709 -0.3668336975635251 0.4468046991010057 
0 0 0 
0 0 0 
0 0 0 
0 0 0 
0 0 0 
0 0 0 
0 0 0 
0 0 0 
0 0 0 
0 0 0 
0 0 0 
0 0 0 
0 0 0 
0 0 0 
0 0 0 
0 0 0 
0 0 0 
0 0 0 
0 0 0 
0.01269743590529732 0.7111087432606242 -1.071828706306457 
0 0 0 
0 0 0 
0 0 0 
0 0 0 
0 0 0 
0 0 0 
0 0 0 
0 0 0 
0 0 0 
-0.0004374110577202298 0.002931092027990145 -0.009347296964677846 
0 0 0 
0 0 0 
0 0 0 
0 0 0 
-0.2778999560066970 -0.7363848828535959 0.7041691878340056 
0 0 0 
0 0 0 
0 0 0 
0 0 0 
0 0 0 
0 0 0 
0 0 0 
0 0 0 
0 0 0 
0 0 0 
0 0 0 
0 0 0 
0 0 0 
0 0 0 
0 0 0 
0 0 0 
0 0 0 
0 0 0 
0 0 0 
0 0 0 
0 0 0 
0 0 0 
0 0 0 
0 0 0 
0 0 0 
0 0 0 
-0.0004374110577202298 0.002931092027990145 -0.009347296964677846 
0 0 0 
0 0 0 
0 0 0 
0 0 0 
0 0 0 
0 0 0 
0 0 0 
0 0 0 
0 0 0 
0 0 0 
0 0 0 
0 0 0 
0 0 0 
0.4116416707165697 -0.7945368324469029 0.1397959101702851 
-1.808686634869855 -1.769850907898956 2.515899746901943 
0 0 0 
0 0 0 
0 0 0 
0 0 0 
0 0 0 
0 0 0 
0 0 0 
0 0 0 
0 0 0 
0 0 0 
0 0 0 
0 0 0 
-0.1365643056777955 0.1245238893644810 -0.05291668781676953 
0 0 0 
0 0 0 
0 0 0 
0 0 0 
0 0 0 
0 0 0 
-0.01253206001529813 -0.0003332941191170151 0.006062354084762914 
0 0 0 
-0.002755718284868047 0.004775015098847932 -0.01796842204019144 
0 0 0 
0 0 0 
0 0 0 
0 0 0 
0 0 0 
0 0 0 
0 0 0 
0 0 0 
0 0 0 
0 0 0 
0 0 0 
0 0 0 
0 0 0 
0 0 0 
0 0 0 
0 0 0 
0 0 0 
0 0 0 
0 0 0 
0 0 0 
0 0 0 
0 0 0 
0 0 0 
0 0 0 
0 0 0 
0 0 0 
0 0 0 
0 0 0 
0 0 0 
-0.008315971178387196 -0.03475245676416910 -0.03240311962603183 
0.8114768762253345 0.3599278610717071 -1.098985910352216 
0 0 0 
-0.2237091284029757 -0.6618575364141766 0.5603040164105233 
0.02209408834357182 -0.02720962622317936 -0.2101227398353319 
0 0 0 
0 0 0 
0 0 0 
-0.3328800280460209 -0.2350843724423247 0.4852453683085983 
-0.3854305940739572 0.5791153663997274 -0.5030766910731318 
-0.09997656618482822 -0.1915059968869373 0.2446125644489979 
-0.1285318222708232 -0.2060378774509933 0.2601818924176632 
-0.8786645074650775 -0.1119344670512797 0.9447229894223091 
0.007827521765199488 -0.0002521482087401794 -0.02030424682819981 
-0.01831019313787392 -0.2308856478584099 0.2896833420736735 
0 0 0 
0 0 0 
0 0 0 
0 0 0 
0.06455496385220390 -0.1272468341148693 -0.007893579060623528 
-0.04286644616494020 -0.1103090372130209 0.1072686069964288 
0 0 0 
0 0 0 
0 0 0 
0.5817833164406047 0.9942583251332112 -1.306486797347057 
0 0 0 
0 0 0 
-0.3645404473807092 0.2695970582809158 0.1391359618079066 
0 0 0 
0 0 0 
0 0 0 
-0.3875302569984402 -1.323612682854326 1.176758348881721 
0.03331390631794173 -0.2715671911056512 0.009745512926101312 
0 0 0 
-0.2945167914352082 -0.1253507174557382 0.1954343094155003 
-0.6413735894501871 -0.4949084379382390 0.6115635339501555 
0 0 0 
-0.1315519730541959 -0.01169667045266583 0.2254847432944469 
0 0 0 
0 0 0 
0 0 0 
0 0 0 
0 0 0 
0 0 0 
0 0 0 
0 0 0 
0 0 0 
