solver_type L2R_LR
nr_class 3
label 1 2 3
nr_feature 2097
bias 0.000000000000000
w
0.4244606065898018 0.1903638547332776 -0.4094850574096379 
-0.5554375213350975 1.080491268032664 -0.9195900790078684 
0.03757186952293988 0.01565553860361823 -0.01320672072708028 
-0.1249565290979217 -0.3953730150209677 0.1383826965331317 
-0.3061524271641611 0.3674225648195372 -0.03401994956394717 
0.1107958231570220 0.01404622917137484 -0.1542318026933141 
-0.2214977010823782 0.1439253092133624 0.2974682113628161 
-0.02626657653645609 0.3069742231118153 -0.3311197819278281 
-0.02882238226974382 0.1311201407650682 -0.1812948924577599 
0.1786190987907345 0.1867250391417013 -0.4008124979007319 
0.08106021025085552 0.1133311995114166 -0.2235413520208477 
-0.02301960092251095 0.2221798959692038 -0.3154813447672765 
-0.03414358005973019 0.06741950190223384 -0.04135739260775962 
-0.1183171341013896 0.3523263896582630 -0.2557297855572885 
0.01346316323054604 0.1866887297984884 -0.2657771533992168 
-0.01667614548876167 0.08199038875277515 -0.1085563973382832 
-0.3096089607448734 -0.09250627225634464 0.1323053799358015 
0.3002562925243650 0.08049673140931704 -0.3633549796680083 
-0.04557412230635066 0.04057563525833688 -0.02271364031411877 
-0.007023752463898310 0.05262691310531440 -0.09144639104976872 
0.1752298854723120 0.1992134040651683 -0.1990829203869296 
0.1234233041088294 -0.007001351100178797 -0.1880046684096081 
-0.0003976713380502646 -0.05020062193184813 0.1085088640299059 
-0.1542459059703354 -0.3971240352307561 0.4547279620218238 
0.2136553012362399 0.001755508518039715 -0.2878710479127387 
0.2950571937848258 -0.08319867666063930 -0.2506428980707814 
0.07459561890071563 -0.03237104940290193 -0.05863833772314878 
0.3060581858709206 -0.04233222577748492 -0.2250442015904234 
0.01417722601243240 -0.02413160172990523 0.09240770035753458 
-0.09362692613488151 -0.006063302906779620 0.1454653216592502 
-0.009949433296931720 0.01251350682472368 -0.01821424468785656 
0.5186994958304270 -0.1409815695822394 -0.4401675304941667 
-0.01647166570847981 0.001959184727486717 0.001946729048007670 
-0.2525284725073009 -0.03636901047590194 0.4518493868608646 
-0.1750939950247641 0.04949084973431573 0.1009988202762534 
-0.01917526800293102 0.2673328313520796 -0.6182094441281645 
0.03435892823523328 0.05871868151644467 -0.2041190532404529 
-0.1416983517536805 0.1030685915426467 -0.1159051695260476 
-0.03729042208064388 0.1479474422548721 0.02847372251636617 
-0.01859775727841474 0.03200678459372570 -0.02605249444715377 
0.02102146945444426 0.008751288011590946 -0.03801972612744740 
-0.005642647289253721 0.03033266203679480 -0.03785694258539915 
0.06683292444181856 -0.04727535696043671 -0.02001011186541957 
-0.003174591565702298 0.003389339437173345 -0.01055474185196039 
-0.003218779315700761 0.01193837478249902 -0.01254362912349560 
-0.02402247906503646 0.02181668872369693 -0.01654840782632986 
-0.01372664510478684 0.1579332238437063 -0.3106750778510675 
-0.06510235367270897 0.02915906925603026 -0.003109242530891229 
-0.04269824210389582 0.002482570953697980 0.03738523093675517 
0.007108145384557131 0.01119513942120448 -0.03079062649697891 
-0.01398869854672495 -0.02911735094243505 0.08606125741860024 
0.03093225640054736 -0.01443128326951496 -0.01004621788319817 
-0.01398869854672495 -0.02911735094243505 0.08606125741860024 
-0.004714391338877353 0.03540708099126532 -0.04672506530161249 
-0.005417721992557336 0.02446217673544521 -0.03389365483282962 
-0.02537966362492188 0.005986488558581936 0.01427401406833785 
-0.05052639876890836 -0.0008442598213592042 0.1072154226142595 
-0.002024774538118971 0.01332523347525628 -0.02430186728377260 
-0.01165130664381359 0.05956402119304521 -0.04668373076228673 
0.06844657415221898 0.2961633778262983 -0.02854490080570950 
0.03445220386382552 -0.06343571655616387 0.05118707868523963 
-0.001018818978763246 0.008627331199798378 -0.01743883810343350 
0.2679049743946593 -0.03331423074648802 -0.1545920340762913 
-0.02893386189719574 0.1057268283809763 -0.1470450953174579 
0.1954509863547498 0.01539126759414499 -0.2845032048552904 
-0.03619964084245852 0.3521706338798114 -0.1976087454313741 
-0.03867409412318767 0.09462467115964497 -0.08015668748863224 
-0.01690602588908337 -0.03103100697747049 0.1277758003472693 
-0.001762092201515195 0.007070840381749468 -0.01312451289996710 
-0.001159419073385703 0.01101561525116191 -0.02049758115956043 
0.01057599603569590 0.04387092453648008 -0.07666162381032494 
-0.001522981798682749 0.002043206370232955 -0.006556161811407542 
-0.001174960696487048 0.009391690992775053 -0.01334815473231175 
-0.001196483616510782 0.005399428576146653 -0.008737952069866130 
0.04381146269292854 -0.06487207589262428 0.0006174418353760555 
-0.007131869960917889 0.02172626349506516 -0.01948021547684334 
-0.08618443082215228 -0.06769828479110705 0.1942871007475710 
0.02121238190584897 0.02287441368771264 0.01483490705422207 
-0.001761375821572954 0.004785243395971319 -0.005178491908295398 
0.03934504928557119 0.03761276695308282 -0.07592726301249213 
-0.006339832274191587 0.001517438147093801 -0.01019838256473737 
-0.001442827710166578 -0.01458989022592602 0.001537170169719369 
-0.001029749740953369 0.1662947514166129 -0.2127221136219995 
-0.2425753542961447 0.03555601681646262 0.3382481386672541 
0.2179934572249991 -0.1389917307245807 -0.1435371196288497 
-0.05703286156451937 -0.002143861359723849 0.1556821627602987 
-0.001662291074643623 0.005828028518559728 -0.006417807570220011 
-0.03980016480002988 0.1030577315155789 -0.08352860573350500 
-0.03289381812751004 -0.01258646271298354 0.01403704900921238 
-0.003109915559671610 0.003366536575416127 -0.009956099060416796 
-0.03045693458775470 -0.001181804316126354 0.03269073673013050 
-0.002063566279126887 -0.001924181747818194 -0.007069164988544093 
-0.001800969078348914 0.009495826819689473 -0.01020974496049033 
-0.01159179614640190 0.05040308766269205 -0.04420480237274987 
0.1085620391856175 -0.07262707803433943 -0.06696160115086745 
-0.003311932705729261 0.03137560362949134 -0.01732770955659579 
-0.002259849978252719 0.008064303168269261 -0.008983042762919776 
0.1471682554842580 -0.03090014362851381 -0.09858750820540822 
-0.01466751206391977 0.1904476440211369 -0.1363363194122636 
-0.04567790063551608 -0.01805185002863368 0.1598574140104265 
-0.01322217572904961 0.08201801102478369 -0.02913051968026237 
-0.003227101554993083 0.1133788718613641 -0.1816170152684203 
-0.007706477310416728 0.07113052216578222 -0.1031583198294893 
0.09638456574612955 -0.005206892376274306 -0.1596572251997269 
0.007081758318841051 0.1609235257304507 -0.3211535849934776 
0.2610980966289447 -0.03820014258373224 -0.2076253787671000 
-0.05286371412706821 0.01929563933151535 0.01282377149444076 
-0.03373822012924576 0.1560494020934331 -0.1245929975739553 
-0.0009303659703831275 0.002040277133311877 -0.003836177745910079 
0.008944747310073635 0.003438401363296101 -0.01840927325878144 
-0.007468692271596123 -0.0007830098382275029 0.004044874697278078 
-0.001002650730416718 0.006274040969461916 -0.007964298307806442 
-0.002224332324264922 0.07818366909974353 -0.1323027575329670 
-0.0008369164008857463 0.003352673086497313 -0.006090959544253824 
0.2918623643148899 -0.05367688533570760 -0.1820297847383066 
-0.001268952316557233 0.003561160243591515 -0.003879682789900695 
-0.01224546777067991 0.003670917570784314 -0.002915354539305510 
-0.0006967040398329314 0.005854655353880524 -0.01874852478356911 
0.03324643208021102 -0.03192791465663641 0.008740892666836008 
-0.007181096098227796 -0.001568231502894321 0.01202273602869766 
-0.001918842698195575 0.01655519891805407 -0.01788050606390743 
-0.01909270856668449 -0.009681850255805447 0.02687701651247092 
-0.001414648122510328 0.01063754332489831 -0.009177427713889305 
-0.02420398635345028 -0.0001641403332539000 0.01939061071357000 
-0.0008280003677036228 0.002927532490173521 -0.004205433605455633 
0.06757192915618494 0.1057849511066332 -0.2332771956189884 
-0.1584085705654699 0.1865021878029658 -0.2269080347484565 
0.6376977057593917 0.3941087030288540 -1.119928566157881 
-0.1981635123647107 0.5316110340162582 -0.4237838735313638 
-0.1099185262134069 -0.2232190565897458 0.2484559830174943 
0.3803917642231142 -0.02265303319841272 -0.2888228426330823 
0.1210255403389286 0.1447270279639088 -0.2384539749735372 
-0.02270701500174525 0.1213999935579562 -0.2243149560286152 
0.3136246190458543 -0.1113245806670009 -0.1455872877470659 
0.01534351424416183 0.1114349832271840 -0.06811877586775666 
0.002275047827660011 0.3535602993361438 -0.5154607230479624 
-0.4159676247964670 0.09653161776014631 0.2581162157917583 
-0.1874441875345267 0.4534222706598295 -0.2659748584661499 
0.5165360879786430 -0.09760309381910916 -0.6246484285302150 
0.1208457280740071 0.1913397043252537 -0.3593769412435691 
0.5105831876247627 -0.1679633009161884 -0.5064106725364997 
0.2834716198761403 -0.09263529835148664 -0.3118700529298741 
-0.1290249814516650 0.1727874274223804 -0.06181048382696238 
0.4310008008236498 -0.05557287832328160 -0.5325677099716277 
0.4628360920253408 0.07727788710001747 -0.3590952821664034 
0.4425860798498095 -0.1057523040897647 -0.4838793845438116 
0.2471466948364500 -0.1721911253686343 -0.3171922219180977 
-0.004032658680550054 0.06194128400966055 -0.06109297086703771 
0.02235472066158100 -0.02794526350825499 0.002257433436505113 
0.1058238659647532 -0.1007662721833975 -0.05513708131759058 
0.1817279115005236 -0.1013885027227628 -0.1179952982254764 
0.1180504733410559 -0.06148645375151927 -0.1389775083155848 
0.3116828919660968 -0.1326192110372342 -0.2349732179685913 
0.1148600852358350 -0.08421306655424972 -0.09527790861757666 
0.1942264406697904 -0.03314176827868950 -0.1682145131433563 
-0.1538280424363456 -0.02898912074010201 0.2745076487840157 
-0.1425917685392037 -0.06145108346224963 0.2584785563190087 
0.2165968462047119 0.07820899085111306 -0.2302754866706422 
-0.2739507448188989 -0.1024985089286953 0.1621654052432585 
0.1063898340636659 -0.03398240130348278 -0.1104483820680498 
-0.01703509281568970 0.1432322998178610 -0.3288399115428027 
0.02282287247032465 0.2407808310051454 -0.3875598632748785 
-0.1556964443630387 0.03467407720068664 0.07338876783896431 
-0.1232282730415524 0.2732390850157886 -0.1290196312918006 
0.08784091361535763 -0.04484708608669454 -0.08268270181135144 
0.3626968779285471 -0.1837138300935706 -0.2222736692148294 
0.07512827174137430 0.1800118393956092 -0.1673865258359044 
-0.02910050462694541 -0.06714792594510620 -0.02934789020239646 
0.04261954306294060 0.005073044733499256 -0.1150690894673551 
-0.02160399465514237 0.1240211120666029 -0.05759193539684458 
0.05110693604989641 -0.01241767959094945 -0.08137229597519760 
0.1806272641505711 -0.08247880232760083 -0.1521598308453743 
-0.008998338599608958 0.1101770369746067 -0.08764352721350824 
-0.009403741465430479 -0.1277549569357384 0.1940180622584137 
0.09119048181744209 -0.1058873918662540 -0.03984046288669654 
0.03697240109002487 -0.02508283566920471 0.003861458159548515 
0.1932178542031597 -0.005230892270965638 -0.2756288372590539 
0.1400344051471456 -0.1418369745412978 -0.06245577592711012 
0.01618749041421047 -0.02584130217394303 -0.02369903986882432 
0.004827183324555689 -0.03190896750525879 -0.002586485153933567 
0.3746273002631069 -0.05888766676045026 -0.3017892020255488 
-0.01582442342256294 -0.01315038548860373 0.01954689819373232 
-0.01136051089199945 0.09393425355664403 -0.1537250623045092 
0.1555924916749893 -0.06403191037293347 0.1107324678930216 
-0.06108622609639121 -0.03640607711632943 0.06733698868592417 
0.06311364552263368 -0.001154600960108751 -0.1631919153985107 
0.06311364552263368 -0.001154600960108751 -0.1631919153985107 
0.02305809402959922 0.08091771258025653 -0.06216340550063034 
0.04166764299856698 -0.08865031924791542 -0.01656449889299124 
-0.04617699903511115 0.08338749259658633 -0.02208265319727858 
0.02996554324112522 -0.01765382781712731 0.05053297692936816 
-0.05038199920683619 0.2059476652676532 0.0002705220201444276 
0.06325605878979325 0.05240080219712602 -0.07113717884844137 
0.02238616919715989 -0.01915883723327325 -0.03322114511242535 
0.01221343416186630 -0.06372816025443684 0.08574152085064879 
0.08252678152025761 0.1049641464996529 -0.2409768995894433 
0.2015293584326930 -0.02428925361657579 -0.1604104265464102 
-0.08741378773363823 0.1625534901284444 -0.04171944749348904 
0.05840011229526699 -0.0007291419373530485 -0.05015092626820115 
0.09181508038430497 -0.08015029971492776 -0.08035584208151189 
-0.02547200172886244 0.03866072090848455 -0.008130790279020830 
-0.01809376255754753 -0.01632676721321580 0.008603136854583531 
0.02943445543781367 0.02073508140923376 -0.1303994240010813 
-0.06074238928555863 0.06360721470094892 0.02588390018250058 
-0.005052496602967779 0.03321436652895294 -0.02470240706513804 
0.09801336140010801 -0.02913021661622247 -0.07596082040765129 
-0.1001805642535866 0.1719922876655318 -0.2712821921167012 
-0.01277334367139234 0.01245038000315897 -0.002618872053534734 
-0.006073224432128721 0.01364223946226446 -0.005580771470546010 
0.03116331642679183 -0.004188214572648837 -0.03259846009600272 
-0.1106614890456029 -0.05387329868763780 0.1867283428203609 
-0.1346414786400839 0.1009932120976767 -0.06114157033031898 
-0.1131830342068788 -0.02343500261008403 0.1060202523205674 
0.04790058866817403 0.001711960383865637 0.03242732260257163 
-0.01432822450672658 0.04420797926683058 -0.02087910140449599 
-0.06416620799981143 0.01886734543412440 0.03009277054461851 
-0.005491468769979387 0.01211114637509355 -0.006481592875679102 
-0.01615321680241742 0.04114633960839978 0.02722782374538662 
0.007426855219961490 -0.01539674211088059 -0.007918293590761587 
0.2240119692818310 0.2461843192298611 -0.5010112530947830 
-0.01920444430452965 -0.1041633209328022 0.08882619723110330 
-0.1211936394653185 0.01393065908677034 0.1572215428055561 
-0.001290074476971927 0.03502937328454983 -0.04195050671384554 
0.05185793655803257 -0.02385712827539897 -0.03765668413463880 
0.05185793655803257 -0.02385712827539897 -0.03765668413463880 
-0.04038629946943987 0.08577223788778617 -0.006474784953534718 
0.004985865415351969 0.001943995752411977 -0.01289765695717379 
-0.05217001930136495 -0.07058117033117674 0.1172957775166283 
0.02585750267435185 1.405397880214305e-05 -0.02135780250769851 
-0.0006609919420972333 -0.001056898883759578 -0.006875907599797462 
0.05185793655803257 -0.02385712827539897 -0.03765668413463880 
0.005282630590704109 0.05287109824853504 -0.04760318002883640 
0.05185793655803257 -0.02385712827539897 -0.03765668413463880 
0.1756047955782867 0.05122782336735726 -0.2991231111544606 
0.01439362264574533 -0.008252837468656550 -0.008653082038633990 
0.05185793655803257 -0.02385712827539897 -0.03765668413463880 
0.01439362264574533 -0.008252837468656550 -0.008653082038633990 
0.05185793655803257 -0.02385712827539897 -0.03765668413463880 
-0.01191876135611272 0.01000934841124202 -0.006199285343510981 
0.04388808212773455 -0.05143037736760439 -0.01546018576233568 
0.07507756429746873 -0.01049540088268702 -0.07676041778944233 
0.3233953656551890 0.01212608050057462 -0.3883429319831392 
0.004852442400212751 0.09780773113400691 -0.1768302151118671 
0.04764355782135431 -0.02344344433824978 -0.07354217941018648 
-0.002584430669260584 0.02853057409803115 -0.02246215126097707 
-0.03985400297492132 0.07482232936864712 -0.01565340059604230 
0.05185793655803257 -0.02385712827539897 -0.03765668413463880 
0.1918265916499229 -0.006814794162240710 -0.2312900733398783 
0.02733878238871736 -0.009151077175128010 -0.05598234602937757 
0.05185793655803257 -0.02385712827539897 -0.03765668413463880 
-0.1067476954663948 0.2002850431536710 -0.08596981337071632 
0.7590761935192558 0.4484831628516962 -1.275304836927183 
0.1721441936660113 0.6954722855211090 -0.7487355883298173 
0.01201965276664935 0.1837153432159527 -0.2143768678239633 
0.2163392201935641 -0.1697781869158216 -0.06231917748816872 
0.09453687025125229 -0.2918550251700829 0.09520755366847652 
0.2485268555720760 0.2056280707581400 -0.2612544724699885 
0.09151195927332113 0.5836374597409564 -0.7372994821288686 
0.3806877173191730 -0.03706553134994010 -0.3866049585815556 
0.6034823646133797 0.1187869832427107 -0.6374828238171998 
0.2158550788186531 0.3189438761017649 -0.3423854105824534 
0.5532643756706771 -0.1387144745590740 -0.5411601037507922 
0.6471999165291449 -0.2046082188549418 -0.5704013046543064 
0.2834716198761403 -0.09263529835148664 -0.3118700529298741 
0.3697566506373927 -0.07229697763906319 -0.3280747426799652 
0.04087741231383647 -0.1368982869435327 0.1773362676992557 
0.4425860798498095 -0.1057523040897647 -0.4838793845438116 
0.5250007601153620 0.1466579084897282 -0.6416905807065063 
0.2051039320043318 -0.1729066367715164 -0.3080393142434819 
0.2261807830394725 0.004780307510542868 -0.2474792417233987 
0.2931185683225812 -0.1037535811860037 -0.2080893991779676 
-0.09160967656861829 -0.01417156867269218 0.08026671131729597 
0.1180504733410559 -0.06148645375151927 -0.1389775083155848 
0.1350819760330776 -0.1294336201699685 -0.09146948320675488 
0.08139785347132217 -0.1148399501170605 -0.009786800027160366 
-0.06830639861293586 -0.02652945231841505 0.1855821092067151 
0.1942264406697904 -0.03314176827868950 -0.1682145131433563 
-0.1304339003007779 -0.1482777628717177 0.2451955333303594 
0.1653046341569387 -0.05052534322844449 -0.1648038689278275 
0.2165968462047119 0.07820899085111306 -0.2302754866706422 
0.1063898340636659 -0.03398240130348278 -0.1104483820680498 
0.01709214411874775 0.2355320170496542 -0.3529202037667134 
0.08784091361535763 -0.04484708608669454 -0.08268270181135144 
-0.009736788401461928 -0.07135750486870043 0.008393562665772418 
0.5450644448506804 -0.1763036020301291 -0.5169760409764196 
0.07763890476966447 0.09533545681663319 -0.1066985840672809 
0.08510858440831487 -0.03180189259688093 -0.08611993883489925 
0.4290100829798878 -0.008175410000375515 -0.3753407063613756 
0.4533025300669296 0.1111083907590611 -0.4659213086700522 
0.1806272641505711 -0.08247880232760083 -0.1521598308453743 
0.4780032297853281 -0.06489045901320732 -0.4924201120801092 
0.1623679780760152 -0.1549163302142491 -0.07968947946613356 
0.007270005372196501 -0.03855186188510051 0.002689190838661035 
0.009732019048698037 -0.01681291247262342 0.05754300381019057 
0.1932178542031597 -0.005230892270965638 -0.2756288372590539 
-0.06616251496237795 0.1855498170243210 0.02960424315478111 
0.3622018848059252 -0.04036558008258809 -0.2534895289160603 
0.001514438662643947 0.09533471029703079 -0.2420738055424051 
-0.08800993524576307 0.1275972697590893 0.06110893071845052 
-0.01703372779965948 0.1020303703270419 -0.1546658102366251 
0.1576735637017109 -0.08152167877420095 0.1187754810564207 
0.1682314723707516 -0.04275567126777369 -0.07879751112315073 
0.004827183324555689 -0.03190896750525879 -0.002586485153933567 
0.09119048181744209 -0.1058873918662540 -0.03984046288669654 
0.2870234796388384 -0.01777625633100248 -0.2483657306998473 
-0.01582442342256294 -0.01315038548860373 0.01954689819373232 
-0.005873266782965178 0.03030887777670385 -0.06618387125760522 
-0.06108622609639121 -0.03640607711632943 0.06733698868592417 
-0.008624163539848762 0.05045804384185079 -0.03869066392879900 
0.06311364552263368 -0.001154600960108751 -0.1631919153985107 
0.06311364552263368 -0.001154600960108751 -0.1631919153985107 
0.04166764299856698 -0.08865031924791542 -0.01656449889299124 
0.02861978411531680 0.01130769582920953 -0.1266847799031624 
0.02087458066279059 0.01721680043739818 -0.1560503797671695 
-0.007752482864231488 0.1921195361332775 -0.04929705067084730 
-0.05605897130434885 0.3188898385319706 -0.1112738765518410 
-0.04729368706317736 -0.04826147050430257 0.1092727292943292 
-0.1004083876417610 0.2008534660108397 -0.3256011473670729 
-0.2183658669727823 0.03362655707856643 0.2856775976425064 
0.02238616919715989 -0.01915883723327325 -0.03322114511242535 
0.04464638118267492 0.05737809003441832 -0.05080621515721422 
0.09181508038430497 -0.08015029971492776 -0.08035584208151189 
0.03789967378727772 0.02745514693228064 -0.07101463167515241 
0.09801336140010801 -0.02913021661622247 -0.07596082040765129 
0.06850345035431116 -0.07218727170381653 0.1705915001089580 
0.3385943487780542 0.1077348718009960 -0.3458084658769213 
-0.001160723445144220 0.02946510368393420 -0.04296700445342342 
-0.006073224432128721 0.01364223946226446 -0.005580771470546010 
-0.01277334367139234 0.01245038000315897 -0.002618872053534734 
0.03116331642679183 -0.004188214572648837 -0.03259846009600272 
0.02962002622252685 0.04813992413987145 -0.07195311850770610 
-0.001807393188367574 0.005617233525763915 -0.01228207223479780 
-0.03635959564501572 0.06882798285789762 -0.002453095592825396 
-0.02083365219959782 -0.04145387525616252 0.1119297935838855 
-0.03042349165166117 0.09243446923911679 -0.02243032808737041 
0.07476841911090580 -0.008589845606569344 -0.07960375848836813 
0.03821486522007453 -0.04333426059720651 -0.01640093369445159 
-0.03994600149872211 0.08112523356358198 -0.04294890538619674 
-0.05288147476018994 0.4066453739905790 -0.1300245624819425 
0.007426855219961490 -0.01539674211088059 -0.007918293590761587 
-0.001747608559537698 0.06331301789886948 -0.1709580264858245 
0.05185793655803257 -0.02385712827539897 -0.03765668413463880 
-0.04038629946943987 0.08577223788778617 -0.006474784953534718 
0.004985865415351969 0.001943995752411977 -0.01289765695717379 
0.05185793655803257 -0.02385712827539897 -0.03765668413463880 
-0.004275369943859578 -0.003781362662934822 -0.004266823504559146 
0.05185793655803257 -0.02385712827539897 -0.03765668413463880 
0.001834937194674879 -0.04228334697195415 -0.01654222755020198 
0.03531247257945117 -0.01230584246457877 -0.02356977949417169 
0.02585750267435185 1.405397880214305e-05 -0.02135780250769851 
-0.02112867574277576 0.04808486715055386 -0.04559826500469728 
-0.1345997838145335 0.08579373408716010 -0.01639772123686856 
0.01439362264574533 -0.008252837468656550 -0.008653082038633990 
0.05185793655803257 -0.02385712827539897 -0.03765668413463880 
-0.07941262514989528 0.1026034206373398 -0.01860764200869632 
-0.01228937808974432 -0.03016711473720223 0.02401597709174069 
0.01439362264574533 -0.008252837468656550 -0.008653082038633990 
0.05185793655803257 -0.02385712827539897 -0.03765668413463880 
-0.3855987367259783 -0.4200659340427512 0.5241328118898442 
0.05185793655803257 -0.02385712827539897 -0.03765668413463880 
-0.01096055976273166 -0.02716252842396192 0.04211327806314580 
-0.01412717281452207 0.04133384271846016 -0.01678248082781836 
0.04764355782135431 -0.02344344433824978 -0.07354217941018648 
-0.01733658067020622 0.02417021858003007 -0.004058308823369159 
-0.008388749303194620 -0.01234849289245689 -0.002777457376341958 
0.05185793655803257 -0.02385712827539897 -0.03765668413463880 
-0.03693445085983117 0.02486758248358735 -0.03838539214411026 
-0.01545875074722324 0.02509057212959142 -0.09423965680243342 
-0.002584430669260584 0.02853057409803115 -0.02246215126097707 
-0.03101668552365942 -0.5095114837306742 0.3838435720785067 
-0.01468719783141445 0.06874641436206703 -0.02056315576997984 
0.1104887139277262 0.02246640256099993 -0.06548842801587369 
-0.03069028424342776 0.1573149224700030 0.0006733795412449321 
0.1918265916499229 -0.006814794162240710 -0.2312900733398783 
0.05185793655803257 -0.02385712827539897 -0.03765668413463880 
0.004478887098605866 0.3651002177579965 -0.2297428380254677 
-0.1139803842215136 -0.2219789379208963 0.06696076757151166 
-0.1872762186334765 0.1801255595407028 -0.07187971215335673 
-0.04310393322943634 0.3992588973803131 -0.3571730355834735 
0.1339030593852066 0.008291610284242931 -0.07548926518935996 
0.3975194079235055 0.1900696978075246 -0.6328341521062993 
-0.1638860160713007 0.5764200589735890 -0.6114419871691150 
0.01405381865728501 0.4585843244444799 -0.4938855804047205 
-0.1004632512276604 0.3434064663948236 -0.2623879239351778 
-0.02882238226974382 0.1311201407650682 -0.1812948924577599 
0.1703582654720586 0.4037663602507431 -0.6431523391325957 
-0.02301960092251095 0.2221798959692038 -0.3154813447672765 
0.08106021025085552 0.1133311995114166 -0.2235413520208477 
-0.03414358005973019 0.06741950190223384 -0.04135739260775962 
-0.1256904615137270 0.1777411659426453 -0.2899262191149541 
0.1305584249312623 -0.2576112444555319 0.04024914795739588 
0.6141926063218786 0.2527977565967174 -0.5826457689698343 
-0.01667614548876167 0.08199038875277515 -0.1085563973382832 
-0.1182218875631045 0.3120226827726733 -0.1080059930739716 
-0.1808613665855352 0.3824503849479360 -0.2695664192570277 
-0.04542794019706088 0.2595309836491879 -0.1289250020359023 
-0.007023752463898310 0.05262691310531440 -0.09144639104976872 
-0.1197767373843666 0.2690436150509877 -0.2312886861181452 
0.04300590743795906 -0.05478472701769413 0.02886083113587332 
0.5279848866979430 -0.3089164550374244 -0.4078294349157369 
0.1070865906482794 0.1454822162458880 -0.07855837941136222 
0.006433784001878311 0.08870995357212803 -0.06875613494304570 
0.1261555213946503 0.2779140501064347 -0.5668261084330446 
0.1535782057502948 0.004546226299446329 -0.1654447092438333 
0.2344273466987332 -0.02638920122262174 -0.2093356923680209 
-0.1279046629490777 -0.04642359948007369 0.1980277123619281 
0.3588936786027275 -0.008881193290204854 -0.3948449942233516 
-0.003571354647586147 -0.06210924696059763 0.03458617647100099 
-0.01345531381073155 0.0008810282369516738 -0.0003627028202322472 
-0.03793403387664133 0.002339128136813394 0.02399284031282958 
-0.1831655555615634 0.003289395048469956 0.2212329527798589 
-0.02712872438495175 0.1145821431919728 -0.2154750003072628 
0.1527153664792615 -0.01783897532471227 0.04691281945266274 
0.01520070461494940 0.1255755215258012 -0.1569116150819035 
0.2272260659371945 0.02679612431796168 -0.2458643576085669 
0.1394506143195410 0.02219074763663616 -0.2457386946990087 
-0.06019210065051199 0.04528702559996810 0.04407708790738436 
-0.02103838229719985 0.2320744353398310 -0.2562230190252687 
0.02102146945444426 0.008751288011590946 -0.03801972612744740 
0.3642977998448201 -0.06698715513422225 -0.1612765333142389 
0.01067779402738954 0.05686944917056728 -0.04276169675515831 
-0.005642647289253721 0.03033266203679480 -0.03785694258539915 
0.02921677255566491 0.03817487123246165 -0.1364038141764597 
-0.01905941744939219 0.1236397274261928 -0.3159811893283904 
-0.003174591565702298 0.003389339437173345 -0.01055474185196039 
-0.003218779315700761 0.01193837478249902 -0.01254362912349560 
-0.04269824210389582 0.002482570953697980 0.03738523093675517 
0.007108145384557131 0.01119513942120448 -0.03079062649697891 
-0.005573418397688762 0.04812581451584987 -0.05402226552600330 
-0.01398869854672495 -0.02911735094243505 0.08606125741860024 
0.2989707607726324 -0.03284256346735221 -0.2677233261766345 
-0.01280412663847640 0.01239164886569820 -0.01508311929217298 
-0.05388400124614893 0.01973402939803153 -0.001643953996734350 
0.03093225640054736 -0.01443128326951496 -0.01004621788319817 
0.01795612047320525 -0.002680879119589379 -0.02765262552261115 
-0.01398869854672495 -0.02911735094243505 0.08606125741860024 
-0.005417721992557336 0.02446217673544521 -0.03389365483282962 
-0.02537966362492188 0.005986488558581936 0.01427401406833785 
-0.008076239225091939 0.08454747867062229 -0.1584079686912200 
0.003726035424613796 0.003987136757079320 -0.01171350002512116 
-0.01165130664381359 0.05956402119304521 -0.04668373076228673 
-0.03682998539809021 0.3567178875211887 -0.2015271466451552 
-0.001018818978763246 0.008627331199798378 -0.01743883810343350 
0.4112878353780907 -0.04328940183755784 -0.3682362829808497 
0.02358936117954512 -0.07371650327089509 0.1610004378356451 
0.2382006408417492 0.2074065654032520 -0.3096460019549032 
0.3009206582398425 -0.1026848225822961 -0.2511638894711103 
-0.02559026313086235 0.1205230377459576 -0.2139477705288287 
-0.001762092201515195 0.007070840381749468 -0.01312451289996710 
-0.2031543549408459 -0.01103461156220970 0.3398739984480022 
-0.008011108450994944 0.1808085686451497 -0.2417980358443934 
0.2121665125116728 0.03557825724042797 -0.2636198481851791 
-0.001522981798682749 0.002043206370232955 -0.006556161811407542 
-0.001159419073385703 0.01101561525116191 -0.02049758115956043 
0.01806182371388100 0.01779689729971686 -0.04186208765454774 
-0.02483936305431030 -0.06332173052694635 0.05000300551284057 
-0.06442983803116470 0.1434662718618895 0.1120385839401900 
-0.004810407721953062 0.006715949884995355 -0.01059542292365266 
-0.001196483616510782 0.005399428576146653 -0.008737952069866130 
-0.001174960696487048 0.009391690992775053 -0.01334815473231175 
-0.008410785694290700 -0.03706311741745617 0.1087584069558414 
0.1644035845306441 -0.001347661638738705 -0.1816789031689904 
-0.003781102133709218 0.07578276460940873 -0.1773296891492899 
-0.03616844987591634 -0.01319603852587774 0.01998346813169931 
-0.03045693458775470 -0.001181804316126354 0.03269073673013050 
0.03934504928557119 0.03761276695308282 -0.07592726301249213 
-0.006339832274191587 0.001517438147093801 -0.01019838256473737 
-0.001442827710166578 -0.01458989022592602 0.001537170169719369 
0.007188517987200448 0.008964945751966429 -0.03367894214470107 
-0.001761375821572954 0.004785243395971319 -0.005178491908295398 
-0.001029749740953369 0.1662947514166129 -0.2127221136219995 
0.1292289487467965 -0.04054501244027360 -0.07551258627883663 
0.1461957494105224 0.04817942298414159 -0.2185851096492992 
-0.001662291074643623 0.005828028518559728 -0.006417807570220011 
-0.1148323070640499 -0.02760126756923565 0.2056327791402358 
-0.04835340509366842 -0.02589268389940971 0.06178144110725727 
-0.05347783004431887 -0.03435370276268421 0.06285313355168894 
0.1449592041606648 0.01680294793731679 -0.09999421345134116 
-0.002063566279126887 -0.001924181747818194 -0.007069164988544093 
0.06468817546838825 -0.002613253495363810 -0.05514807202857579 
0.002798242570096830 0.007326923499679520 -0.01160938841760134 
-0.04711458658316866 -0.01886039386368537 0.09423982206726952 
0.003733058541038334 -0.001047760002908460 -0.01086961223379514 
0.2638888460363746 -0.03100899871467167 -0.2653047645549100 
-0.003311932705729261 0.03137560362949134 -0.01732770955659579 
-0.002259849978252719 0.008064303168269261 -0.008983042762919776 
-0.05096796626850239 0.05921591938495072 -0.05075922750877570 
0.2465044805965164 -0.05655628564283814 -0.1921812231946604 
-0.01090330771252865 0.2989939537926777 -0.3152139738774904 
-0.01322217572904961 0.08201801102478369 -0.02913051968026237 
-0.02472361562841428 0.1438425196511958 -0.1737972177700950 
-0.01992709212369585 -0.01061829857353772 0.03383040196188147 
-0.03680393538882533 0.1041875681845709 -0.1569312809766224 
-0.03373822012924576 0.1560494020934331 -0.1245929975739553 
-0.0009303659703831275 0.002040277133311877 -0.003836177745910079 
0.008944747310073635 0.003438401363296101 -0.01840927325878144 
-0.001002650730416718 0.006274040969461916 -0.007964298307806442 
-0.009491244815737843 0.09153884644546943 -0.1120510201075916 
-0.002249818789737216 0.07531843397798983 -0.1319644795062859 
-0.0008369164008857463 0.003352673086497313 -0.006090959544253824 
0 0 0 
0 0 0 
0 0 0 
0 0 0 
0 0 0 
0 0 0 
0 0 0 
0 0 0 
0 0 0 
0 0 0 
0 0 0 
-0.005618038871119144 -0.02885502607631774 0.01476301241239845 
0 0 0 
0 0 0 
0 0 0 
0 0 0 
0 0 0 
0 0 0 
0 0 0 
0 0 0 
0.9349798643094543 -0.05530728455658709 -1.153627316410750 
0 0 0 
0 0 0 
-0.4133019723762348 -0.1465939551690361 0.6140865683570862 
0 0 0 
0 0 0 
0 0 0 
0 0 0 
0 0 0 
0 0 0 
0 0 0 
0 0 0 
0 0 0 
0 0 0 
0 0 0 
0 0 0 
0 0 0 
-0.005024080448130177 -0.01798739462718565 0.007208428458675717 
0 0 0 
0 0 0 
0 0 0 
0 0 0 
0 0 0 
0 0 0 
0 0 0 
0 0 0 
0 0 0 
-0.02495336889173418 -0.01057785029885363 0.02296378674565292 
0 0 0 
0 0 0 
0 0 0 
0 0 0 
0 0 0 
0 0 0 
-0.005796614843148595 -0.006524302028083731 0.008518545309864890 
0 0 0 
0 0 0 
0 0 0 
0 0 0 
0 0 0 
0 0 0 
0 0 0 
0 0 0 
0 0 0 
0 0 0 
0 0 0 
0 0 0 
0 0 0 
0 0 0 
0 0 0 
0 0 0 
0 0 0 
0 0 0 
0 0 0 
0 0 0 
0 0 0 
0 0 0 
0 0 0 
0 0 0 
0 0 0 
0 0 0 
0 0 0 
0 0 0 
0 0 0 
0 0 0 
0 0 0 
0 0 0 
0 0 0 
0 0 0 
0 0 0 
0 0 0 
0 0 0 
0 0 0 
0 0 0 
0 0 0 
-0.06864885864016335 -0.09057836124049094 0.1622749297844865 
0 0 0 
0 0 0 
0 0 0 
0 0 0 
0 0 0 
0 0 0 
0 0 0 
0 0 0 
0 0 0 
0 0 0 
0 0 0 
0 0 0 
0 0 0 
0 0 0 
0 0 0 
0 0 0 
0 0 0 
0 0 0 
0 0 0 
0 0 0 
0 0 0 
0 0 0 
0 0 0 
0 0 0 
0 0 0 
0 0 0 
0 0 0 
0 0 0 
0 0 0 
0 0 0 
0 0 0 
0 0 0 
0 0 0 
0 0 0 
-0.04037669866882098 -0.02883990199175511 0.07266352701852372 
0 0 0 
0 0 0 
0 0 0 
0 0 0 
0 0 0 
0 0 0 
0 0 0 
0 0 0 
0 0 0 
0 0 0 
0 0 0 
0 0 0 
0 0 0 
0 0 0 
0 0 0 
0 0 0 
0 0 0 
0 0 0 
0 0 0 
0 0 0 
-0.01193950256435328 -0.1160435514202819 0.1965124013034260 
0 0 0 
0 0 0 
0 0 0 
0 0 0 
0 0 0 
0 0 0 
0 0 0 
0 0 0 
0 0 0 
0 0 0 
0 0 0 
0 0 0 
0 0 0 
0 0 0 
0 0 0 
0 0 0 
0 0 0 
0 0 0 
-0.06878652221683385 -0.04536519125918915 0.1447173203231153 
0 0 0 
0 0 0 
0 0 0 
0 0 0 
0 0 0 
0 0 0 
0 0 0 
0 0 0 
0 0 0 
0 0 0 
0 0 0 
0 0 0 
0 0 0 
0 0 0 
0 0 0 
-0.03645015577354061 -0.01477626332692330 0.06289621444123873 
0 0 0 
-0.02581986669869666 -0.1821451602076527 0.3717875176620024 
0 0 0 
0 0 0 
0 0 0 
0 0 0 
0 0 0 
0 0 0 
0 0 0 
0 0 0 
0 0 0 
0 0 0 
0 0 0 
0 0 0 
0 0 0 
0 0 0 
0 0 0 
0 0 0 
0 0 0 
0 0 0 
0 0 0 
0 0 0 
0 0 0 
0 0 0 
-0.005796614843148595 -0.006524302028083731 0.008518545309864890 
0 0 0 
-0.1423110521089101 -0.007904096895387963 0.1234680986337948 
0 0 0 
0 0 0 
0 0 0 
-0.01350405683306188 -0.004833966143803742 0.01757827333130606 
0 0 0 
0 0 0 
0.2934023927647064 -0.05017158902179687 -0.3319471300260466 
0 0 0 
0 0 0 
0 0 0 
-0.01350405683306188 -0.004833966143803742 0.01757827333130606 
0 0 0 
0 0 0 
0 0 0 
0 0 0 
0.6587853571880737 -0.4862188582161714 -0.4088514561184874 
0 0 0 
0 0 0 
0 0 0 
-0.002271773266144145 -0.01158805569842005 0.005009133474505857 
0 0 0 
0 0 0 
0.2392728959873305 -0.02706111719899534 -0.2649146564738756 
0 0 0 
0 0 0 
0 0 0 
0 0 0 
-0.1549869598881128 -0.2110422065847259 0.5488299696517787 
0 0 0 
0 0 0 
0 0 0 
0 0 0 
0 0 0 
0 0 0 
0 0 0 
0 0 0 
0 0 0 
0 0 0 
0 0 0 
0 0 0 
0 0 0 
0 0 0 
0 0 0 
0 0 0 
0 0 0 
0 0 0 
0 0 0 
0 0 0 
0.5485957144691114 -0.09841209001765433 -0.6409300001602490 
0 0 0 
0 0 0 
0 0 0 
0 0 0 
0 0 0 
0 0 0 
0 0 0 
0 0 0 
0 0 0 
0 0 0 
0 0 0 
0 0 0 
0 0 0 
-0.04420451258187155 -0.01530069060490145 0.03235841185657985 
0 0 0 
0 0 0 
0 0 0 
0 0 0 
0 0 0 
0 0 0 
0 0 0 
0 0 0 
-1.388412881637676 3.334798322376453 -2.753714022331157 
0 0 0 
0 0 0 
0 0 0 
-0.04801727720500545 -0.01063424592789801 0.1522105614202792 
0 0 0 
-0.02213386598207712 -0.03114612821791808 0.06345087471354144 
0 0 0 
0 0 0 
0 0 0 
0 0 0 
0 0 0 
0 0 0 
0 0 0 
0 0 0 
0 0 0 
0 0 0 
0 0 0 
0 0 0 
0 0 0 
0 0 0 
0 0 0 
0 0 0 
0 0 0 
0 0 0 
0 0 0 
0 0 0 
0 0 0 
0 0 0 
0 0 0 
0 0 0 
0 0 0 
0 0 0 
0 0 0 
-0.002271773266144145 -0.01158805569842005 0.005009133474505857 
0 0 0 
-0.2171445686180650 -0.07458112017551996 0.3761925401666497 
0 0 0 
0 0 0 
-0.05663834116233978 -0.05575031384067935 0.1679742502569254 
-0.01121244708924082 -0.01095356487553514 0.02343851450427262 
0 0 0 
0 0 0 
0 0 0 
0 0 0 
-0.0008695311626343741 -0.004700882704244757 0.001287897019494233 
0 0 0 
0 0 0 
0 0 0 
0 0 0 
0 0 0 
0 0 0 
0 0 0 
0 0 0 
0 0 0 
-0.004005372018200788 -0.07093457667087394 0.07496479269890540 
0.3141695623857205 -0.2626090301334391 -0.1780284821036631 
0 0 0 
0 0 0 
0 0 0 
0 0 0 
0 0 0 
0 0 0 
0 0 0 
0 0 0 
0 0 0 
0 0 0 
0 0 0 
0 0 0 
0 0 0 
0 0 0 
0.2934023927647064 -0.05017158902179687 -0.3319471300260466 
0 0 0 
0 0 0 
0 0 0 
0 0 0 
0 0 0 
0 0 0 
0 0 0 
0 0 0 
0 0 0 
0 0 0 
0 0 0 
0 0 0 
0 0 0 
0 0 0 
0 0 0 
0 0 0 
-0.01947015567209060 -0.02763499280909797 0.04798446236637176 
0 0 0 
0 0 0 
0.7914950059505274 -0.1502498296306098 -0.8714816322706762 
0 0 0 
-0.07420825617473484 -0.09798527201049986 0.2008001901973085 
0 0 0 
0 0 0 
0 0 0 
0 0 0 
0 0 0 
0 0 0 
0 0 0 
0 0 0 
0 0 0 
0 0 0 
0 0 0 
0 0 0 
-0.7713989659961662 -1.112246033444050 0.6754281886087835 
0 0 0 
0 0 0 
0 0 0 
0 0 0 
0 0 0 
0 0 0 
0 0 0 
-0.02877328898748886 -0.02930769704473177 0.08781976542675379 
0 0 0 
0 0 0 
0 0 0 
0 0 0 
0 0 0 
0 0 0 
0 0 0 
-0.08481578094357785 -0.1111268949559563 0.1529088771218498 
0 0 0 
0 0 0 
0 0 0 
0 0 0 
0 0 0 
0 0 0 
0 0 0 
0 0 0 
0 0 0 
0 0 0 
0 0 0 
0 0 0 
0 0 0 
0 0 0 
0 0 0 
0 0 0 
0 0 0 
0 0 0 
0 0 0 
0 0 0 
0 0 0 
-1.496510574118156 1.954376065715111 -1.035573750937249 
0 0 0 
0 0 0 
0 0 0 
0 0 0 
0 0 0 
0 0 0 
0 0 0 
0 0 0 
0 0 0 
0 0 0 
0 0 0 
0 0 0 
0 0 0 
0 0 0 
0 0 0 
0 0 0 
0 0 0 
0 0 0 
0 0 0 
0 0 0 
0 0 0 
0 0 0 
0 0 0 
0 0 0 
0 0 0 
0 0 0 
0 0 0 
0 0 0 
0 0 0 
0 0 0 
0 0 0 
0 0 0 
0 0 0 
-0.06878652221683385 -0.04536519125918915 0.1447173203231153 
0.7142568539725599 -1.324919826632788 0.7150978852218290 
0 0 0 
0 0 0 
0 0 0 
0 0 0 
0 0 0 
0 0 0 
0 0 0 
0 0 0 
1.531352375812988 -0.2856818948055047 -1.603042246073277 
-0.05669350774013115 -0.01401542935428606 0.1122233634025071 
0 0 0 
0 0 0 
0 0 0 
0 0 0 
0.7914950059505274 -0.1502498296306098 -0.8714816322706762 
0 0 0 
0 0 0 
0 0 0 
0 0 0 
-0.02495336889173418 -0.01057785029885363 0.02296378674565292 
0 0 0 
0 0 0 
0 0 0 
0 0 0 
-0.0008695311626343741 -0.004700882704244757 0.001287897019494233 
0 0 0 
0 0 0 
0 0 0 
0 0 0 
0 0 0 
0 0 0 
0 0 0 
0 0 0 
0 0 0 
0 0 0 
0 0 0 
0 0 0 
0 0 0 
0 0 0 
0 0 0 
-0.008150307035881392 -0.08219003019493318 0.1133119545424066 
0 0 0 
0 0 0 
-0.8432137623027969 -0.5171233800909525 1.047306116410881 
0 0 0 
0 0 0 
0 0 0 
0 0 0 
0 0 0 
0 0 0 
0 0 0 
0 0 0 
0 0 0 
0 0 0 
0.3091601333817733 -0.02614559151254461 -0.3303182036022636 
0 0 0 
0 0 0 
0 0 0 
0 0 0 
0.9366066090894004 -0.9452838337888104 -0.4217515938012622 
0 0 0 
0 0 0 
0 0 0 
0 0 0 
-0.2141096862953474 -0.02769894585976260 0.2405746010027958 
0 0 0 
0 0 0 
0 0 0 
0 0 0 
0 0 0 
0 0 0 
0 0 0 
0 0 0 
0 0 0 
0 0 0 
0 0 0 
0 0 0 
0.004303098647480162 -0.01672314002902236 -0.02858922616797528 
0 0 0 
0 0 0 
0 0 0 
0 0 0 
0 0 0 
0 0 0 
0 0 0 
0 0 0 
0 0 0 
0 0 0 
0 0 0 
0 0 0 
0 0 0 
0 0 0 
0 0 0 
0 0 0 
0 0 0 
0 0 0 
0 0 0 
0 0 0 
0 0 0 
0.2702462545404091 -0.03795580589287158 -0.2263546334519972 
-0.02213386598207712 -0.03114612821791808 0.06345087471354144 
0 0 0 
0 0 0 
0 0 0 
0 0 0 
0 0 0 
0 0 0 
0 0 0 
0 0 0 
0 0 0 
0 0 0 
0 0 0 
-0.06492611516314524 -0.08155331463457428 0.1535433110101195 
0 0 0 
0 0 0 
0 0 0 
0 0 0 
0 0 0 
0.3672108191563127 -0.09995350964394206 -0.2715695346692641 
0 0 0 
0 0 0 
0 0 0 
0 0 0 
0 0 0 
0 0 0 
0 0 0 
0 0 0 
0 0 0 
0 0 0 
-0.001867221460977211 -0.3429898396315134 0.2218238418361979 
0 0 0 
0 0 0 
0 0 0 
0 0 0 
0 0 0 
0 0 0 
0 0 0 
-0.05191828235205073 -0.04572569776428949 0.07299798145359396 
0 0 0 
0 0 0 
0 0 0 
-0.005261245852677204 -0.007695279056327190 0.01683545192486123 
0 0 0 
0 0 0 
0 0 0 
0 0 0 
0 0 0 
0 0 0 
-0.001012180526582640 -0.2117967181821034 0.1239295028581466 
0 0 0 
0 0 0 
0 0 0 
0 0 0 
0 0 0 
-0.007382997551559059 -0.02001107763341222 0.05885731913622361 
0 0 0 
0 0 0 
0 0 0 
0 0 0 
0 0 0 
0 0 0 
0 0 0 
0 0 0 
0 0 0 
0 0 0 
0 0 0 
0 0 0 
0 0 0 
0 0 0 
0 0 0 
0 0 0 
0 0 0 
0 0 0 
0 0 0 
0 0 0 
0 0 0 
0 0 0 
0 0 0 
0 0 0 
0 0 0 
0 0 0 
0 0 0 
0 0 0 
0 0 0 
0 0 0 
0 0 0 
0 0 0 
0 0 0 
0 0 0 
-0.1430120780025058 -0.1002233732463821 0.2654303511878697 
-0.003213068123655722 -0.01264972805636171 0.01426739018620142 
-0.06140352466527480 -0.02535411362577693 0.08586000118689165 
-0.01193950256435328 -0.1160435514202819 0.1965124013034260 
0 0 0 
0 0 0 
0 0 0 
0 0 0 
0 0 0 
0 0 0 
0 0 0 
0 0 0 
-0.7509187812819251 -0.4425577803349080 0.9016446079387639 
0 0 0 
0 0 0 
-0.1423110521089101 -0.007904096895387963 0.1234680986337948 
0 0 0 
0 0 0 
0 0 0 
-0.007943807547069876 -0.01333662081878041 0.03071574412021920 
0 0 0 
0 0 0 
0.7963682519005135 -0.2696974034775805 -0.6303995422683303 
-0.01708990870693228 -0.7587691598969606 1.125307578270994 
0 0 0 
0 0 0 
0 0 0 
0 0 0 
0 0 0 
0 0 0 
0 0 0 
0 0 0 
0 0 0 
0 0 0 
0 0 0 
0 0 0 
0 0 0 
0 0 0 
0 0 0 
0 0 0 
0 0 0 
0 0 0 
0 0 0 
0 0 0 
0 0 0 
0 0 0 
0 0 0 
0 0 0 
0 0 0 
0 0 0 
0 0 0 
0 0 0 
0 0 0 
0 0 0 
-0.1194382817249103 -0.07133180381598415 0.2820999925611827 
0 0 0 
0 0 0 
0 0 0 
0 0 0 
0 0 0 
0 0 0 
0 0 0 
0 0 0 
0 0 0 
0 0 0 
0 0 0 
0 0 0 
0 0 0 
-0.6638312270722031 -0.3198428296805316 0.7437265973424083 
-0.1446807550158514 -0.1268152571681031 0.1811236183443589 
0 0 0 
0 0 0 
0 0 0 
0 0 0 
0 0 0 
0 0 0 
0 0 0 
0.5577455570205312 -0.3063932873614568 -0.4715323647455139 
0 0 0 
0 0 0 
0 0 0 
0 0 0 
-0.5161439868045415 -0.05037462045119009 0.3828431670526066 
0 0 0 
0 0 0 
0 0 0 
0 0 0 
0 0 0 
-0.001012180526582640 -0.2117967181821034 0.1239295028581466 
0 0 0 
0 0 0 
-0.7822537201455928 0.6294562390823235 -0.3204758657154099 
0 0 0 
0 0 0 
0 0 0 
0 0 0 
0 0 0 
0 0 0 
0 0 0 
0 0 0 
0 0 0 
0 0 0 
0 0 0 
-0.01350405683306188 -0.004833966143803742 0.01757827333130606 
0 0 0 
0 0 0 
0 0 0 
0 0 0 
0 0 0 
0 0 0 
-0.008549505334281032 -0.2124379322496721 0.1956421458892510 
0 0 0 
0 0 0 
0 0 0 
0 0 0 
0 0 0 
0 0 0 
0 0 0 
0 0 0 
-0.01305143419675324 -0.02111429425659948 0.04302458846877868 
0 0 0 
0 0 0 
0 0 0 
0 0 0 
0 0 0 
0 0 0 
0 0 0 
-0.006713999713066966 -0.01791367070286003 0.02062136235557265 
0 0 0 
0 0 0 
0 0 0 
0 0 0 
0 0 0 
0 0 0 
0 0 0 
0 0 0 
0 0 0 
0 0 0 
0 0 0 
0 0 0 
0 0 0 
0 0 0 
0.06500645162591093 -0.01002282316213518 -0.05424481367954046 
0 0 0 
0 0 0 
-0.4600888859644649 -0.01483139005886955 0.5417399847073947 
0 0 0 
0 0 0 
0 0 0 
0 0 0 
0 0 0 
0 0 0 
0 0 0 
0 0 0 
0 0 0 
0 0 0 
0 0 0 
0 0 0 
0 0 0 
-0.2285485543588580 -0.1521344072540912 0.3158067831265879 
0 0 0 
0 0 0 
0 0 0 
0 0 0 
0 0 0 
0 0 0 
0 0 0 
0 0 0 
0 0 0 
0 0 0 
0 0 0 
0 0 0 
0 0 0 
0 0 0 
-0.008397873631849784 0.0009306573140046308 -0.0003127926784531791 
0 0 0 
-0.007764525006314297 -0.007203532741586413 0.01394598996926071 
0 0 0 
0 0 0 
0 0 0 
0 0 0 
0 0 0 
0 0 0 
0 0 0 
0 0 0 
0 0 0 
0 0 0 
0 0 0 
0 0 0 
0 0 0 
0 0 0 
0 0 0 
0 0 0 
0 0 0 
0 0 0 
0 0 0 
0 0 0 
0 0 0 
0 0 0 
0 0 0 
0 0 0 
0 0 0 
0 0 0 
0 0 0 
0 0 0 
0 0 0 
0 0 0 
0 0 0 
0 0 0 
0 0 0 
0 0 0 
0 0 0 
0 0 0 
0 0 0 
0 0 0 
0 0 0 
0 0 0 
-0.1206882753233253 -0.1242888834147804 0.2552674604717642 
0 0 0 
0 0 0 
0 0 0 
0 0 0 
0 0 0 
0 0 0 
0 0 0 
0 0 0 
0 0 0 
0 0 0 
0 0 0 
0 0 0 
0 0 0 
0 0 0 
0 0 0 
0 0 0 
0 0 0 
0 0 0 
0 0 0 
0 0 0 
0 0 0 
0 0 0 
0 0 0 
0 0 0 
0 0 0 
0 0 0 
0 0 0 
0 0 0 
0 0 0 
0 0 0 
0 0 0 
0 0 0 
0 0 0 
0 0 0 
0 0 0 
-0.007063736331947764 -0.008882585518291608 0.007511712253286824 
0 0 0 
0 0 0 
0 0 0 
0 0 0 
0 0 0 
0 0 0 
0 0 0 
0 0 0 
0 0 0 
0 0 0 
0 0 0 
0 0 0 
0 0 0 
0 0 0 
0 0 0 
0 0 0 
0 0 0 
0 0 0 
0 0 0 
-0.03302497557092731 -0.1196374337600545 0.2067518283002501 
0 0 0 
0 0 0 
0 0 0 
0 0 0 
0 0 0 
0 0 0 
0 0 0 
0 0 0 
0 0 0 
0 0 0 
0 0 0 
0 0 0 
0 0 0 
-0.1499781336814792 0.6259409534857686 -0.5223192356499757 
0 0 0 
0 0 0 
0 0 0 
0 0 0 
0 0 0 
0 0 0 
0 0 0 
0 0 0 
0 0 0 
0 0 0 
0 0 0 
0 0 0 
0 0 0 
0 0 0 
0 0 0 
0 0 0 
0 0 0 
0 0 0 
0 0 0 
0 0 0 
0 0 0 
0 0 0 
-0.04269076871585839 -0.4623755320117589 0.6328953844181788 
0 0 0 
0 0 0 
0 0 0 
0 0 0 
0 0 0 
0 0 0 
0 0 0 
0 0 0 
0 0 0 
0 0 0 
-0.001484147924477870 0.02760591163771948 -0.07357359824462241 
0 0 0 
0 0 0 
0 0 0 
0 0 0 
0 0 0 
0 0 0 
0 0 0 
0 0 0 
0 0 0 
0 0 0 
0 0 0 
-0.007764525006314297 -0.007203532741586413 0.01394598996926071 
0 0 0 
0 0 0 
0 0 0 
0 0 0 
0 0 0 
0.2089874434414248 -0.1033588766898868 -0.1120256744428670 
0 0 0 
0 0 0 
0 0 0 
0 0 0 
0 0 0 
0 0 0 
0.2089874434414248 -0.1033588766898868 -0.1120256744428670 
0 0 0 
0 0 0 
0.02727402035282165 -0.08039748177925887 -0.007911416854357253 
0 0 0 
0.1445541308866916 -0.8224048311729878 0.6864215276347184 
0 0 0 
0 0 0 
0 0 0 
0 0 0 
0 0 0 
0 0 0 
0 0 0 
0 0 0 
0 0 0 
0 0 0 
0 0 0 
0 0 0 
0 0 0 
0 0 0 
0 0 0 
0 0 0 
0 0 0 
0 0 0 
0 0 0 
0 0 0 
0 0 0 
0 0 0 
0 0 0 
0 0 0 
0 0 0 
0 0 0 
0 0 0 
0 0 0 
0 0 0 
0 0 0 
0 0 0 
0 0 0 
0.1097135130415802 -0.03617634333630409 -0.06862924217054245 
0 0 0 
0 0 0 
0 0 0 
0 0 0 
0 0 0 
0 0 0 
0 0 0 
0 0 0 
0 0 0 
0 0 0 
0 0 0 
0 0 0 
0 0 0 
-0.02269104818136281 -0.1558372748778490 0.1408560724461905 
0 0 0 
0 0 0 
0 0 0 
0 0 0 
0 0 0 
0 0 0 
0 0 0 
0 0 0 
1.316093586123798 -0.1957449123134827 -1.034908583888315 
0 0 0 
0 0 0 
0 0 0 
0.04470706141566923 -0.02615352017416891 -0.01438442849100199 
0 0 0 
0 0 0 
0 0 0 
0 0 0 
0 0 0 
-0.01637295401553364 -0.03032998757634851 0.05165262500932075 
0 0 0 
0 0 0 
0 0 0 
0 0 0 
0 0 0 
0 0 0 
0 0 0 
0 0 0 
0 0 0 
0 0 0 
0 0 0 
0 0 0 
0 0 0 
0 0 0 
0 0 0 
0 0 0 
0 0 0 
0 0 0 
0 0 0 
0 0 0 
0 0 0 
0 0 0 
0 0 0 
0 0 0 
0 0 0 
0 0 0 
0 0 0 
0 0 0 
-0.1441184962866371 -0.1087592301555446 0.3857282914895461 
-0.006761620485706199 -0.01894240246871279 0.02565338701652916 
0 0 0 
0 0 0 
0 0 0 
0 0 0 
0 0 0 
0 0 0 
0 0 0 
0 0 0 
0 0 0 
0 0 0 
0 0 0 
0 0 0 
0 0 0 
0 0 0 
-0.02901960355272652 -0.04870285708918053 0.1317870356013447 
0 0 0 
0 0 0 
0 0 0 
0 0 0 
0 0 0 
0 0 0 
0 0 0 
-0.001918569254464762 0.02236466358400274 -0.02792380437402622 
0 0 0 
0 0 0 
0 0 0 
0 0 0 
0 0 0 
0 0 0 
0 0 0 
0 0 0 
0 0 0 
0 0 0 
0 0 0 
0 0 0 
0 0 0 
0 0 0 
0 0 0 
0 0 0 
0 0 0 
-0.07152069912903145 0.05072006940569055 -0.03319511472817441 
0 0 0 
0 0 0 
0 0 0 
0 0 0 
0 0 0 
0 0 0 
0 0 0 
0 0 0 
0 0 0 
0 0 0 
0 0 0 
-0.2230049696194476 -0.1493545799340880 0.3827903539461972 
0 0 0 
0 0 0 
0 0 0 
0.02727402035282165 -0.08039748177925887 -0.007911416854357253 
0 0 0 
0 0 0 
0 0 0 
0 0 0 
0 0 0 
0 0 0 
0 0 0 
0 0 0 
-0.7713989659961662 -1.112246033444050 0.6754281886087835 
0 0 0 
0 0 0 
0 0 0 
0 0 0 
0 0 0 
0 0 0 
0 0 0 
0 0 0 
0 0 0 
0 0 0 
0 0 0 
0 0 0 
0 0 0 
0 0 0 
0 0 0 
-0.006849721809330121 0.0008615156774927750 -0.0003030188658994998 
0 0 0 
0 0 0 
0 0 0 
0 0 0 
0 0 0 
0 0 0 
0 0 0 
0 0 0 
0 0 0 
0 0 0 
0 0 0 
0 0 0 
0 0 0 
0 0 0 
0 0 0 
0 0 0 
0 0 0 
0 0 0 
-0.008397873631849784 0.0009306573140046308 -0.0003127926784531791 
0 0 0 
0.9805903465374994 -0.2525608174176653 -1.098646664920437 
0.5397383053300083 -0.8418501493819722 0.1920977364551784 
0 0 0 
0 0 0 
0 0 0 
0 0 0 
0 0 0 
0 0 0 
0 0 0 
0 0 0 
0 0 0 
0 0 0 
0 0 0 
0 0 0 
0 0 0 
0 0 0 
0 0 0 
0 0 0 
0 0 0 
0 0 0 
0 0 0 
0 0 0 
0 0 0 
0.1592474949264573 -0.01220556633883787 -0.1142163738366625 
0 0 0 
0 0 0 
0 0 0 
0 0 0 
0 0 0 
0 0 0 
0 0 0 
0 0 0 
0 0 0 
0 0 0 
0 0 0 
0 0 0 
-1.648036581509733 -0.08283152182734450 0.8239878366696457 
0 0 0 
0 0 0 
0 0 0 
0 0 0 
0 0 0 
0 0 0 
0 0 0 
0 0 0 
0.8461378325327089 -0.2590109759960053 -0.5996892131439161 
-0.1019251711002213 -0.01541903644485655 0.1062277360851052 
0 0 0 
0 0 0 
0 0 0 
0 0 0 
-0.03724051776151911 -0.01576545973065820 0.05175640276294314 
0 0 0 
0 0 0 
0 0 0 
0 0 0 
0 0 0 
0 0 0 
0 0 0 
0 0 0 
0 0 0 
0 0 0 
0 0 0 
-0.001315805857194980 -0.009827653642745427 0.005548908027054498 
0 0 0 
0 0 0 
0 0 0 
0 0 0 
0 0 0 
0 0 0 
0 0 0 
0 0 0 
0 0 0 
0 0 0 
0 0 0 
0 0 0 
0 0 0 
-0.01506899473949556 -0.08419981934776799 0.1151990898502465 
0 0 0 
0 0 0 
0.006484190277162480 0.02789089816129078 -0.1477937914272192 
0 0 0 
0 0 0 
0 0 0 
0 0 0 
0 0 0 
0 0 0 
0 0 0 
0 0 0 
0 0 0 
0 0 0 
0 0 0 
0 0 0 
0 0 0 
0 0 0 
0 0 0 
-0.01909126246897247 -0.1523399236372698 0.1431079548481177 
0 0 0 
0 0 0 
0 0 0 
0 0 0 
0 0 0 
0 0 0 
0 0 0 
0 0 0 
0 0 0 
0 0 0 
-0.07152069912903145 0.05072006940569055 -0.03319511472817441 
0 0 0 
0 0 0 
0 0 0 
0.2069490335441137 -0.02377913054233558 -0.2672811552637931 
0 0 0 
0 0 0 
0 0 0 
0 0 0 
0 0 0 
0 0 0 
0 0 0 
0 0 0 
0 0 0 
0 0 0 
0 0 0 
0 0 0 
0 0 0 
0 0 0 
0 0 0 
0 0 0 
0 0 0 
0 0 0 
0 0 0 
0 0 0 
0 0 0 
0 0 0 
0 0 0 
0 0 0 
0 0 0 
0 0 0 
0 0 0 
0 0 0 
0 0 0 
0 0 0 
0 0 0 
0 0 0 
0 0 0 
0 0 0 
0 0 0 
0 0 0 
0 0 0 
-0.1033503542770991 -0.1222568844460379 0.2316874353652721 
0 0 0 
0 0 0 
0 0 0 
0 0 0 
0 0 0 
-0.006957605967673422 0.001111887619318037 -0.0003461125283724718 
0 0 0 
0 0 0 
0 0 0 
0 0 0 
0 0 0 
0 0 0 
0 0 0 
0 0 0 
0 0 0 
0 0 0 
-0.1404407634740558 -0.03511937983205238 0.1788233056697722 
0 0 0 
0 0 0 
0 0 0 
0 0 0 
0 0 0 
0 0 0 
0 0 0 
0 0 0 
0 0 0 
0 0 0 
0 0 0 
-0.06031662840414971 -0.05326649055105180 0.1198175688200228 
0 0 0 
0 0 0 
0 0 0 
0 0 0 
0 0 0 
0 0 0 
-0.3177111426176875 -0.02959630471575730 0.2597816932275615 
0 0 0 
0 0 0 
0 0 0 
0 0 0 
0 0 0 
0 0 0 
0 0 0 
0 0 0 
0 0 0 
0 0 0 
0 0 0 
0 0 0 
0 0 0 
0 0 0 
0 0 0 
0 0 0 
0 0 0 
0 0 0 
0 0 0 
0 0 0 
0 0 0 
0 0 0 
0 0 0 
0 0 0 
0 0 0 
0 0 0 
0 0 0 
0 0 0 
0 0 0 
0 0 0 
0 0 0 
0 0 0 
0 0 0 
0 0 0 
0 0 0 
0 0 0 
0 0 0 
0 0 0 
0 0 0 
0 0 0 
-0.1377179025363380 -0.4052950799435162 0.4928319423629782 
0 0 0 
0 0 0 
-0.03302497557092731 -0.1196374337600545 0.2067518283002501 
0 0 0 
-0.008397873631849784 0.0009306573140046308 -0.0003127926784531791 
0 0 0 
0 0 0 
0 0 0 
0 0 0 
0 0 0 
0 0 0 
0.08640276303804371 -0.02375982855840440 -0.1142858840205916 
0 0 0 
0 0 0 
0 0 0 
0 0 0 
0 0 0 
0 0 0 
-0.02594615300119355 -0.02504499027593282 0.05636044174485715 
0 0 0 
0 0 0 
-0.01730118425666284 -0.1549074181464085 0.1467847761744580 
-0.01708990870693228 -0.7587691598969606 1.125307578270994 
0 0 0 
0 0 0 
0 0 0 
-0.07152069912903145 0.05072006940569055 -0.03319511472817441 
0 0 0 
0 0 0 
0 0 0 
0 0 0 
0 0 0 
0 0 0 
0 0 0 
0 0 0 
0 0 0 
0 0 0 
0 0 0 
0 0 0 
0 0 0 
0 0 0 
0 0 0 
0 0 0 
0 0 0 
0 0 0 
0 0 0 
0 0 0 
0 0 0 
0 0 0 
0 0 0 
0 0 0 
0 0 0 
0 0 0 
-0.1200570913305696 -0.1198429624294225 0.2157601308733729 
0 0 0 
0 0 0 
0 0 0 
0 0 0 
0 0 0 
0 0 0 
0 0 0 
0 0 0 
0 0 0 
0 0 0 
0 0 0 
0 0 0 
0 0 0 
0.09325248484737383 -0.02462134423589718 -0.1139828651546921 
0.1246778774952166 -0.03250349429677549 -0.1074381660094388 
0 0 0 
0 0 0 
0 0 0 
0 0 0 
0 0 0 
0 0 0 
0 0 0 
0 0 0 
-0.006812172749451283 0.0007980592809714407 -0.0002743257663684971 
0 0 0 
0 0 0 
0 0 0 
0 0 0 
0 0 0 
0 0 0 
0 0 0 
0 0 0 
0 0 0 
-0.3177111426176875 -0.02959630471575730 0.2597816932275615 
0 0 0 
0 0 0 
-1.108298276179719 -0.9246816712093182 1.016085573124844 
0 0 0 
0 0 0 
0 0 0 
0 0 0 
0 0 0 
0 0 0 
0 0 0 
0 0 0 
0 0 0 
0 0 0 
0 0 0 
0.2089874434414248 -0.1033588766898868 -0.1120256744428670 
0 0 0 
0 0 0 
0 0 0 
0 0 0 
0 0 0 
0 0 0 
0.1097454767699998 -0.09816154201773142 0.01085381478205288 
0 0 0 
0 0 0 
0 0 0 
0 0 0 
0 0 0 
0 0 0 
0 0 0 
0 0 0 
-0.02952969795685492 -0.01402433181865893 0.08600179931121851 
0 0 0 
0 0 0 
-0.02538835812689112 -0.3053253852611644 0.1293937971306305 
0.1144170774671109 -0.01919382516277270 -0.1178423822077412 
0 0 0 
-0.5426075793788618 -0.2942529516027948 0.2727755115060936 
-0.3200161075889924 -0.1808017981658622 0.4364844927025959 
-0.4225382338312201 -0.1529407512851870 0.4916746919172690 
0.1180734357277143 -0.007291254632008794 -0.1121169760077679 
-0.1657451540680713 -0.04796828971213461 0.1870024701122590 
0.05892279828191895 -0.01217801986592428 -0.1258560714373541 
0 0 0 
0 0 0 
0.06746543461262357 -0.05038698709113457 -0.05143686770423135 
0.01039584110833078 -0.005153616659368558 -0.01189604656028274 
0.01578102411220106 -0.003150224799894745 -0.03478139343817981 
0 0 0 
0.3057898077366629 -0.03312761513823962 -0.3623934437834582 
0.01405104795131432 -0.0004753140675594428 -0.02557959362106134 
0 0 0 
0 0 0 
0 0 0 
0 0 0 
0 0 0 
0 0 0 
-0.2339076625093125 -0.4001065317865857 -0.04646129026468045 
0 0 0 
0 0 0 
-0.5238357765578710 -0.6992129085529665 0.7078707705411116 
-0.005269383037540075 -0.001054642490784436 0.001527474978519393 
0 0 0 
0 0 0 
0 0 0 
-0.0006807131478385675 0.003125330096854978 -0.003189877081141043 
0 0 0 
0 0 0 
-0.006077355805436651 -0.01858807625955990 0.02060105707418058 
0 0 0 
-0.001628074938158194 0.003590795548991806 -0.004919946639211215 
0 0 0 
0 0 0 
0 0 0 
0 0 0 
0 0 0 
0 0 0 
0 0 0 
0 0 0 
0 0 0 
