solver_type L2R_LR
nr_class 2
label 1 2
nr_feature 2091
bias 0.000000000000000
w
-0.2523405390073932 
-0.1527097145278986 
-0.1572182849504360 
-0.2439946522302145 
-0.2262620232758904 
0.1072865768738972 
0.06060225148042174 
-0.2956176565574522 
-0.2578377810793383 
0.2648371921304163 
0.1084442167550504 
0.1586432059032004 
-0.01606663152170329 
-0.3312285592709016 
-0.05363980680139625 
-0.1120610728382675 
-0.09315883003304573 
-0.2424614827632196 
0.2676726030746852 
-0.03139548360855422 
0.3013564783678558 
0.2586890989517680 
-0.03978112350873099 
-0.08854775201073467 
-0.03978112350873099 
-0.04106747241155307 
0.2196762566418376 
0.2271728083895502 
-0.02731761260510088 
-0.1383352147488279 
-0.1383352147488279 
-0.1639904608709212 
-0.03780588279367926 
-0.02758257412276485 
-0.03978112350873099 
0.07215827489638112 
-0.03978112350873099 
-0.02758257412276485 
-0.07292333090826955 
0.1891889436605500 
-0.2413236253936574 
-0.06736369763149584 
0.1669225905936133 
-0.04102147895951258 
-0.06283485272265240 
-0.08854775201073467 
0.06691535056736114 
0.05033922324330346 
0.001043839136745292 
-0.2507051977419833 
0.06691535056736114 
-0.02758257412276485 
-0.02758257412276485 
-0.0009578428664890826 
-0.02758257412276485 
0.1051931537697994 
-0.02758257412276485 
-0.006126279524826276 
-0.02758257412276485 
-0.1689715056068975 
0.01143026818716554 
-0.03978112350873099 
0.01143026818716554 
-0.2995321114096720 
0.01446851719932730 
-0.006632823170430864 
-0.09855409124009688 
-0.1689715056068975 
0.01143026818716554 
0.1051931537697994 
-0.03978112350873099 
-0.07227994932953652 
0.01143026818716554 
-0.001286348902822082 
-0.0001522648636634753 
-0.1732784236644390 
0.2548119227300664 
0.1625797526380005 
-0.03978112350873099 
-0.1364078867481563 
-0.003894168515674409 
0.05129706610979255 
-0.001286348902822082 
-0.03978112350873099 
-0.2790976045599459 
-0.02758257412276485 
0.06348455583988676 
0.1006708980318786 
-0.03797631334119435 
-0.0009578428664890826 
0.3099485418294186 
0.02321262217349590 
-0.06096517788796981 
-0.02758257412276485 
0.04885818851523047 
0.001196104000408767 
-0.3062008414383771 
0.001196104000408767 
-0.1049157386455011 
0.2548119227300664 
-0.2231226236192184 
0.07668775240902993 
-0.0003949212492536316 
0.1051931537697994 
0.01446851719932730 
-0.06096517788796981 
-0.03797631334119435 
-0.1462878283395441 
-0.05575959071131839 
-0.03978112350873099 
0.01143026818716554 
-0.004901728641990994 
0.01143026818716554 
-0.3047995241899066 
-0.07227994932953652 
-0.2790976045599459 
0.01143026818716554 
0.06172943682381384 
-0.02758257412276485 
0.03490794520933841 
-0.0003618574821435351 
-0.03978112350873099 
0.01143026818716554 
-0.1364078867481563 
-0.001828772523258733 
-0.007719249089629863 
0.05752186634631430 
0.3219289795310905 
0.2097295529132384 
-0.6602306317347864 
0.4878914123122834 
0.3232913763919804 
-0.6185793845597988 
-0.2213292933468742 
-0.2570083588358459 
-0.7640999100771566 
-0.5564429680968755 
0.1384515971721063 
-0.3013001434017234 
-0.4613679243449033 
0.6015255672890500 
0.2795303907288262 
0.3052811697774823 
0.1647704691542672 
0.06757030557069586 
0.6566410482619968 
-0.08185974224633590 
-0.03601679368269892 
-0.2496218021695897 
-0.1641012432280262 
0.07093255036014655 
-0.3733459032595180 
0.3247903093695519 
0.04669459841520865 
-0.5299290451178345 
0.1009636224731360 
0.3858779057703874 
-0.6731903612761384 
-0.02832515231911352 
-0.2802599170151703 
-0.5122850764959810 
-0.02706239509391219 
0.01730643894805225 
-0.2510829340094423 
-0.03786512001598608 
-0.06462554718980201 
-0.01991054195393689 
-0.01226145992377780 
0.2571781272834384 
-0.01893532788801704 
-0.01957587845688168 
0.02936261637567899 
0.1541159780590395 
-0.3378647289498298 
-0.03135662953645341 
-0.02150017878664340 
-0.01997060351302343 
-0.04116916111885477 
-0.004412718950810237 
-0.2277399289326712 
-0.1607491407276097 
0.01355624431588751 
-0.03503690340448259 
-0.01398534784774070 
-0.2435238132439675 
0.01448495798388937 
-0.1298205486415756 
-0.02255535845568342 
0.1432832304651681 
-0.1169510806762778 
-0.01200074730260478 
-0.07968322882063952 
0.1253854625791062 
-0.07968322882063952 
0.04936501814608417 
0.09173520155426051 
0.1687129828242544 
-0.1213190441216961 
-0.02236369388164720 
0.09173520155426051 
-0.2207064599391283 
-0.007198946352022903 
0.009957736646081166 
-0.05761350342719871 
0.2661298554408067 
0.02027285766311534 
-0.02676663925722359 
0.01191173075384991 
-0.1364331534060909 
0.2730664410515157 
-0.001667371328818981 
-0.04894245023636882 
0.06455213026767505 
0.02429824921927732 
0.09173520155426051 
0.3509485433558307 
0.1662677844144325 
-0.1202052168517341 
-0.09579513019848707 
0.2549111651240433 
-0.07518322829113730 
0.06156675943661886 
0.01378872846429909 
-0.06196867688974481 
0.01510688415437791 
-0.05077497277799674 
0.01141326262617808 
0.07832125808190743 
-0.01141457584057361 
0.1616894643564833 
0.01560161668503850 
0.1658533608021178 
0.08257434388000895 
0.1456961103273113 
-0.04453723209122719 
-0.03053577496365006 
-0.009049004306455284 
-0.05997629670559340 
-0.03528689472430429 
0.2000527876686546 
-0.1179602227449659 
0.02962495010323054 
-0.004427774287748610 
0.1562505193818486 
0.09173520155426051 
-0.01201435877896194 
-0.08140804638204921 
0.01300303341121504 
-0.009657529536227569 
-0.03755063191915056 
-0.03530182321239482 
0.006875960462686067 
0.3219289795310905 
0.2495106764219692 
-0.5879506824052497 
0.5949636029553654 
0.3232913763919804 
-0.3701756698457801 
-0.2213292933468742 
-0.2570083588358459 
-0.7640999100771566 
-0.5564429680968755 
0.1384515971721063 
-0.3013001434017234 
0.4390854330139067 
-0.5330912588477889 
0.3626839934188773 
0.3052811697774823 
0.1647704691542672 
-0.2372292186192107 
0.6566410482619968 
-0.08185974224633590 
-0.03601679368269892 
-0.2496218021695897 
-0.1641012432280262 
0.07093255036014655 
-0.3733459032595180 
0.2857544326588426 
0.04669459841520865 
-0.5299290451178345 
0.1009636224731360 
0.3858779057703874 
-0.6731903612761384 
0.03452581387008818 
-0.6379421959440361 
-0.5122850764959810 
-0.02706239509391219 
-0.2510829340094423 
-0.2926421028813664 
-0.03786512001598608 
-0.06462554718980201 
-0.01991054195393689 
-0.01226145992377780 
-0.01893532788801704 
-0.01957587845688168 
0.02936261637567899 
0.1541159780590395 
-0.3378647289498298 
-0.04239012718124715 
-0.03135662953645341 
-0.02150017878664340 
-0.01997060351302343 
-0.04116916111885477 
-0.004412718950810237 
-0.2277399289326712 
-0.1607491407276097 
-0.03503690340448259 
-0.01398534784774070 
-0.2435238132439675 
0.01448495798388937 
-0.01200074730260478 
0.07452142220385732 
-0.1298205486415756 
-0.02255535845568342 
0.1432832304651681 
-0.1169510806762778 
-0.07968322882063952 
0.4692820458646134 
0.1253854625791062 
-0.07968322882063952 
0.09173520155426051 
0.1687129828242544 
0.04936501814608417 
-0.1213190441216961 
-0.02236369388164720 
0.09173520155426051 
-0.05761350342719871 
-0.2207064599391283 
-0.1342486262192813 
0.009957736646081166 
0.06156675943661886 
0.2661298554408067 
0.02027285766311534 
-0.02676663925722359 
0.01191173075384991 
-0.1364331534060909 
0.4539913470796378 
0.2730664410515157 
-0.001667371328818981 
0.06455213026767505 
-0.04894245023636882 
0.02429824921927732 
0.09173520155426051 
0.3509485433558307 
0.1662677844144325 
-0.1202052168517341 
-0.09579513019848707 
0.2549111651240433 
-0.007198946352022903 
-0.07518322829113730 
0.01378872846429909 
0.01510688415437791 
0.01141326262617808 
-0.05077497277799674 
0.07832125808190743 
-0.01141457584057361 
0.1616894643564833 
0.01560161668503850 
-0.07345022603604011 
0.08257434388000895 
0.1456961103273113 
-0.04453723209122719 
-0.03053577496365006 
-0.009049004306455284 
-0.05997629670559340 
-0.03528689472430429 
0.2000527876686546 
-0.1179602227449659 
0.02962495010323054 
-0.004427774287748610 
0.1562505193818486 
0.09173520155426051 
-0.01201435877896194 
0.01300303341121504 
-0.08140804638204921 
0.1159476865789592 
0.5748798063659941 
0.6371896422025088 
-0.7362662787590500 
-0.5324185471048601 
0.3876590120009261 
0.5598051611255808 
-0.2689777595402224 
0.07919655918888133 
-0.3609280847923371 
0.1663657649605091 
-0.3406970568440068 
-0.3406970568440068 
-0.3406970568440068 
-0.02843927771823565 
-0.02843927771823565 
-0.04230816020757341 
-0.1232809125943999 
-0.01401616013705768 
-0.07304480869145874 
-0.02435525383485811 
0.4980587400620813 
-0.08453384828221464 
-0.3037591592010396 
0.3969691091330053 
0.07918854460993774 
-0.03133477167826410 
-0.4304977435619510 
0.1134910281763541 
0.4922002861953430 
0.4922002861953430 
-0.004393107703772591 
-0.004393107703772591 
-0.2411654464633260 
0.2322045568331898 
-0.006655680856370990 
-0.02506319617084792 
-0.1205131854936533 
-0.08828892868900662 
-0.06164746233979794 
-0.05552592919177930 
-0.1205738111096374 
-0.07671339750146708 
-0.2724585420302433 
-0.08854775201073467 
-0.2617261487526221 
-0.004803540086310319 
-0.2406421212959349 
-0.009861256709963647 
-0.001562485009414250 
-0.02843805750832821 
0.01143026818716554 
0.1397067747425879 
-0.1383352147488279 
-0.004177527427245557 
-0.1639904608709212 
0.1366701181649796 
-0.003684259442880659 
-0.02758257412276485 
-0.03978112350873099 
-0.002856722218517070 
0.1376895946712512 
-0.0009675589682526643 
0.08988303503489961 
-0.03978112350873099 
-0.02758257412276485 
-0.03978112350873099 
-0.01718362417184776 
-0.1999119852559082 
-0.08854775201073467 
-0.2278087769067865 
-0.04103650569941533 
-0.2482900577617979 
0.05046614489787481 
-0.06736369763149584 
0.3773053013539179 
-0.3337834155611419 
-0.02758257412276485 
0.06172943682381384 
-0.2995321114096720 
-0.02758257412276485 
0.1174656091576645 
-0.09855409124009688 
0.04598341084151105 
0.02321262217349590 
-0.01434282071995479 
-0.02758257412276485 
-0.002273012251728869 
-0.06096517788796981 
-0.02758257412276485 
0.1006708980318786 
-0.07227994932953652 
0.01143026818716554 
-0.08587389968757927 
0.2472588307646024 
-0.1462878283395441 
-0.03978112350873099 
-0.3555357401702865 
-0.03978112350873099 
-0.06809465307731390 
-0.03228519529117230 
-0.02758257412276485 
0.01143026818716554 
-0.3047995241899066 
0.01143026818716554 
0.03080754679814795 
0.01143026818716554 
0.2548119227300664 
-0.02758257412276485 
0.01446851719932730 
0.04885818851523047 
-0.01654295007332684 
-0.02758257412276485 
-0.02758257412276485 
-0.1364078867481563 
-0.06096517788796981 
-0.007923594362638115 
0.09974084901914597 
-0.03978112350873099 
-0.1732784236644390 
0.3099485418294186 
-0.02758257412276485 
0.01143026818716554 
-0.003597014366184062 
0.01143026818716554 
0 
0 
0 
0 
0 
0 
0 
0 
0 
0 
0 
0 
0 
0 
0 
0 
0 
0 
0 
0 
0 
0 
0 
0 
0 
0 
0 
0 
0 
0 
0 
0 
0 
0 
0 
0 
0 
0 
0 
0 
0 
0 
0 
0 
0 
0 
0 
0 
0 
0 
0 
0 
0 
0 
0 
0 
0 
0 
0 
0 
0 
0 
-0.5122850764959810 
0 
0 
0 
0 
0 
0 
0 
0 
0 
0 
0 
0 
0 
0 
0 
0 
0 
0 
0 
0 
0 
0 
0 
0 
0 
0 
0 
0 
0 
0 
0 
0 
-0.1104099619117158 
0 
0 
0 
0 
0 
0 
0 
0 
0 
0 
0 
0 
0 
0 
0 
0 
0 
0 
0 
0 
0 
0 
0 
0 
0 
0 
0 
0 
0 
0 
0 
0 
0 
0 
0 
0 
0 
0 
0 
0 
0 
0 
0 
0 
0 
0 
0 
0 
0 
0 
0 
0 
0 
0 
0 
0 
0 
0 
0 
0 
0 
0 
0 
0 
0 
0 
0 
0 
0 
0 
0 
0 
0 
0 
0 
0 
0 
0 
0 
0 
0 
0 
0 
0 
0 
0 
0 
0 
0 
0 
0 
0 
0 
0 
0 
0 
0 
0 
0 
0 
0 
0 
0 
-0.001807129082916528 
0 
0 
0 
0 
0 
0 
0 
0 
0 
0 
0 
0 
0 
0 
0 
0 
0 
0 
0 
0 
0 
0 
0 
0 
0 
0 
0 
0 
0 
0 
0 
0 
0 
0 
0 
0 
0 
0 
0 
0 
0 
0 
0 
0 
0 
0 
0 
0 
0 
0 
0 
0 
0 
0 
0 
0 
0 
0 
0 
0 
0 
0 
0 
0 
0 
0 
0 
0 
0 
0 
0 
0 
0 
0 
0 
0 
0 
0 
0 
0 
0 
0 
0 
0 
0 
0 
0 
0 
0 
0 
0 
0 
0 
0 
0 
0 
0 
0 
0 
0 
0 
0 
0 
0 
0 
0 
0 
0 
0 
0 
0 
0 
0 
0 
0 
0 
0 
0 
0 
0 
0 
0 
0 
0 
0 
0 
0 
0 
0 
0 
0 
0 
0 
0 
0 
0 
0 
0 
0 
0 
0 
0 
0 
0 
0 
0 
0 
0 
0 
0 
0 
0 
0 
0 
0 
0 
0 
0 
0 
0 
0 
0 
0 
0 
0 
0 
0 
0 
0 
0 
0 
0 
0 
0 
0 
0 
0 
0 
0 
0 
0 
0 
0 
0 
0 
0 
0 
0 
0 
0 
0 
-0.1104099619117158 
0 
0 
0 
0 
0 
0 
0 
0 
0 
0 
0 
0 
0 
0 
0 
0 
0 
0 
0 
0 
0 
0 
0 
0 
0 
0 
0 
0 
0 
0 
0 
0 
0 
0 
0 
0 
0 
0 
0 
0 
0 
0 
0 
0 
0 
0 
0 
0 
0 
0 
0 
0 
0 
0 
0 
0 
0 
0 
0 
0 
0 
0 
0 
0 
0 
0 
0 
0 
0 
0 
0 
0 
-0.1104099619117158 
0 
0 
0 
0 
0 
0 
0 
0 
0 
0 
0 
0 
0 
0 
0 
0 
0 
0 
0 
0 
0 
0 
0 
0 
0 
0 
0 
0 
0 
0 
0 
0 
0 
0 
0 
0 
0 
0 
0 
0 
0 
0 
0 
0 
0 
0 
0 
0 
0 
0 
0 
0 
0 
0 
0 
0 
0 
0 
0 
-0.2010888402769102 
0 
0 
0 
-0.003342796089209565 
0 
0 
0 
0 
0 
0 
0 
0 
0 
0 
0 
0 
0 
0 
0 
0 
0 
0 
0 
0 
0 
0 
0 
0 
0 
0 
0 
0 
0 
0 
0 
0 
0 
0 
0 
0 
0 
0 
0 
0 
0 
0 
0 
0 
0 
0 
0 
0 
0.4052179106734752 
0 
0 
0 
0 
0 
0 
0 
0 
0 
0 
0 
0 
0 
0 
0 
0 
0 
0 
0 
0 
0 
0 
0 
0 
0 
0 
0 
0 
0 
0 
0 
0 
0 
0 
0 
0 
0 
0 
0 
0 
0 
0 
0 
0 
0 
0 
0 
0 
0 
0 
0 
0 
0 
0 
0 
0 
0 
0 
0 
0 
0 
0 
0 
0 
0 
0 
0 
0 
0 
0 
0 
0 
0 
0 
0 
0 
0 
0 
0 
0 
0 
0 
0 
0 
0 
0 
0 
0 
0 
0 
0 
0 
0 
0 
0 
0 
0 
0 
-0.2010888402769102 
0 
0 
0 
0 
0 
0 
0 
0 
0 
0 
0 
0 
0 
0 
0 
0 
0 
0 
0 
0 
0 
0 
0 
0 
0 
0 
0 
0 
0 
0 
0 
-0.2010888402769102 
0 
0 
0 
0 
0 
0 
0 
0 
0 
0 
0 
0 
0 
0 
0 
0 
0 
0 
0 
0 
0 
0 
0 
0 
0 
0 
0 
0 
0 
0 
0 
0 
0 
0 
0 
0 
-0.1104099619117158 
0 
0 
0 
0 
0 
0 
0 
0 
0 
0 
0 
0 
0 
0 
0 
0 
0 
0 
0 
0 
0 
0 
0 
0 
0 
0 
0 
0 
0 
0 
0 
0 
0 
0 
0 
0 
0 
0 
0 
0 
0 
0 
0 
0 
0 
0 
0 
0 
0 
0 
0 
0 
0 
0 
0 
0 
0 
0 
0 
0 
0 
0 
0 
0 
0 
0 
0 
0 
0 
0 
0 
0 
0 
0 
0 
0 
0 
0 
0 
0 
0 
0 
0 
0 
0 
0 
0 
0 
0 
0 
0 
0 
0 
0 
0 
0 
0 
0 
0 
0 
0 
0 
0 
0 
0 
0 
0 
0 
0 
0 
0 
0 
0 
0 
0 
0 
0 
0 
0 
0 
0 
0 
0 
0 
0 
0 
0 
0 
0 
0 
0 
0 
0 
0 
0 
0 
0 
0 
0 
0 
0 
0 
0 
0 
0 
0 
0 
0 
0 
0 
0 
0 
0 
0 
0 
0 
0 
0 
0 
0 
0 
0 
0 
0 
0 
0 
0 
0 
0 
0 
0 
0 
0 
0 
0 
0 
0 
0 
0 
0 
0 
0.06437306974761645 
0 
0 
0 
0 
0 
0 
0 
0 
0 
0 
0 
0 
0 
0 
0 
0 
0 
0 
0 
0 
0 
0 
0 
0 
0 
0 
0 
0 
0 
0 
0 
0 
0 
0 
0 
0 
0 
0 
0 
0 
0 
0 
0 
0 
0 
0 
0 
0 
0 
0 
0 
0 
0 
0 
0 
0 
0 
0 
0 
0 
0 
0 
0 
0 
0 
0 
0 
0 
0 
0 
0 
0 
0 
0 
0 
0 
0 
0 
0 
0 
0 
0 
0 
0 
0 
0 
0 
0 
0 
0 
0 
0 
0 
0 
0 
0 
0 
0 
0 
0 
0 
0 
0 
0 
0 
0 
0 
0 
0 
0 
0 
0 
0 
0 
0 
0 
0 
0 
0 
0 
0 
0 
0 
0 
0 
0 
0 
0 
0 
0 
0 
0 
0 
-0.2690833556180918 
0 
0 
0 
0 
0 
0 
0 
0 
0 
0 
0 
0 
0 
0 
0 
0 
0 
0 
0 
0 
0 
0 
0 
0 
0 
0 
0 
0 
0 
0 
0 
0 
0 
0 
0 
0 
0 
0 
0 
0 
0 
0 
0 
0 
0 
0 
0 
0 
0 
0 
0 
0 
0 
0 
2.529940443617340 
0 
0 
0 
0 
0 
0 
0 
0 
0 
0 
0 
0 
0 
0 
0 
0 
0 
0 
0 
0 
0 
0 
0 
0 
0 
-0.2975523471516631 
0 
0 
0 
0 
0 
0 
0 
0 
0 
0 
0 
0 
0 
0 
0 
0 
0 
0 
0 
0 
0 
0 
0 
0 
-0.1104099619117158 
0 
0 
0 
0 
0 
0 
0 
0 
0 
0 
0 
0 
0 
0 
0 
0.4463415829482135 
0 
0 
0 
0 
0 
0 
0 
0 
0 
0 
0 
0 
0 
0 
0 
0 
0 
0 
0 
0 
0 
-0.2047102858704753 
0 
0 
0 
0 
0 
0 
0 
0 
0 
0 
0 
0 
0 
0 
0 
0 
0 
0 
0 
0 
0 
0 
0 
0 
0 
0 
0 
0 
0 
0 
0 
0 
0 
0 
-0.003342796089209565 
0 
0 
0 
0 
0 
0 
0 
0 
0 
0 
0 
0 
0 
0 
0 
0 
0 
0 
0 
0 
0 
0 
0 
0 
0 
0 
0 
0 
0 
0 
0 
0 
0 
0 
0 
0 
0 
0 
0 
0 
0 
0 
0 
-0.1999092271036952 
0 
0 
0 
0 
0 
0 
0 
0 
0 
0 
0 
0 
0 
0 
0 
0 
0 
0 
0 
0 
0 
0 
0 
0 
0 
0 
0 
0 
0 
0 
0 
0 
-0.2975523471516631 
0 
0 
0 
0 
0 
0 
0 
0 
0 
0 
0 
0 
0 
0 
0 
0 
0 
0 
0 
0 
0 
0 
0 
0 
0 
0 
0 
0 
0 
0 
0 
0 
0 
0 
0 
0 
0 
0 
0 
0 
0 
0 
0 
0 
0 
0 
0 
0 
0 
0 
0 
0 
0 
0 
0 
0 
0 
0 
0 
0 
0 
0 
0 
0 
0 
0 
0 
0 
0 
0 
0 
0 
0 
0 
0 
0 
0 
0 
0 
0 
0 
0 
0 
0 
0 
0 
0 
0 
0 
0 
0 
0 
0 
0 
0 
0 
0 
0 
0 
0 
0 
0 
0 
0 
0 
0 
0 
0 
0 
0 
0 
0 
-0.003342796089209565 
0 
0 
0.06437306974761645 
0 
0 
0 
0 
0 
0 
0 
0 
0.09764312004796796 
0 
0 
0 
0 
0 
0 
0 
0 
0 
0 
0 
0 
0 
0 
0 
0 
0 
0 
0 
0 
0 
0 
0 
0 
0 
0 
0 
0 
0 
0 
-0.2975523471516631 
0 
0 
0 
0 
0 
0 
0 
0 
0 
0 
0 
0 
0 
0 
0 
0 
0 
0 
0 
0 
0 
0 
0 
0 
-0.3486984629002455 
0 
0 
0 
0 
0 
0 
0 
0 
0 
0 
0 
0 
0 
0 
0 
0 
0 
0 
0 
0 
0 
0 
-0.2080530819596848 
0 
0 
0 
0 
0 
0 
0 
0 
0 
0 
0 
0 
0 
0 
0 
0 
0 
0 
0 
0 
0 
0 
0 
0 
0 
0 
0 
0 
0 
0 
-0.2075430639970508 
-0.0007996071468056686 
0.09362744927784636 
-0.009033951009171832 
-0.0006772517332049986 
0.01016983390897005 
0 
0 
0.01393347804987493 
0 
0 
0.04885818851523047 
0 
-0.04923797323590270 
0 
0.001704053951929827 
0 
0 
0 
-0.01141111849344866 
-0.3333536759371922 
0 
0.2262865101146841 
0 
0 
0 
0 
0 
0 
0 
0 
0 
0 
-0.003342796089209565 
0 
0 
0 
0 
0 
0 
