solver_type L2R_LR
nr_class 23
label 1 2 3 4 5 6 7 8 9 10 11 12 13 14 15 16 17 18 19 20 21 22 23
nr_feature 2097
bias 0.000000000000000
w
-0.5541881390061109 0.07605196214824839 0.2900103704994466 -0.2208588028437959 0.06641258083061612 0.5028915278276352 0.06225915070973261 -0.6413923616725772 -0.8587173494458592 -0.05892938439497635 0.5327338626921667 0.2756108852254225 0.3198991930678429 -0.6108393523867107 -0.1325004213906915 -0.4540847062713959 0.2241499250523057 -0.2816143178528126 -0.2434311227030125 -0.1696115262818047 0.1350767841450475 -0.3305662798440844 0.2191448213993450 
-0.3079961591401061 -0.1010876201280919 -0.3168382821023099 0.09830035377786986 -0.1831511247829541 1.039971079210581 0.4391911358487273 -0.4803755349972393 -0.5435867852442680 -0.1655332964128036 0.2044655933582802 -0.04700588425623776 -0.3627596869085888 -0.5526471822554866 -0.009044891638607944 -0.1186660848447756 0.4302996727976897 -0.2303240581578847 -0.1949992718305785 0.07340247845563702 -0.007590411961935762 -0.3231177490067698 0.2806113143608939 
-0.3249905036257220 0.1514622837144135 -0.1262909424956482 0.2235322102818649 0.1469547992411238 -0.1440547081020070 -0.1617872499811988 0.2182217800784948 -0.04674176470503990 0.02597050558015731 0.3570467169066079 0.2941826195786572 -0.2464204255896099 -0.01570641084769546 -0.1019232870277764 0.07280586741819191 -0.1738756979073809 -0.2658403027563625 -0.2205770816449144 0.5458898598946649 0.4540492009644198 -0.2350752156766939 -0.2996000931048088 
0.2188254858780268 -0.7590865460940763 -0.1086557869424833 0.2044905881136636 -0.7486566359288996 -0.1973507699275422 -0.7871436372661205 0.1003040141770172 -0.5385477210939988 -0.1094351667028888 -0.05881920424257794 -0.1409835353423036 0.1187169084909314 -0.4421539580838256 -0.1367077806222902 0.1355453354276249 0.8536256937157299 -0.07561622607088916 -0.1964697394470703 0.2426467837435219 -0.03208540122745386 -0.3719570213591805 -0.3995490989221808 
0.07350746949903857 -0.1960524059491643 -0.1379486705690794 -0.1391005893705002 -0.01291002992549803 0.07424157960419800 0.2046813620825937 0.09126551977708167 -0.01426662338771846 -0.05245839205725360 0.005857191596045890 0.4544768206880661 0.1435360104090914 -0.5053181259398906 0.04123026646035673 -0.2022409629702259 -0.09796051922243976 0.1261877393674019 -0.1624812962323186 0.1236695785938860 -0.07859404921578689 0.1178491417053730 -0.2078806053492678 
0.1391119343296827 0.7954307966799180 -0.02487672571728691 -0.1418979540400103 -0.1893569708253982 0.2664413992901402 -0.0005166685461152250 -0.2328894273422510 -0.1192207384066678 0.1020411146228362 -0.08694142353131486 0.3109305132792868 -0.2485977136662072 0.3165875345703471 -0.04487896972851783 -0.3478975626833325 0.1307194542779228 -0.06744592413377616 -0.1085428770767098 -0.4809500567899336 0.05433057017416530 -0.3181654905799905 -0.2570823881053449 
-0.1993591442429881 0.5233745973527625 -0.1520648617294869 -0.06139248183768782 -0.8794877601935813 0.1088531653839260 0.1530676887648549 0.3949481382680127 1.031894018394592 0.2676346520991771 -0.06292094583239162 -0.1416453785774330 -0.2939991016993039 -0.1029322462287830 -0.1581434933022062 -0.1582052993552728 0.05097286381256400 0.04550212931688302 -0.04656946704834630 0.03515610509199865 -0.1759450959242656 -0.06850017474794468 -0.1140262429921215 
-0.5743155629150093 0.7985151205234918 -0.2313269932975304 0.1355653323166804 -0.07345077895994360 -0.1039219832295171 0.3547892009248252 0.1593942147783830 0.06472250988506946 -0.1462823252886244 0.1901831825785541 -0.1735856586850359 -0.3970499914833098 0.2891100256977940 -0.2060072067238754 -0.06469277861348680 0.3677792800826986 -0.1134089063758931 -0.1147144068896835 -0.2791536182462230 -0.2197996918840127 -0.1070341566969246 -0.1822791578358796 
0.4056068726282009 -0.3794393746633258 -0.06121749905037619 0.1196347533365173 0.8609406597348993 0.2937527354493008 -0.5578702111916608 -0.1632222469859160 -1.073269717776519 0.1040368639113329 -0.3036211603509343 0.02951675418614140 -0.2465174068647260 0.1648003834932066 -0.1636184124612072 -0.1447625623971826 -0.1698345420877515 0.03574392602112857 -0.1007810394579469 -0.05847345921208443 -0.1678386894949629 -0.08006187739727107 -0.1168016811616641 
-0.1945489118848763 1.258032017716160 -0.08083893279544337 -0.07857835432832777 -0.5567682368568162 -0.4099400414039389 -0.01108844852247290 -0.4335832702052954 -0.8139860734260861 -0.1342389323439296 -0.6356445238644932 0.09740411685176960 0.1043503133525900 -0.1625279910721467 -0.2165804538668609 -0.3791715795349825 -0.1931540430888077 -0.03573524237788664 -0.1108357510826026 0.07293476024613446 0.08664111896175167 -0.2544115970244712 -0.1959628362001843 
-0.5264550579288567 -0.1766683219834566 -0.01310081382912252 -0.03179166795269747 -0.03774422040296950 -0.4416532697394821 -0.1900115953829994 -0.3731014650881910 -0.09625530420306723 -0.01606015829008976 0.8445061261539810 0.02410690306884224 -0.02569094597250644 -0.03546814459874379 -0.04390668840221806 -0.03181641609400571 -0.02067222378334650 -0.05541439894136110 -0.01742679861420551 -0.09268781035209920 -0.1638220434613894 -0.02259157251822681 -0.05918160689114750 
0.4284175918640785 0.1888081627887595 0.1324207655194957 -0.01343083004102274 -0.4168635180438824 -0.4839310546099233 -0.5515412029617374 -0.1377207109348257 -0.05546475503772985 0.09456654639081138 0.03278009224408821 0.2693316775625613 0.3403781528339115 -0.1538949984941433 0.2318948291517098 0.5171176877836242 0.2226184421177655 -0.09370188743853161 -0.08058575203503443 -0.1299422575463115 -0.1118910739216291 -0.1327592053699598 -0.09333921857935719 
0.07441326507067480 0.5847073756212038 0.2428273282753321 0.2858806515384209 -0.1834301788211515 -0.1978920999679832 0.2283160208101476 0.1611878732321998 0.1147839403223659 0.04517981678281063 -0.2868356269895616 0.01995374115565540 -0.05679872632479309 -0.1137730593461551 -0.1764888388818313 -0.1870341995331492 -0.07547748657657863 -0.06856368810963980 -0.04774246418569492 0.09147478544684323 -0.09800154844931504 -0.08189704797633561 -0.07292725525607507 
-0.3490716097247413 0.3259464911551859 0.5576838529774731 0.05435327555357078 -0.1194716350855789 -0.1729153323872628 -0.4634599075937792 -0.04027563563163653 -0.07569050906150139 -0.07201146980865135 0.1251953091305586 0.02660722631203907 -0.1570463496191762 -0.1864358549976816 -0.1914948352531974 -0.2335187186705483 -0.2140967482641439 -0.05812199000258776 -0.07281422437840085 0.05015088111574483 0.2138231723037303 0.2783464966115955 -0.1031341305877825 
0.5506236275267661 0.1864885602486320 -0.008343090145680613 0.002146855359653649 0.09870815399470477 0.07053797951525556 0.4842158427440442 0.4856486800388532 -0.1570643510928935 -0.03061130349422729 -0.2412430390478813 0.07269736299194642 -0.06384345772721080 -0.03536771846280729 -0.01504303143514620 -0.1304037458572622 -0.4906821251085175 -0.009712620755227615 -0.005534359386343510 -0.06283283733100638 -0.01900297506674474 -0.005550161524320907 -0.01047786230004514 
-1.292396594125094 -0.2697646200658186 -0.03992074370208314 0.1735493049069274 0.2384008190008719 1.532798864010271 -0.2074626274701017 -0.01540586359957303 0.5557297847668229 0.009420675971295332 -0.1321534818382991 -0.08776747954378380 -0.04195067312328464 -0.1069192500360224 0.01879215153364585 -0.1413895229557040 -0.3155797837160352 -0.06210991493001936 -0.02368471712238836 -0.09023492003671717 -0.09749785137845915 -0.05414810150428141 -0.05631494055052038 
-1.143650404427720 0.1130416663720498 0.1734270184694282 0.07102930006043064 0.5290836653666042 0.08227708968469254 0.03955774424014663 0.1425942076859830 -0.04938559415538041 0.02179207573939685 0.4635070149431781 0.1728383662657066 -0.06762441959248992 -0.03358115263379528 -0.07422756534688181 -0.08072340280048100 -0.6764697515217960 -0.02724047602963254 -0.01259178456718130 0.5217458452790460 -0.06814882709795175 -0.01480814664956235 -0.03661382594379160 
-0.2845096635909863 0.2019789108596698 -0.1382937344339539 0.08265339885234257 0.1025798466361333 0.04590287243028092 0.2128226672392812 -0.2746242531761489 0.01899709299720656 0.08286939408304266 0.1576739193132665 0.09889372989426906 -0.03016117100345267 -0.09822662017479687 0.1726606534855338 -0.3316806004982447 -0.03040249665309737 -0.04924601257680019 -0.03661613608954938 -0.1831610863715011 -0.1155346918267078 -0.08299674767996373 -0.06084318146053187 
0.1396820602028810 -0.09809489892697430 0.05043800242989439 0.06105569463277154 0.2420455058961079 0.3503610952878969 0.1438042833561916 -0.3857240792099529 0.1744617972184937 0.03021131016189479 -0.3589945207445458 0.1526445914839819 0.1306994183297226 -0.05059379781923355 -0.1511837549359865 -0.09173642603773177 -0.1066084841251388 0.05755842619847713 -0.02055676889569510 -0.1885180251777186 -0.07593114570558362 -0.04896575022707545 -0.06445428571043764 
-0.9421835355984879 0.6102038754350402 -0.1252500483547966 -0.02387784143950756 0.1034969750122278 -0.3463510500378690 0.02748405791344222 -0.1835129556638269 -0.1669990710216776 0.01361128739672398 0.1380424805137086 0.01958428289593599 0.4655543847688693 -0.03366872346610474 -0.05201019853159925 -0.1074269452438376 0.4102567590419070 -0.07507626988888540 -0.05317491983045582 -0.2020821624077617 -0.1113893893801825 -0.1217765131978361 -0.1071254266845297 
-0.9479974327015400 -0.3792444569566192 0.08444327186924723 -0.01773824743846890 0.4761085243913680 -0.01473031593018751 0.02811392506099671 0.2877905017938046 0.1714233536395393 0.2207719509046160 0.09837224403206543 -0.2363232844981325 0.2100396014355239 -0.02730826106677486 0.04991687593896033 -0.05970287967699177 -0.5946246552020739 -0.02899760563043050 -0.02408429272451710 0.5434434051148223 -0.02972439225382827 -0.02576133256969075 -0.03279149754786486 
0.9503933059187258 -0.2122701624878712 -0.003594098260749064 -0.01941719577597784 -0.02119369182605502 -0.1459203289308265 0.1395875092564035 -0.03532731987645211 -0.03042423229124419 -0.006258910603963530 -0.4769932754424090 -0.02979638121578409 -0.03422267571287808 -0.01513748586220066 -0.01811626693672263 -0.01574634065599802 -0.04987975668413189 -0.02754659597414579 -0.01141597449082546 -0.01439329409812476 -0.02258135779376689 -0.009953244045312408 -0.02896243070369867 
0.8265098085078713 -0.3058960657628765 -0.08038693113891177 0.1712280691421919 0.4928530393239566 0.1042156206049970 -0.3252954432277400 0.4826739006313242 0.1971832631118117 -0.1422998309786476 -0.2409283575960924 -0.3564712407065566 0.09595331572467994 -0.02728957695423192 -0.02705841147206748 -0.06525089607535091 -0.3181253707789647 -0.02479429854953662 -0.01819352788280474 0.09959204162602230 -0.04251943609938277 -0.03274275238575753 -0.02789296839382975 
0.7961159476343358 -0.1944487938401485 -0.008975609369069984 -0.007869867212322119 -0.02385784556779841 -0.3891717953646093 0.7963494700599011 0.08214090659012027 -0.02210366882936331 -0.005142877260166810 -0.8158674171135587 0.2765516479247761 -0.01245012601728596 -0.01038682345271784 -0.01628270058242999 -0.02097659401604603 -0.04715165238133704 -0.009275002500588853 -0.006281645975034754 -0.1025554403788852 -0.08798205656449797 -0.005843083190476787 -0.01413137503565377 
-0.007842476950295574 -0.09313428737735570 -0.004797298523633997 -0.01099900700175640 -0.01200520108069032 -0.04348296877494030 0.08188859421476496 -0.01972090383277965 -0.02923046659368632 -0.004632729801200181 0.1853225544471699 -0.02782372725116612 -0.03114961109499193 -0.01094019554760710 -0.01450112233702679 -0.01106149587461368 -0.04828252704583341 -0.01664163813135658 -0.008781752980241881 -0.008314166618230858 -0.009987302955585193 -0.008125464107883531 -0.01902754944966898 
0.3181560993509388 -0.7064996505196216 0.08797077145120621 -0.006916289452626664 -0.4039644328374667 -0.1159975798057460 0.3557055615725449 0.1194831267230837 -0.2103054452613639 0.2538814231258362 -0.9307383158480915 -0.06686194716546032 -0.1005046568146168 -0.03962610522456113 -0.03395987803837284 -0.1289791553485954 0.5326427657194391 -0.02258205811081168 -0.01752492606101139 0.03472177276814142 -0.1104225544829725 -0.03762277629026972 -0.02378293165162183 
0.4945011816994968 0.3123058510306929 0.07260674672239505 -0.2275763848926600 0.4767253588455417 -0.4475042474070846 0.1182809214964232 0.1829513833436769 0.09448307057260180 -0.03240569095798582 -0.1356351565133744 0.04610436742137839 -0.1823296190802423 -0.03815318436782346 -0.07866291843173907 -0.08559695015182672 -0.6845136441120300 -0.02870322723267536 -0.02935660112959083 -0.09103217666720720 -0.04224804235207430 -0.02805515538797308 -0.02819860076575389 
-0.1005094864473429 -0.4951127201787672 -0.03711750311550367 -0.05393479750849207 0.4176932226478143 0.3233634042435614 -0.1279358481388028 -0.3571405434113269 -0.06032038234669760 0.1205451765391532 0.3445076287113334 0.1463539494209578 -0.1336525783431716 -0.08327913359580728 -0.08268644464586145 -0.1175709582191140 -0.2170783878156973 -0.02715490191462473 -0.02404141466692976 0.4422575876918186 -0.03510133095292115 -0.03464838381233409 -0.03439886387710197 
0.2434675876450065 0.03734248432541695 0.04911203890196255 -0.06923706337307439 -0.7087656968671130 -0.01328879543424871 -0.2040354322312088 -0.2633652572603907 0.1297926610435918 0.002634454964159916 0.02347978395219571 0.1684741884783223 0.1868988607553226 -0.08604203128176847 -0.09931626127476340 0.05791389150353361 0.6008405170587912 -0.06137040542994810 -0.03873577706075856 -0.1091694428624475 -0.1636484660249959 -0.1325899312421494 -0.04873332384779092 
0.5365247095048022 0.09442233823955742 -0.04174877638368933 -0.03475270323066756 0.1999353357239873 -0.2392749989536150 0.1629308054567987 0.5455884006997057 -0.09944282715620936 -0.01982384430875759 -0.7884656969698808 -0.3694752888843336 -0.02596622153729949 -0.03220152713942369 -0.02935077027622610 -0.03102089246300551 0.1387656886438166 -0.02115273095820976 -0.01772336747322299 -0.04290144847038809 -0.04325230959559893 -0.01186377387351419 -0.03216384170332456 
0.4211636051196396 -0.3181080199808197 -0.1986670063924699 -0.02012149661098257 0.5863502781304549 -0.1000330121875546 -0.06033371864560601 0.1927148804299967 0.2525096230807744 0.1205922001820178 -0.06203595811893793 -0.3091521670688893 -0.004009514671325605 -0.02627205117828048 0.002256173315887469 0.4657107990267045 -0.4295482682416175 -0.01270976553053105 -0.01040699235591638 -0.1161118730857096 -0.02965750051822860 -0.01653313716168763 -0.01476232001830682 
0.3648066400194253 0.08478104181182230 -0.06997219250081860 -0.02369324366297368 0.1511663041864323 0.1893325570258327 -0.03104855977416373 0.1250668733807208 -0.03340661330835876 0.01857710324708197 -0.3757763374030513 -0.1119402839836948 -0.02776043543973536 -0.03849314621233762 -0.02985175569029926 -0.07132924964883548 -0.1243625565492082 -0.01598324403022560 -0.009375666180200590 -0.1048812973030448 -0.03836627676774194 -0.01242688746107413 -0.02300950236344379 
0.5013654758688671 -0.4377524691943312 -0.06411256923688292 0.03976980063705503 -0.2878063164615904 0.3849967541517112 -0.1601812172785721 -0.2129436453034113 -0.2321275203116386 -0.004108391013535085 0.1228892239275583 0.01595473100011318 0.006329649720742609 -0.03446826754044702 -0.03569844691306332 -0.3437328451294692 0.5037295456811749 -0.02190152608826391 -0.01812541673148423 -0.1258652930092775 -0.03078762484104488 -0.01457856421294717 -0.02249265435067888 
-0.3162926212982735 0.4044745393360770 -0.1403243006381872 0.08302604614373599 0.6458327313287770 -0.06643988308715276 -0.1461041137440602 0.1411022929163699 -0.1175795066502821 0.04169573068112352 -0.02032308015427934 -0.2047150880867739 -0.05995829746618388 -0.04901573018017112 -0.1128565290333869 -0.06839067415755650 -0.3010649383188154 -0.02191514909532294 -0.01763982607954729 0.07451084874817610 -0.1237206237570459 -0.02492026326153690 -0.02674753455775843 
-0.6507587168227689 0.6708694379581541 -0.01314378261954541 -0.01013665721631290 0.4632187159533042 0.04576141457726540 -0.1874543536213779 0.02796623564844952 -0.3328212062916179 -0.1164158902157624 0.2032088548804245 -0.2334602977459303 0.1714940200713361 -0.02528604160891275 0.09570878547732521 -0.05858109122305266 0.08569901659162923 -0.02320844539956845 -0.01456763006002563 -0.1037949736514098 -0.03401972666882869 -0.03201244013396987 -0.02256425075696717 
0.4597590477249930 -0.1240706973359019 -0.004433333064641888 -0.009329679954686620 -0.04981812497676760 -0.1195822991276369 -0.5128948601194677 -0.3345978028363603 -0.02300066293463548 -0.003002933132925720 -0.3529575540948965 0.02487012773213053 -0.01007795094610668 -0.007021432076886070 -0.008295557568007976 -0.005391010066318590 -0.04581637211705559 -0.01072984605844668 -0.005690753109198392 -0.2341114868815675 0.4575627680623072 -0.006271021363178542 -0.01307679991723818 
0.1511676147087904 0.6601545297927344 0.1704859695536914 0.04147964346991936 -0.3576117908336870 0.07859689763115583 -0.7740000468987832 -0.02451530222195272 -0.01823923533599856 -0.2007280681543950 0.4055267930727939 0.09819887762037220 -0.002518521925806871 -0.02281190403042959 -0.05383223173950456 -0.02901252344141343 -0.3246360281329904 -0.02416672001996062 -0.006463391587201009 -0.06851603694488778 -0.03393877681137954 -0.007450420692556429 -0.01862027817445133 
-0.1153601459438146 0.01764660117858824 -0.006041234043520595 -0.008423295397384610 -0.2583601215377793 -0.1021206691502130 -0.1321450480498206 0.05221267232913478 -0.02654524961502352 -0.01740330792959126 0.3592267199732692 -0.1198780647988854 -0.02001037244930732 -0.02951749037967716 -0.02393246477441421 0.03620112916695788 -0.2660061758341047 -0.009869598075631193 -0.004417647994569581 -0.08694421385650472 0.1405049562737807 -0.005699768046188193 -0.01254677265282168 
0.2155654371038536 0.2330152729965243 -0.2358328664787293 0.01633673444478455 0.05243632569911666 0.1274636223877836 -0.2668750487477373 -0.1431677064564425 -0.01449196479117579 -0.02340746020796288 0.4887194818251944 -0.09692123167077611 -0.08855874796246384 -0.04872049034585074 -0.05510499412992341 0.4131960021970552 -0.1733895918619489 -0.05976671426139602 -0.02297761424192006 -0.1234180282840675 -0.07363290836342254 -0.03753558049030539 -0.03415740208471058 
-0.3003567442628096 -0.5551861577691729 0.01371530587249143 0.05896882138827959 0.4183417191850402 -0.1837935074089570 -0.01067778548429564 0.4334745131332884 -0.4093389959274588 0.01037850156183690 -0.1780954353328735 -0.2904190019917827 -0.1513204098357573 -0.04621223064148333 -0.02653085975710723 0.08870971075069291 -0.07779919701584435 -0.01406416759645599 -0.01127419292109921 0.04612185379924685 0.09747107767231275 -0.06787129939883490 -0.02163463538021834 
1.098453897991766 -1.051840550123393 -0.02791663242618968 -0.02248864228703079 -0.05394707452553142 -0.02125405115250821 -0.6837893375467918 0.1272237287003706 -0.03411945495224147 0.01130683473490302 0.1755854922040398 -0.1907101906733470 0.2952299555742198 -0.02900879195451774 -0.03870007897083316 -0.04666895504501582 -0.06035370291316444 -0.02447571790158898 -0.01139856340177036 -0.1148545441840867 -0.03606051154800541 -0.02729840109477080 -0.02510163652587326 
0.009578165836111157 -0.5277874225323764 -0.02348734607632468 -0.02953985399847713 -0.1008731032527194 0.06116772751221771 -0.02595341633014480 -0.02156569890290079 -0.03089702430966459 0.04110681622717691 -0.01386109405239991 -0.02294744922338667 0.1642664270933581 -0.04761743152202139 -0.01827384589100171 0.1370957886179619 -0.3040616938427136 -0.01170621789523193 -0.01065971278847179 -0.06904196213256951 -0.01617786272010603 -0.01644714809273401 -0.01098366049998239 
-0.3311326919713465 -0.1300267786548614 -0.003628476993873727 0.4090985376610042 -0.3706081488642544 -0.005980777973978611 -0.02574259376043427 -0.02408996957466362 -0.02528605392234352 -0.03871468749616008 -0.01231928724635157 -0.01989262832355008 -0.1658578749158604 -0.04787535565077595 -0.006372251256241925 -0.05331703950140115 0.2902246001107768 -0.01245407406012431 -0.01085958805746413 -0.09283412264059280 -0.01187614563501386 -0.1001919733384149 -0.01132524602948047 
-0.3457408333458877 0.2794380289309525 -0.02849977372889098 -0.02996914085746779 0.2996828250582849 0.05977632243303867 -0.2312918983522027 -0.02748025603638281 -0.01523599646744648 0.02499034489356436 0.1112362975106553 -0.06013421940031707 0.04591316851724101 -0.01602864398462582 -0.01727470167697260 -0.02006759555078111 -0.2802626336606551 -0.01632576798585576 -0.003221277404626186 -0.04964105982174360 -0.01985697579283778 -0.004954376548914248 -0.01318287069078802 
-0.3837633711488117 0.1990915196097730 -0.02637340634395115 -0.04706798571427479 -0.2557050954025500 -0.007030698407386047 -0.08088512273742172 0.7244638661866657 -0.09031541653239925 -0.01675519796206113 0.006060977686505790 -0.2391833463880237 0.001736376597586157 -0.05387926768658684 -0.04654641862793421 -0.06261481611905574 0.3151636897049010 -0.03689711260163938 -0.02650094523571692 -0.1580040954672711 -0.04205517545027917 -0.03357977677662741 -0.03108847663962119 
0.04181555481939152 -0.03660916146602059 -0.003410200641867998 -0.01477125571484689 -0.01357319486965427 -0.08924274590763288 -0.3798727311069075 -0.01966442762598027 -0.01201554614958479 -0.003058610216969480 -0.02382008668733172 -0.009826917229741453 -0.006894843884924309 -0.006090393944698142 -0.008767859309317205 -0.006517958348293127 -0.002269763892785765 -0.007332416562068191 -0.003320723248480434 -0.02465826688031398 -0.01924298567082360 -0.003092237204400130 -0.02334687469928775 
-0.07636996821001660 -0.02842385646963652 -0.002593516886507330 -0.001984818054403079 -0.007206432804855669 -0.2589252973115749 0.3143585021339480 -0.3511580947927304 -0.002475852610527695 -0.001435235323723259 -0.07458942978941205 0.8100652815599858 -0.002001469920093878 -0.001523274128164848 -0.003100802519406813 -0.004843158136148034 -0.001175554039790933 -0.001581878162208410 -0.0008973630646501961 -0.07294796116010885 -0.05962973298020289 -0.001691341046931494 -0.002390993686908711 
-0.4559816520001133 -0.01993321325280454 -0.002499811956707663 -0.001770088963504270 -0.004970883477799354 -0.1912894475779600 0.1113456293986267 -0.3167297968372576 -0.003976310001922207 -0.001540051934447455 0.4011093805577409 0.5201338985364639 -0.002317993749752449 -0.003984559880300072 -0.005287545204721296 -0.007049336157353698 -0.001424501594838884 -0.002546278429699618 -0.001626932317329874 -0.06615109511496871 -0.05029259200032991 -0.003149045398695471 -0.002901856003333633 
0.5139346551984441 -0.9289187813583781 0.01938561587483375 0.02606854942769282 0.2127035619686335 0.004218827385047656 0.01944174364634244 -0.07658943243779681 0.1599676302094024 0.3345708229171759 0.1159819591647942 0.07237709312686333 -0.05273433233600621 -0.05929036469359973 -0.05835658839414105 -0.1088964553365425 -0.3173582309551934 -0.01765416745779361 -0.01501688850880290 -0.1053984730064010 -0.02788132285644921 -0.03533576336911321 -0.02380796160902372 
0.3120671523355973 -0.3316500724515438 0.5494125063113798 0.06731687119432703 0.005372652710544625 -0.05202450629455770 -0.2714508177288782 0.3172163252714603 -0.02243362212797417 -0.04283756078145264 -0.2689178123323955 -0.3920959966730078 -0.009981442147612934 -0.01786251741661685 -0.08600238178111053 -0.04221864253700481 -0.07457847366767793 0.1288740410412664 -0.01024182367147868 -0.1259124541647035 0.3381507716711037 -0.02159559411830546 -0.02370247517798511 
-0.2026809364934014 0.08700928576754986 -0.009578792050383181 0.1927912270280620 -0.1179582799698208 0.04217245263951155 -0.02365169930810014 -0.04537972819159843 -0.02135648516790936 -0.02530858057083916 -0.01073766439737363 -0.02630375047750206 -0.2581828934577015 -0.03079301232965601 -0.01289809284280143 -0.05393508193795647 -0.07892871687450001 -0.01275396840416661 -0.009938305960259635 -0.08263443715849389 -0.01410706864836132 -0.02758913304700423 -0.01190286987411795 
0.1349211509222662 0.1327871308176440 -0.02278531989672831 -0.01498533422354908 -0.8259384489123988 -0.002188730975303055 0.06639305264186707 -0.04524357142610660 -0.1094293060626308 -0.1391128443611465 0.2809769332829040 -0.1099640508697410 -0.04500876799987288 -0.05901069123034564 -0.05486317943776065 -0.05603930830163184 0.4869446916113273 0.1113788424155802 -0.01117269124928228 0.2632106068475207 -0.03168468820453550 -0.01336141900704819 -0.01717462782737474 
0.1871698571442749 0.1598171946989271 0.08023733550320082 0.01078023345987464 -0.01780667811896026 -0.06259623410339300 -0.01438984999416964 0.02823645108705085 -0.04796027753163119 0.09958101989802587 -0.1608467708505608 -0.06215020995858579 -0.04175517690084762 -0.02531396253160845 -0.02953878556636110 -0.02390330470640274 0.1764249092476710 0.003203247138596779 -0.02141728929513070 -0.04693664920299804 -0.02425289914024733 -0.005431950652793064 -0.01534109008097794 
0.8142555434364783 -0.4519670777862177 -0.006026718834169690 -0.02895652812829117 -0.09894780479130641 -0.7741234440985693 -0.08164693913671607 -0.01014357558404603 -0.02591668200699306 -0.02158109315890059 0.1703784203876881 -0.01129387932543222 -0.06793202745664410 -0.007535131779782428 -0.003722755021629460 -0.05022666044960880 -0.08084785466921444 -0.006514914263000017 -0.008975978947108356 -0.02102034157534937 -0.005576900614367553 -0.002743511177879653 -0.007878910062510852 
-0.5472924691966812 0.04235482095191426 -0.02841061720432954 -0.04118609771795914 -0.06572730293388658 -0.009833926611806876 -0.03252503045404732 -0.04014477971511376 -0.03006926092802310 -0.02056176177023410 -0.008067484352658784 -0.03767453769809608 0.1944244705827909 -0.02404469711565638 -0.02338889031973114 -0.03002331793950704 -0.05379857223844253 -0.02786634095018498 -0.02337637600320091 -0.04333597532850146 -0.03729119036349473 -0.03906989304633205 -0.03084496247930199 
-0.4591981785445661 0.05612090712401685 -0.002841832841732627 -0.005368068685907166 -0.01116419344648723 -0.05216146196743990 0.2872996051197774 -0.3970225845714962 -0.01779292729588455 -0.001222842750043838 -0.07796684133615848 0.3792072551474353 -0.003928697892574244 -0.007007375738467528 -0.01474271478546512 -0.01659517996962132 -0.001961057808959900 -0.005810604302919367 -0.001674260091468864 -0.02875506086062989 -0.01909403432348485 -0.003221301650260492 -0.007542338032984673 
-0.4117584082739919 0.05955605052326062 -0.01477960265365980 -0.008552460361183897 -0.1722033411184183 -0.07978930067043558 0.1054724395072058 -0.04448381633864473 -0.01088605792921262 -0.005784736979606424 -0.06203107363499382 -0.05120368972033489 -0.009594299531977142 -0.005903391155755946 -0.01116764830927927 -0.01112226885827620 -0.002954820781329895 -0.007268341928248096 -0.002806774146899242 -0.03929727857199159 -0.02129449122932638 -0.005282602841945149 -0.009831704961550898 
-0.3948207613968766 0.2873264515478831 -0.01550314714873540 -0.02033577433663920 0.2916880315194583 -0.01376721146495292 -0.3768493072964666 0.005175255380286162 -0.05315234217854666 -0.01100007560076666 0.1193807812954465 0.1285924114067421 0.05887314788303230 -0.02060515682758408 -0.02478405651742004 -0.01779277049771666 -0.2391929693875003 -0.007887310432076794 -0.005467962581668344 -0.03864257895938533 -0.02683289303237019 -0.004988614674928065 0.6498264965299497 
0.5179390277507481 -0.3377793491042584 0.01141472346985402 0.006414961755470490 -0.9026352928003838 -0.04221902801465081 0.2691611192855712 -0.1124281531098588 0.3400473652167201 0.1573621800902266 -0.7964726817003962 0.08283349038827952 -0.03612304588250211 -0.02812723956997483 -0.04452084542490988 0.1574086731261528 0.5064969696877127 -0.02377702387523862 -0.01797070342619540 -0.09569867154122697 -0.02860203472337606 -0.02566754483558188 -0.02410656280235964 
-0.1372924147388632 -0.1378046568781938 0.09086502564139656 0.06316808608111789 -0.2478588859834605 0.01801621427370484 0.1202636813330830 -0.03499890987020188 -0.009753586896345380 0.004253449054082563 -0.06289395496253246 -0.02182731637677671 0.02933212193540834 -0.03068460304448236 0.3707265331980655 -0.04941354806113989 0.2348229235972300 -0.009335273320706832 -0.009314376759102492 -0.09299343951134224 -0.02170639606770397 -0.03090328578202022 -0.01080061962420675 
-0.01078451366623551 -0.01132366721296592 -0.002192213892357241 -0.0005946215385752146 -0.002525251466410436 -0.2356897844426973 -0.001660792996049519 -0.3504718948481490 -0.001329738940329317 -0.001215512783835465 -0.1650373928961283 0.8196781292959424 -0.001280997527025794 -0.0008357271985555705 -0.001843594159565040 -0.004152665113525913 -0.001012473038765986 -0.0008374322750657915 -0.0006330545072713862 -0.06947188897283249 -0.05469242463108779 -0.001500331576845436 -0.0009854628281473280 
-0.4607721065395283 -0.08892994286371494 -0.009309007378099747 0.09843589187088123 0.3413102712640067 -0.03491958344981751 0.008548402388578010 -0.05045437664048371 -0.2443492223559874 0.06119206205159635 0.4088314015173884 0.4597086783901898 -0.06338405048969972 -0.01493657709411439 -0.005855264768228128 -0.02566720895051109 -0.1932653908436128 -0.008167463085057260 -0.006003620485990021 -0.04042628702890016 -0.01336827081110483 -0.006922290086673629 -0.01845982854785108 
0.06681791033450071 -0.1516492992497114 -0.1246315054278171 -0.03549646706552947 -0.3169253410702611 0.09382596194173186 -0.1115926197333552 -0.06095454134240472 -0.01484854460848116 -0.05978500388627173 -0.1376147594565994 -0.05138426100342559 -0.04103109410334574 -0.02171863747220489 0.3758181879396931 -0.03137286404162681 0.6241841545145964 -0.02014963240443345 -0.009667378819114295 -0.04929444877119404 -0.02652150898560804 -0.01809206959411374 -0.01920866421820154 
-0.1144300471340628 0.6795502309863019 -0.02858034460716265 0.002630394447881446 -0.1073620327490877 -0.03317927837185541 -0.001116522158932536 -0.07821242438974096 -0.1227697995558613 -0.04194311358873187 -0.5168080415710179 0.07544288067947662 -0.03440443158642412 -0.04377463277497468 -0.01258361800159204 -0.02255095234312972 -0.03765908766435649 0.005339760248800078 -0.01815531995604188 -0.04366859132026033 -0.02586983322647016 -0.02666425133244148 -0.01636435882045352 
-0.2962727713962014 -0.03213786961840272 -0.004662862310450321 -0.007999847048918568 -0.009093276720885746 0.009600084253212106 -0.03463304857841292 0.02256643668885969 -0.003315824174613933 -0.003304802347433771 0.05502169142203760 -0.1221268476256920 -0.009619225461643063 -0.003779526136916830 -0.006631648000135284 -0.008887353652147918 -0.003281416707067701 -0.007021639113928773 -0.003648637404747925 0.1619473623728578 -0.07348068689234310 -0.003118123361713306 -0.01669118675012414 
0.1282731701961231 0.2180095086550939 -0.04578332128012743 0.01925322484046134 0.2726459337744283 -0.02025188079987040 -0.3838593631332183 0.4205088249037435 -0.2269815425455877 -0.05158687593505380 0.3402466137167126 -0.1812077815652791 -0.03818374539870666 -0.02780230886379718 -0.05094141367836105 -0.04816495624266071 0.02066040835305953 -0.01745416778814036 -0.01300375841150819 -0.07118254268092580 -0.05818496755452664 -0.01545156336679009 -0.03426845725280477 
-0.2097410208303290 0.7240497008554895 -0.05081292388818054 -0.03539666108118895 -0.1717929613254621 0.001822484926520687 -0.1215269982039020 -0.2905966808357443 -0.1225981365424447 -0.03020920586931592 0.1709806397534583 0.07395342760448834 -0.08686344347338829 -0.03997295899385824 -0.03363508323046771 -0.03156618000949658 -0.1288222975949901 -0.2419655322581879 -0.02505983812063765 -0.08254127165155786 -0.04838907078412356 -0.02888968072220171 -0.03597002672658548 
0.1201710186880757 -0.1825373986568447 -0.01104851087536679 -0.02064100755473487 -0.09557484904746820 0.07300475875978828 -0.1768895977057409 -0.2178807929418945 -0.03179141717622780 -0.08498053295582914 0.08893585030894029 -0.02280882569099561 -0.02166805760649204 -0.01512656238005152 -0.04030834268858840 -0.02870674693185383 -0.1812300097927127 -0.02773892480365335 -0.01627997991583623 -0.02891334837061606 -0.02971132265779857 -0.01025865218297542 -0.02171849513212523 
-0.1934340319623648 -0.2692845742248767 0.02154772537351815 0.02965895931415625 0.8106848976739520 -0.2939870028453552 0.03499424423143962 0.4727444351782300 -0.1285465841876317 -0.009240756969549388 -0.1651668533098646 -0.5231078057509320 -0.05877130784353338 -0.02180157781168985 -0.02960209006029701 0.1787560250320212 -0.3193553576688654 -0.01476386497641513 -0.01192517860484657 -0.07878951103590792 -0.04348673905119654 -0.02524613130161683 -0.02022985927524117 
-0.09716144462627532 -0.4476061521951446 -0.03655661973062976 0.02951440701042563 -0.6784160294785799 0.1547660664315687 -0.02202312211361334 -0.07600002771491106 0.2566179918282863 0.01467681186725676 -0.01088562402635500 0.07444242645834925 -0.07599265368139933 -0.02919010615856028 -0.01712597686489775 -0.04391838184012583 0.4429522824894350 -0.01492421868901191 -0.01343876048609450 -0.09134867386975055 -0.01677740411968701 -0.02465035448595512 -0.01364872587978409 
-0.1421212067591095 -0.008313685107668826 -0.001352842051628546 -0.001607080552705438 -0.009135237098748519 0.3019717554546888 -0.009130742550250941 -0.1564441801221898 -0.001251704745423210 -0.0002941969124972496 -0.07773543704089561 -0.04437425601223001 -0.001975597187957045 -0.003844025812088274 -0.008651878207401488 -0.01488303176049930 -0.0006001584136446285 -0.003849994407587978 -0.0004304063874856752 -0.008168494436612269 -0.005604752822849287 -0.001360309617303678 -0.002043275605693048 
-0.5281759166511674 -0.1363811717293588 -0.003934782639108177 0.01980047411181172 -0.1098989762599253 0.9020685405191498 -0.1526287440310372 0.3213518027811482 -0.02699343064267684 0.01575134820070441 -0.2363150490263347 -0.1865109494009428 -0.02404933095882346 -0.01748187249130496 -0.01749751054221536 -0.03039404365258471 0.3374317899141134 -0.005750651404000167 -0.003286778382071824 -0.02835612738167656 -0.01034631910435445 -0.005951245466345732 -0.006143747914437200 
-0.2686708733450883 0.1703556088132190 -0.005738198970749723 -0.1802284165204118 -0.2741292309571198 -0.001857008788343195 -0.005088225711242921 -0.01599057705715789 -0.04866927655459417 -0.008214078644806921 -0.01099484250236315 -0.009533720981094234 0.08918072910493527 -0.03333932831514013 -0.01441050182179497 -0.05465832206267379 0.1265203738926385 -0.01130639079291925 -0.02347871141923938 -0.05279596181917333 -0.009584843955897026 -0.004791523934343004 -0.01139972698816014 
0.004324046755991308 -0.09482010574644283 -0.001195647502015929 -0.01174823157127491 0.1969274266767069 -0.008663862536421037 -0.03765836230732816 0.01723149819738127 -0.04738614413926628 -0.002100865423674815 0.1223814941459174 0.1210776996478496 0.03129068829933739 -0.003694162510103874 -0.002928191193842065 -0.01329974767938179 -0.1771404578341161 -0.002197323011976464 -0.001643062203363193 -0.007648059685442177 -0.003733022214184431 -0.001663071427329462 -0.01344013630298994 
-0.08961941621661182 -0.1033786399203193 -0.01918311751526537 -0.01432342884327630 0.1552074967887998 -0.003151874038521140 -0.05324271389812054 -0.01378161376946705 0.9055357683966412 0.1973453411913489 -0.3247264824454572 -0.006426464162740588 -0.01876441541163020 -0.02400227174376492 -0.01295143892049403 -0.05452086549457814 -1.012432343222831 -0.005090964661575243 -0.009708380287008189 -0.02566084711333970 -0.005060777679147342 -0.009326987949344523 -0.01662994975033945 
-0.1768403111448369 0.007667311134820066 -0.04809951750122887 -0.007839815920147316 0.5564642596972469 0.04410549224912558 -0.02235016069229574 -0.1156593094629384 0.4147018423189779 -0.03839286787051432 -0.01723335468664310 -0.05785212082644722 0.4006438638773904 -0.03402704852149287 -0.01520990712718937 -0.1124617734668102 -0.6951036548444823 -0.01480646048734197 -0.007871677602823509 -0.03969206846704613 -0.03869545123329121 -0.008774283567658248 -0.01390610668545024 
-0.08852044762111423 0.7713503963088931 -0.09453249313688830 -0.0008663189651980643 1.003426909148062 0.02919710550495145 -0.03919394759989621 -0.1682806160553038 -0.2548075652004312 0.1313440640501313 -0.01232029681050325 -0.1235112780122493 -0.03450368058666081 -0.006046516056064312 -0.006857456483692510 -0.04958845411071675 -0.9250757978443724 -0.009203891066680035 -0.005746332470688950 -0.07104935980339334 -0.01446928764894230 -0.006541254564951539 -0.009978466999040760 
-0.3034922674403040 -0.1353488235627325 0.08797835221742765 0.03154139215511116 -0.05532299030033641 0.07347956157221738 0.02981067051957217 -0.1516025931536367 0.8367133467622525 -0.02572423448221544 -0.2538430115412025 0.2868295423270256 -0.01848707031239886 -0.01043104967163493 -0.03409719756912251 -0.02344367879227711 -0.06421546711592660 -0.008113389443112549 -0.003162438940857053 -0.02742870215153968 -0.01474661347395393 -0.007878206820918601 -0.009364150927077180 
-0.1652226349965314 -0.02407226758611145 -0.06102444870792240 -0.01830780865670138 -0.1029426297776397 0.05880611470600629 0.4858821843242572 -0.1787507819455927 -0.5727328107375506 -0.05036522270280894 -0.4345067342580542 -0.1345520471117976 -0.07464247701515642 -0.01766632926243076 -0.03825864880673408 -0.02326601870771600 0.5173333762719821 -0.03055550227351022 -0.01254724088017918 0.7367423872179911 -0.08531008844814160 -0.01527530036945228 -0.02924360463685459 
0.06466690604223116 -0.2330934872850090 -0.1298610691714028 -0.01040425095498111 -0.4113810148074647 0.1185621269984135 -0.02127982738996335 -0.01387986959506189 -0.5141664206503000 -0.3692976577012316 -0.009003688099603774 -0.04224468448791166 -0.02317758586899930 -0.01154955405769423 -0.01091835923108505 0.1597078677578096 0.9156725195106340 -0.003755404606289464 -0.004640995524910573 -0.04682904170040575 -0.008127227018519177 -0.005360207939958612 -0.005992130102444934 
0.5217431951830412 -0.3166250776847275 -0.005904763091277803 0.1609117195353921 -0.2389796804112883 0.01293462885097369 -0.008151756766132327 -0.1898534321177612 -0.03093703115005958 0.003522822743386211 -0.006362938711120503 -0.04016780446562936 -0.1317118374214678 -0.02923227212775421 -0.008844043771035514 -0.02957630018156644 -0.1270389621374321 -0.009554288086057590 -0.009269575537295613 -0.05143006610603634 -0.006797405329384580 -0.02637904515168359 -0.009209333108995010 
0.5761554574048672 -0.2128393610912256 0.04975357805146017 -0.009833858893354556 0.2126682043800412 -0.2094752189357338 -0.3300546138586216 0.1077488600072143 -0.05553995415581754 -0.008852279995857764 0.1681269683324426 -0.2038145636610454 0.02219312734801981 -0.01120934310714360 -0.02330095140286996 -0.04417346735606393 -0.4856915443049752 -0.01046668442363924 -0.006566462237527248 -0.05418667332233394 -0.02304086970153972 -0.02162569768301734 -0.009444602594292955 
0.1170828566923826 -0.2029171916393270 -0.02651679041823175 0.03218531982011218 0.2176811832285173 -0.06437677071816533 -0.007367298155958170 -0.02636728877037103 -0.4034048888740729 0.1046810445949289 -0.008069837386341242 -0.01528112649061058 -0.04164159476501380 -0.08328607650868056 -0.02447311001316034 0.2473905004957889 0.3946196736489468 -0.008914789580753781 -0.01243337305030993 -0.1005795795227191 -0.008964073015026430 -0.008617927222209153 -0.008794727061245192 
-0.1263062752963833 0.3774882787863268 -0.02104807122470284 0.02630446621067342 -0.05293019404257576 -0.07840370469640391 0.1710997895985858 -0.08672018239752373 -0.05278200774918890 -0.01988684158775769 -0.1753762598029977 -0.03686983491090238 -0.05647190946102826 -0.02574369917075081 -0.02717097091205424 -0.02984218664286771 -0.02573284585803472 -0.02192056326088033 -0.01967421964598708 -0.06028321233846506 -0.02517418648464254 -0.02885620039420466 -0.02748014955275954 
-0.5658699109599439 -0.09233828415503632 -0.003467193094458090 -0.004770306896693334 -0.01738498258629511 -0.04968588290413294 -0.2913770132844486 -0.01089226603054819 -0.005158251960343669 0.01812427168428522 0.9901641584690752 -0.008935701890424808 -0.003041915892088746 -0.001671891528793626 -0.004301948919664625 -0.005844744326190292 -0.001353137202131691 -0.003148943018619631 -0.001232176296338016 -0.01285825357140652 -0.01158834458412499 -0.001337010316213293 -0.005312977871955527 
0.1571755447540954 -0.08131409680495870 -0.004438097675570385 -0.008085530739216959 -0.2582871198748863 -0.1193368882100835 0.3757744694843199 0.1020067955970040 -0.01176277842527805 -0.002457238793547379 -0.3647672383574985 -0.1469770675543468 -0.008685663497617220 -0.006411156738618450 -0.01447983354374639 -0.01899212152677401 -0.2609780635844233 -0.006834369529815618 -0.002978957307573084 -0.02911483092787634 -0.02263930107037249 -0.003506457023338504 -0.008447194644480882 
0.2389311339155928 -0.1532354488063234 -0.02373946769215830 0.009756661217694779 0.03365710967183279 -0.03436897609281985 0.1055442659940570 0.09489515736038298 -0.01423162858585852 0.01179394376712581 0.1435521673700300 -0.07075728361642696 -0.01764288064517450 -0.01435813930149815 -0.02233747132016059 -0.3953555432447444 -0.08490304273609399 0.007861693788935347 -0.003161911762189393 -0.04932499250969754 -0.01095423769058536 -0.003503274320676521 -0.006557846518863879 
0.5320550435007351 -0.09794635463459585 -0.03900107817483686 -0.01805641207618250 -0.4466264899758987 0.1206192302683128 -0.08312393510089056 -0.3522493984552451 -0.1662769489394482 0.04413096486165264 -0.01710434247734782 0.3085173695742987 -0.02905873559563842 -0.01605915631999714 -0.08811641132351110 -0.05246882976905831 0.3314643954457577 -0.01008734059348026 -0.008411290465927146 -0.07760048183095593 -0.01916401079815462 -0.04272639343390928 -0.01817436106839254 
-0.2247481209674735 0.2615840892398327 0.02792114857333608 -0.1966418779330365 0.6966042669785338 0.1821111814123329 -0.2110610070483615 -0.05813520226485102 -0.09859327748910018 0.07492001591358458 0.1718494812785658 -0.1102053902445752 0.4542143919256185 -0.03082522209302946 -0.01968088618494741 0.1822702401453976 -0.2469746300898185 -0.01030232505871017 -0.007419261541559355 -0.04157143885827124 -0.01864344831053954 -0.006138095746013416 -0.01366974339075101 
0.08741542267293070 0.2643015508595549 -0.02596106827941325 -0.04200759611555623 -0.5461847186681297 -0.03315894595847579 -0.05469337943457279 0.04218294799804720 -0.2378524607038134 0.06013095030912662 -0.5585044440962568 -0.2147841469044441 -0.008338592522718959 -0.01645509849701301 -0.01654790425295755 -0.04996666912831748 0.6311580562821600 -0.009820681621399261 -0.005727622286804560 -0.05283506444391632 -0.01019284627576118 -0.01449461868687820 -0.006891016133440429 
-0.08868613342372561 -0.1681393929953917 -0.01127337759873445 0.01608666681818447 0.2019460859721300 -0.02141603712184317 -0.1090980522351697 -0.01403381839053486 -0.1819299151123591 0.09920907584657161 0.2401406506270212 -0.007758284548238363 -0.03556300824547218 -0.01088096834298210 -0.003826607488488786 -0.03289145278690321 0.2756516352807091 -0.004689537107598691 -0.004604080071859958 -0.04231696481376753 -0.009350992432791595 -0.003242644399386550 -0.006455249820197850 
-0.09115807512870723 -0.02152844063367949 -0.02810717936271959 -0.008176408073793391 -0.7073665876942113 -0.002740733812651029 -0.007067584476191642 -0.01333885884366410 -0.003152106615254388 -0.01392413933887510 -0.01614769585458250 -0.008353019952664074 -0.01109595079191793 -0.001281057665621263 -0.07105381308352990 -0.002736001315357099 0.6378906010290650 -0.005755421479319232 -0.002002047885932893 -0.02050989046235545 -0.01753404805481701 -0.006246438860700393 -0.005836019949444681 
-0.4102254386457815 -0.08910681653362851 -0.003187314185991504 -0.005417084712931106 -0.01853768464571518 0.3096989135942859 0.9485229287565241 0.1049994214852257 -0.01000508616410938 -0.001743109906076770 -1.105446299861236 -0.06049257734422729 -0.007408991749215403 -0.01045542574440791 -0.01884937618796178 -0.01793880198362972 -0.008894030442777848 -0.008338960038966822 -0.002734676569822198 0.1752148324107282 0.2740016083143236 -0.006803842684216474 -0.008683367429170850 
-0.2124119948239477 0.06925562515156948 -0.003063843471202130 -0.003607037346899738 -0.01751255471217585 -0.04166892428740079 -0.2851399916163511 -0.01548186078475973 -0.004570098613531059 -0.001808144439634694 0.3812149065075886 -0.009747183529307810 -0.001673999285956698 -0.001704387118515581 -0.003113741387361678 -0.002210115534570455 -0.001321170711760594 -0.002476179353895288 -0.0006420902822468470 -0.008406210608584408 -0.01171300551685620 -0.0007709021533620846 -0.003655355099030462 
-0.1705041876602610 -0.09439410612367943 -0.002639956267632230 -0.01270596401633303 -0.004629399875622413 -0.07694622476993580 -0.4605768707368006 -0.006728401469032639 -0.02053477682757351 -0.001913131277531182 0.6385756677506980 -0.005670367055179496 -0.003885092629877632 -0.01077552515918670 -0.008782285276006122 -0.004154406978579411 -0.001589270359520738 -0.01163364697998265 -0.005662110242517619 -0.007688955480642639 -0.01160328782234598 -0.005076051992408639 -0.02775842399894624 
-0.3813209869070413 0.0002101058854966795 -0.008935693670861050 0.05820632427519962 -0.09482856943316159 -0.04989121150344534 0.1529362989728130 0.5763338827915341 -0.01128035093075478 -0.01574222303486706 -0.6702907433611456 -0.3513821281433204 -0.03104934323383902 -0.01841720362884046 -0.02768095722088601 -0.02240664732300855 0.1868746702212515 -0.009512112838545507 -0.004418484505336889 -0.05546627340366812 -0.01106984016803718 -0.009905032076604170 -0.01241010035925804 
0.2114636420480092 -0.2015944420914893 -0.002403101638070924 -0.007724656389435139 -0.008690624292802335 -0.05344920851449534 -0.3800891790285190 0.3084399931253594 -0.004903543800882208 -0.001707404329708266 0.2063727652013390 -0.02094343239104731 -0.002886549469051458 -0.005723095321686918 -0.007742595947396977 -0.005890084217841925 -0.001939603008906106 -0.004920782146346888 -0.002108404764397098 -0.01289920953699226 -0.009329568483515340 -0.003023990249416425 -0.01249841351839418 
-0.2792538840989207 -0.1064686455489514 0.02409162944416816 -0.04734913752978705 0.3246563042054082 0.01017857132484246 -0.007819876961209412 -0.009777633249857172 -0.01428211231313654 -0.02858982770666607 -0.005305376356202571 -0.01465838169145923 0.09324130193053208 -0.02463121960418159 -0.009638358901695785 -0.02885019304115931 -0.2946076799896445 -0.01046932037602983 -0.009921087937412316 -0.04061586629090988 -0.01706399843055652 -0.004208050926765010 -0.006529507781535015 
-1.166537407065844 -0.01595893900224822 -0.002889129431888795 -0.008363569145242800 -0.01259606519802024 -0.04900497079116598 -0.2865004598996382 -0.07053627746448343 -0.004696084120825363 -0.001910830384381820 1.084559551607196 0.02503091754707122 -0.003261916615150409 -0.003463260749057131 -0.004863253444769046 -0.003700142992554343 -0.002214787520030853 -0.006812597754362378 -0.003507456579831162 0.1842012130994818 -0.06446291408435455 -0.001918105041943720 -0.01795117442638042 
0.1765418596413836 -0.1368396447406179 -0.003194979178123169 0.01028931119428048 0.3250438812798960 0.1691756383940171 -0.3105548880605748 -0.03240203719228195 -0.01386250813448692 0.02036379809237404 0.2453607634924570 -0.04373352550361089 -0.01691898515040864 -0.004734613069660040 -0.007346248536473195 -0.01950577191164433 -0.3196317206759902 -0.004929277963386567 -0.002991536478691981 -0.02149804847383306 -0.02555660158265200 -0.003446737846253441 -0.005442031037396912 
-0.1926244970577255 0.08234091454489269 -0.002654217439521307 -0.0003936158233042087 0.04183205041030666 -0.01051369845118983 -0.03149008934987092 -0.008782961725889190 -0.03694781653909283 -0.005948168710402403 0.003225772320443993 -0.01684551455964532 0.01521081668526471 -0.002178991862750954 -0.001889012321857804 -0.009186155785615874 0.1342331846140741 -0.001593083153084025 -0.0006615748313623440 -0.01176004035056024 -0.006486685801962533 -0.0004802941515814491 -0.001444081284022215 
0.02905330064774854 -0.2971338345376952 -0.01233914753069722 0.04381830725182050 0.4850754524946854 0.1148730828081399 -0.01020278405772425 -0.1473299895361906 -0.03733513255822153 0.1368363784487810 -0.2856988991671074 -0.006882552687082648 -0.05116088983548737 -0.01213812606748763 -0.004428144364667550 -0.02694720078020678 -0.3073513144215754 -0.006316446598831534 -0.004873340662451029 -0.06413395496759840 -0.01025230056718894 -0.008752863790630066 -0.008492605047250489 
-0.05913151685799890 -0.2875508484196332 0.07497556068737393 -0.008239077521528990 -0.1523266933149807 0.03829149982320153 0.2567956026498928 -0.03982927711804155 -0.2651396831972794 0.02974750916472093 -0.04016034595785630 -0.03582401461766371 0.1844208844839927 -0.01534386700896599 -0.03085792651657163 -0.03350430452520452 0.8653199519292881 -0.01967437272457059 -0.01669917847704767 -0.1073198520319741 0.1544388190266443 -0.02832714842555772 -0.02630483164595446 
-0.3278088563004945 0.5240508150116897 -0.007385810238592191 2.508602438991366e-05 -0.01914469032807740 -0.02552534625497554 0.006737885640136787 -0.1701850431974220 0.3432055759040263 -0.003730609853608699 -0.008572198255043860 0.03413172546573411 -0.01438818938671683 -0.004073304700022645 -0.009370525698019829 -0.01113711021790358 -0.009522849272938018 -0.004556942343585754 -0.001840825468002978 -0.03442230244740526 -0.007366789676986999 -0.003729817345042710 -0.005124222216227262 
0.6603430706676141 -0.2906416864677389 -0.006123659695241616 -0.01450856236791496 -0.3641911622465613 0.009524413524255216 -0.1249462544505044 -0.03173115806001569 -0.06484810784819477 -0.005180278155326350 0.6201777356099837 -0.02214924398684803 -0.03421148202676724 -0.01090672593575461 -0.01988362348829866 0.3407107388286593 -0.03658616055438311 -0.004007194552832071 -0.002707824810205638 -0.07223994436926390 -0.2256113805770828 -0.006414372603147926 -0.005571272432738392 
-0.9490239781014698 -0.06694500639098010 -0.001762696199746018 -0.004192246811104607 -0.01806442941083214 -0.04346890689343012 -0.1771572660493905 -0.004939892343530201 -0.003551924339854884 -0.001808657434204707 1.069229490191728 -0.009029927254525314 -0.002774533243890476 -0.001438357640088768 -0.003435051349413095 -0.004159599569676878 -0.002240661156556559 -0.002818337370334194 -0.0009859102912828430 -0.01138390023527018 -0.01699927500039546 -0.001117041308553986 -0.003908609591903990 
-0.5390554365088752 -0.1272681577569946 -0.006469304125825729 0.05573273701077638 0.1824754935941776 -0.02955407384163390 0.1348651689080802 0.09742184300212638 -0.007861919907685772 -0.01146507526586949 0.4767818969710764 -0.09837915601217505 -0.04983061634376741 -0.008851180902967415 -0.008799623634580510 -0.01906477603327113 -0.3782414077434090 -0.008468603350740988 -0.005475801094377014 -0.03472805425892913 -0.04391351615711256 -0.005157410274944241 -0.01459240873844248 
-0.4767168897667717 -0.1603501422667114 -0.008083663569468333 0.003696657863765959 0.7354548570209565 -0.007928206863074029 -0.2191305302086528 -0.01381932798034919 -0.02721577035475098 -0.01802809458651579 0.5609846613422060 -0.01316024061482989 -0.0007319358430206242 -0.003280798638661526 -0.003698208819101701 -0.01049307335669182 -0.5086438187878738 -0.002667895317376617 -0.001587457415610743 -0.03461115635831275 -0.01071932660595086 -0.001560431192365800 -0.005812970822126692 
-1.219896729139641 -0.2738743174567015 -0.01187821556482816 -0.01132061274360966 -0.4467585624823434 -0.06916559168885743 0.1099156286397460 0.07184826834174064 -0.03963237385714177 0.01506513610484108 -0.1030945214964303 0.2012051040386020 -0.006556969160069938 -0.01103908699448521 -0.01016637243777015 -0.01672345470018105 0.8341027104317742 -0.008553052717897970 -0.003980898090311544 -0.08235639205776484 0.3792553229346305 -0.005418239037022736 -0.01314566049755092 
-0.05097735076006855 -0.9341792149484589 -0.02235858708952035 -0.03401538874436997 -0.8189318175457042 -0.05030277880042661 0.1665299340380313 -0.01240009250781909 -0.09496823354127766 0.02941708623721070 0.1429843137462070 -0.02135571436794125 -0.04437807969918327 -0.02374462448855675 -0.009547725020856960 -0.3986665089128017 1.158054562897607 -0.007696148388742308 -0.01135597990314619 0.1721392531148348 -0.01073643278294519 -0.01041238150171377 -0.008336110685820929 
-0.4128577083753876 -0.1766950945225634 -0.008835012528140564 -0.01788867933849286 0.04749056290133803 -0.004123960216903392 -0.3799437767814852 -0.01377719244711390 0.3909438565558015 -0.01145815403350006 0.2552634652532986 -0.02915921841064399 -0.004149341583006978 -0.003219102384914980 -0.004969064174234555 -0.008703617555205717 -0.04721301778715882 -0.007481266430811349 -0.002385376010238932 -0.01980191088276249 -0.01023356724837632 -0.005847005496320836 -0.01222709853910242 
-0.1587883069504907 -0.2146602420154041 -0.01813248160881886 -0.01279969006709792 0.07431295161819074 -0.01552114103439288 -0.02214637261086907 0.08248962849977563 -0.4301973215372231 -0.04125788220501244 -0.03529151880287060 0.05182157831204520 -0.02421868207739301 -0.01861782888666600 0.1366496771208703 -0.07643343740558190 0.1305619237030373 -0.006322375891963439 -0.007543136998767714 -0.04702305892038470 -0.006583899035880887 -0.003855950304430082 -0.006816023199514614 
0.6577431373902874 -0.09297908235082575 -0.05642575449310695 -0.01068065600090073 -0.6481962000606933 -0.05454045839928313 -0.1217677893204166 0.09218095779977889 0.04284114010315974 0.02401862130571005 -0.3147518865879830 -0.2024369786101340 -0.009628759224024236 -0.007956641523815389 -0.007853835364879190 -0.02577838139128950 0.6121016654933422 -0.01186647065743975 -0.007631114777109285 -0.04124482088109922 -0.02244512341763869 -0.009181122382456382 -0.01567116733204091 
0.2173084274100769 -0.1418719632521588 -0.004526299582274200 -0.005459832067548404 -0.03803785668735218 -0.1151956028839396 0.1373546182279251 -0.1627974839617832 -0.009964320532358765 -0.003211312447731804 -0.02518230162549526 0.2012157390013955 -0.02623918498135836 -0.006881239518880857 -0.01231919402955729 -0.01160197808177467 -0.002660634415757302 -0.01060596358173711 -0.004630536690488789 -0.02023104362608153 -0.03329542092397605 -0.004922559452176760 -0.008406512407001156 
-0.03937826770088513 0.1533405885003979 -0.002133644698190604 -0.003805438339822682 -0.01974972443832987 0.007632605341601598 0.3655913041508070 -0.02077237127971443 -0.01466595387495863 -0.001714212366460143 0.1063794038233699 -0.1422424346141324 -0.005308949970013307 -0.004875351902681347 -0.006154617338618829 -0.005451979948636871 -0.002708149445552440 -0.005733948112999445 -0.002122284607299077 -0.05746993905804224 0.1660332650211911 -0.003021354678547565 -0.006859102937336875 
-0.3123721722717622 -0.03719906445463347 -0.002776023537087244 -0.002567365626296563 -0.002900871913143541 0.004390608743426207 0.5139092680503762 0.08212170103522373 -0.006005446333473249 -0.001342188579418528 -0.3286485920394806 0.03326320191919967 -0.001782866652053282 -0.005343294957480086 -0.007366534841297086 -0.004494591264270397 -0.001962686080106415 -0.004636936717484761 -0.002372695839212439 -0.002417504495579815 -0.004321665576330671 -0.003629711377229322 -0.004038388345707270 
-0.4584033269118654 -0.07640369630984477 -0.006414993691618404 -0.004184289954380346 0.2315486284512912 0.1360499076465179 0.1005812673571075 0.02237440042268764 -0.1945694296384137 0.01893479376316069 0.1041476380037142 -0.05517800975498618 -0.01896968954569666 -0.005213001615568062 -0.009121080658791720 -0.01858499262407347 0.2511816144999675 -0.003927541927133765 -0.001980839734723482 -0.06488869796093052 0.1646845337904391 -0.001514774376726094 -0.004913507331593681 
0.007755081539840744 -0.2386935741060093 -0.01437418406491387 -0.04343944224747689 0.1229880188480938 0.01842326886023145 -0.01006591796879132 0.09902117535280366 -0.01459959060504862 0.1196938354415488 -0.004257812281488793 -0.02184890117108073 -0.04066404441385068 -0.02727866530448064 -0.006812120363449733 -0.04904928650880662 -0.08931832482198297 0.2582442381010100 -0.006466075516519154 -0.06728293229263235 -0.008320224283604927 -0.008684485614221575 -0.006912148720882739 
0.1441859603231468 -0.3165673237419276 -0.01073875306215610 0.01233564996216304 -0.06840234526188130 0.05151505046401014 -0.08969112397659969 0.05684660461709610 0.6387629508731764 -0.02518795457987725 -0.2246744157397355 0.03059163592503540 -0.05813139908850309 -0.01464139103232582 -0.006448308055588056 -0.01618613725758303 0.2280317513121427 -0.01895124547457884 -0.004816799585648708 -0.06032105142515126 -0.01644296447056728 -0.004194450386831910 -0.01136480540904158 
-0.4422606309398636 -0.05161232838981785 -0.002299076602588123 0.1480054148521172 -0.1392163055675411 -0.003279507003184019 -0.06595870586673282 -0.01377015020279902 0.01131481637706393 -0.03667522493547419 0.4331549012740847 -0.006063246782895529 -0.07710883220160045 -0.01263737486493299 -0.002041476314029045 -0.02863057958325983 0.1502185846317749 -0.003457922168845146 -0.002224918272889844 -0.02526578377966600 -0.007503473604968786 -0.003691823928255530 -0.003519899830162983 
-0.04118223512387782 -0.01553723324641640 -0.03307498557349135 -0.005150812313091805 0.7417965296161753 -0.001402160251172263 -0.006637163138066938 -0.01013059140670147 -0.003232605593153374 -0.001360881392008409 -0.007415155295886683 -0.004528903740515013 -0.01200863115821383 -0.001519442285038129 -0.08121072395036341 -0.001436995374615609 -0.5473860955000923 -0.002600849033656352 -0.002877510275305006 -0.008417247836100450 -0.002600392769264934 -0.001050490752895669 -0.005812737684952629 
0.7837195356460216 -0.4788492635138194 -0.005129473076981847 -0.006818912068765499 -0.07838240916488602 0.01727373179978108 0.4056764362699874 -0.04452841509766663 -0.07785597590415742 -0.0009262294767016947 -0.7648639084864809 -0.003230882129561148 0.01108102465088399 -0.03374844652233702 -0.01929676383607505 -0.01070597957727449 0.1980642615478761 -0.009795517834339355 -0.01113957188410509 -0.01302780414802864 -0.008039637955254406 -0.01735408214269866 -0.009676372127125155 
-0.9306653339474658 -0.006531930051555035 -0.0009595313645521775 -0.004985651402565532 -0.0003967830495401649 -0.03339348123493414 -0.09734789463934673 -0.001429577426907993 -0.006943073635246191 -0.001290705322187824 0.6218849456742546 -0.002481500226121659 -0.001700119093412444 -0.005751265107143000 -0.005214180719755777 -0.002968751799072359 -0.0004642462086725734 -0.006881815782924059 -0.004538038796435795 -0.002708090502595738 -0.007404313625145728 -0.002586403373510769 -0.02177985178014413 
0.5610541737916274 -0.4221605369567638 -0.02947631651535716 0.06754770257913677 0.2079122993036196 -0.1005324805628950 0.3866157166169202 -0.04109430980125801 -0.01088647052801862 -0.01192687158181902 -0.4241145386730040 -0.01281741880229121 -0.03708283322158491 -0.008771511221834493 -0.03084911674802071 -0.02366331283707632 -0.1162640671908953 -0.003695389169758258 -0.002225621071389897 -0.04827920384837862 -0.007412097523833336 -0.002563013017513563 -0.004376632252583781 
0.2186241552704496 -0.09579305832909678 -0.01523239989729700 0.001947234621457326 -0.1083015553825384 -0.06818026658218060 0.1260136976159484 0.03670621917123890 -0.05012705198504399 0.007877951446336883 -0.03928699321006381 -0.1714310382561770 -0.05151776547913772 -0.01521520346171308 -0.01228412141769509 -0.02856478785516848 -0.09086949811395390 -0.01631898599788088 -0.01097422251590637 -0.1514130539591634 -0.02395995632028986 -0.01190565279194569 -0.01009287541192980 
0.09290502293327212 0.06000579712635631 -0.6265528019362177 0.1543610660844487 -0.6044031956564604 -0.2335734548604123 0.7177463217769984 0.1592506214213344 -0.7106411167068571 0.1124088984908253 -0.1915618068617089 -0.02182412568777271 -0.2782615780670356 -0.3145934945220894 0.02380988671506845 -0.01127785262076461 0.7735583228389699 -0.2704411983971209 -0.4074100036308329 -0.6507616514410927 -0.009777358048753005 -0.2816611056989904 -0.09742790611140935 
0.02735258378199181 0.1555338813813334 -0.3303536991116985 0.006862841088382784 -0.4795062257685662 -0.2053148965584219 0.4711566276904617 0.1129384474266442 0.3420885513596504 -0.3846247487113133 -0.2337098994561103 -0.007571530202630972 0.1410824192290872 0.5077158876191700 0.3550944860172899 0.08704226211519690 0.4513384304324890 -0.04647020867238550 -0.09335884598018976 -0.2959579979551478 -0.4140637832538264 -0.1696278188128039 -0.1787233713462344 
-0.2732973895118583 0.3932345909690784 -0.3574702225327551 -0.05285759899161444 0.04047911161784236 -0.06005011795285632 0.1658755512735451 0.09700177866068492 0.5879424888096203 -0.05998231844467575 0.3941002326243742 -0.4054149316883147 -0.1840443059067602 -0.5474586483411608 -0.4416773412163302 -0.3739553044741799 -0.3179249966878036 -0.4376318851968781 -0.3458319277908054 -0.4130744288565478 -0.4820787488828081 0.5138520315531849 -0.4526436891610701 
0.02363914984705202 -0.4757052515147400 0.1676034680511896 -0.03013991193637756 -0.2982037614870224 -0.2074613081710888 -0.3445012247361374 -0.1890483150070467 -0.2456715947036151 0.1838975545043579 -0.05818169129534866 0.3134693708473962 0.1400025858551123 -0.5299184644653504 -0.2946144713652148 -0.4434511804392985 0.6382515965590697 -0.08040228295508502 -0.3184075896761262 -0.4388832527123402 -0.08321533598987102 -0.2771347718861419 -0.03825133785563190 
0.4498291177290577 -0.3784613994610606 -0.05360376183940262 -0.2411930594349566 -0.3543720264927656 -0.4245115325202098 0.005639166926219290 -0.06267905644900462 -0.9025941265204308 -0.008062829922856738 -0.06183715715675390 -0.1016463283920067 0.02636406295718424 -0.08489287748047380 -0.1479476142913003 -0.2084714733971131 0.6204231904610809 -0.2441817467634798 -0.07874979895502864 0.3150898357875798 -0.01621458186839532 0.4222358497652673 -0.06787936922744943 
-1.649627486166411 -1.098855528372050 -0.2160881266219428 -0.1592433881434945 -0.2495098513164551 -0.4731165224635348 -0.3544773412848940 -0.3525575592075383 -0.5157384543313377 -0.1157490854367842 0.2812218283153361 0.3578382460744289 -0.2171806447289368 -0.2065485301587647 -0.3149987298475558 -0.4643334100575892 -0.07174964302361463 -0.2463546549145667 -0.1379573574702713 -0.1900422263461294 -0.1703378148866168 -0.4075469148412991 -0.2112123620409788 
-0.06490259036974222 0.1860556156386443 -0.04428238108113598 0.1395882984505368 0.06803574241203217 -0.2447185361749965 -0.02691088970784832 0.1692838846632558 -0.09644565798253672 -0.2089444204754473 0.1041889976928972 -0.1556524381223041 -0.1812636858135858 -0.3055545782328170 0.3541507228691413 0.1097784466346730 -0.07685722136929815 0.1143200503298427 0.09661728996509597 0.07825040561895182 -0.3246023494821315 -0.06129710865701404 -0.3956827159024203 
0.4298123941470705 0.07641940310679732 -0.05892002751356168 -0.2892513757319852 -0.7336792982954548 -0.2046826016195675 -0.1229228081976248 -0.2776097172130220 -0.6509693078654847 -0.1766180926918374 -0.8495596163239675 0.1108671975991229 -0.04752852200289411 -0.3582124753126662 0.04139082425523590 -0.1556356735462063 0.5864937761086466 0.03018063292652679 -0.3600901864760247 -0.1000825066366830 0.2580241942453014 -0.04192573996172993 -0.3287575189340783 
-0.3153108310295326 -0.3908139865810958 0.1275611899929358 -0.1045890519234091 -0.4533314792768228 -0.2970014037743652 -0.6192060286473040 0.02039295195732902 -0.1265072834369976 -0.04664221076209626 0.8427551550005054 -0.1517703048549393 -0.1079448510810062 -0.07886317478487707 -0.1128048370997245 -0.1170873975708556 0.1818905866489101 -0.1110084514677578 -0.03847121329621588 -0.1242058966584566 -0.07736548091664947 -0.04466987481064731 -0.1228696947871658 
-0.1527192086327123 0.7522164405617181 0.1024731005550700 -0.4964656513885835 -0.4756365349819439 -0.7633152678272241 -0.2668488925577918 0.3731450629585625 0.2794300216270682 -0.03603141794677348 -0.1107869214294432 -0.3357490765107923 0.3752716189718724 0.6206589599545538 0.1800814248542703 0.01599142866996495 -0.4200209153525025 0.09411823152011685 0.2803228155672662 -0.1618016413451057 -0.2018685178628007 -0.2693746469728216 0.04234893576131487 
-0.2157547866099894 0.3590473676999806 0.07218347276586431 0.4288299116907786 0.1923459701723870 -0.006866162179778965 -0.4225707828586909 -0.08915325061476241 -0.3982454944698325 0.03250485359938081 0.2070508165104263 0.1244430272500612 -0.1802914336830767 -0.4452256560227753 0.2735142106110017 -0.5829595456013847 0.6097976183991196 -0.1377109286565011 0.4074879230840477 -0.1046365316580679 -0.1461443319090899 -0.2430510561719524 0.7256313044942618 
-0.2052468797576605 -0.2077657049499512 -0.02553121834480281 -0.07279573861808922 -0.03956501339406467 -0.02909974298271126 -0.07210528030605876 -0.1539629757131323 -0.1125665134104143 -0.04041101007457657 -0.2522907976650953 -0.1198513412648950 -0.08161939816165611 -0.04238292569644997 -0.08515313568388093 -0.07067006256065832 -0.08037798065713893 -0.1001954261972947 -0.03175311162950985 -0.04449158552893200 -0.06659967864897909 -0.03215092947308765 -0.1049302916108270 
-0.1323518823112252 -0.4629132636844742 0.7603774426859307 -0.3718442927717508 0.3605693425173642 -0.07997552144945087 -0.1961596347949951 -0.4467827776861105 -0.2078991740669789 -0.2725611117247733 0.09493975892040603 0.005048587355791109 0.2072718435181872 0.05093002777788911 0.1130044118509757 -0.1813393815287996 -0.6232331848688761 0.1412914488385510 0.2642201887688900 -0.03819691428762327 -0.2550875703597816 0.06567038415161683 -0.3278302071784086 
-0.9260102510758386 -0.3770971574950827 -0.01586066472127663 -0.04762499051457848 -0.04232421800931607 -0.3832663682790423 0.7640675186869824 -0.05562708787004305 -0.08471585046728757 -0.001076149871217426 0.2360025214807233 -0.1063424890819465 -0.08066926460385103 -0.04932004375896732 -0.07474929331601628 -0.06149676076955063 -0.07095575678389687 -0.09801263106559255 -0.03517287255539630 -0.04250434997856412 -0.04251773936226962 -0.04465757637809649 -0.07757438195411333 
-0.3455251473159117 -0.2256405313109282 -0.01924285862038826 -0.06158342937933170 -0.03463675800988313 -0.1318649876029856 -0.7033875645666700 -0.1477358748029250 -0.08980469744946548 -0.03117312733092541 1.176019593078189 -0.09573179775987960 -0.06907000751046241 -0.1080789255453298 -0.08920811189418291 -0.1083157081949736 -0.06723605248201799 -0.06035640378273097 -0.02519540330811764 -0.03909560394540579 -0.05671883343222288 -0.02368843400014113 -0.08738599233283927 
-0.09907785060311919 -0.6007538127088179 -0.03328384210387302 -0.04658161874988983 -0.06782432315345595 0.3435854857468474 1.226000987371013 -0.2091132908649171 -0.1228510429729124 -0.002906065147253876 -0.5931476125345339 -0.06008779194357528 -0.07869825895128521 -0.1040933398529381 -0.1141066393944503 -0.08016073141433623 -0.07639454957354062 -0.1090467636050206 0.007748120367271294 -0.1565692730866261 -0.07519701534369781 -0.05379288518873208 -0.08886697391968167 
-0.4808501559747386 -0.1840583812926536 0.4949270866005969 -0.04436980729037209 -0.3271175597898947 -0.1511392610127218 -0.07486441177151660 -0.08928570421648992 -0.1508873977873796 -0.2736770967709108 -0.08454186208615919 -0.1538569529168845 -0.2583445662835001 -0.08065986402500508 -0.2224496419854457 -0.03123205527091912 -0.3042290453782268 -0.1781266021122588 -0.1970560870273227 -0.1109696921786181 -0.1137673135538197 -0.1860434425687785 -0.1385251862267334 
-0.4640970615069692 -0.1820694962880251 0.4902835349441246 -0.04314907354502448 -0.3246078114235965 -0.1479397496074429 -0.07188385194751253 -0.08718950002059456 -0.1474043425953950 -0.2614724979392155 -0.08107506593608418 -0.1477874155512367 -0.2457872123272999 -0.07850914351817447 -0.2280992697840610 -0.03071479613226852 -0.2748568808088827 -0.1709779891533148 -0.1923001224565434 -0.1058823187058709 -0.1110009951570677 -0.1755646595636674 -0.1331556325289396 
-0.4774814390829623 -0.05304890974772281 -0.2064587831846083 -0.09630061243543778 0.07036869726611557 -0.1021484063847689 -0.1771312741017166 -0.05064226639616918 -0.1312590038438558 -0.03270457267841229 -0.1390471759431203 -0.09182873283795193 -0.1268561831692065 -0.1007831909644026 -0.1683250539499215 -0.06287928644216920 -0.4524764928765727 0.6618047069474610 -0.1264064298910815 -0.1257378258238321 -0.08352267573626810 -0.09851779176064666 -0.1020864626081027 
-0.1440491756043787 -0.1030176164013749 -0.009613224997691067 -0.02437563859338480 -0.03948240355833631 -0.1209093482530385 0.1021993068972153 -0.03743498177005186 -0.07132821201936322 0.05986989842756071 0.2468682674301232 -0.03908490011549909 -0.03195304186808719 -0.06149945061254152 -0.05005710751769690 -0.03617078182314779 -0.1230862608519262 -0.03453437071644393 -0.01679369879069849 -0.01742074797825685 -0.01606635164784675 -0.01430010019052884 -0.03931990933931641 
0.2928112503846851 -0.2276328736526683 -0.1235211570690833 -0.1152666948036846 -0.2831523642670319 -0.03164564351619909 -0.08385011183416638 -0.1368106913128275 0.3330448532449240 -0.03639663827903979 -0.06266330907412881 -0.1290766242547102 -0.3293844524603236 -0.1649947858966352 -0.07729846093431490 -0.1121101257090083 -0.1053334017511266 -0.1385540385492373 -0.1291140271818693 -0.1703112518365318 -0.1121987458038697 -0.2126814214558522 -0.1516480433775196 
-0.04952592907706672 0.1551393377402688 0.1634370320911358 -0.1350088040298823 -0.1716641867095660 0.03426829347074964 -0.07861714218170945 -0.2884548717922611 -0.8232282492409039 0.02512393153563816 -0.3557638337969581 0.08239847437565805 0.4478044515626555 -0.2113521578754955 -0.1699928548270228 0.2031712502099428 0.4278545135387846 -0.1341230292245108 -0.09161857262106900 -0.3448713653529737 -0.1676210852893373 -0.2150957229638834 -0.1469573488879077 
-0.4536453005444392 -0.1568174625651796 -0.2032996173496794 -0.06590385101754548 0.3862776536991425 -0.1113794297512391 -0.1807492601202851 -0.2723621847580158 -0.09264905030279964 -0.02787792156853280 -0.09569088624751583 -0.1994323813921579 -0.1412708028516848 -0.1008634956630220 -0.1696967234083619 -0.05616460208503272 -0.2038587461940077 0.5527589780656885 -0.1285537432532362 -0.1204310941701208 -0.08072788453104758 -0.09205306413730520 -0.1068034700106288 
-0.3578071971100207 -0.6519398303424037 -0.1999108649408665 -0.06438936827227360 -0.1288995873042436 -0.1046218536090966 -0.1800673275678716 -0.2775162837985066 -0.1113118387814280 -0.02737299590479209 -0.08762216359452024 -0.1968747589138721 -0.1380736038277501 -0.09852223587234486 -0.1659967484997535 -0.05549717484861153 -0.01793369131730293 0.6733707185161420 -0.1237974382933955 -0.1188824823590586 -0.07804646887883172 -0.09061736571252609 -0.09914512684375650 
-0.2678161459103462 -0.1002246147154556 0.04289353860007169 -0.02413335936042400 -0.2132171758332543 -0.05349084970632074 -0.04808895553174404 -0.04750530894027333 -0.08931394895442414 -0.1195028006882352 -0.04926165166130211 -0.07790688558994481 -0.1305861383998184 -0.03860783907765247 -0.06583168365331939 -0.01331340397091322 0.04088660426623354 -0.08860656657642878 -0.09269308368714037 -0.06198124925598117 -0.05519285786612401 -0.08660669617107063 -0.06556987315615648 
-0.6180464061931349 0.5830220152404568 0.2682176710510152 -0.003367114250510942 -0.06362544655453098 0.2263956101156240 0.3777110387718469 0.1298329744551811 0.4601458812532623 -0.006928573372903819 -0.2680478166946270 0.04720899150325277 -0.04713499051663025 -0.2559869537694611 -0.1208580545187385 -0.3607406502923735 0.1247007811075836 -0.1137449440059096 -0.09047533362663940 -0.4547389873287573 -0.08837454529339078 -0.1060340919896104 -0.1328993214509196 
-0.02727327387123630 -0.08836839202221047 -0.08378075120083730 -0.1918242021483006 0.1559258107744543 -0.1520155814919082 -0.02183752105849369 -0.2313528783528760 -0.3770452516538423 0.03743509146125567 0.1147272628376863 0.03038517537454580 -0.3499327528921376 -0.3210280249001639 0.1145215447089212 0.3195505743664376 -0.0001771156541320424 -0.1102864452771355 -0.1100232177379224 -0.09126730736290455 -0.03537673050606444 -0.09243697454606083 -0.1150183146877569 
-0.7638446453226609 -0.2290300015334571 -0.5244890618641385 -0.06501672875123692 0.06504028040597873 -0.4023820127739039 -0.4219027578223336 -0.1492688843684792 -0.1026770524014399 -0.03634280460540580 -0.03537308023511144 -0.2119446154635310 -0.05779003142690919 -0.3119466323405741 0.6087951736080005 -0.2583453858921677 -0.2308666311608519 -0.1024582135498452 -0.09642586236214896 -0.02884717077560710 -0.01251409471488274 -0.05942096436685012 -0.09482562689876750 
-0.1711808552428186 -0.2211222482529185 -0.001704312870099913 -0.002350489108605700 0.01622909653406369 -5.689774671045173e-05 -0.01542149162492938 -0.0007880733523280680 -0.005773938647260903 0.01205516991547208 -0.0001458616048309215 -0.001663259087335611 -0.004793263529395886 -0.003386718915625850 -0.0002912246058307094 -0.001476124444230917 0.2237088177334306 -0.001509763053188666 -0.006702639748688127 -0.003103737238091022 -0.001060592671368676 -0.001000251976074053 -0.002871208908022308 
-0.5809061730812390 -0.04914383799639854 -0.1963981957666689 0.1972104620949406 0.1223577255557606 -0.006875233012667728 0.03817097438702610 -0.4307600390884856 0.1362318580666327 0.05382491562130969 1.020810988214089 0.2536921692265987 0.1515637515580118 -0.2228855624113502 -0.06422796062356060 0.1726457626382208 -0.1751886067472057 0.07873008063873076 -0.1006343412067941 -0.02901579802438422 -0.04466842854474489 -0.05684897374294447 -0.07478891087274009 
-0.3376996709050957 -0.2057117002135439 -0.3679634101942311 -0.05537167921008338 -0.4416504378796055 -0.4894704637229856 0.2011994284797646 -0.1213954959339366 -0.1868058765987291 0.007240322861025914 -0.07868426916532192 -0.1674141995676552 -0.04482363123501375 -0.2432780732749477 0.4967585149161331 -0.2213901288865733 -0.002782985896320627 -0.08673356155172378 -0.08439547117643965 -0.02943658861957906 -0.01082200677343568 -0.04609973151988133 -0.07666084162250116 
-0.3570629177519140 0.1528980397083796 -0.02247829314575258 -0.01914312050731479 -0.03799052089896034 0.2598499347886744 -0.6478066737948678 0.1296798067700945 -0.05205393062424652 -0.01367871809233279 0.3869965113291501 -0.1708688739152409 -0.04219787956629296 -0.04089333086108172 -0.06122994707999763 -0.04499124238639220 -0.02103705758519484 0.1197275419003921 -0.01660249671439832 0.04903809919947057 -0.1489324661617175 -0.02649335369637930 -0.04328176038231186 
-1.274929122370784 0.5535813119469105 -0.3251475033217707 -0.02987353594030470 0.7036063950860879 0.8183073517089654 0.06725284501710146 -0.3134381878817217 0.09993673413227996 0.001086264808251535 0.01199511466479112 -0.1087429142573228 0.05385843292746427 -0.07644823832016914 -0.09060211250278441 -0.03890866450663579 -0.1536209993479860 -0.04573841678933258 -0.02587130785566012 -0.04999658935552735 -0.02035695251776558 0.05185966889960732 -0.04822110102081988 
-0.08880967956060447 0.1340567642173853 0.1618091378402314 0.07416208666961739 -0.1335119520288620 0.009326518977945586 -0.2087204238056857 0.09181836572037530 -0.04641228325925396 0.05490684237661579 0.02771688471364784 -0.1400724773400168 -0.3664257583818829 0.05946862895700118 0.2101450792434053 0.3798328925326966 0.3996379393907406 -0.05921434582220493 -0.06075088766644327 -0.1128917923025383 -0.02809721168905148 0.3302983101414538 -0.09307045228317365 
0.2544117364955997 0.3799553331063627 -0.1518661701248064 -0.07066602949316536 -0.4839375451086109 -0.4171480702045007 -0.3458902269196714 0.04494192664900304 -0.09721970299382189 -0.01519810907678879 -0.09333718810194569 0.2957218250820228 -0.06983952734861137 0.1492806320560032 0.08005827147987893 -0.07727133845318243 0.2259496590077256 -0.04680834042762856 -0.02550419001860804 0.2956872450696151 -0.09452404280242739 0.2126166162728233 -0.04685911747687085 
-0.6681552467577925 0.7663162555525559 0.04209688974287608 -0.06464742727484332 -0.3597235493058879 -0.3417607333156955 0.1231706023344415 0.2437292164418140 1.249380861313016 -0.08152456540653047 -0.7035384608005235 -0.1340137233091606 0.1909503418779620 -0.1427506457837868 0.04481943666854671 -0.1213264590866577 0.3285231115448453 -0.06209357858403182 -0.08074859770447386 -0.09786505359162652 -0.06621918627047540 -0.1527882332427851 -0.1129735707558188 
-0.02912812625013003 0.2676284120103705 -0.1160795074861311 -0.01115518637073917 -0.3384522660388608 -0.1622332537057829 0.1604167772887730 0.3475001831851050 0.2941488473124282 0.04304129067290188 -0.09392868285647941 -0.5327617830283919 -0.2698670097667839 -0.1101340904723804 -0.09073490239043767 0.1112298971776551 0.3139925141073952 -0.06602043675201939 -0.04424001882712852 -0.2421821153729941 0.2623497171778535 -0.1589885704875982 0.5379092555745361 
-0.4399539383234814 -0.04126622199333902 -0.02353242305269078 -0.02482652959446697 -0.3035956404196596 -0.1741603846658310 -0.3767199186955340 -0.5104220608987755 -0.1455883578508147 0.01701974945718946 0.2479022861201459 0.3766889508773583 -0.03927232890236135 -0.05595058690891335 -0.06728056944557015 -0.08900448917656945 0.4716296971462163 -0.03880931926747414 -0.02655248594074599 -0.02955931715657304 -0.01913147077631049 -0.04593849638445825 -0.03648556733779482 
0.6568754102392608 0.4956246202755061 -0.1546559375126349 0.07158174138594096 -0.2890530665928492 0.3200287944249043 -0.3322310042842378 0.009324274802636721 0.6498392660351495 -0.1597639391741100 0.1446059531619230 -0.4918907146793547 -0.1841319847145188 0.2005211047026779 -0.1408032180497938 -0.1958524299803650 -0.8919222483218914 -0.04157033261320312 -0.07789742946362017 -0.1317117700652922 -0.04169610111808939 0.03621277712996304 -0.1042632791969091 
-0.07208058082279853 -0.6396596087594988 0.1779588229264222 -0.01104786150382003 0.001922276874823535 0.03674499957469465 0.2938812341693919 -0.1072183971900963 -0.2194732604424929 0.03894752871535472 0.1846045904518862 0.1948364430576118 -0.04904254554214163 -0.03329999813719541 -0.05890996993726234 -0.08002383864900792 0.2460562564550995 -0.05789747921153079 -0.03173217531180750 -0.06733031867260039 -0.04616220922828897 -0.09751536364094165 0.5438321460843390 
-0.5969335500925321 -0.1084099016514494 -0.006854351461696437 -0.01315311438678387 -0.01336148372324651 -0.1488840185713090 -0.2024232001902551 0.7375858265571632 -0.03837375483192326 -0.005127888884374893 0.5998947968083014 0.2858177562166426 -0.02076986353997679 -0.02327491228608651 -0.03209534251436047 -0.02042007872227501 -0.004505453365091872 -0.02733555323735607 -0.008244956068805506 -0.01643652892589710 -0.01787134249428591 -0.01371858564876026 -0.01830996739200346 
-0.5473834433928626 -0.1013515417007331 0.4041331921618299 -0.01389494495067170 -0.1753433826721455 -0.09139217568493330 -0.02139151393868739 -0.03524310026338660 -0.09573202695490955 -0.1050775559028986 -0.02438757175927768 -0.05456972359762564 -0.08688629114223210 -0.02537779757015851 -0.1389386249789264 -0.01418484450038406 0.2453435054554116 -0.06008956985859192 -0.07139569513625638 -0.03466473851997418 -0.03845894980527318 -0.07021406300255019 -0.05324897355055922 
0.3793410099992686 -0.5849006112497276 0.1292474288647147 -0.007803178834293951 -0.3570238418679453 -0.3504483267734762 -0.1419037688255164 -0.1805066920566744 0.1094940350549014 -0.03251561379457741 -0.003053474509547535 -0.1183241193322728 -0.06111392126396778 -0.1865720178349356 0.05336738251316674 0.1430421101680568 0.4129810917530171 -0.05889163178288723 0.06335458194594330 -0.02071588191588614 -0.05934819517275654 -0.09093906561141173 -0.06131112549248251 
-0.5729918517061199 0.1692898737407234 -0.03882757060823466 0.02110952091190674 -0.1669676846636381 0.1149806264888152 -0.06889912008042591 -0.05433260406779305 -0.1127039231521908 -0.04683031311446979 -0.02637325801444361 -0.06627737713163830 0.2288812080871098 -0.09466285902537598 -0.03461696424794962 -0.07345340662185706 -0.2663354528254012 -0.04267238490456651 -0.05404114289231668 -0.07138018753706250 -0.03132293639846273 -0.1325364008542275 -0.04630507939433379 
-0.2861235319332959 0.5474537240465239 0.1315505901931668 -0.07445550657231147 -0.02681555979190078 -0.06467177133022918 -0.1164793256874795 -0.09380207990798987 0.3249502968915382 -0.1874450589259218 0.6987453782030072 0.1544778427074121 -0.2112102469175637 -0.1011165434895493 -0.09264955607106322 -0.06374143424955005 0.06332982234307173 0.3648997268589813 -0.06526048129828328 0.02607404733361873 -0.04566911546527872 0.08058298950633347 0.4611523955171146 
0.3149941386893218 0.1005335332339305 -0.1053897353059236 -0.05635026014891378 -0.09917018942811397 -0.2164364289243159 -0.2383316366471957 -0.006493758734634319 -0.5562974125528277 -0.03893576694715005 0.1610059863198070 -0.2210603047319201 0.5961266122331830 -0.07844416991581811 -0.04160154288620376 -0.1100140985387365 0.2709056334804577 -0.07300918341219848 -0.05504151662838739 -0.1266589654473316 -0.09449472482807715 -0.1452112243904935 -0.1040957663412302 
-0.02171618925983930 -0.7798489846645297 0.1216968392952938 0.04601304594033086 -0.3744339151815673 0.2756803510148322 -0.1159683611500656 -0.3361231204244692 -0.2475899410875043 0.03694164050258625 -0.3456982381480467 0.1095175473449707 0.4763572418094090 -0.05572118335884262 0.02178706697263827 -0.1677725701331381 0.4457317758163308 -0.03191555656716637 -0.03332725527786379 -0.1305009775854290 -0.06054578678639147 -0.1038798301205915 -0.04276030954109530 
-0.5168602919060357 0.09113496397327842 -0.01661309193420154 -0.01952840850556493 -0.2245926488614567 -0.1320063488264257 -0.004577218226659538 -0.2205459114019953 0.3001660550368108 -0.01251365178391604 -0.01096149550769853 0.2531260719458713 -0.0001475099504667025 -0.02439225948994427 -0.03109319198752822 -0.04945781771448214 -0.1235279965985679 -0.02357118937246740 -0.01356902672231656 -0.01475721375614733 -0.01311422966730835 -0.03554608429523554 -0.02320451456932786 
-0.2929030511650765 -0.02311830445853657 -0.09701330720399479 -0.02399075498959735 -0.2911352069174982 -0.01286822756458211 -0.008653150682009860 -0.03339702467097930 -0.1551925126038405 0.5784604860461160 -0.1937862637987753 -0.02298591549654355 -0.1241866745982634 -0.1117011621368523 -0.01082568352448978 -0.1481884350995808 -0.2732536440750522 -0.03735366671938674 -0.1108431074630492 -0.1213377109581265 -0.03878073848123797 -0.03440038748847109 -0.07179986015581767 
0.2791357217746908 -0.6797236277141457 0.03446323965213322 -0.02453878391466028 0.4225459936877613 -0.3133173327032671 0.3081669620877206 -0.09527236352369992 0.04766850178881340 0.2033033186607119 -0.3334625057191505 -0.2899192767327203 0.03834395686477280 -0.04459353603715256 -0.05893931134099683 0.2892343925683445 0.05537535092090869 -0.04671542229776761 -0.04062945202891397 -0.1515096190785948 -0.03469516471051096 0.3649124159432463 -0.06674018046239569 
0.09407493341370665 -0.1069006199985853 -0.05366818331853426 -0.2970693732969691 0.8384527341387613 -0.3538106086403514 -0.4515927570257384 -0.09098052392972103 -0.6392779693635590 0.02017674578994729 -0.2569741088609281 -0.05571146470423910 -0.6535249920298420 1.294913259677086 -0.08090451956814901 0.3513316618184967 -0.6886631689697457 -0.03810286244384666 0.5060592422227339 -0.2359669723357759 -0.02939960303820645 -0.05485261726380186 -0.04502151719257916 
-0.3625682559601413 -0.2961983044725428 -0.006279561415382660 0.6119135050826666 -0.09546357242704315 0.008277461270286824 -0.04544463026409289 -0.02696058530979564 -0.05483097323225065 -0.07018582271246988 -0.02220366120277064 -0.03398121611341699 -0.5686864830485444 0.07882876660993564 -0.03791041960766887 -0.3649798167293532 -0.1625100276703443 -0.02823663730398902 -0.07312813681874748 -0.09809391625340252 -0.02073965407747936 -0.02762977159924905 -0.03859308027500531 
-0.06879401529555908 -0.07128137406144949 -0.02835086912970398 -0.04624864976939595 -0.4021055411621257 0.3065250264979786 0.08807079425408211 0.05335715416801754 0.6186888535616600 -0.04114184881062913 0.2479708810120010 -0.1672481818046093 -0.05534822123870013 -0.09592291298484654 -0.04710753550019797 0.1299772676310386 0.08909519311569236 -0.02766204878195374 -0.02273455115747705 -0.08196851846613282 -0.02410457760381754 -0.1020204771127875 -0.03049379841981899 
-0.07073912837167722 -0.2351132840534571 -0.09774006282423794 -0.04843644671390289 -0.03420614397481767 -0.1423423266447303 0.1725670207719196 0.3868493011011100 -0.1127726359495111 0.2445706450111895 -0.2169946967001422 -0.4793914269353893 -0.04936967448407374 -0.04449637761871942 -0.007871560516617183 -0.1253807941557912 -0.2601348347619968 -0.03076745712263683 -0.05473695360583070 -0.09956975188837114 -0.03273516658894787 -0.02504155311903665 -0.05275460879822212 
-0.1015667294061551 0.9204804257964453 -0.003118239119059282 -0.05768792411722539 -0.1426483634283838 0.06459121943029161 -0.4151097300122009 0.4323646161817348 -0.1544929891261322 0.05388411598075208 0.2950867011932637 -0.05961590891495765 -0.1427920995851057 -0.1702342860046927 -0.009413397691270949 -0.1371289085674418 0.1009597895067570 -0.01426035909863669 -0.02328458377923596 -0.03379071621407780 -0.01563179721284000 -0.05832651291930508 -0.01977353683256977 
-0.7643974929114171 1.027964760321215 -0.07400065830258205 0.1764209332795487 -0.9138283360569752 -0.08565906267759783 -0.1221296424215377 -0.04462487296742745 -0.02622805474933121 -0.03595935019351555 -0.09098821153665032 -0.02432550358062786 -0.09931022957301214 0.4916839817594562 -0.1059910986112535 -0.05504684602571576 0.7868137514571790 -0.06640585361525404 -0.03774415705993546 0.2601491469335615 -0.06085184294789946 0.6422362905069220 -0.09748043640409636 
-0.1926140436204653 -0.1255161128353913 0.4841780632550478 -0.1374972417767094 0.06582617900763055 -0.07512796230344782 -0.06106503281766097 0.2369592519881889 -0.2535238754067357 -0.04741755908100694 -0.03030094621035991 0.1340099294167153 -0.06136662136065449 -0.1250319959289127 -0.3672107395084718 -0.1242384952202958 0.03231943074140379 -0.05810944549828612 -0.04227262697821138 -0.06862331775069550 -0.02784550957815505 0.3249729886693926 -0.05646427420838109 
-0.8521597002054353 -0.1328210862049108 0.2044161554464848 -0.02101535946934767 -0.5615349080721936 0.3838523035809778 0.3417410084870238 -0.2030219934437215 -0.1840967608596270 -0.04722367334468150 -0.2709091996896388 -0.01218869291028858 0.3174035575341695 -0.1206745260910951 0.005339534094345993 0.01822420153821764 0.9707505436329424 -0.03047340697708961 0.5408460688289364 -0.03747179839939835 -0.02401492373951639 -0.02272923583055773 -0.03632932843151601 
0.3409409379271455 -0.06130806639563045 -0.003410665998444852 -0.01136235216891155 -0.008376413026774611 0.06421954866797955 0.3482544939463335 -0.02368687118918003 -0.06788020239856458 -0.006697663366562969 -0.2521800862119074 -0.01500421534580403 -0.007094506057911250 -0.01430724340167314 -0.01360521061953987 -0.006138496971019892 -0.005948944990621402 -0.01263949239129281 -0.007726580456955247 -0.01101437526722665 -0.01755719594630798 -0.01094406814319886 -0.03643194675963160 
-0.4026063492385951 0.04530489613249213 -0.04598651539394388 -0.009480009575729190 -0.1731818615897890 0.4127439592913737 0.7973758139862579 -0.005034438914301208 0.2682173841037812 -0.0008317045785914184 -0.6439931237325311 -0.1713083973999320 -0.05689824776781622 -0.09122300716098895 -0.06673761566024251 -0.06170954415504948 -0.1197461913817411 -0.03293729127735166 0.5447104375439858 -0.02174853325641761 -0.01523532340204906 -0.03158438885020915 -0.04072341912008953 
-0.4595414797817708 -0.2231916353703229 0.05407565375478746 0.3091655695714017 -0.7725140539541666 0.3013305151588837 -0.4351446662759707 -0.1136493798676861 0.1743711855136831 0.06991182506642768 -0.2477332103711579 0.4163172192032187 -0.1983274731220023 -0.07235526947203834 -0.09161423514471119 -0.05578671417673327 0.3765306135985561 -0.03889059978628211 -0.05380004794116269 -0.05572923880115054 -0.08719367165624846 -0.09073215880040912 -0.03983254996114742 
-1.056092105062095 0.5523672548544651 -0.07590450301800356 -0.04765510781732850 -0.04690601324988614 0.005923325664716195 -0.03834653377358414 -0.07072876618814575 -0.1239066885575763 -0.03466761283474095 -0.01453717776235282 -0.06404426224196333 0.3681230585281296 -0.01623502066347094 -0.03179474677106253 -0.03266837360630057 -0.06163625809337666 -0.05390474743938596 -0.05074435369403378 -0.03166180730474152 -0.04362287463279704 -0.1248381537923618 -0.07200972096439545 
-0.03131202883311430 0.1200175931773647 -0.02478085359716711 -0.4194706007352050 0.07175410055451278 0.03109450531718978 0.08024032872049286 -0.2586578918664632 0.2136720400500920 0.09947160368092972 0.1629596455753475 0.2176155495637927 0.2405496661753971 -0.08498455658503536 -0.02960043727888434 -0.07366146838496880 -0.06733163203203253 -0.01532631536452532 -0.02078366023060732 -0.04931190923131696 -0.01853787694135093 -0.03601716429636076 -0.02388283428334560 
-0.1580556801674827 -0.03801549050931875 0.003791890029589949 -0.005520972029596497 -0.1046213740047880 -0.03401880452700329 -0.01879386286479414 -0.01654443291728581 -0.02477939461248621 -0.02892004883088496 -0.01385405400976563 -0.02160575750628285 -0.03366036650291925 -0.01753613731904720 0.1696860667049389 -0.005351919350007117 0.08090539223381575 -0.02206737710058767 -0.01924761645587277 -0.01608049379995987 -0.01280165603456363 -0.02232770590427065 -0.01760971742941025 
-0.5977754893444696 0.08477928711289756 0.1055187148220320 0.5220324603321662 0.7482279637053265 0.07418547194355796 -0.1427323922574477 0.3595379992633641 -0.2862510278129820 -0.01477989120745071 0.3017759073600442 -0.008064538473080623 0.02952980203981417 -0.03860852384689531 -0.02748045137742630 -0.1138072729631808 -0.3806522574214759 -0.02079500198424178 -0.02359169924237178 -0.06703818615840350 -0.02687883116772203 -0.07139815158802812 -0.03559629591636496 
-0.5143372446682619 -0.1738985982971671 -0.09128625427796455 -0.04146535182392445 0.3970220269965283 -0.001028737126355328 -0.002866849075957467 -0.02054745058173032 -0.1770945863642187 0.1966737526404088 -0.002560639233527334 -0.01110466780014619 -0.04437934187246557 -0.04093862792880076 -0.003309881479504537 -0.1118960672648096 -0.3852075040008502 -0.02802297373950018 -0.05467846982417287 -0.08565292736962510 -0.02817793529613790 -0.02156294452687736 -0.04276821928312582 
-0.2002588605507857 0.1573939865747235 -0.006552464161601197 -0.006755729064002739 -0.03113703752431358 -0.009546718422355986 -0.1835261729798586 -0.02296520702789580 -0.01791909746209244 -0.003285615619830300 -0.08406741635929255 -0.02232582726497709 -0.01873937245610596 -0.007766067391609570 -0.006809167174894932 -0.01170482203651009 -0.002198779973868119 -0.008669960900590957 -0.004073186268790964 -0.007301262044431528 -0.004726126785793236 -0.006872890496017148 -0.006484782058762894 
0.3390817618099966 0.02367295688112936 -0.07265642393467989 0.1158874477617613 0.3391501854841904 0.05562156460627549 -0.1554693046078063 0.08455593345945770 -0.2313924143990729 -0.02443068094741728 0.09650559014216076 -0.08828282117470580 0.1429818663987021 -0.1239507913908906 0.005400295085327106 0.1685782021282585 -0.1418202983934591 -0.05395848498737203 -0.02871334101095364 -0.09114283260481812 -0.03759077163598940 -0.07157478421680454 -0.04603681505003624 
0.9581831486173638 -0.3959644234515417 -0.03938198781379596 -0.002399927244063326 -0.5525568102988557 -0.1645929551929953 0.1823906933216820 -0.4124755024693025 -0.2228517085098953 0.05209889677605573 -0.4724790246541220 -0.1993616082135254 0.2109445434090516 -0.1019653543804019 -0.04446729048339265 0.6107215191991895 0.1408011826255053 -0.02355776668277182 -0.01635625508603578 -0.08054168113718875 -0.01800539720211973 -0.07999868506241616 -0.02913485925938903 
0.4080416836235027 -0.2607770376440410 -0.3166528789140674 -0.03605172701014372 0.1212507520153219 -0.1386070584675211 -0.05794950472637692 -0.05398987673889939 -0.08584419444258722 -0.05600200289612234 -0.02190255712179363 -0.05110397649847578 -0.07364949796818934 -0.05836573323881812 -0.07790403149190818 -0.03469220086786071 -0.2473320819684637 -0.03617547085464738 -0.03966474892788722 -0.04551756407733098 -0.02030206932169309 -0.1372735359032684 -0.04379885666178644 
-0.04740603187782357 -0.02350489757110427 -0.03523525361003613 -0.006673967775172850 0.2349849896627239 -0.007569723354594152 -0.009565133132946789 -0.01501179059502342 -0.004108802367762225 -0.001582688445395835 -0.008144285692833765 -0.007406593067155938 -0.01392771505232562 -0.003977414314728134 -0.09629512483398474 -0.003088174513521259 0.01579076430183007 -0.003364611621714007 -0.003769981970570693 -0.009142464037067255 -0.002737711414795476 -0.001820188454445286 -0.007316445914606798 
0.1168266588527854 0.1829166908086314 -0.1578453269292559 -0.1416508610939639 -0.04364177096037483 0.01220482117356382 -0.02953925723237123 -0.02363408256248529 -0.04474644095104977 -0.03828726884842228 -0.01642183218675645 -0.02336118798262860 0.5377166494152367 0.1149812032123921 -0.03241554996111443 0.2218726279348987 -0.07152326630331536 -0.01663512757353336 -0.03334047253164606 -0.03306160664620077 -0.01409124044340482 -0.02333084825350783 -0.02283250825670669 
0.5766973722862025 -0.2214961899146103 -0.006588189176571408 -0.2549896813198507 -0.001408733573133025 0.1253391944525104 -0.1772384782571839 0.04467404640336466 0.01525387578276250 -0.09938951474511401 -0.3617199651297149 0.1167395814042720 0.4597354919536205 -0.03606357548870243 -0.05355475771997546 -0.05080417786987263 0.1251947157799490 -0.01429689782425418 -0.01914926082072408 0.1464228004287400 -0.07295710223005575 -0.02115223309573830 -0.03482234572633342 
-0.3075230052995736 -0.2305400972814007 -0.1622044868243401 -0.07556169356800245 -0.04494498531731385 -0.004382493253837953 -0.03518350810607142 -0.04271718299498651 -0.04862058549803436 -0.03659502696840618 -0.01047681420696022 -0.02151058065591780 0.4981506875574282 -0.1501726997756883 -0.01801114752640420 -0.03957238873831588 -0.03665680014190803 -0.02072254629335840 -0.02970180195664007 -0.04100369332447505 -0.01533457436024268 0.2161511913940988 -0.02624492439799074 
-0.6282424894297707 -0.09018793442383390 -0.002572711677351087 -0.003024605987791642 -0.002682502001384711 -0.06348373990659698 0.1152574624942779 -0.008081722364854860 -0.01896640306015526 -0.002062930081217842 0.4317777348841419 -0.008701414670308414 -0.01161560111170272 -0.004478669527017328 -0.005965466308470697 -0.008681748695423167 -0.002179285595169380 -0.005471946421812381 -0.003252584739461242 -0.005269620158606461 -0.005674793765217286 -0.004685026960956406 -0.005793924086346439 
-0.3964536178477727 0.4497146732968966 -0.02236544929986213 0.005888281353201929 -0.09070966637439287 -0.1021721080496431 -0.02313364007757101 -0.2868105820129327 0.0004732367057014586 0.04354473055968916 -0.1512255152451216 0.1401268447763327 0.1447000334484902 0.5464743932666674 -0.06566682735676818 -0.2379892733403629 0.01240103945397831 -0.02141350854830587 -0.08299253417382037 -0.2417437967083692 -0.01170609731722932 -0.02033217898980954 -0.05533411614332033 
-0.07539666998109333 -0.04580054771301317 -0.006147811064045132 -0.002341408536534617 -0.006268809638553043 -0.005225376424664488 0.1039428210293029 -0.01565015831848652 -0.01235293757932916 -0.003854871659671098 -0.1172937261839955 -0.009101433294185170 -0.02274144011579823 -0.004798648974460620 -0.007150414711195520 -0.005280738005743957 -0.009989055167889144 -0.01504100866196615 -0.007210354486885923 -0.007224590367792291 -0.004735543731154983 -0.007268348016204244 -0.008101413290743513 
-0.5043205606477470 -0.02753717790447646 -0.005959539544606544 -0.004968113867049175 -0.01173090180743302 -0.06112760600531975 0.3877937955249388 -0.01438704363721649 -0.02749435117866233 -0.003247780246835099 0.3037555131722929 -0.01606586748322828 -0.01101782134342226 -0.004402464041770708 -0.007129869467533996 -0.007459427625349131 -0.002138908457108694 -0.008560483023198652 -0.003699573805585810 -0.007640158430783383 -0.008293913054503350 -0.003968936999643117 -0.03251120181623606 
-0.9199162941643009 -0.07035944568149798 -0.002529327485247554 -0.006299584921382887 -0.2522431655194326 -0.003820044750341636 1.030686258302707 -0.01663681008936628 0.4629279900539866 -0.005899834910852950 -0.01215227651445559 -0.01471226448909830 -0.01791852147962777 -0.006536579806275043 -0.007104714637522750 -0.01275444971374495 -0.2297928117310697 -0.01508046821325004 -0.009257575209468969 -0.005581541963253803 -0.006773256408124779 -0.004728381280013243 -0.01560041640086787 
-0.3161290717458636 -0.08101854826900884 0.006165715981488497 0.03323799332577154 -0.2404671865356818 -0.05046111957793320 0.08723289629168746 -0.1209973124649527 -0.04765758078026173 -0.07819948452566232 0.2917976833767965 0.07257234868616613 -0.04578712080302567 -0.06770110181652200 0.06371112888698115 -0.04994554941309124 0.7924420915280004 -0.02170445754571289 0.3749193179957462 -0.1066573980219153 0.09728750859565070 -0.01662570083458697 -0.02828588489652737 
0.8631398263144336 -0.001411379505937542 -0.003153989229289686 -0.007730562455069380 -0.3416310714395608 -0.06435491044948508 0.08047584573623608 -0.02455880087132539 -0.01932604406841217 0.02153987976643942 -0.2191133601303443 -0.01594318505098804 -0.02115997555331475 -0.02823928638016714 -0.02987345760889063 -0.02308375676513939 -0.3143710082906291 -0.006852440298133720 -0.005511860344363762 -0.01259476030358115 -0.006261987534315667 -0.01291492804249681 -0.01010529849477632 
-0.1982875747690149 -0.05319391708505290 -0.004867508777143190 -0.008414182764547145 0.5039147479127303 -0.02517672713711784 -0.08766668721353169 0.2081801222163047 -0.02084881900930475 -0.004353578323552780 0.04164393944050406 -0.1043916348386484 -0.009645271664340222 -0.009005346415147724 -0.02095532575418242 -0.02545717375690169 -0.1797587480570916 -0.01117227929676873 -0.007410362342638252 -0.003891443279795001 -0.004076878269943090 -0.01283868443071741 -0.01007741956140259 
-0.04107428521949721 -0.009277848280790412 -0.0003360118353151372 0.0007955382261759757 -0.002471163351737354 -0.01279149576086662 0.1061138592120575 -0.004490447901747831 -0.002827252935055911 -0.001627161432665532 -0.1178991174087732 -0.004563586482828333 -0.01897199594411101 -0.003024604113432601 -0.005641357430471657 -0.002979839320185048 -0.003913560342812344 -0.01059813724351250 -0.001335541926311801 -0.001548252489829291 -0.001444344788751488 -0.002547077310733790 -0.003341011135429888 
-0.8829900936679682 -0.4866957623954579 -0.03290764480012588 -0.1730930709855423 0.7286827841659129 0.02105292549452755 -0.02232955867294418 -0.02351019399084758 -0.4865900257775825 -0.03520268124158929 -0.04251980705396104 -0.02272363995014589 0.1238291815697234 -1.253415092129953 -0.04244442601359380 1.610767987895180 0.02771397352024616 -0.01188410742558920 -0.07612915247782437 -0.03467744213755733 -0.004831790629314500 -0.006801315746616869 -0.02049820074693322 
-0.04015631306161829 -0.1812975441839894 -0.005792254589700987 0.09118308643505087 -0.6696274920070344 0.07212438433862667 0.3146757674675013 -0.1777450198417566 0.2640377202477890 0.09283327463499311 -0.1751911967368910 0.1255233969724047 -0.1958041893399474 -0.1424465046073476 -0.02471247232319645 -0.09084608512852416 0.05284143312964271 -0.008818366979482257 -0.03629125544542566 -0.03333330008215367 -0.006572916224447572 -0.01609012593902843 -0.02631863631753258 
