solver_type L2R_LR
nr_class 6
label 1 2 3 4 5 6
nr_feature 2097
bias 0.000000000000000
w
0.08602556900095050 -0.5270261868763549 -0.08082163121399305 0.03204938853764514 -0.07142951233152811 -0.3601891986561365 
-0.07341920934525667 0.2129140518884022 0.3242882562814664 -0.2289927530236244 -0.2208079822642804 -0.4256665410250886 
0.01311805312030348 -0.08156565782176556 0.3739120074088812 -0.4097123328749384 -0.4529288777800756 -0.08592725835777366 
0.4213185178404216 0.3138077665128627 -0.3049720382194626 -0.3657162199130766 0.1069177406433840 0.08916903071152889 
0.9847450159704709 -0.1307221434386628 -0.1278095944888584 -0.04770195377392007 -0.4648087575735180 -1.009514664023436 
-0.5044104414288916 -0.04939367919679460 0.5290151044690895 0.01504324622585105 -0.2323024502593305 0.1623701028007062 
-0.2005855674001970 -0.09665268765033395 -0.4286819243220494 0.5274308864898577 0.3304153144395759 -0.5910012844354292 
0.1679794661906364 -0.3565699186272093 -0.2446870872577064 0.3085276597258492 0.04530797491780923 -0.1757833810867807 
-0.4134396061051355 0.3199952941429331 0.2346968316990234 -0.4609473758843439 -0.2376242648709960 0.1479838139739360 
-0.1793404715496741 -0.3121108566061809 0.04313033103468537 -0.01240897646020640 -0.04639199255384019 0.2215859119363351 
-0.02158930685163432 -0.02746243784889730 -0.3876386907155787 -0.1457743493291946 -0.07097729512451037 0.3074032828312408 
0.2444537059829675 0.05644431141493648 -0.3173149261132073 0.07918278058314837 0.3193362071271158 -0.1546077279417507 
-0.08168242401695620 -0.3254763702444560 0.1242908170554579 -0.1260878225439348 -0.1336282956252503 0.1889614313288309 
-0.08159239792504351 -0.09401273259086121 -0.005176651012962316 -0.01449399543046499 -0.03098845318091104 -0.1588181639150030 
0.03361443240482135 -0.1397712708538710 -0.4093715904682286 -0.1182067449406428 0.6302408697644971 -0.7288552261798428 
-0.3806815581162671 -0.2024779198041344 0.7811619951469486 -0.1968793222908808 -0.2317441548969206 -0.007812659792694474 
0.1275865552862721 0.2152866747181194 -0.4450089862496696 0.6170471442339597 0.004388857431958758 -0.2794303453179202 
-0.1701468422271837 0.1004356094456195 -0.1274892854433786 -0.1414401152028985 -0.06369491559319763 -0.1764901036377162 
0.4102390657945767 0.03027985479126970 -0.4464940025623050 -0.2269706012222357 -0.01054719101100998 -0.02709632239754528 
-0.1695028654562847 -0.1300782269357466 -0.2079105473850295 -0.1415378014606273 0.4520178966453677 -0.4147551405336993 
-0.003746734077177022 0.07583150523122187 -0.08054131203415382 -0.1054848767529475 -0.2325988511121883 0.4906930384239686 
0.07789019084377719 -0.4380887210459161 0.1979543195935492 0.03348204103592389 0.04439885628926773 -0.1359072232850379 
0.5532656617595048 0.1617354372190897 -0.1903597322484559 -0.2845976408697626 -0.08105458021759880 -0.2237759793576274 
-0.1000250115355149 0.4534399883972555 -0.3916326976171636 -0.07468643531685752 -0.04576745688602574 -0.09927197707702276 
-0.3432128258427405 -0.2870875008278127 0.5298907499077420 0.04272110553273750 0.03316138951602547 -0.2265019036771209 
-0.1011406460922304 0.6143903360846666 -0.3641792992771775 -0.1128268513805291 -0.07799202003698893 -0.1869382068257392 
0.4427558348226238 -0.06219091147281661 -0.5801226077451217 -0.1751630671765267 0.03804103279336827 0.02065857438015700 
0.1555210978704124 -0.05724318805133141 -0.2606666221808735 0.7070742145643886 -0.06057067830198176 -0.2897078166544191 
0.2542096525306650 -0.1534371672358711 0.03602193024975248 -0.1176081625821244 0.06268018813026212 -0.1105740465961911 
-0.3635819335998917 0.1250088460173590 0.6603950610446835 -0.2472373628060899 0.01330509834632882 -0.1839376890079359 
0.2241900486605175 -0.04509508425530288 -0.4205061998287322 -0.1425917171371212 0.03089973454389422 0.1241306054139987 
0.7814401869607375 -0.03489048563853907 -0.3695185426350737 -0.1970735168443499 -0.07839135287573921 -0.3011709967573273 
-0.3732301039892714 0.01273584407516500 -0.07500538994964652 0.2327442822133762 0.004378803998537267 0.1312796642904989 
0.3105328928272495 0.08165591115679363 -0.3843967039516140 -0.07831124840121727 -0.05334512520999105 -0.07374300451447123 
0.2639350710082942 0.08212304562290070 -0.5408009886849434 -0.03795698165414062 -0.1185268720920565 0.3760985966404562 
0.3792459898685559 0.04539906272904497 0.1080452226632339 -0.1818775097887656 -0.009722158379098546 -0.06205684503918382 
-0.07362331992794767 0.02145048082986516 -0.1303427157409690 -0.06673625019347705 -0.0001122631656932993 -0.07356779234387426 
-0.3353380829943324 -0.08416745727684412 0.3673190326486451 -0.05338069660198030 0.01431964510070290 -0.1043115836320483 
-0.09442022497214649 -0.02749282058463356 0.3441122855301790 -0.1543269133907549 -0.04962351957864761 -0.03948237095578492 
-0.1282704701854265 -0.04418559333567181 -0.08953337658538946 -0.02939544064854141 0.1951339654173232 -0.2753910594276542 
-0.1288161930180634 0.1702513854195222 -0.08303071853420765 -0.04066246982818238 -0.04523141933862229 -0.03829047105423438 
-0.06664700516739264 -0.03084708458868493 0.3176362529645732 0.3392953198164479 -0.06658205238055966 -0.3244558472278714 
0.2793545820516470 -0.03638566072368464 0.05169492690194933 -0.1344821325124502 -0.04829842454702032 -0.05310779798670951 
-0.05074568929964855 -0.2324903676705625 0.2238261789483932 -0.09884014858317916 0.06397810479997519 -0.07464764791887618 
-0.1463885961146742 -0.1725813536995451 -0.2469219046105212 -0.04656527784262706 0.5204849527411777 -0.09727485256881072 
-0.007276265719396872 0.04734896419078915 -0.2142439851144526 -0.02119041067183034 -0.01236671902216225 -0.04857545342089389 
-0.3915418465255579 0.1496683588681043 0.3984982167047581 -0.05755577551620043 -0.0004083832066544149 -0.1398810335645619 
-0.05540175744151228 0.3171539173678399 -0.3536730323309846 -0.009538552295267840 -0.03467269551183490 -0.02594376126367966 
0.1590511485804891 -0.05750050522072003 -0.03569328453814206 -0.03237915167974260 0.1155681158067909 -0.2304681650108964 
0.2970792032695898 -0.06655511723880214 -0.04074896129097533 -0.04834746046177419 0.06477733106916761 -0.09487829907890510 
0.1625193081346753 -0.01989831915120211 -0.5067230719205019 0.2528547636227976 0.07750461089339819 -0.06148005793842544 
-0.1238507455417973 -0.06227384578235812 0.07693658348203113 -0.02166453300985891 -0.02064469692844578 -0.02869387127354281 
0.2651471480397341 0.1614362970590982 -0.09140022668485118 -0.1460609817034352 -0.04189413643569553 -0.1602110085796952 
0.2563001428228682 -0.01769213758531397 -0.2854084730552917 -0.09876432707592472 0.005790864408444507 -0.06180466620017507 
-0.6310407693616423 -0.02950946165581254 0.2106059191496600 0.8292195659296333 -0.05022510122716913 -0.05401199028137741 
-0.03504271504252208 0.09483758613315003 -0.2188655016496443 -0.005613654416872719 0.04163566151966189 -0.01841857408925753 
0.1356714096272384 -0.007292860895833924 -0.4007064009592539 -0.03889804824946892 0.04178803769853796 -0.07982779323719530 
-0.5910631005054207 -0.1552400314649828 0.5093623481142361 -0.06882575969715511 -0.01701796126526097 -0.1112016825027205 
-0.1346404900508839 0.1118236347727688 -0.1239633757004701 -0.02616336467120601 -0.04603883175266893 0.1635900625920932 
0.2042103318971396 -0.03166188675587569 -0.2884274929736194 -0.05359898659965639 0.1066433668321305 -0.1590726880267984 
0.4034338858801703 0.2317477285058365 -0.4898483320044496 0.3296291445072840 -0.06559562942466907 -0.2827930601948543 
-0.02215297362130850 0.2291040602744854 -0.1483879673373307 -0.01095256861500885 -0.05493062318698351 -0.03443958695635944 
0.07000164252178613 -0.07600421533290390 0.1340840264017725 -0.03969103869604541 -0.03278026306582244 -0.1549814533317926 
-0.06261975577846073 0.1855984877104438 -0.3529959355237590 -0.04073219139021014 -0.03124184097702503 0.2259878336251845 
0.1444756842764830 -0.1700994303900769 0.3052892846685176 -0.1377760113778121 -0.008560406701291915 -0.1558377901885095 
-0.05893177592089278 0.3101132294745119 -0.1937620519916856 -0.09795044372524614 -0.04659388830496497 -0.02889496638432968 
0.1891481091003615 -0.04134706898228279 -0.1296319098292299 -0.08418743201490116 0.09656769606543823 -0.1790463753737464 
-0.1638242495152894 0.01387537863661607 -0.04975117566362368 -0.07695685183639168 -0.1505148387172781 0.2856260527464823 
0.02375196915010855 -0.01917621099530909 0.2189020898349234 -0.2404852276605227 -0.005580950256427531 -0.08598113554220081 
-0.1315082451590654 -0.009183919588292776 0.2923159939390245 -0.08680126224382005 -0.03422139829955533 -0.1447102265597938 
0.2742054527350730 0.1240122836824739 -0.3171113742578433 -0.01154279470592829 -0.003582269707302172 -0.1269035452293025 
-0.02779931089881055 0.2442694865142001 -0.2314534259685409 -0.01450105234059128 -0.01514701254319414 -0.02620917634955946 
-0.06460395022262859 0.5723534543485297 -0.5558121105622836 -0.01113790168223241 -0.009917004227385135 -0.1430997504970410 
-0.04378538630606806 0.2723819940501371 -0.3186298352123602 -0.007605805648472254 -0.03063297008711159 -0.02418903699163939 
0.1710655602970949 0.1289606625680472 -0.2320413526391428 -0.1072608970112987 -0.01202796106928625 -0.06431890461837915 
0.2561757422704199 0.03915103112960110 -0.3465350969991196 -0.01515250744389419 0.07543952292318415 0.07461367230930359 
0.2038058186277404 -0.04761509980230965 -0.1144845687002498 -0.01114690341423822 -0.06068479874076538 -0.1527322537203127 
-0.04800810577680950 -0.06510447282754901 0.2245857162823994 -0.006558030755751777 -0.02103623269892773 -0.06770692294179102 
-0.1912108890669186 0.01532377852305647 0.4157692694752616 -0.01461029061717007 0.002323146419267147 -0.2106891043334571 
0.2376286860859561 -0.01505010477043022 -0.03023480338930901 -0.1580814301620999 -0.04635346190944138 -0.04701889348489074 
0.1656909534220799 -0.1332615991852005 0.3352703690550405 -0.04585169454255240 -0.01535782781110094 -0.1840654023216724 
-0.08083150502629537 -0.004871440424425745 0.1163319039989577 -0.006461195885516368 -0.04295290265049935 -0.002682171065839707 
0.4660298476250985 0.01246316802289482 0.1511470195302154 -0.2552360801516568 -0.02567231091094066 -0.1638087626202495 
0.09670300628654407 -0.04013861228641531 -0.3011545294053186 -0.06321399889114077 0.03966475137033380 0.03751867654135199 
0.08456260174464895 0.08145410116246864 -0.4277028371119859 -0.008711907784580489 0.01260418285606040 -0.06906395718470966 
-0.1270859801661641 -0.04485297072598202 -0.02177443392872198 -0.01557623257300589 -0.02689384052171328 -0.03508429947114154 
0.06543845269153502 -0.05629896050559353 -0.07882857945326130 -0.003780474296075649 -0.01819654882713644 -0.02055021265931119 
0.01577433235621548 0.1538085946218521 -0.2506505620399759 -0.009945566724147472 0.02643902542310513 -0.04057798919523219 
-0.01772540887245727 0.05627267513121741 0.05480514843550945 -0.008883519169886871 -0.006262591752185529 -0.04395814626684089 
-0.1316042773186378 -0.04157692089503915 0.2430148891455971 -0.01294992451758134 0.07423914159242107 -0.09858724519974757 
0.1577852691328295 -0.004429011784893082 -0.2818056262848938 -0.05326741354914755 0.09056372796052685 -0.09162968852469965 
0.1688069351985871 -0.08382573776451197 0.01225101808089910 -0.03851985808900917 -0.02338111248753573 -0.08651356708695539 
0.04575180392451024 -0.02560140272329027 -0.1525873773858056 -0.04670585812840605 -0.005151226778782066 -0.02946384221616796 
0.4480583991969362 -0.009208188613399580 -0.5191971310187532 -0.2144839569203328 -0.002405429196807902 -0.04351185647817937 
-0.04420789537021121 -0.02190362922599594 -0.08395207592761901 -0.01877989536608088 0.2044279624891430 -0.1699723343380039 
0.1097642584783996 -0.05707737429914543 -0.1793175780951559 -0.05009255391344494 0.03789083236114144 0.05339167328831806 
-0.1270859801661641 -0.04485297072598202 -0.02177443392872198 -0.01557623257300589 -0.02689384052171328 -0.03508429947114154 
-0.07712511455139938 -0.08557962634492410 0.1442701232898856 -0.001845684371851098 0.06356966557484635 -0.06197565830205234 
-0.03324346051251109 -0.05128825989897058 -0.0001266698778977034 -0.001712462905996275 0.05076638395475048 -0.04211559796920896 
0.4554275377063565 -0.05835086133599522 -0.09113637392258209 -0.01380106787348085 -0.08872805063801070 -0.2103966201306524 
-0.02899496172272205 -0.04467872216614728 0.1359755731476218 -0.001430505277879618 -0.05985595074680655 -0.1408556814704356 
-0.05758171945863035 0.2244572213818744 -0.07204542859780787 -0.005044722557856604 -0.02161958092517675 -0.1402372008852204 
-0.04437536355683926 -0.02098221086438955 0.1424136271301368 -0.03792041624671066 -0.07104580662187204 -0.1571075859315592 
0.2525873112478807 0.04588090428483541 -0.1604925184600957 -0.05900023281848581 -0.05473889681643352 -0.03846187989059438 
0.06543845269153502 -0.05629896050559353 -0.07882857945326130 -0.003780474296075649 -0.01819654882713644 -0.02055021265931119 
-0.0007322028339452114 0.07000095645352858 -0.1374014872359169 -0.001298614336225855 -0.002066394156631863 -0.008820484282484293 
-0.0007322028339452114 0.07000095645352858 -0.1374014872359169 -0.001298614336225855 -0.002066394156631863 -0.008820484282484293 
-0.4236932925070356 -0.01314231488507456 0.4955985819483603 -0.03426443420814000 0.1395935482950044 -0.3009932645714402 
-0.3400647253062490 0.1219356149941438 0.4592454385780737 -0.09478351652543802 -0.3238900243642300 0.4574376779076587 
-0.05400550333028668 -0.02041162286707805 -0.006549020901580533 -0.0005446560024056506 0.1094617155532684 -0.06025008446389837 
-0.05705188925657836 -0.004844079184122341 -0.03896042939816556 -0.01075932204002649 0.07468721316219196 -0.04228403938169074 
-0.03413463477440959 -0.01019760906897778 -0.1438468798748883 -0.01461523698088496 -0.1094869662062135 0.5178010235390438 
-0.06727987689875042 -0.09008752224807980 -0.06947690431221558 -0.01560487126368837 -0.02592036069816524 0.3812183566016644 
0.2221130732494066 0.1267303237575862 -0.1170935110538672 -0.05332818420369707 -0.02434781514236248 -0.02498008329439741 
0.04351158211713001 -0.008911262912926961 -0.09469497891257910 -0.02760045685014186 -0.003276996095268168 -0.02002023086410873 
-0.04412433084562201 0.03144449001266889 0.08996617523681269 -0.007327019595488559 0.08754008427966602 -0.005359399010145110 
0.1655043225226060 -0.03139266740848392 -0.06685888656160495 -0.01998342914361989 0.05419278057910494 -0.08433283665650930 
-0.02110476195370081 -0.4758670163950897 0.4957638693970892 -0.008087153381012215 -0.006701308080489879 -0.04094162692513376 
-0.04925661250607197 0.3176219076749834 -0.01555868655055194 -0.01008695123573503 -0.1173913334972424 -0.1303272781390314 
-0.04788755027362722 -0.01930081724509540 0.1352714144388570 -0.01226370935642661 -0.04512209348212737 -0.006377329327491352 
0.08542530197850207 -0.02236063038769441 -0.04012041059120926 -0.01028582688299215 -0.002563114694326562 -0.006643836342529489 
0.4321731836610041 -0.02175945346844931 -0.1357778087365753 -0.08163308603463457 0.04198683551968394 -0.1220150759549705 
-0.04788755027362722 -0.01930081724509540 0.1352714144388570 -0.01226370935642661 -0.04512209348212737 -0.006377329327491352 
-0.05012685137032308 -0.01341911010678522 -0.2417840232487106 -0.01057000710371334 0.01178245867882274 0.2605580011805029 
-0.02556724426282680 -0.03474386001403518 -0.02331796640307834 -0.02970456781134840 0.04938467909348331 -0.03986454253041957 
-0.2325290742183980 -0.3844190687462351 0.1075421782390436 -0.1599641499498631 -0.2098967052670532 0.1491315423363691 
-0.1461760629812470 0.2437917423317897 -0.03507640036544968 -0.5365803699937087 0.1694744331112358 -0.1678360314369394 
-0.06453238161954516 0.06335776363310117 0.3546713842346545 -0.2690101840583999 0.05030469190196439 -0.6959062582811961 
0.5313138621834973 -0.2583490572504414 -0.3455141301119098 -0.02183945217133556 -0.4314973929326880 -0.7140754835444573 
0.3361748879093807 0.1598014792995313 0.03526044503921123 -0.7213061911268900 -0.2231793237898589 0.04190718174546518 
-0.7950492042053832 0.4946554387163133 -0.1931118764167480 0.8215371263395866 -0.1055212716951696 -0.4375095240146792 
0.2344052908086533 -0.5423045801753362 -0.02108981384955917 0.1377167630757907 -0.1784297928736953 0.03910323165759192 
0.1607037963630399 0.2009175717000510 -0.03386395329870448 -0.4087358309521849 -0.08295004905229457 -0.2386233925924187 
0.03813191141844009 0.2779098276431083 -0.4822286553710696 0.2300171901532281 0.08517146905274543 -0.1834797816677238 
0.4489476107321795 -0.1375796421813124 -0.2474612020851616 0.1393535473547858 -0.03413584218600879 -0.2309474785075843 
-0.6705876525878034 -0.1244753552747159 -0.4293578205375607 1.035379690560800 -0.008096029755149099 -0.2345892850913509 
-0.1745859911720979 -0.1769210375001988 0.1349435360628282 0.1572614714236211 -0.4829863871679782 -0.03793016897928569 
-0.4318466046584853 0.2392725110942544 0.2686057154287489 -0.02864000217968866 0.09412112702157042 -0.3935711108292112 
0.08276219539142547 -0.1900679893076450 -0.4106666323724613 0.7414751312803433 -0.1351513295775426 -0.5218696829158589 
0.2464916720062006 -0.2402617815446420 0.1219854593594700 -0.3066863789440547 0.1117134966193273 -0.3873862267198981 
-1.090824881908755 -0.06219217610136175 -0.7915838315933195 1.266913814114822 -0.06043027804710012 -0.1445113691305694 
0.2154068212566379 0.1719262653380857 -0.6544559548488560 0.2204738372566564 0.2414806135316993 -0.07586172841369512 
-0.01874652610807187 0.007438234850694140 -0.06137126352275196 0.03411340057750764 -0.08960591872310596 -0.1336138814456213 
0.3319239126461067 0.1279604953840074 -0.005960072759216855 0.02739840316884019 -0.2132293787387101 -0.1647337881439703 
-0.3217172149636821 0.4070502206872274 -0.5710636200314037 0.3322217974780112 -0.1313063112629276 -0.07066853400957755 
0.4158684142543114 0.2428256626187522 -0.1249006359257258 -0.2058125218204858 0.1167810127896518 -0.5522000249991982 
-0.5776158387175006 -0.1031109832274282 0.06639639644577665 0.5833909916143574 -0.09490864335845414 -0.2191831389998111 
0.2395273083919317 -0.02223390087975239 -0.08395626166054192 -0.2259945990230720 -0.09299034848846757 -0.1197670807889144 
0.4948156353362190 -0.02553534361788172 -0.02641859505693379 -0.08300571171850693 -0.1424727428939154 -0.3131351373087388 
-0.2530747329722821 0.3588781483368324 -0.1390221806956712 -0.07899216419163214 -0.1353276851338340 -0.1400079990790163 
0.4040063889103227 0.1171728695755934 -0.4507051480904797 -0.1372301743585980 0.01456744562401065 -0.1372809718483005 
-0.3383691845657850 0.2229747730232672 -0.07764605141271143 -0.07336691476459098 0.05731621407483072 -0.1143086613215937 
0.08033490457964536 -0.07761935397268313 -0.07156425472794820 -0.1823056998661031 -0.05765709383600297 -0.3405686930034751 
0.04616102588508758 -0.2185232899543702 0.1347233724421332 -0.1249913084692163 -0.1165375189216392 0.2493525758979651 
-0.3493205181929112 -0.3764698076052450 0.2893817911022200 -0.3776212257521263 0.05068932870653317 0.1407433062996539 
0.03654186049213862 -0.02674537512496129 -0.2634145357836419 -0.2186587986457091 0.2481142801509860 -0.3657149551865915 
-0.01668981312463310 -0.05630073769769783 -0.04905827450667764 0.06055852671064653 -0.03005939342759399 -0.1481033176974073 
-0.02490324873579566 -0.5258411454398464 0.6611687972214979 -0.06053939063590286 -0.2488516936679261 -0.08356597146125458 
-0.5033827465921915 -0.07048365338171639 0.4497053268559871 0.3824169958119322 -0.03098503688824254 -0.1108598409288502 
-0.5744884389576327 -0.007843486309087705 0.1365060432447756 0.2353199124420618 0.07189936866003924 -0.08992090783695973 
-0.09758518048794751 -0.2730443516180418 0.4618351331749313 -0.03775139448500632 -0.03391537514985936 -0.04004566782167041 
-0.06949464082061346 -0.03447602034773382 0.08235480679271010 -0.09275163315791546 0.01544093992639471 -0.08104855793874590 
-0.09743048307953414 0.4893003694522203 -0.3694193822574065 -0.01711110520835031 -0.06934295803932859 -0.08949156221702148 
0.08289740767419451 0.1800171905197688 -0.2717525482112397 -0.06989529818555579 -0.02703277985415336 -0.01844906539871628 
-0.2464070014891917 -0.1185043058046684 0.2215240212169826 -0.01203810880020299 -0.04111012969696901 -0.06849130976269505 
-0.09416073385290574 -0.05824763253162640 -0.3138009280555889 -0.04293682734357250 0.3484036711962580 -0.1675134790745216 
0.2998663776493909 0.1534199699440779 -0.02134653911286798 -0.1895065372324232 -0.09569757377834376 -0.1402753353616044 
-0.07437040505482632 -0.2526295247016822 0.2224168033540601 -0.01794824005700715 -0.04179641178842917 -0.01118056602333531 
-0.04666171927378145 0.3211455452064358 -0.3753365517196714 -0.1799424484936213 -0.006939903389064380 0.05741034196088031 
-0.04211063871125111 0.1546965130527642 -0.2045250913055093 0.006759661440453996 -0.01854650900030695 -0.009902847411497426 
0.4691077232898558 -0.09346114521875283 0.2425441367136145 -0.2270218952212927 -0.1410859969981072 -0.2629309523802522 
-0.05396524493346543 0.2204875382231559 -0.2542343775490798 -0.01441182657807125 -0.0003556464676572162 -0.08140753801011373 
-0.1941507065359652 -0.05225722424275420 -0.3808431632090969 0.5940982766108276 0.03330964340099283 -0.05870382816802648 
-0.02944163609774759 0.1627279446551563 -0.1959949343449841 -0.006391350130244099 -0.01546866551788429 -0.009239987139779176 
-0.03496066728598632 0.2064925097477740 -0.2478783143781934 -0.02017693465785168 -0.05010899138665022 -0.04794545492373186 
0.2270009479223258 -0.001110741402483298 -0.2185035762467437 -0.07806766770015153 -0.03892348323631955 -0.07277825995560999 
-0.6746467366953209 -0.01286197880622352 0.6743857123857087 -0.2076714943904283 -0.01505020612334751 -0.06376912627505452 
-0.05134786751018573 0.09667362416149877 -0.2427628397728353 -0.02803197958052742 0.1378177754505640 -0.1406238847901274 
-0.1410571511157816 0.6427801641189482 -0.5568725508416299 -0.08442026020133564 -0.02507250858757529 -0.1080823083286357 
-0.3337716105322675 -0.02664560657095184 0.6405981918830850 -0.09299746101835235 -0.02776307109386216 -0.1572740138098462 
0.4206597527900730 -0.02412810671731993 -0.1291641650473198 -0.4365076347547200 -0.02675209998012070 -0.07138798574145766 
0.009387980536907833 -0.003131312402418543 0.05416411048304680 0.3329828543599270 -0.05773423080173697 -0.1146508304495548 
-0.1023896850885266 0.1649319146629189 -0.2039636366788519 -0.004132437488394220 -0.02737387087324153 -0.004440611915597926 
0.02690581696914209 -0.02877260369196011 0.2428055861908075 -0.1001158492332518 -0.02125851873628863 -0.06608034864200575 
-0.09329159453557971 -0.006109131223882925 -0.1135470318057928 0.05318576255224257 -0.002596549246062767 -0.003381837426537406 
-0.04072140289713787 0.02217506606764388 -0.1439392017256612 -0.1555317875194178 -0.07726611819229101 0.4368039444125475 
-0.2369081042429537 -0.01234947633283938 0.1150112829812881 0.4683266549692818 0.01377742448309840 -0.1330688309179957 
-0.2958891071006406 -0.6673828612782842 0.5490816592735184 -0.05279643049867804 -0.08716888280691254 0.07596519483548893 
-0.2504737340255762 -0.02026549320389890 -0.3123736530383117 0.3808081407102451 0.06140116021182318 -0.03081435124502614 
-0.03567983462776721 0.3291854041936341 -0.2902871057687734 -0.03694015559642525 -0.01423628606918057 -0.04378626686610499 
-0.3999721909200554 -0.1621245501147109 0.6209628356503162 -0.2282944758805388 -0.02219535848957644 -0.04429258273679790 
-0.7091317172829501 -0.02403117713055583 0.3404429432444866 0.2993549693103791 -0.01736793106048191 0.1113406065973344 
-0.04917541529917063 -0.03225091305349277 -0.1730124137840310 -0.03406567879977657 0.1935104504361561 -0.1198322240663812 
0.2599471360873928 -0.03866128516517073 -0.3035432322037219 0.1704339976509318 -0.04098363324750113 -0.1521897690395624 
-0.2642124024168094 -0.3075536588752316 0.2517996230310785 -0.04792900542880026 0.09666735465650628 0.1191597923367301 
0.09733794604941386 -0.003173294002113438 -0.1037823120679860 -0.04693353884396305 -0.1932380173072187 -0.02114837837062635 
-0.08259351918158647 0.04577300146104731 0.3115935400283250 -0.008947455571951354 0.05083508742687698 -0.09829393192259625 
0.2001025231115468 0.1459353439223276 -0.3362824006541684 -0.02273686823719191 -0.001720434813027846 -0.03935468430661383 
-0.1366716606500132 0.1918094373029949 0.2716309774456756 0.1380673724895415 -0.02865722982348058 -0.2362034079245675 
-0.02333898968940629 0.2279988474329175 -0.1991453543720239 -0.02151019073505068 -0.02592590667089360 -0.01468378473416642 
-0.04240711670515703 -0.06733888460041430 0.1449088329170075 -0.01964836198840763 -0.01967686008046130 -0.01773346679757469 
-0.09252180420387929 -0.2355419202153781 0.4774499163648094 -0.02136145675670818 -0.03494818518195195 -0.01010346397422222 
-0.2297564479767844 0.03479988247137204 -0.04391326174063624 0.01584608388269777 -0.006030296772515011 -0.003581870346915485 
0.6125145715948583 -0.03018455001001278 -0.2911249069737000 -0.3654168222370265 -0.006167695273963185 -0.09425440079450173 
-0.2899575187946331 -0.04263636973062471 0.2450873469238491 0.2009893200833002 0.02455901537684894 -0.04176623849842989 
0.4545647996717598 0.02961562696517426 -0.1739871298794846 -0.07452260068286967 0.06665104069365221 -0.07142021381557254 
0.01380825017660403 0.07937887955754987 -0.1231069018225842 -0.2102687534543747 -0.003662601274181640 -0.01023269746920279 
0.2829557365171482 -0.02971595136195266 -0.06081908989111995 0.03939676062229794 -0.02998310328864021 -0.05646642362363724 
-0.03199377162813346 -0.02669598456475454 -0.08864085305077521 -0.04602080593376046 0.1754887727190534 -0.07796248579724147 
-0.4607301333868482 -0.02036124803920888 0.1248366763723100 -0.1145412096397056 -0.01768206645915776 0.2826865825074287 
0.2059663789340963 -0.03163151000729719 -0.1258388877637673 -0.2186729022381436 0.06015879266848916 -0.04263682912782139 
-0.02863299454909237 0.1424708219742319 -0.08033775285430960 -0.03302770850381601 -0.01401142004555000 -0.02080978761597176 
0.1690681649859701 0.1146940392215316 -0.2418014433657071 -0.01897147493424613 -0.008317835664891880 -0.004792085260974477 
-0.01528403546315971 0.1829251806149057 -0.2782716215867921 -0.01024094761938784 -0.03770586391517097 -0.02098716906391709 
0.04425292597453318 -0.1372085272497441 -0.02880902100845742 -0.08843478968299649 -0.01196060749463976 -0.02855529064416059 
-0.1384102289873929 0.2148947751498032 -0.1823958727495995 -0.07848900588578228 -0.02381620920073799 0.2573933116403838 
-0.01167464942442635 -0.01348036480970770 -0.03196075316892853 -0.001320901502112072 0.02408028240305882 -0.02613599594234006 
0.05675703973665459 0.07215865037007440 0.2209686317345473 -0.005659369885076041 -0.1629941751650139 -0.009022469729021477 
-0.2276258785278047 0.04164683102004965 0.5620961768645993 -0.08257451782553846 -0.01992327026572122 -0.1847615342870034 
-0.04983725480542108 -0.1262679106819784 0.04405638719375274 -0.08661123262158870 -0.008884284061311948 -0.009301059982193174 
0.2780211986109186 -0.04627759032592697 -0.3531726365695063 0.3074013273535145 -0.09560187331751673 0.1502416044441700 
-0.3620532195212210 -0.007690330043517005 0.1135798160560636 -0.02872922290555897 0.08989922172412500 -0.02854577179099853 
-0.3687251425285611 -0.07111760530072914 0.7144731234181323 0.1718075777655213 -0.05750584524067665 -0.06687824833132032 
-0.06696609321529134 -0.008575998854880956 -0.07148996540256950 -0.08786557637446836 0.3379148043146792 -0.1274309027918784 
-0.04575258081782343 -0.004724621020982526 -0.04933986454497506 0.04438739562025376 -0.007303517243224382 -0.009120617851445929 
0.2779736970937513 -0.03416956029039947 -0.2028621112779813 -0.01241672554175482 0.02001110653548445 -0.09353420004964909 
-0.02268803565519420 -0.1053615394181148 0.1407453132943878 -0.007775450320133085 -0.01285174135951684 -0.03478352623318190 
-0.01814870439636340 -0.007393118655423859 -0.1223056632228136 -0.01365173977696495 -0.1872174956402639 0.2768822038281549 
0.1199223204124886 0.1650121840624290 0.04559188563709422 -0.08857228925145978 -0.007257175202360629 -0.1318097343979344 
-0.03214608478099010 0.3274322428054422 -0.2993684200601095 -0.01001503697575489 -0.01397372202058775 -0.01402966769249722 
-0.03817747224070706 0.1044104576124115 -0.1123567327598516 -0.002082651990856505 -0.003463841998979980 -0.003030761768596979 
0.07569167168459234 -0.002749432436065152 -0.04022371244746668 -0.1086574953809560 -0.001656666489558118 -0.01010207037702515 
-0.1235538727111447 -0.02608103655859861 -0.01352114148619644 -0.03692506160379652 0.1447445401096430 -0.07633091769178468 
-0.03393685780615063 -0.1668343341620484 0.1844427198253226 -0.006280617443415273 -0.01658948218388815 -0.008001731051820551 
0.6108651678119533 0.1212002532144500 -0.4514299481238821 -0.1065899246198489 -0.01469017047126828 -0.05002778122308348 
0.3609838913418942 -0.02820487028317549 0.2610793760691500 -0.09453743896276645 -0.02639096106209854 -0.04421280286177769 
-0.02157619218150324 -0.1434964636683942 0.1680561206561319 -0.01256085407315979 -0.008210226599975343 -0.1571090381397440 
-0.03342894709670393 0.1158845229236461 -0.2189029564504709 -0.006677436976088966 -0.04124201251761048 -0.02257436918130916 
0.2263233459486620 -0.3199483296560144 0.1985439102226070 -0.1154314372855721 -0.003052225049269498 -0.01441208319139672 
-0.2825735727742856 0.06197355119591460 0.05448366442764660 -0.01420566807922919 -0.004388397547327545 -0.006626349894456354 
0.4417775579435764 -0.004763564636443188 -0.2174680324546278 -0.2270350987579694 -0.004018292756356146 -0.004339764568644236 
0.02121593123093698 -0.003031769439793549 0.2852164822532985 -0.3518533855187289 -0.004020434540654786 -0.01905785867076673 
-0.2559021620949828 -0.02709976806309739 0.01125619997730831 0.4537879069701968 -0.04240218865068664 -0.06897915029457093 
-0.05271212781441990 -0.008103784101456644 -0.07366562703717616 -0.003824714618240823 -0.1406634917499178 0.1621409284442039 
-0.05364189979406434 -0.4521868079180094 0.4107683480533311 -0.02033929600421852 -0.01578491226298287 -0.03410347029119026 
-0.03393685780615063 -0.1668343341620484 0.1844427198253226 -0.006280617443415273 -0.01658948218388815 -0.008001731051820551 
-0.02578146711255063 0.06559967810779029 -0.1206638011888045 -0.01285752609365531 0.05279858574046023 -0.1367067173131553 
-0.01837781490290117 -0.001235128944941626 -0.08385461650096193 -0.006139086149131321 -0.2582264303108710 0.6555704460441909 
-0.02138017545049365 -0.4102523753358685 0.2870132492497446 0.3247784814180800 -0.03668092249844655 -0.008680491810810164 
-0.01293279098432584 -0.004690740083179775 -0.01046060468786039 -0.03155628040315796 -0.02424208274048141 -0.01384976773737874 
-0.8195825518599317 -0.2812706079721257 0.1295136466656209 0.8543247839374456 -0.1911921341799295 -0.3198629504233597 
1.329275681663862 -0.2820011668498736 -0.3172601260287441 -0.2800160298788569 -0.4604985346036737 -0.9212827989012188 
-0.03596701215416290 -0.05509706477515538 0.4586122096563980 -0.6291542363454877 -0.2048509473037662 -0.4122804899200660 
0.4004517808957765 -0.4796280247842853 -0.06878110376317856 -0.4764040780365837 0.1786794742374065 -0.4444009029401269 
-0.5608112865235012 0.4736184455264058 0.2695831137888646 0.7460075141047848 -0.04102299712133687 -0.6367196840543636 
0.09418024248345991 0.2444481753877431 -0.3053799381406157 -0.3833825948535327 -0.09478018494701265 -0.4182095730315322 
0.2792198502574446 -0.1800758354091357 0.01730174511150937 0.1446447218852929 -0.1771550156393238 -0.8031163337347234 
0.3389712586894074 -0.07029074795540351 0.03528572340853271 -0.2523649742711653 -0.1617928402258000 -0.01386024179475440 
-0.5215974733905757 0.002175166167517859 0.3262051808035223 0.05726729350438675 -0.09936979877880002 0.1229075276841553 
0.1831628353449848 -0.4439080221372287 0.2686312644002308 0.4799297013747809 -0.04183760643488208 -0.3404659736501028 
-0.4716414446603681 -0.1174587375925184 -0.5405848447800607 0.7202224165359858 -0.09181192785815448 -0.2260564371888540 
0.1063174624093388 -0.1902493613615170 0.1024734773398956 0.3458948822008702 -0.1725815067744883 -0.5995957783839825 
0.1707758249401534 -0.2586508995497412 -0.06886206305511268 -0.3200583314316749 0.07360263275204451 -0.03509768968595944 
-0.2079465113932057 0.1437881727097480 0.1552261873228455 0.04442987460953372 0.08350081194492001 -0.3657698254070632 
0.1336481034045189 -0.2726707220100986 0.07726320385565360 0.08225414449800719 0.2298440542101518 -0.02923185985147772 
-1.090824881908755 -0.06219217610136175 -0.7915838315933195 1.266913814114822 -0.06043027804710012 -0.1445113691305694 
-0.09196208070395269 -0.3469542720974416 -0.1459940874267193 0.5350030206332367 -0.4903489277271585 0.2868241234832504 
0.6536656815339318 0.09633751608244800 -0.4742781372070876 -0.3430934294502938 -0.3168472741876755 0.4215142042927871 
0.3885197423375352 0.2404550988610505 -0.1605084896138276 -0.2091969823709034 0.1750398430541515 -0.5597340195948466 
0.1513564199293322 0.1076674768746055 0.1558766698921060 -0.1726764595834146 -0.1035033494336374 -0.6332590058050893 
-0.2692653569636486 0.3030717434513469 -0.3189947581249934 0.3119134640347032 -0.01342511508568677 -0.08187571928941915 
-0.08359132128518852 0.1109357479205128 -0.3327688445379120 0.5213107484276981 -0.1318305842041022 -0.2570885080034133 
-0.2725981021754115 0.3167895014041763 -0.2778005248271235 -0.08321776491850383 -0.1247204919349346 -0.1616641605831204 
0.2529927836830876 -0.1997027093621943 0.04234240100152496 -0.2297524177161206 -0.09171889349750022 -0.1146819036199055 
0.4040063889103227 0.1171728695755934 -0.4507051480904797 -0.1372301743585980 0.01456744562401065 -0.1372809718483005 
-0.2903886976706734 -0.1416308638801072 0.3857817993838917 -0.1169035672167979 0.1186387923233095 -0.1857009368718921 
0.2611164927725193 -0.2285776655756054 -0.05041493114137926 -0.1577139141815542 0.2886827488812442 -0.3972334947003467 
-0.3479499504509730 -0.08670249685705095 0.1778265634528291 0.5680257536747970 -0.008447677492915617 -0.3191912339184659 
0.08033490457964536 -0.07761935397268313 -0.07156425472794820 -0.1823056998661031 -0.05765709383600297 -0.3405686930034751 
-0.2800687362818540 0.1205767135267555 0.1107770771906941 -0.07247393312929970 0.06261880455119345 -0.09109080773823483 
0.03654186049213862 -0.02674537512496129 -0.2634145357836419 -0.2186587986457091 0.2481142801509860 -0.3657149551865915 
-0.01668981312463310 -0.05630073769769783 -0.04905827450667764 0.06055852671064653 -0.03005939342759399 -0.1481033176974073 
-0.02490324873579566 -0.5258411454398464 0.6611687972214979 -0.06053939063590286 -0.2488516936679261 -0.08356597146125458 
-0.1146956604656186 -0.2766271275224898 0.4681237740728272 -0.03931995951033328 -0.03984207809695977 -0.05217226589849015 
0.02805792076562228 0.2888989391601997 -0.3490369206716950 -0.07082476713787250 -0.03619847445596428 -0.02276250973990813 
-0.1053520510182151 -0.05887157816212044 -0.1962254091755213 -0.04444115690381918 0.3181476974135777 -0.1982832578941394 
-0.4913069849671133 -0.03882796816590044 0.4374113418493769 0.3831860608447201 -0.02810219437212056 -0.1045728206190987 
-0.08494151239935990 0.1151935277994368 0.05677376460030719 -0.09290863126014119 0.004606411570935510 -0.1048889858772465 
-0.6859447415045047 -0.04984910506462520 0.6562269043917803 -0.2510142791168859 -0.02715525554526230 -0.07353209650094479 
-0.08644616667990447 -0.2842852099174982 0.2347107883606702 -0.01871730508979510 -0.04467925430455115 -0.01746758633308681 
-0.09743048307953414 0.4893003694522203 -0.3694193822574065 -0.01711110520835031 -0.06934295803932859 -0.08949156221702148 
0.7694308888218397 -0.09416744085177789 -0.1373016362781961 -0.2820366698296491 -0.1414660409934954 -0.2879703483734650 
-0.2464070014891917 -0.1185043058046684 0.2215240212169826 -0.01203810880020299 -0.04111012969696901 -0.06849130976269505 
0.2998663776493909 0.1534199699440779 -0.02134653911286798 -0.1895065372324232 -0.09569757377834376 -0.1402753353616044 
-0.7265363185109514 0.01292298259796854 0.4137672256410779 0.2382062411222288 0.02823565921244597 -0.07416992648083932 
-0.04211063871125111 0.1546965130527642 -0.2045250913055093 0.006759661440453996 -0.01854650900030695 -0.009902847411497426 
-0.1623833812641903 -0.03474748896872471 0.3985707491260999 -0.1179999079470351 -0.02370666683759796 -0.07422400725623737 
0.3817089531063846 0.1851234172016183 -0.2360486769864200 -0.09480702569317674 0.1251919051499290 -0.1539069565666330 
-0.05396524493346543 0.2204875382231559 -0.2542343775490798 -0.01441182657807125 -0.0003556464676572162 -0.08140753801011373 
-0.1941507065359652 -0.05225722424275420 -0.3808431632090969 0.5940982766108276 0.03330964340099283 -0.05870382816802648 
0.4206597527900730 -0.02412810671731993 -0.1291641650473198 -0.4365076347547200 -0.02675209998012070 -0.07138798574145766 
-0.02944163609774759 0.1627279446551563 -0.1959949343449841 -0.006391350130244099 -0.01546866551788429 -0.009239987139779176 
-0.03496066728598632 0.2064925097477740 -0.2478783143781934 -0.02017693465785168 -0.05010899138665022 -0.04794545492373186 
0.2270009479223258 -0.001110741402483298 -0.2185035762467437 -0.07806766770015153 -0.03892348323631955 -0.07277825995560999 
-0.05134786751018573 0.09667362416149877 -0.2427628397728353 -0.02803197958052742 0.1378177754505640 -0.1406238847901274 
-0.1410571511157816 0.6427801641189482 -0.5568725508416299 -0.08442026020133564 -0.02507250858757529 -0.1080823083286357 
0.009387980536907833 -0.003131312402418543 0.05416411048304680 0.3329828543599270 -0.05773423080173697 -0.1146508304495548 
-0.1023896850885266 0.1649319146629189 -0.2039636366788519 -0.004132437488394220 -0.02737387087324153 -0.004440611915597926 
0.03395579250491530 -0.04112839982215836 0.1629986207304817 0.1094062119871102 -0.04618994414698439 -0.4187181680521173 
-0.03285358165467660 -0.02946609555950673 -0.1315045049099068 -0.07507067894328565 0.1868021794718418 -0.08778350587330838 
-0.3246312899966325 0.1906825166264856 -0.1700565950820277 0.6771872613366290 -0.02982836580926025 -0.2478519783088789 
-0.09329159453557971 -0.006109131223882925 -0.1135470318057928 0.05318576255224257 -0.002596549246062767 -0.003381837426537406 
-0.05193009444191249 -0.07668019600116369 0.1652144394792403 -0.02159916114503091 -0.02444117273435733 -0.02094333256342359 
-0.03567983462776721 0.3291854041936341 -0.2902871057687734 -0.03694015559642525 -0.01423628606918057 -0.04378626686610499 
-0.04051792145459849 0.06073919670106358 0.04119729681399967 -0.2657150601639352 -0.01415234058793339 -0.05001804306627224 
-0.3999721909200554 -0.1621245501147109 0.6209628356503162 -0.2282944758805388 -0.02219535848957644 -0.04429258273679790 
-0.3149670971798934 -0.3381233104374400 0.9607267476363843 -0.08973814306323592 -0.09248164107203222 -0.1232228533331731 
0.1819864435829634 -0.05707470849938801 -0.2666307743632216 0.3013788565549643 0.01269784798233710 -0.1062649036428556 
-0.04917541529917063 -0.03225091305349277 -0.1730124137840310 -0.03406567879977657 0.1935104504361561 -0.1198322240663812 
0.2829557365171482 -0.02971595136195266 -0.06081908989111995 0.03939676062229794 -0.02998310328864021 -0.05646642362363724 
-0.1612773268688994 -0.05885155792623267 -0.06753663101033157 -0.07640264051807322 0.1122450677634162 -0.06032517416444092 
0.01380825017660403 0.07937887955754987 -0.1231069018225842 -0.2102687534543747 -0.003662601274181640 -0.01023269746920279 
-0.03406876592024693 -0.4142060153822137 0.5576520476739705 -0.01774774639611400 -0.02664239394526283 -0.1797117357099926 
0.09733794604941386 -0.003173294002113438 -0.1037823120679860 -0.04693353884396305 -0.1932380173072187 -0.02114837837062635 
0.2001025231115468 0.1459353439223276 -0.3362824006541684 -0.02273686823719191 -0.001720434813027846 -0.03935468430661383 
-0.02310095838768113 -0.1623018281433447 0.2723993790082513 -0.01475624450977910 -0.05517281346800267 -0.02266197504991579 
-0.02333898968940629 0.2279988474329175 -0.1991453543720239 -0.02151019073505068 -0.02592590667089360 -0.01468378473416642 
-0.1409801005560942 0.2106698456373017 -0.2455209861804392 -0.1013969489342641 0.08829071649110697 0.2311970664437552 
-0.09252180420387929 -0.2355419202153781 0.4774499163648094 -0.02136145675670818 -0.03494818518195195 -0.01010346397422222 
-0.2297564479767844 0.03479988247137204 -0.04391326174063624 0.01584608388269777 -0.006030296772515011 -0.003581870346915485 
-0.1692343038458229 0.06969153571308677 0.6875104846687509 -0.06668715554889755 -0.1682004860644971 -0.2755508687415764 
-0.2348682150509164 -0.01751442064139498 -0.2914786100265789 0.3840350910287199 0.01075162073889151 -0.02226458783474438 
-0.01477111429706030 0.1127948219854576 -0.1375107299899962 -0.06918408037061646 -0.02807227049415092 -0.02210714490373573 
0.6125145715948583 -0.03018455001001278 -0.2911249069737000 -0.3654168222370265 -0.006167695273963185 -0.09425440079450173 
-0.5752138556473196 0.1908813969387168 0.2216524292105147 -0.06738618456559275 -0.01747866564766032 0.2056473301653009 
-0.4726318712738361 -0.005127909435211097 0.3801324063215661 0.3110126670927679 -0.006427678133623879 -0.03336199183635018 
0.1690681649859701 0.1146940392215316 -0.2418014433657071 -0.01897147493424613 -0.008317835664891880 -0.004792085260974477 
-0.04345983554290609 -0.1761756455627977 0.2047483263875554 -0.008231416600038554 -0.02135379483778418 -0.01121159681766945 
0.2176184113164562 -0.03161261374696667 -0.1545697915366168 -0.2225978736490643 0.09551676871084007 -0.09107617122504293 
0.1776553143781694 -0.3287727043406420 -0.1007039329280723 -0.1193232988855461 -0.05412257040738274 0.4217781425525219 
0.3003371748499765 -0.4313014341126196 0.1151551028094238 -0.01311048721958181 0.09074159397276443 -0.05808039758258912 
-0.03949486634407380 -0.03863926759594081 -0.04046319922785465 -0.01010911353570374 0.09350087404410917 -0.05210141520741844 
0.04425292597453318 -0.1372085272497441 -0.02880902100845742 -0.08843478968299649 -0.01196060749463976 -0.02855529064416059 
-0.1062715406240521 0.3242210620122152 -0.2451137030660605 -0.002663162494697655 -0.02758330828855132 -0.02612279145440411 
-0.01167464942442635 -0.01348036480970770 -0.03196075316892853 -0.001320901502112072 0.02408028240305882 -0.02613599594234006 
-0.04345983554290609 -0.1761756455627977 0.2047483263875554 -0.008231416600038554 -0.02135379483778418 -0.01121159681766945 
0.06543845269153502 -0.05629896050559353 -0.07882857945326130 -0.003780474296075649 -0.01819654882713644 -0.02055021265931119 
-0.07721275522579787 0.07711912653129153 0.1392735050441386 -0.04561939857569899 -0.009263260301542458 -0.08908242140300622 
-0.03009782213492288 -0.4830073769564580 0.3966782689885119 0.3166621520855342 -0.04089996872640225 -0.02284424093257064 
-0.07872070725536925 0.007801887530368343 -0.1058554311276178 -0.02293714110699233 0.2456548715043777 -0.02219748400112528 
-0.4213712582637081 -0.007326779763954794 0.6367340442594395 0.1613881742125788 -0.02515901311245994 -0.1304473887224103 
-0.04983725480542108 -0.1262679106819784 0.04405638719375274 -0.08661123262158870 -0.008884284061311948 -0.009301059982193174 
0.2780211986109186 -0.04627759032592697 -0.3531726365695063 0.3074013273535145 -0.09560187331751673 0.1502416044441700 
-0.2404503995662144 -0.07413524153851599 -0.1623648625888993 0.4949560998482404 0.08364560299698996 -0.06128613709759860 
-0.04466953793616869 -0.01738249580465133 0.2444771937440984 -0.01747174124932478 0.01683318697941833 -0.03537281373492146 
-0.04284237168264465 0.1982711602157960 -0.2943575988580483 -0.03060176934320759 -0.003954600297248550 -0.008238659106739687 
-0.3687251425285611 -0.07111760530072914 0.7144731234181323 0.1718075777655213 -0.05750584524067665 -0.06687824833132032 
-0.05574530975587630 0.05449495519854541 -0.1861346706518101 -0.03602140257757128 0.01139311910875806 -0.01462926587961582 
-0.04575258081782343 -0.004724621020982526 -0.04933986454497506 0.04438739562025376 -0.007303517243224382 -0.009120617851445929 
0.04191040582406083 -0.05625193563577939 -0.1797798243596738 -0.05286089139311420 -0.07956707807952708 0.3088084402730654 
-0.02268803565519420 -0.1053615394181148 0.1407453132943878 -0.007775450320133085 -0.01285174135951684 -0.03478352623318190 
0.2755515008717725 -0.04457010150181912 -0.1756632503890248 -0.02847267460495013 -0.03333990211668807 -0.1577242421116881 
0.1443846746704915 -0.009452749885317850 -0.2409345434877868 -0.06686898191197323 0.09319815508332248 -0.01526697448702417 
0.01032454575211678 -0.006984766896022026 -0.07781810998720284 -0.01229213039564281 0.04281682248821200 -0.01576767743143269 
-0.03214608478099010 0.3274322428054422 -0.2993684200601095 -0.01001503697575489 -0.01397372202058775 -0.01402966769249722 
-0.03817747224070706 0.1044104576124115 -0.1123567327598516 -0.002082651990856505 -0.003463841998979980 -0.003030761768596979 
0.07569167168459234 -0.002749432436065152 -0.04022371244746668 -0.1086574953809560 -0.001656666489558118 -0.01010207037702515 
0.3609838913418942 -0.02820487028317549 0.2610793760691500 -0.09453743896276645 -0.02639096106209854 -0.04421280286177769 
-0.2825735727742856 0.06197355119591460 0.05448366442764660 -0.01420566807922919 -0.004388397547327545 -0.006626349894456354 
0.6108651678119533 0.1212002532144500 -0.4514299481238821 -0.1065899246198489 -0.01469017047126828 -0.05002778122308348 
-0.01474139028360329 0.1775247690630062 -0.2172992455512207 -0.004412268281168718 -0.008951386926440609 -0.005292573514286547 
-0.02210423864406053 0.1582833663584149 -0.1321307686719628 -0.05413632253630046 0.04416250348550300 -0.01162683848450647 
0.4417775579435764 -0.004763564636443188 -0.2174680324546278 -0.2270350987579694 -0.004018292756356146 -0.004339764568644236 
-0.002418683997683060 -0.05297971784756475 -0.03947445593856981 -0.009309554162688161 -0.008723474765042668 -0.01014248930027141 
-0.06926807222315305 0.2114654601569299 -0.1710196030658330 -0.03736821918288639 0.07521514468565065 -0.02793957871860751 
-0.2442431927826516 0.06349570181110839 0.1721275721272619 -0.2308341934077504 0.01807107561037172 0.1578859836123398 
-0.03257853787426804 0.4773284427240604 0.009070411204014675 -0.5734391333842536 0.3697060938602214 -0.5487986416986279 
0.1367265158332340 0.01178796307617049 0.3533885917301778 -0.6405444725535784 -0.2303646280778767 -0.02427575110738851 
-0.1135299771703387 0.1335736387800907 -0.2951053208334482 0.7223321896832898 0.1555868703210566 -1.019735407020422 
-0.4924270203115960 0.3236755105557344 0.4422856422232716 -0.01661326302688412 -0.1480426760819111 -0.4273071087478603 
0.04529403011707522 -0.01717927347583825 0.2587150225918615 0.1327326874385364 -0.07763663346301106 -0.4312768687844754 
0.5221545695996540 0.2701393989096936 -0.2855566491310818 -0.2299507455702019 -0.1879052914769831 0.1732663395144106 
0.6981856490364530 0.07531194465089390 -0.1206727691958729 -0.2347684522257206 -0.1978312369158708 -0.3450035251048410 
0.6265624604560831 0.08577436166042486 -0.4616900825894215 -0.03832233629298181 -0.4388706374595602 0.03540691840539491 
0.1365124585836908 -0.05317891037538665 -0.001579062040186243 0.09450746407586387 -0.1497076782759575 0.08285231722931566 
-0.2367829030609155 0.1531617841715232 -0.1601289950790091 0.03736282193398705 0.4290928757273855 -0.4328725599997340 
-0.4688647571575906 0.2286429948017658 0.01062584752680609 -0.1853998231297025 0.06990323684542787 0.1115839506092341 
-0.3644821556156168 -0.05610934833290064 0.2959540635959153 -0.09080654916908905 -0.07182048203360808 -0.2575345346677684 
-0.3875339450404665 -0.1317472867617756 0.4006079510146768 0.5623213177169243 0.08849631941559700 -0.4634929237405195 
0.06088250172700959 -0.3745925469939891 0.5618039028062279 -0.1538365913525798 -0.4851637779340717 0.5485802390460826 
0.02408404454091961 0.1718585352855445 -0.3012125836284994 -0.07927483576112536 -0.08450282696457945 -0.2424287875829452 
-0.1492213791543113 0.2468778637820634 -0.3669576945085250 0.3518482053704432 -0.09472401226981095 0.1484010492621649 
0.03585740706380449 0.3171152842704094 -0.3346689107415332 0.4913122904467112 -0.03307850915748142 -0.4137857188937814 
-0.2007453546172409 0.03044676003450385 0.3650689575375628 -0.1159142611133404 -0.1481265467947401 -0.2028337614319815 
0.4713924205719031 -0.6100407906843264 0.5717060094577522 -0.4510893216476479 -0.3061075336079793 -0.1064665024140058 
-0.1487236944203030 -0.5580974576823826 0.5833782264611919 -0.1328663248371140 -0.07359817232210716 -0.09249884957012398 
0.07354513353747980 -0.01934024477920225 -0.3734895741553582 0.3104878865772057 -0.02130896589562677 -0.08251654880145647 
-0.1433407475259965 -0.07161906792033430 -0.2540586585949578 -0.06518147445264600 0.4480439724445333 -0.3880834219722665 
0.2691814425208262 -0.03513631778629057 -0.09432711623898933 0.1145030513636433 -0.06665816761704120 -0.2406521378895320 
0.4323239204608130 0.1968010189514010 -0.5108772578912073 -0.2038733991040653 -0.05758277072530461 -0.1389090861732999 
0.4564774934069054 0.008994551556717127 -0.1235869376770551 -0.2139593683728387 -0.008713766307075727 -0.2975383874118752 
0.4060926005760647 -0.05681814761348027 -0.3608196507491792 0.1247990963195938 -0.1313610310059654 -0.1273038346144430 
0.1970384310121789 -0.06862281680379098 -0.4596558420056201 0.2406029820685294 0.04953398211168598 -0.1770596124661877 
-0.1877711788593718 -0.01404160950548142 -0.1776407385043907 0.2082253140694047 -0.01088098687815569 -0.03578019980918971 
0.3539787453003680 -0.1893910744885669 -0.1556826722830924 -0.1309148650603453 0.006856544248871306 0.2395344187046921 
-0.1294225320581670 0.1761648445583044 -0.2854680743528335 -0.06225072491164379 0.01333293020305260 0.1113074707237349 
-0.1115293563549928 0.06923296988873890 0.03905475142976458 0.2302529799699744 0.02873361833468354 -0.06731646784918001 
0.1983873431048464 0.1424992271535012 -0.3722809517558270 -0.1675210141828445 -0.1178207637236824 0.1673204682900282 
-0.4340535978929633 -0.4567810774618742 0.6135104428281780 0.1885732499199725 0.09782310267312791 -0.09131422475017197 
-0.1231284560202336 -0.1261011715802406 0.1950065473562254 0.3312560416529253 -0.06380548246359774 -0.2559731318154038 
0.07921603243304923 0.1112119684993637 -0.003766981008333945 -0.1050772134361744 -0.03376517758961870 -0.1779884963158552 
-0.2276385609475862 -0.07006245801477341 0.2376413426254250 -0.04382599727711164 0.04438419054338097 -0.08112458062215683 
-0.1027692664019894 0.2319572551575878 -0.2678026798264849 -0.08104146670934954 -0.5974609035215571 0.7228608709596117 
0.6085152581555302 0.003060018173571988 -0.4854550450639141 -0.3363560608293648 -0.01158196224705220 -0.08478029830864742 
-0.04204047991453853 0.004994934556612580 0.1994361951578083 -0.04453356772804306 -0.01961309711186090 -0.09221195301443294 
-1.035463302549355 -0.008340283713828497 0.8617299264000484 0.2912757435128936 0.01431368467239448 -0.06541125437034709 
-0.06467256577604376 0.3436858830657344 -0.2424076208926645 -0.01104393218206288 -0.04070714556287096 -0.1330475979082675 
0.2973567205233366 0.08991094572911375 -0.4689715254643763 -0.03781255285768224 0.01556713623111629 0.2065103710221215 
0.02124548955233898 -0.09218538258910751 -0.004984866517993784 -0.05599931074259962 -0.07385996216800263 0.1223115240287838 
0.2793545820516470 -0.03638566072368464 0.05169492690194933 -0.1344821325124502 -0.04829842454702032 -0.05310779798670951 
0.3473289304427409 -0.02863099184285472 0.06199769374848321 -0.1873658922167596 -0.06354092038721018 -0.1817995298994981 
-0.1416945834244998 -0.03643636535773306 0.07343815315872573 -0.04237217420223813 -0.2925317796871246 0.2751613738292046 
0.1655272150095304 0.1819448417444867 -0.3334500896220577 -0.08674364693863179 -0.03192744252852564 -0.1305979102313190 
-0.3649114558048743 0.2564521194061185 -0.2789134893284072 0.2283752765483479 -0.02814952454442398 0.1435649659789217 
0.04031202995147877 0.09795286447753115 -0.09149405821073747 -0.02064161408342333 -0.05447975524707627 -0.06257082939389720 
-0.3348337226321143 -0.02569524902527414 0.4466283237595278 -0.1098084071746928 -0.04683796276554873 -0.02586433224844285 
0.2970792032695898 -0.06655511723880214 -0.04074896129097533 -0.04834746046177419 0.06477733106916761 -0.09487829907890510 
0.1805728629484124 -0.05175655312967205 -0.1376265658845373 -0.09032658438445601 0.1000707262659793 -0.1930700321420308 
-0.08695989717023290 0.06553628230110312 -0.02831066626340103 -0.007707492858669569 0.1017563699571127 -0.03740401560841486 
-0.004643714057378472 -0.02637315148348786 0.03373132631268448 0.3843003543766296 -0.06239377381731862 -0.2519788849655328 
0.2785174650481677 0.1028183215665774 -0.4209661736878449 -0.1228204493310365 -0.01545299143328143 -0.05303836843405117 
0.1142125874013553 -0.07068336949801235 -0.01315855474515962 -0.03779248702721955 -0.02147083598799627 -0.07684366582341993 
-0.1238507455417973 -0.06227384578235812 0.07693658348203113 -0.02166453300985891 -0.02064469692844578 -0.02869387127354281 
-0.05028597815494320 -0.3487704120396512 0.4230265281217219 -0.02315263446790730 0.06447391564871907 -0.07422028241633437 
-0.05585635777008302 0.04123575117268501 -0.08496059741754486 -0.01140040685212166 0.08783115376993032 -0.1376724994397644 
0.1307887426072180 0.09112272373544424 -0.3786185162242595 -0.06972775340258923 -0.01615969387915677 0.3745040473099050 
-0.2028301215560501 0.2338441766853438 -0.2353738675516574 -0.02098527792417407 -0.03630291444517329 0.005054136743600086 
-0.2845870002794118 0.5475542012455221 -0.1604598250652471 -0.01566456746405895 -0.01914429520578221 -0.1563248931467200 
-0.3845833458399325 0.1909970668054610 0.1189578350956749 -0.01252544593115291 -0.02120549134809428 -0.06595390479687976 
0.1660998527733115 -0.03420277096392455 -0.3661657844749517 -0.02504591392586356 -0.03012838775992964 0.3460154105119264 
-0.1230343130607852 -0.1433973968441003 0.5762044417117633 -0.08063492120962525 -0.03410948165078994 -0.09338601684166087 
0.2643083599247890 0.05081575303637139 -0.01039173946049601 -0.05877244873719228 0.0006145194292327700 -0.1008342448193902 
0.009434865462037255 -0.2788649749072412 -0.06288389942221331 -0.04065588023252879 0.01761712392028004 0.1920864593562426 
0.1314373251983164 -0.1191191559697869 0.1389991445956159 -0.02085204858008503 0.04266237630994420 -0.08502170740479260 
0.1826458587996304 -0.02748296072435934 -0.09229648734902682 -0.1804651666396237 -0.01019068063363341 -0.04032997951296754 
-0.03444035275684727 -0.7475956593691513 0.8340380045521631 -0.003888029597638536 -0.01189232884056609 -0.03709441385876375 
-0.009814728316719720 0.1574543818268685 -0.3354685650147805 -0.007657548236112022 0.006295209906933438 -0.03061940854010924 
-0.02117544878247678 0.2816028780411520 -0.3444004417590398 -0.02767904356601207 -0.01764454322492319 -0.01453378642043896 
0.1989390510506284 0.03241165990896720 -0.1070081233639748 -0.03031469826341864 0.02043798062069259 -0.08865996023487062 
0.4169529355984686 -0.01679173234960933 -0.1863484240053445 -0.1786850668449658 -0.03617331880062464 -0.1435834104615104 
-0.1412698120488925 0.2277188012008078 -0.2895469062359904 -0.01304968950015657 -0.01912000780337337 0.1692057661573916 
0.06469951991511233 -0.07075620243870354 0.03309747585468125 -0.01860502885471468 -0.04242700903956869 -0.05965769386789517 
-0.1654973809292598 -0.02721582271844194 0.3373793002913340 -0.05656345777008451 0.02555850997384541 -0.07580556796652535 
0.1710655602970949 0.1289606625680472 -0.2320413526391428 -0.1072608970112987 -0.01202796106928625 -0.06431890461837915 
0.09402055885699663 0.03962604732155414 -0.2196365856896048 -0.08036371601000292 -0.03366521846681622 0.1484685705536407 
-0.1008645357480942 -0.02408249018314785 -0.4038120947803255 0.4985977937678243 -0.01070421288672382 -0.06752268781616146 
-0.04381586729853424 -0.02553463144686924 -0.09171005641992559 -0.02978160010205515 0.1636397550457439 -0.1696800416482287 
0.2038058186277404 -0.04761509980230965 -0.1144845687002498 -0.01114690341423822 -0.06068479874076538 -0.1527322537203127 
-0.04800810577680950 -0.06510447282754901 0.2245857162823994 -0.006558030755751777 -0.02103623269892773 -0.06770692294179102 
0.2376286860859561 -0.01505010477043022 -0.03023480338930901 -0.1580814301620999 -0.04635346190944138 -0.04701889348489074 
-0.02187321163539296 -0.02588659789700929 -0.05404292296824709 -0.04290937770724974 0.1441742175117410 -0.05497085558595151 
-0.02509117727602432 0.1703179343900667 -0.2629753925662166 -0.01201271075570162 -0.01186153807369234 -0.01914063369898184 
0.04565728835349386 -0.02784363771639899 -0.3025128319560344 0.3176964661877725 -0.5764386309321782 0.4979962639541838 
-0.08083150502629537 -0.004871440424425745 0.1163319039989577 -0.006461195885516368 -0.04295290265049935 -0.002682171065839707 
-0.03239746544167309 -0.8049505976742994 0.9424167897920813 -0.002651750753941762 -0.01027220365318083 -0.03215255175035782 
-0.03253257097102153 -0.02211861385290576 0.1033960389930315 -0.03416883757912853 0.08544542119604445 -0.1611036217290997 
-0.03325069547547135 -0.03047311934908804 -0.1422460854621424 -0.006789095701253802 0.1255623151890510 -0.09689777669782104 
0.06543845269153502 -0.05629896050559353 -0.07882857945326130 -0.003780474296075649 -0.01819654882713644 -0.02055021265931119 
0.01577433235621548 0.1538085946218521 -0.2506505620399759 -0.009945566724147472 0.02643902542310513 -0.04057798919523219 
-0.01772540887245727 0.05627267513121741 0.05480514843550945 -0.008883519169886871 -0.006262591752185529 -0.04395814626684089 
0.1557349419695885 -0.01942859756274304 -0.2148527122856754 -0.1160203235848799 -0.07735725857023946 -0.08036807762235698 
-0.1335343102756460 -0.03652614047070742 0.08564308841047286 -0.02625457228407359 0.03169908087788177 -0.03069594994159010 
0.08113024334472499 -0.05338760702804464 -0.1227430435536284 -0.1460528142839243 0.03845790105514310 -0.01654466895698589 
-0.03324346051251109 -0.05128825989897058 -0.0001266698778977034 -0.001712462905996275 0.05076638395475048 -0.04211559796920896 
-0.3325178809487037 -0.02879005655379553 1.024933125019190 -0.4114125019791921 -0.005913281051503358 -0.03504549160389531 
-0.07712511455139938 -0.08557962634492410 0.1442701232898856 -0.001845684371851098 0.06356966557484635 -0.06197565830205234 
-0.3325178809487037 -0.02879005655379553 1.024933125019190 -0.4114125019791921 -0.005913281051503358 -0.03504549160389531 
0.5848502728690437 -0.01092610716391467 -0.4724530029494376 -0.2342124847680856 -0.003799652229640315 -0.06842197857697700 
-0.02899496172272205 -0.04467872216614728 0.1359755731476218 -0.001430505277879618 -0.05985595074680655 -0.1408556814704356 
-0.2862925808627435 0.04441761524252881 0.03479267088579291 -0.01150783720122657 0.07616362046274107 0.1309517833039594 
-0.01149099438910072 0.1726966456333350 -0.08419349101278830 -0.08066841642386514 -0.02821299470991593 -0.01631833417931918 
-0.1892349652592274 -0.03047277297490934 0.08150503527629160 -0.04299959761592267 -0.02163807411240689 -0.02519960847154509 
-0.0007322028339452114 0.07000095645352858 -0.1374014872359169 -0.001298614336225855 -0.002066394156631863 -0.008820484282484293 
-0.05787411515185541 0.2682328102778647 -0.2259291926599031 -0.01381731559035227 -0.05373260651334650 -0.04317716600859183 
-0.0007322028339452114 0.07000095645352858 -0.1374014872359169 -0.001298614336225855 -0.002066394156631863 -0.008820484282484293 
-0.05400550333028668 -0.02041162286707805 -0.006549020901580533 -0.0005446560024056506 0.1094617155532684 -0.06025008446389837 
-0.05705188925657836 -0.004844079184122341 -0.03896042939816556 -0.01075932204002649 0.07468721316219196 -0.04228403938169074 
-0.04853671472010701 -0.03902733110740582 -0.02291258489439115 -0.01795930573078298 0.04158957830643339 -0.03011039694518438 
-0.1646784118791342 0.1049394821086360 0.3153201968411094 -0.005751430681720652 -0.01596904654474040 -0.1588132065025572 
-0.06570113753850228 0.03139070417404680 0.3455610573940664 -0.07782454091269692 0.003183384787359581 -0.1512879148660585 
0.04351158211713001 -0.008911262912926961 -0.09469497891257910 -0.02760045685014186 -0.003276996095268168 -0.02002023086410873 
-0.05125984839802589 0.2268757936018893 -0.1175420788288182 -0.01318501048680371 -0.01471378759117045 -0.05629819437383311 
0.2221130732494066 0.1267303237575862 -0.1170935110538672 -0.05332818420369707 -0.02434781514236248 -0.02498008329439741 
-0.04412433084562201 0.03144449001266889 0.08996617523681269 -0.007327019595488559 0.08754008427966602 -0.005359399010145110 
0.1906282201133052 -0.03356906643219275 -0.2499242722843625 -0.03949799672156466 0.05091986612808690 -0.04147070580183055 
0.3495056548626296 -0.02998381128967368 -0.07193251601483505 -0.03928315334798511 -0.03588667549725444 -0.07073189784259637 
0.1748184892273139 0.1047880972810111 -0.2391738145056125 -0.03978267558179544 -0.01000903540265198 -0.04272539506869423 
0.2542486554872584 -0.02352476605269715 -0.2530435764013969 0.2379960546032229 -0.06264706154459100 -0.1241424667053563 
-0.2442520480809598 0.1442518028159845 -0.2971317927525654 -0.005380733490839257 -0.01477797827567086 0.1127478911721861 
-0.02293219661223384 0.1975593523045304 -0.2364903992277662 -0.009382807149419160 -0.006092760263727037 -0.003882309283974622 
0 0 0 0 0 0 
0 0 0 0 0 0 
0 0 0 0 0 0 
0 0 0 0 0 0 
0 0 0 0 0 0 
0 0 0 0 0 0 
0 0 0 0 0 0 
0 0 0 0 0 0 
0 0 0 0 0 0 
0 0 0 0 0 0 
0 0 0 0 0 0 
0 0 0 0 0 0 
0 0 0 0 0 0 
0 0 0 0 0 0 
0 0 0 0 0 0 
0 0 0 0 0 0 
0 0 0 0 0 0 
0 0 0 0 0 0 
0 0 0 0 0 0 
0 0 0 0 0 0 
0 0 0 0 0 0 
0 0 0 0 0 0 
0 0 0 0 0 0 
0 0 0 0 0 0 
0 0 0 0 0 0 
0 0 0 0 0 0 
0 0 0 0 0 0 
0 0 0 0 0 0 
0 0 0 0 0 0 
0 0 0 0 0 0 
0 0 0 0 0 0 
0 0 0 0 0 0 
0 0 0 0 0 0 
0 0 0 0 0 0 
0 0 0 0 0 0 
0 0 0 0 0 0 
0 0 0 0 0 0 
0 0 0 0 0 0 
0 0 0 0 0 0 
0 0 0 0 0 0 
0 0 0 0 0 0 
0 0 0 0 0 0 
0 0 0 0 0 0 
0 0 0 0 0 0 
0 0 0 0 0 0 
0 0 0 0 0 0 
0 0 0 0 0 0 
0 0 0 0 0 0 
0 0 0 0 0 0 
0 0 0 0 0 0 
0 0 0 0 0 0 
0 0 0 0 0 0 
0 0 0 0 0 0 
0 0 0 0 0 0 
0 0 0 0 0 0 
0 0 0 0 0 0 
0 0 0 0 0 0 
0 0 0 0 0 0 
0 0 0 0 0 0 
0 0 0 0 0 0 
0 0 0 0 0 0 
0 0 0 0 0 0 
0 0 0 0 0 0 
0 0 0 0 0 0 
0 0 0 0 0 0 
0 0 0 0 0 0 
0 0 0 0 0 0 
0 0 0 0 0 0 
0 0 0 0 0 0 
0 0 0 0 0 0 
0 0 0 0 0 0 
0 0 0 0 0 0 
0 0 0 0 0 0 
0 0 0 0 0 0 
0 0 0 0 0 0 
0 0 0 0 0 0 
0 0 0 0 0 0 
0 0 0 0 0 0 
0 0 0 0 0 0 
0 0 0 0 0 0 
0 0 0 0 0 0 
0 0 0 0 0 0 
0 0 0 0 0 0 
0 0 0 0 0 0 
0 0 0 0 0 0 
0 0 0 0 0 0 
0 0 0 0 0 0 
0 0 0 0 0 0 
0 0 0 0 0 0 
0 0 0 0 0 0 
0 0 0 0 0 0 
0 0 0 0 0 0 
0 0 0 0 0 0 
0 0 0 0 0 0 
0 0 0 0 0 0 
0 0 0 0 0 0 
0 0 0 0 0 0 
0 0 0 0 0 0 
0 0 0 0 0 0 
0 0 0 0 0 0 
0 0 0 0 0 0 
0 0 0 0 0 0 
0 0 0 0 0 0 
0 0 0 0 0 0 
0 0 0 0 0 0 
0 0 0 0 0 0 
0 0 0 0 0 0 
0 0 0 0 0 0 
0 0 0 0 0 0 
0 0 0 0 0 0 
0 0 0 0 0 0 
0 0 0 0 0 0 
0 0 0 0 0 0 
0 0 0 0 0 0 
0 0 0 0 0 0 
0 0 0 0 0 0 
0 0 0 0 0 0 
0 0 0 0 0 0 
0 0 0 0 0 0 
0 0 0 0 0 0 
0 0 0 0 0 0 
0 0 0 0 0 0 
0 0 0 0 0 0 
0 0 0 0 0 0 
0 0 0 0 0 0 
0 0 0 0 0 0 
0 0 0 0 0 0 
0 0 0 0 0 0 
0 0 0 0 0 0 
0 0 0 0 0 0 
0 0 0 0 0 0 
0 0 0 0 0 0 
0 0 0 0 0 0 
0 0 0 0 0 0 
0 0 0 0 0 0 
0 0 0 0 0 0 
0 0 0 0 0 0 
0 0 0 0 0 0 
0 0 0 0 0 0 
0 0 0 0 0 0 
0 0 0 0 0 0 
0 0 0 0 0 0 
0 0 0 0 0 0 
0 0 0 0 0 0 
0 0 0 0 0 0 
0 0 0 0 0 0 
0 0 0 0 0 0 
0 0 0 0 0 0 
0 0 0 0 0 0 
0 0 0 0 0 0 
0 0 0 0 0 0 
0 0 0 0 0 0 
0 0 0 0 0 0 
0 0 0 0 0 0 
0 0 0 0 0 0 
0 0 0 0 0 0 
0 0 0 0 0 0 
0 0 0 0 0 0 
0 0 0 0 0 0 
0 0 0 0 0 0 
0 0 0 0 0 0 
0 0 0 0 0 0 
0 0 0 0 0 0 
0 0 0 0 0 0 
0 0 0 0 0 0 
0 0 0 0 0 0 
0 0 0 0 0 0 
0 0 0 0 0 0 
0 0 0 0 0 0 
0 0 0 0 0 0 
0 0 0 0 0 0 
0 0 0 0 0 0 
0 0 0 0 0 0 
0 0 0 0 0 0 
0 0 0 0 0 0 
0 0 0 0 0 0 
0 0 0 0 0 0 
0 0 0 0 0 0 
0 0 0 0 0 0 
0 0 0 0 0 0 
0 0 0 0 0 0 
0 0 0 0 0 0 
0 0 0 0 0 0 
0 0 0 0 0 0 
-0.02578276264566862 -0.01940261870433797 0.6955382335121264 -0.05206955571843634 -0.09719839473254878 -0.2293162716369694 
0 0 0 0 0 0 
0 0 0 0 0 0 
0 0 0 0 0 0 
0 0 0 0 0 0 
0 0 0 0 0 0 
0 0 0 0 0 0 
0 0 0 0 0 0 
0 0 0 0 0 0 
0 0 0 0 0 0 
0 0 0 0 0 0 
0 0 0 0 0 0 
0 0 0 0 0 0 
0 0 0 0 0 0 
0 0 0 0 0 0 
0 0 0 0 0 0 
0 0 0 0 0 0 
0 0 0 0 0 0 
0 0 0 0 0 0 
0 0 0 0 0 0 
0 0 0 0 0 0 
0 0 0 0 0 0 
0 0 0 0 0 0 
0 0 0 0 0 0 
0 0 0 0 0 0 
0 0 0 0 0 0 
0 0 0 0 0 0 
0 0 0 0 0 0 
0 0 0 0 0 0 
0 0 0 0 0 0 
0 0 0 0 0 0 
0 0 0 0 0 0 
0 0 0 0 0 0 
0 0 0 0 0 0 
0 0 0 0 0 0 
0 0 0 0 0 0 
0.3662509491286846 -0.004273707315008274 -0.1483831146213629 -0.06193249146362066 -0.01574762252192440 -0.01190351634933784 
0 0 0 0 0 0 
0 0 0 0 0 0 
0 0 0 0 0 0 
0 0 0 0 0 0 
0 0 0 0 0 0 
0 0 0 0 0 0 
0 0 0 0 0 0 
0 0 0 0 0 0 
0 0 0 0 0 0 
0 0 0 0 0 0 
0 0 0 0 0 0 
0 0 0 0 0 0 
0 0 0 0 0 0 
0 0 0 0 0 0 
0 0 0 0 0 0 
-0.02699093594616497 0.8542489056982963 -0.6083478882408397 -0.1060269143399615 -0.01133917400578386 -0.1178584731533807 
0 0 0 0 0 0 
0 0 0 0 0 0 
0 0 0 0 0 0 
0 0 0 0 0 0 
1.106065337646838 -1.369339101515582 0.7437198105071675 0.4931795159336093 -1.247216304204919 -0.4132940363450627 
0 0 0 0 0 0 
0 0 0 0 0 0 
0 0 0 0 0 0 
0 0 0 0 0 0 
0 0 0 0 0 0 
0 0 0 0 0 0 
0 0 0 0 0 0 
0 0 0 0 0 0 
0 0 0 0 0 0 
0 0 0 0 0 0 
0 0 0 0 0 0 
0 0 0 0 0 0 
0 0 0 0 0 0 
0 0 0 0 0 0 
0 0 0 0 0 0 
0 0 0 0 0 0 
0 0 0 0 0 0 
0 0 0 0 0 0 
0 0 0 0 0 0 
0 0 0 0 0 0 
-0.07008580792848308 -0.03999204120579407 -0.05324948696509593 -0.04040993991109269 -0.2137547314938242 0.3569531880175258 
0 0 0 0 0 0 
0 0 0 0 0 0 
0 0 0 0 0 0 
0 0 0 0 0 0 
0 0 0 0 0 0 
0 0 0 0 0 0 
0 0 0 0 0 0 
0 0 0 0 0 0 
0 0 0 0 0 0 
0 0 0 0 0 0 
0 0 0 0 0 0 
0 0 0 0 0 0 
0 0 0 0 0 0 
0 0 0 0 0 0 
0 0 0 0 0 0 
0 0 0 0 0 0 
0 0 0 0 0 0 
0 0 0 0 0 0 
0 0 0 0 0 0 
0 0 0 0 0 0 
0 0 0 0 0 0 
0 0 0 0 0 0 
0 0 0 0 0 0 
0 0 0 0 0 0 
0 0 0 0 0 0 
0 0 0 0 0 0 
-0.03689358502800314 -0.01209314298911680 -0.05156607639198088 -0.001488214965278732 -0.1252360738195383 0.1706411855281049 
0 0 0 0 0 0 
0 0 0 0 0 0 
0 0 0 0 0 0 
0 0 0 0 0 0 
0 0 0 0 0 0 
0 0 0 0 0 0 
0 0 0 0 0 0 
0 0 0 0 0 0 
0 0 0 0 0 0 
0 0 0 0 0 0 
0 0 0 0 0 0 
0 0 0 0 0 0 
0 0 0 0 0 0 
0 0 0 0 0 0 
0 0 0 0 0 0 
0 0 0 0 0 0 
0 0 0 0 0 0 
0 0 0 0 0 0 
0 0 0 0 0 0 
0 0 0 0 0 0 
0 0 0 0 0 0 
0 0 0 0 0 0 
0 0 0 0 0 0 
0 0 0 0 0 0 
0 0 0 0 0 0 
0 0 0 0 0 0 
0 0 0 0 0 0 
0 0 0 0 0 0 
0 0 0 0 0 0 
0 0 0 0 0 0 
0 0 0 0 0 0 
0 0 0 0 0 0 
0 0 0 0 0 0 
0 0 0 0 0 0 
0 0 0 0 0 0 
0 0 0 0 0 0 
0 0 0 0 0 0 
0 0 0 0 0 0 
0 0 0 0 0 0 
0 0 0 0 0 0 
0 0 0 0 0 0 
0 0 0 0 0 0 
0 0 0 0 0 0 
0 0 0 0 0 0 
0 0 0 0 0 0 
0 0 0 0 0 0 
0 0 0 0 0 0 
0 0 0 0 0 0 
0 0 0 0 0 0 
0 0 0 0 0 0 
0 0 0 0 0 0 
0.7061705926888598 -1.512583398406283 1.916858201090381 -0.3233479051841224 0.4692092979011483 -0.3813780956996027 
0 0 0 0 0 0 
0 0 0 0 0 0 
0 0 0 0 0 0 
0 0 0 0 0 0 
0 0 0 0 0 0 
0 0 0 0 0 0 
0 0 0 0 0 0 
0 0 0 0 0 0 
0 0 0 0 0 0 
0 0 0 0 0 0 
0 0 0 0 0 0 
0 0 0 0 0 0 
0 0 0 0 0 0 
0 0 0 0 0 0 
0.3662509491286846 -0.004273707315008274 -0.1483831146213629 -0.06193249146362066 -0.01574762252192440 -0.01190351634933784 
0 0 0 0 0 0 
0 0 0 0 0 0 
0 0 0 0 0 0 
0 0 0 0 0 0 
0 0 0 0 0 0 
0 0 0 0 0 0 
0 0 0 0 0 0 
0 0 0 0 0 0 
0 0 0 0 0 0 
0 0 0 0 0 0 
0 0 0 0 0 0 
0 0 0 0 0 0 
0 0 0 0 0 0 
0 0 0 0 0 0 
0 0 0 0 0 0 
0 0 0 0 0 0 
0 0 0 0 0 0 
0 0 0 0 0 0 
0 0 0 0 0 0 
0 0 0 0 0 0 
0 0 0 0 0 0 
0 0 0 0 0 0 
0 0 0 0 0 0 
0 0 0 0 0 0 
0 0 0 0 0 0 
0 0 0 0 0 0 
0 0 0 0 0 0 
0 0 0 0 0 0 
0 0 0 0 0 0 
0 0 0 0 0 0 
0 0 0 0 0 0 
0 0 0 0 0 0 
0 0 0 0 0 0 
0 0 0 0 0 0 
-0.4554670045898456 -0.7425023992604945 -0.6577595561416688 -0.8965857047664983 -0.6459811832862980 -0.005635801203849419 
0 0 0 0 0 0 
0 0 0 0 0 0 
0 0 0 0 0 0 
0 0 0 0 0 0 
0 0 0 0 0 0 
0 0 0 0 0 0 
0 0 0 0 0 0 
0 0 0 0 0 0 
0 0 0 0 0 0 
0 0 0 0 0 0 
0 0 0 0 0 0 
0 0 0 0 0 0 
0 0 0 0 0 0 
0 0 0 0 0 0 
0 0 0 0 0 0 
0 0 0 0 0 0 
0 0 0 0 0 0 
0 0 0 0 0 0 
0 0 0 0 0 0 
0 0 0 0 0 0 
0 0 0 0 0 0 
0 0 0 0 0 0 
0 0 0 0 0 0 
0 0 0 0 0 0 
0 0 0 0 0 0 
0 0 0 0 0 0 
0 0 0 0 0 0 
0 0 0 0 0 0 
0 0 0 0 0 0 
0 0 0 0 0 0 
0 0 0 0 0 0 
0 0 0 0 0 0 
0 0 0 0 0 0 
0 0 0 0 0 0 
0 0 0 0 0 0 
0 0 0 0 0 0 
0 0 0 0 0 0 
-0.05461175689887975 -0.01073611468865832 -0.2721408761702885 -0.02182248062875177 -0.1135797186055432 0.3818144870787397 
0 0 0 0 0 0 
0 0 0 0 0 0 
0 0 0 0 0 0 
0 0 0 0 0 0 
0 0 0 0 0 0 
0 0 0 0 0 0 
0 0 0 0 0 0 
0 0 0 0 0 0 
0 0 0 0 0 0 
0 0 0 0 0 0 
0 0 0 0 0 0 
0 0 0 0 0 0 
0 0 0 0 0 0 
0 0 0 0 0 0 
0 0 0 0 0 0 
0 0 0 0 0 0 
0 0 0 0 0 0 
0 0 0 0 0 0 
0 0 0 0 0 0 
0 0 0 0 0 0 
0 0 0 0 0 0 
0 0 0 0 0 0 
0 0 0 0 0 0 
0 0 0 0 0 0 
0 0 0 0 0 0 
0 0 0 0 0 0 
0 0 0 0 0 0 
0 0 0 0 0 0 
0 0 0 0 0 0 
0 0 0 0 0 0 
0 0 0 0 0 0 
0 0 0 0 0 0 
0 0 0 0 0 0 
0 0 0 0 0 0 
-0.03342164951504235 -0.007787900106213048 -0.07182946322056714 -0.0001444287964583866 -0.1340940083231728 0.1695882256183346 
0 0 0 0 0 0 
0 0 0 0 0 0 
0 0 0 0 0 0 
0 0 0 0 0 0 
0 0 0 0 0 0 
0 0 0 0 0 0 
0 0 0 0 0 0 
0 0 0 0 0 0 
0 0 0 0 0 0 
0 0 0 0 0 0 
0 0 0 0 0 0 
0 0 0 0 0 0 
0 0 0 0 0 0 
0 0 0 0 0 0 
0 0 0 0 0 0 
0 0 0 0 0 0 
0 0 0 0 0 0 
0 0 0 0 0 0 
0 0 0 0 0 0 
0 0 0 0 0 0 
0 0 0 0 0 0 
0 0 0 0 0 0 
0 0 0 0 0 0 
0 0 0 0 0 0 
0 0 0 0 0 0 
0 0 0 0 0 0 
0 0 0 0 0 0 
0 0 0 0 0 0 
0 0 0 0 0 0 
0 0 0 0 0 0 
0 0 0 0 0 0 
0 0 0 0 0 0 
0 0 0 0 0 0 
0 0 0 0 0 0 
0 0 0 0 0 0 
0 0 0 0 0 0 
0 0 0 0 0 0 
0 0 0 0 0 0 
0 0 0 0 0 0 
0 0 0 0 0 0 
0 0 0 0 0 0 
0 0 0 0 0 0 
0 0 0 0 0 0 
0 0 0 0 0 0 
0 0 0 0 0 0 
0 0 0 0 0 0 
0 0 0 0 0 0 
0 0 0 0 0 0 
0 0 0 0 0 0 
0 0 0 0 0 0 
0 0 0 0 0 0 
0 0 0 0 0 0 
0 0 0 0 0 0 
0 0 0 0 0 0 
0 0 0 0 0 0 
0 0 0 0 0 0 
0 0 0 0 0 0 
0 0 0 0 0 0 
0 0 0 0 0 0 
-0.4554670045898456 -0.7425023992604945 -0.6577595561416688 -0.8965857047664983 -0.6459811832862980 -0.005635801203849419 
0 0 0 0 0 0 
0 0 0 0 0 0 
0 0 0 0 0 0 
0 0 0 0 0 0 
-0.2104199572799869 -0.05260365702215247 -0.1226259902646059 -0.06097962579680891 -0.1073349262360269 0.4330195508947741 
0 0 0 0 0 0 
0 0 0 0 0 0 
0 0 0 0 0 0 
0 0 0 0 0 0 
0 0 0 0 0 0 
0 0 0 0 0 0 
0 0 0 0 0 0 
0 0 0 0 0 0 
0 0 0 0 0 0 
0 0 0 0 0 0 
0 0 0 0 0 0 
0 0 0 0 0 0 
-1.422992335004210 2.676906663076236 -1.262583034909045 -0.5512241202969266 -1.024337800472005 -0.6513428192705429 
0 0 0 0 0 0 
0 0 0 0 0 0 
0 0 0 0 0 0 
0 0 0 0 0 0 
0 0 0 0 0 0 
0 0 0 0 0 0 
0 0 0 0 0 0 
0 0 0 0 0 0 
0 0 0 0 0 0 
0 0 0 0 0 0 
0 0 0 0 0 0 
0 0 0 0 0 0 
0 0 0 0 0 0 
0 0 0 0 0 0 
0 0 0 0 0 0 
0 0 0 0 0 0 
0 0 0 0 0 0 
0 0 0 0 0 0 
0 0 0 0 0 0 
0 0 0 0 0 0 
0 0 0 0 0 0 
-0.1002754661581703 -0.03667212973694823 -0.03229383096230180 -0.02914107989646166 -0.1727605037612759 0.5744918598950165 
0 0 0 0 0 0 
0 0 0 0 0 0 
0 0 0 0 0 0 
0 0 0 0 0 0 
0 0 0 0 0 0 
0 0 0 0 0 0 
0 0 0 0 0 0 
0 0 0 0 0 0 
0 0 0 0 0 0 
0 0 0 0 0 0 
0 0 0 0 0 0 
0 0 0 0 0 0 
0 0 0 0 0 0 
0 0 0 0 0 0 
0 0 0 0 0 0 
0 0 0 0 0 0 
0 0 0 0 0 0 
0 0 0 0 0 0 
-1.081718899711876 -0.7783225700446463 -0.3828784472258733 -0.7546708828250186 2.977873266076414 -1.987214721493045 
0 0 0 0 0 0 
0 0 0 0 0 0 
0 0 0 0 0 0 
0 0 0 0 0 0 
0 0 0 0 0 0 
0 0 0 0 0 0 
0 0 0 0 0 0 
0 0 0 0 0 0 
0 0 0 0 0 0 
0 0 0 0 0 0 
0 0 0 0 0 0 
0 0 0 0 0 0 
0 0 0 0 0 0 
0 0 0 0 0 0 
0 0 0 0 0 0 
0 0 0 0 0 0 
0 0 0 0 0 0 
0 0 0 0 0 0 
0 0 0 0 0 0 
0 0 0 0 0 0 
0 0 0 0 0 0 
0 0 0 0 0 0 
0 0 0 0 0 0 
0 0 0 0 0 0 
0 0 0 0 0 0 
0 0 0 0 0 0 
0 0 0 0 0 0 
0 0 0 0 0 0 
0 0 0 0 0 0 
0 0 0 0 0 0 
0 0 0 0 0 0 
0 0 0 0 0 0 
0 0 0 0 0 0 
0 0 0 0 0 0 
0 0 0 0 0 0 
0 0 0 0 0 0 
0 0 0 0 0 0 
0 0 0 0 0 0 
0 0 0 0 0 0 
0 0 0 0 0 0 
0 0 0 0 0 0 
0 0 0 0 0 0 
0 0 0 0 0 0 
0 0 0 0 0 0 
0 0 0 0 0 0 
0 0 0 0 0 0 
0 0 0 0 0 0 
0 0 0 0 0 0 
0 0 0 0 0 0 
0 0 0 0 0 0 
0 0 0 0 0 0 
0 0 0 0 0 0 
0 0 0 0 0 0 
0 0 0 0 0 0 
0 0 0 0 0 0 
0 0 0 0 0 0 
0 0 0 0 0 0 
0 0 0 0 0 0 
0 0 0 0 0 0 
0 0 0 0 0 0 
0 0 0 0 0 0 
0 0 0 0 0 0 
0 0 0 0 0 0 
0 0 0 0 0 0 
0 0 0 0 0 0 
0 0 0 0 0 0 
0 0 0 0 0 0 
0 0 0 0 0 0 
0 0 0 0 0 0 
0 0 0 0 0 0 
-0.03342164951504235 -0.007787900106213048 -0.07182946322056714 -0.0001444287964583866 -0.1340940083231728 0.1695882256183346 
0 0 0 0 0 0 
0 0 0 0 0 0 
0 0 0 0 0 0 
0 0 0 0 0 0 
0 0 0 0 0 0 
0 0 0 0 0 0 
0 0 0 0 0 0 
0 0 0 0 0 0 
0 0 0 0 0 0 
0 0 0 0 0 0 
0 0 0 0 0 0 
0 0 0 0 0 0 
0 0 0 0 0 0 
0 0 0 0 0 0 
0 0 0 0 0 0 
0 0 0 0 0 0 
0 0 0 0 0 0 
0 0 0 0 0 0 
0 0 0 0 0 0 
0 0 0 0 0 0 
0 0 0 0 0 0 
-1.323376473483445 -0.9878707714946612 -0.5972442760097921 -0.8556758298847610 1.953583350505740 -0.03416387124837698 
0 0 0 0 0 0 
0 0 0 0 0 0 
0 0 0 0 0 0 
0 0 0 0 0 0 
0 0 0 0 0 0 
0 0 0 0 0 0 
0 0 0 0 0 0 
0 0 0 0 0 0 
0 0 0 0 0 0 
0 0 0 0 0 0 
0 0 0 0 0 0 
0 0 0 0 0 0 
0 0 0 0 0 0 
0 0 0 0 0 0 
0 0 0 0 0 0 
0 0 0 0 0 0 
0 0 0 0 0 0 
0 0 0 0 0 0 
0 0 0 0 0 0 
0 0 0 0 0 0 
0 0 0 0 0 0 
0 0 0 0 0 0 
0 0 0 0 0 0 
0 0 0 0 0 0 
0 0 0 0 0 0 
0 0 0 0 0 0 
0 0 0 0 0 0 
0 0 0 0 0 0 
0 0 0 0 0 0 
0 0 0 0 0 0 
0 0 0 0 0 0 
-0.5896109581305902 -0.2076180535225722 0.5921163888486315 -0.1002849341321550 -0.2313945689419741 0.9745682058674082 
0 0 0 0 0 0 
0 0 0 0 0 0 
0 0 0 0 0 0 
0 0 0 0 0 0 
0 0 0 0 0 0 
0 0 0 0 0 0 
0 0 0 0 0 0 
0 0 0 0 0 0 
0 0 0 0 0 0 
0 0 0 0 0 0 
0 0 0 0 0 0 
0 0 0 0 0 0 
0 0 0 0 0 0 
0 0 0 0 0 0 
0 0 0 0 0 0 
0 0 0 0 0 0 
0 0 0 0 0 0 
0 0 0 0 0 0 
0 0 0 0 0 0 
0 0 0 0 0 0 
0 0 0 0 0 0 
0 0 0 0 0 0 
-0.7438126782615145 2.018572170368246 0.04592727794048090 -0.9805989398210105 -0.5664676765766403 -1.150579388123528 
0 0 0 0 0 0 
0 0 0 0 0 0 
0 0 0 0 0 0 
0 0 0 0 0 0 
0.2722712067724085 -0.3985494518772721 -0.2700897794681449 0.6173171064987010 -0.3311264266906302 0.6225312419494593 
0 0 0 0 0 0 
0 0 0 0 0 0 
0 0 0 0 0 0 
0 0 0 0 0 0 
0 0 0 0 0 0 
0 0 0 0 0 0 
0 0 0 0 0 0 
0 0 0 0 0 0 
-0.08803340641392210 -0.01852401479487137 -0.3439703393908556 -0.02196690942521015 -0.2476737269287160 0.5514027126970744 
0 0 0 0 0 0 
0 0 0 0 0 0 
0 0 0 0 0 0 
0 0 0 0 0 0 
0 0 0 0 0 0 
0 0 0 0 0 0 
0 0 0 0 0 0 
0 0 0 0 0 0 
0 0 0 0 0 0 
0 0 0 0 0 0 
0 0 0 0 0 0 
0 0 0 0 0 0 
0 0 0 0 0 0 
0 0 0 0 0 0 
0 0 0 0 0 0 
0 0 0 0 0 0 
0 0 0 0 0 0 
0 0 0 0 0 0 
0 0 0 0 0 0 
0 0 0 0 0 0 
0 0 0 0 0 0 
0 0 0 0 0 0 
0 0 0 0 0 0 
0 0 0 0 0 0 
0 0 0 0 0 0 
0 0 0 0 0 0 
0 0 0 0 0 0 
0 0 0 0 0 0 
0 0 0 0 0 0 
0 0 0 0 0 0 
0 0 0 0 0 0 
0 0 0 0 0 0 
0 0 0 0 0 0 
0 0 0 0 0 0 
0 0 0 0 0 0 
-0.004745613583276012 -0.0008705262158956278 -0.01193525351879517 0.001666855082688286 -0.0002113480853165370 -0.0004684854897332172 
0 0 0 0 0 0 
0 0 0 0 0 0 
0 0 0 0 0 0 
0 0 0 0 0 0 
0 0 0 0 0 0 
0 0 0 0 0 0 
0 0 0 0 0 0 
0 0 0 0 0 0 
0 0 0 0 0 0 
0 0 0 0 0 0 
0 0 0 0 0 0 
0 0 0 0 0 0 
0 0 0 0 0 0 
0.2086693217074542 -0.01225823721307528 -0.05550514556418744 -0.01853246994362363 -0.01041197247139262 -0.04898421183215933 
0 0 0 0 0 0 
0 0 0 0 0 0 
0 0 0 0 0 0 
0.7685858561353613 -0.6099301377641912 0.09955258347181829 0.09152735710363927 -0.7421428043138527 -0.7910229575293282 
0 0 0 0 0 0 
0 0 0 0 0 0 
0 0 0 0 0 0 
0 0 0 0 0 0 
0 0 0 0 0 0 
0 0 0 0 0 0 
0 0 0 0 0 0 
0 0 0 0 0 0 
0 0 0 0 0 0 
0 0 0 0 0 0 
0 0 0 0 0 0 
0 0 0 0 0 0 
0 0 0 0 0 0 
-0.1799031975885334 -0.03531405781015656 -0.1048192497943783 -0.04535456358772928 -0.09756539261593770 0.4175714929844303 
0 0 0 0 0 0 
0 0 0 0 0 0 
0 0 0 0 0 0 
0 0 0 0 0 0 
0 0 0 0 0 0 
0 0 0 0 0 0 
0 0 0 0 0 0 
0 0 0 0 0 0 
0 0 0 0 0 0 
0 0 0 0 0 0 
0 0 0 0 0 0 
0 0 0 0 0 0 
0 0 0 0 0 0 
0 0 0 0 0 0 
0 0 0 0 0 0 
0 0 0 0 0 0 
0 0 0 0 0 0 
0 0 0 0 0 0 
0 0 0 0 0 0 
0 0 0 0 0 0 
0 0 0 0 0 0 
0 0 0 0 0 0 
0 0 0 0 0 0 
0 0 0 0 0 0 
0 0 0 0 0 0 
0 0 0 0 0 0 
0 0 0 0 0 0 
0 0 0 0 0 0 
0 0 0 0 0 0 
0 0 0 0 0 0 
0 0 0 0 0 0 
0 0 0 0 0 0 
0 0 0 0 0 0 
0 0 0 0 0 0 
0 0 0 0 0 0 
0 0 0 0 0 0 
0 0 0 0 0 0 
0 0 0 0 0 0 
0 0 0 0 0 0 
0 0 0 0 0 0 
0 0 0 0 0 0 
0 0 0 0 0 0 
0 0 0 0 0 0 
0 0 0 0 0 0 
0 0 0 0 0 0 
0 0 0 0 0 0 
0 0 0 0 0 0 
0 0 0 0 0 0 
0 0 0 0 0 0 
0 0 0 0 0 0 
0 0 0 0 0 0 
0 0 0 0 0 0 
0 0 0 0 0 0 
0 0 0 0 0 0 
0 0 0 0 0 0 
0 0 0 0 0 0 
0 0 0 0 0 0 
-0.06445401062201085 -0.04334862399352391 -0.3211603255621969 -0.04910455136101885 -0.1775401039290073 0.5078235727012785 
0 0 0 0 0 0 
0 0 0 0 0 0 
0 0 0 0 0 0 
0 0 0 0 0 0 
0 0 0 0 0 0 
0 0 0 0 0 0 
0 0 0 0 0 0 
0 0 0 0 0 0 
0 0 0 0 0 0 
0 0 0 0 0 0 
0 0 0 0 0 0 
0 0 0 0 0 0 
0 0 0 0 0 0 
0 0 0 0 0 0 
0 0 0 0 0 0 
0 0 0 0 0 0 
0 0 0 0 0 0 
0 0 0 0 0 0 
0 0 0 0 0 0 
0 0 0 0 0 0 
0 0 0 0 0 0 
0 0 0 0 0 0 
0 0 0 0 0 0 
0 0 0 0 0 0 
0 0 0 0 0 0 
0 0 0 0 0 0 
0 0 0 0 0 0 
0 0 0 0 0 0 
0 0 0 0 0 0 
0 0 0 0 0 0 
0 0 0 0 0 0 
0 0 0 0 0 0 
0 0 0 0 0 0 
0 0 0 0 0 0 
0 0 0 0 0 0 
0 0 0 0 0 0 
0 0 0 0 0 0 
0 0 0 0 0 0 
0 0 0 0 0 0 
0 0 0 0 0 0 
0 0 0 0 0 0 
0 0 0 0 0 0 
0 0 0 0 0 0 
0 0 0 0 0 0 
0 0 0 0 0 0 
0 0 0 0 0 0 
0 0 0 0 0 0 
0 0 0 0 0 0 
0 0 0 0 0 0 
0 0 0 0 0 0 
0 0 0 0 0 0 
0 0 0 0 0 0 
0 0 0 0 0 0 
0 0 0 0 0 0 
0 0 0 0 0 0 
0 0 0 0 0 0 
0 0 0 0 0 0 
0 0 0 0 0 0 
0 0 0 0 0 0 
0 0 0 0 0 0 
0 0 0 0 0 0 
0 0 0 0 0 0 
0 0 0 0 0 0 
0 0 0 0 0 0 
0 0 0 0 0 0 
0 0 0 0 0 0 
0 0 0 0 0 0 
0 0 0 0 0 0 
0 0 0 0 0 0 
-0.05958805852370860 -0.01128934394498562 -0.03804039119930890 -0.01628542623249254 -0.03195722849768431 0.03053332412086181 
0 0 0 0 0 0 
0 0 0 0 0 0 
0 0 0 0 0 0 
0 0 0 0 0 0 
0 0 0 0 0 0 
0 0 0 0 0 0 
0 0 0 0 0 0 
0 0 0 0 0 0 
0 0 0 0 0 0 
0 0 0 0 0 0 
0 0 0 0 0 0 
0 0 0 0 0 0 
0 0 0 0 0 0 
0 0 0 0 0 0 
0 0 0 0 0 0 
0 0 0 0 0 0 
0 0 0 0 0 0 
0 0 0 0 0 0 
0 0 0 0 0 0 
0 0 0 0 0 0 
0 0 0 0 0 0 
0 0 0 0 0 0 
-0.006594536705855097 -0.009012189365564704 -0.02114592794257967 -0.02033876314083659 -0.09673047971579532 0.06541402850957936 
0 0 0 0 0 0 
0 0 0 0 0 0 
0 0 0 0 0 0 
0 0 0 0 0 0 
0 0 0 0 0 0 
0 0 0 0 0 0 
0 0 0 0 0 0 
0 0 0 0 0 0 
0 0 0 0 0 0 
0 0 0 0 0 0 
0 0 0 0 0 0 
0 0 0 0 0 0 
0 0 0 0 0 0 
0 0 0 0 0 0 
0 0 0 0 0 0 
0 0 0 0 0 0 
0 0 0 0 0 0 
0 0 0 0 0 0 
0 0 0 0 0 0 
0 0 0 0 0 0 
0 0 0 0 0 0 
0 0 0 0 0 0 
0 0 0 0 0 0 
0 0 0 0 0 0 
0 0 0 0 0 0 
0 0 0 0 0 0 
0 0 0 0 0 0 
0 0 0 0 0 0 
0 0 0 0 0 0 
0 0 0 0 0 0 
0 0 0 0 0 0 
0 0 0 0 0 0 
0 0 0 0 0 0 
0 0 0 0 0 0 
0 0 0 0 0 0 
0 0 0 0 0 0 
0 0 0 0 0 0 
0 0 0 0 0 0 
0 0 0 0 0 0 
0 0 0 0 0 0 
-0.3356173348348694 -0.05218561926034670 0.8399932609956589 0.03027907997384187 -1.450367133763995 -0.8579687274701694 
0 0 0 0 0 0 
0 0 0 0 0 0 
0 0 0 0 0 0 
0 0 0 0 0 0 
0 0 0 0 0 0 
0 0 0 0 0 0 
0 0 0 0 0 0 
0 0 0 0 0 0 
0 0 0 0 0 0 
0 0 0 0 0 0 
0 0 0 0 0 0 
0.2774272442851234 -0.01651751138137054 -0.3244786106180947 -0.02693651754520504 -0.01137840589404443 -0.06230274091505383 
0 0 0 0 0 0 
0 0 0 0 0 0 
0 0 0 0 0 0 
0 0 0 0 0 0 
0 0 0 0 0 0 
0 0 0 0 0 0 
0 0 0 0 0 0 
0 0 0 0 0 0 
0 0 0 0 0 0 
0 0 0 0 0 0 
0 0 0 0 0 0 
0 0 0 0 0 0 
0 0 0 0 0 0 
0 0 0 0 0 0 
0 0 0 0 0 0 
0 0 0 0 0 0 
0 0 0 0 0 0 
0 0 0 0 0 0 
0 0 0 0 0 0 
0 0 0 0 0 0 
0 0 0 0 0 0 
0 0 0 0 0 0 
0 0 0 0 0 0 
0 0 0 0 0 0 
0 0 0 0 0 0 
0 0 0 0 0 0 
0 0 0 0 0 0 
0 0 0 0 0 0 
0 0 0 0 0 0 
0 0 0 0 0 0 
0 0 0 0 0 0 
0 0 0 0 0 0 
0 0 0 0 0 0 
0 0 0 0 0 0 
-0.1392473165540592 -0.003553389826071515 -0.3170710002884099 0.1989222868134729 -0.02795382508699628 0.2487032821728380 
0 0 0 0 0 0 
0 0 0 0 0 0 
0 0 0 0 0 0 
0 0 0 0 0 0 
0 0 0 0 0 0 
0 0 0 0 0 0 
0 0 0 0 0 0 
0 0 0 0 0 0 
-0.08397958573271348 -0.02789635021184119 -0.01836478372315049 0.002891390312979157 -0.02514344011975119 0.0008082581382858954 
0 0 0 0 0 0 
0 0 0 0 0 0 
0 0 0 0 0 0 
0 0 0 0 0 0 
0 0 0 0 0 0 
0 0 0 0 0 0 
0 0 0 0 0 0 
0 0 0 0 0 0 
0 0 0 0 0 0 
0 0 0 0 0 0 
0 0 0 0 0 0 
0 0 0 0 0 0 
0 0 0 0 0 0 
0 0 0 0 0 0 
0 0 0 0 0 0 
0 0 0 0 0 0 
0 0 0 0 0 0 
0 0 0 0 0 0 
0 0 0 0 0 0 
0 0 0 0 0 0 
0 0 0 0 0 0 
0 0 0 0 0 0 
0 0 0 0 0 0 
0 0 0 0 0 0 
0 0 0 0 0 0 
0 0 0 0 0 0 
0 0 0 0 0 0 
0 0 0 0 0 0 
0 0 0 0 0 0 
0 0 0 0 0 0 
0 0 0 0 0 0 
0 0 0 0 0 0 
0 0 0 0 0 0 
0 0 0 0 0 0 
0 0 0 0 0 0 
0 0 0 0 0 0 
0 0 0 0 0 0 
0 0 0 0 0 0 
-0.04252502772520736 -0.3915230725715370 -0.02891134060707641 -0.003152948398026801 -0.5945487027591240 0.9246612183427064 
0 0 0 0 0 0 
0 0 0 0 0 0 
0 0 0 0 0 0 
0 0 0 0 0 0 
0 0 0 0 0 0 
0 0 0 0 0 0 
0 0 0 0 0 0 
0 0 0 0 0 0 
0 0 0 0 0 0 
0 0 0 0 0 0 
0 0 0 0 0 0 
0 0 0 0 0 0 
0 0 0 0 0 0 
0 0 0 0 0 0 
0 0 0 0 0 0 
0 0 0 0 0 0 
0 0 0 0 0 0 
0 0 0 0 0 0 
0 0 0 0 0 0 
0 0 0 0 0 0 
0 0 0 0 0 0 
0 0 0 0 0 0 
0 0 0 0 0 0 
0 0 0 0 0 0 
0 0 0 0 0 0 
0 0 0 0 0 0 
0 0 0 0 0 0 
0 0 0 0 0 0 
0 0 0 0 0 0 
0 0 0 0 0 0 
0 0 0 0 0 0 
0 0 0 0 0 0 
0 0 0 0 0 0 
0 0 0 0 0 0 
0 0 0 0 0 0 
0 0 0 0 0 0 
0 0 0 0 0 0 
0 0 0 0 0 0 
0 0 0 0 0 0 
0 0 0 0 0 0 
0 0 0 0 0 0 
0 0 0 0 0 0 
0 0 0 0 0 0 
0 0 0 0 0 0 
0 0 0 0 0 0 
0 0 0 0 0 0 
0 0 0 0 0 0 
0 0 0 0 0 0 
0 0 0 0 0 0 
0 0 0 0 0 0 
0 0 0 0 0 0 
0 0 0 0 0 0 
0 0 0 0 0 0 
-1.020038594489541 0.3390695079255023 -0.7088137727055702 0.6906581190443035 1.227717930956566 -0.6078420214565637 
0 0 0 0 0 0 
0 0 0 0 0 0 
0 0 0 0 0 0 
0 0 0 0 0 0 
0 0 0 0 0 0 
0 0 0 0 0 0 
0 0 0 0 0 0 
0 0 0 0 0 0 
0 0 0 0 0 0 
0 0 0 0 0 0 
0 0 0 0 0 0 
0 0 0 0 0 0 
-0.4554670045898456 -0.7425023992604945 -0.6577595561416688 -0.8965857047664983 -0.6459811832862980 -0.005635801203849419 
0 0 0 0 0 0 
0 0 0 0 0 0 
0 0 0 0 0 0 
0 0 0 0 0 0 
0 0 0 0 0 0 
0 0 0 0 0 0 
0 0 0 0 0 0 
0 0 0 0 0 0 
0 0 0 0 0 0 
0 0 0 0 0 0 
0 0 0 0 0 0 
0 0 0 0 0 0 
0 0 0 0 0 0 
0 0 0 0 0 0 
0 0 0 0 0 0 
0 0 0 0 0 0 
0 0 0 0 0 0 
0 0 0 0 0 0 
0 0 0 0 0 0 
0 0 0 0 0 0 
0 0 0 0 0 0 
0 0 0 0 0 0 
0 0 0 0 0 0 
0 0 0 0 0 0 
0 0 0 0 0 0 
0 0 0 0 0 0 
0 0 0 0 0 0 
0 0 0 0 0 0 
0 0 0 0 0 0 
0 0 0 0 0 0 
0 0 0 0 0 0 
0 0 0 0 0 0 
0 0 0 0 0 0 
0 0 0 0 0 0 
0 0 0 0 0 0 
0 0 0 0 0 0 
0 0 0 0 0 0 
-0.6595828435855706 -0.2791163779320532 -0.3959424644476478 -0.2308905439483897 -0.3741729135868704 1.007810643379890 
0 0 0 0 0 0 
0 0 0 0 0 0 
0 0 0 0 0 0 
0 0 0 0 0 0 
0 0 0 0 0 0 
0 0 0 0 0 0 
0 0 0 0 0 0 
0 0 0 0 0 0 
0 0 0 0 0 0 
0 0 0 0 0 0 
0 0 0 0 0 0 
0 0 0 0 0 0 
0 0 0 0 0 0 
0 0 0 0 0 0 
0 0 0 0 0 0 
0 0 0 0 0 0 
0 0 0 0 0 0 
0 0 0 0 0 0 
0 0 0 0 0 0 
0 0 0 0 0 0 
0 0 0 0 0 0 
0 0 0 0 0 0 
0 0 0 0 0 0 
0 0 0 0 0 0 
0 0 0 0 0 0 
0 0 0 0 0 0 
0 0 0 0 0 0 
0 0 0 0 0 0 
0 0 0 0 0 0 
0 0 0 0 0 0 
0 0 0 0 0 0 
0 0 0 0 0 0 
0 0 0 0 0 0 
0 0 0 0 0 0 
-0.07950763728574453 -0.2937439517058791 0.04058555373575488 -0.2780528998520799 0.2406136571654891 -0.1134811400428741 
0 0 0 0 0 0 
0 0 0 0 0 0 
0 0 0 0 0 0 
0 0 0 0 0 0 
0 0 0 0 0 0 
0 0 0 0 0 0 
0 0 0 0 0 0 
0 0 0 0 0 0 
-1.085825376067335 0.5589796474487885 0.8242952940248040 -0.05510919098066679 -0.4499978991392714 -0.7225162159850330 
-0.01837781490290117 -0.001235128944941626 -0.08385461650096193 -0.006139086149131321 -0.2582264303108710 0.6555704460441909 
0 0 0 0 0 0 
0 0 0 0 0 0 
0 0 0 0 0 0 
0 0 0 0 0 0 
-0.3640736556919252 -0.02878633337516200 -0.1778290408904872 -0.04316114173359340 -0.02262070171342303 0.4304859002124282 
0 0 0 0 0 0 
0 0 0 0 0 0 
0 0 0 0 0 0 
0 0 0 0 0 0 
0 0 0 0 0 0 
0 0 0 0 0 0 
0 0 0 0 0 0 
0 0 0 0 0 0 
0 0 0 0 0 0 
0 0 0 0 0 0 
0 0 0 0 0 0 
-0.3165535913716637 -0.006954444986846491 -0.05307436733457329 0.3202315844176840 -0.006385680324492353 -0.004402863474626935 
0 0 0 0 0 0 
0 0 0 0 0 0 
0 0 0 0 0 0 
0 0 0 0 0 0 
0 0 0 0 0 0 
0 0 0 0 0 0 
0 0 0 0 0 0 
0 0 0 0 0 0 
0 0 0 0 0 0 
0 0 0 0 0 0 
0 0 0 0 0 0 
0 0 0 0 0 0 
0 0 0 0 0 0 
0 0 0 0 0 0 
0 0 0 0 0 0 
0 0 0 0 0 0 
-0.1545350670557151 0.02467465662945358 -0.05591327330810005 0.07889378254882633 -0.01098412765742557 -0.005112048114650263 
0 0 0 0 0 0 
0 0 0 0 0 0 
0 0 0 0 0 0 
0 0 0 0 0 0 
0 0 0 0 0 0 
0 0 0 0 0 0 
0 0 0 0 0 0 
0 0 0 0 0 0 
0 0 0 0 0 0 
0 0 0 0 0 0 
0 0 0 0 0 0 
0 0 0 0 0 0 
0 0 0 0 0 0 
0 0 0 0 0 0 
0 0 0 0 0 0 
-0.04891853095579246 -0.2194433746222139 0.2351815254871954 -0.4879139501490171 -0.1103132337041221 -0.5892506582865903 
0 0 0 0 0 0 
0 0 0 0 0 0 
0 0 0 0 0 0 
0 0 0 0 0 0 
0 0 0 0 0 0 
0 0 0 0 0 0 
0 0 0 0 0 0 
0 0 0 0 0 0 
0 0 0 0 0 0 
0 0 0 0 0 0 
0 0 0 0 0 0 
0 0 0 0 0 0 
0 0 0 0 0 0 
0 0 0 0 0 0 
0 0 0 0 0 0 
0 0 0 0 0 0 
0 0 0 0 0 0 
0 0 0 0 0 0 
0 0 0 0 0 0 
0 0 0 0 0 0 
0 0 0 0 0 0 
0 0 0 0 0 0 
0 0 0 0 0 0 
0 0 0 0 0 0 
0 0 0 0 0 0 
0 0 0 0 0 0 
0 0 0 0 0 0 
0 0 0 0 0 0 
0 0 0 0 0 0 
0 0 0 0 0 0 
0 0 0 0 0 0 
0 0 0 0 0 0 
0 0 0 0 0 0 
0 0 0 0 0 0 
0 0 0 0 0 0 
0 0 0 0 0 0 
0 0 0 0 0 0 
0 0 0 0 0 0 
0 0 0 0 0 0 
0 0 0 0 0 0 
0 0 0 0 0 0 
0 0 0 0 0 0 
0 0 0 0 0 0 
0 0 0 0 0 0 
0 0 0 0 0 0 
0 0 0 0 0 0 
0 0 0 0 0 0 
0 0 0 0 0 0 
0 0 0 0 0 0 
0 0 0 0 0 0 
0 0 0 0 0 0 
0 0 0 0 0 0 
-0.2397016828144227 -0.02330248667423558 -0.1938257167774423 -0.03042765262093683 -0.03303412313444192 0.3872195589151032 
0 0 0 0 0 0 
0 0 0 0 0 0 
0 0 0 0 0 0 
0 0 0 0 0 0 
0 0 0 0 0 0 
0 0 0 0 0 0 
0 0 0 0 0 0 
0 0 0 0 0 0 
0 0 0 0 0 0 
0 0 0 0 0 0 
0 0 0 0 0 0 
0 0 0 0 0 0 
0 0 0 0 0 0 
0 0 0 0 0 0 
0 0 0 0 0 0 
0 0 0 0 0 0 
0 0 0 0 0 0 
0 0 0 0 0 0 
0 0 0 0 0 0 
0 0 0 0 0 0 
0 0 0 0 0 0 
0 0 0 0 0 0 
0 0 0 0 0 0 
0 0 0 0 0 0 
0 0 0 0 0 0 
0 0 0 0 0 0 
0 0 0 0 0 0 
0 0 0 0 0 0 
-0.4232552431116745 -0.05479053278269302 -0.1370180753558973 -0.05854063657810429 -0.05534939717114890 0.4430898908880560 
0 0 0 0 0 0 
0 0 0 0 0 0 
0 0 0 0 0 0 
0 0 0 0 0 0 
0 0 0 0 0 0 
0 0 0 0 0 0 
-0.2375824346100020 -0.1275208615029611 -0.1581627716156952 -0.08408767434157474 -0.06101676366674038 0.2780502449368002 
0 0 0 0 0 0 
0 0 0 0 0 0 
0 0 0 0 0 0 
0 0 0 0 0 0 
0 0 0 0 0 0 
0 0 0 0 0 0 
0 0 0 0 0 0 
0 0 0 0 0 0 
0 0 0 0 0 0 
0 0 0 0 0 0 
0 0 0 0 0 0 
0 0 0 0 0 0 
0 0 0 0 0 0 
0 0 0 0 0 0 
0 0 0 0 0 0 
0 0 0 0 0 0 
0 0 0 0 0 0 
0 0 0 0 0 0 
0 0 0 0 0 0 
0 0 0 0 0 0 
0 0 0 0 0 0 
0 0 0 0 0 0 
0 0 0 0 0 0 
0 0 0 0 0 0 
0 0 0 0 0 0 
0 0 0 0 0 0 
0 0 0 0 0 0 
0 0 0 0 0 0 
0 0 0 0 0 0 
0 0 0 0 0 0 
0 0 0 0 0 0 
0 0 0 0 0 0 
0 0 0 0 0 0 
0 0 0 0 0 0 
0 0 0 0 0 0 
0 0 0 0 0 0 
0 0 0 0 0 0 
0 0 0 0 0 0 
0 0 0 0 0 0 
0 0 0 0 0 0 
-0.3530871877332995 -0.08569192772735103 -0.2948088490283117 -0.09171977993778331 0.1577446705205328 0.4738442199426399 
0 0 0 0 0 0 
0 0 0 0 0 0 
0 0 0 0 0 0 
0 0 0 0 0 0 
0 0 0 0 0 0 
0 0 0 0 0 0 
0 0 0 0 0 0 
0 0 0 0 0 0 
0 0 0 0 0 0 
0 0 0 0 0 0 
0 0 0 0 0 0 
-0.1545350670557151 0.02467465662945358 -0.05591327330810005 0.07889378254882633 -0.01098412765742557 -0.005112048114650263 
0 0 0 0 0 0 
0 0 0 0 0 0 
0 0 0 0 0 0 
0 0 0 0 0 0 
0 0 0 0 0 0 
0 0 0 0 0 0 
-0.2873159763295599 -0.03064155629053754 -0.2851818553360860 -0.07530463237064272 0.2374009153376830 0.2653738755192023 
0 0 0 0 0 0 
0 0 0 0 0 0 
-0.3263457752409134 -0.2029258632408431 0.5596601361052880 -0.4609774326038121 -0.09893482781007759 -0.5269479173715365 
0 0 0 0 0 0 
0 0 0 0 0 0 
0 0 0 0 0 0 
0 0 0 0 0 0 
0 0 0 0 0 0 
0 0 0 0 0 0 
0 0 0 0 0 0 
0 0 0 0 0 0 
0 0 0 0 0 0 
0 0 0 0 0 0 
0 0 0 0 0 0 
0 0 0 0 0 0 
0 0 0 0 0 0 
0 0 0 0 0 0 
0 0 0 0 0 0 
0 0 0 0 0 0 
0 0 0 0 0 0 
0 0 0 0 0 0 
0 0 0 0 0 0 
0 0 0 0 0 0 
0 0 0 0 0 0 
0 0 0 0 0 0 
0 0 0 0 0 0 
0 0 0 0 0 0 
0 0 0 0 0 0 
0 0 0 0 0 0 
0 0 0 0 0 0 
0 0 0 0 0 0 
0 0 0 0 0 0 
0 0 0 0 0 0 
0 0 0 0 0 0 
-0.3263457752409134 -0.2029258632408431 0.5596601361052880 -0.4609774326038121 -0.09893482781007759 -0.5269479173715365 
0 0 0 0 0 0 
0 0 0 0 0 0 
0 0 0 0 0 0 
0 0 0 0 0 0 
0 0 0 0 0 0 
0 0 0 0 0 0 
0 0 0 0 0 0 
0 0 0 0 0 0 
0 0 0 0 0 0 
0 0 0 0 0 0 
0 0 0 0 0 0 
0 0 0 0 0 0 
0 0 0 0 0 0 
-0.1545350670557151 0.02467465662945358 -0.05591327330810005 0.07889378254882633 -0.01098412765742557 -0.005112048114650263 
0 0 0 0 0 0 
0 0 0 0 0 0 
0 0 0 0 0 0 
0 0 0 0 0 0 
0 0 0 0 0 0 
0 0 0 0 0 0 
0 0 0 0 0 0 
0 0 0 0 0 0 
0 0 0 0 0 0 
0 0 0 0 0 0 
0 0 0 0 0 0 
0 0 0 0 0 0 
0 0 0 0 0 0 
0 0 0 0 0 0 
0 0 0 0 0 0 
0 0 0 0 0 0 
0 0 0 0 0 0 
0 0 0 0 0 0 
0 0 0 0 0 0 
-0.2375824346100020 -0.1275208615029611 -0.1581627716156952 -0.08408767434157474 -0.06101676366674038 0.2780502449368002 
0 0 0 0 0 0 
0 0 0 0 0 0 
-0.7390904808713165 -0.5728603296379324 -0.3553569107118932 -0.5089434438004701 -0.1335592564213816 0.8943295033370141 
0 0 0 0 0 0 
0 0 0 0 0 0 
0 0 0 0 0 0 
0 0 0 0 0 0 
0 0 0 0 0 0 
0 0 0 0 0 0 
0 0 0 0 0 0 
0 0 0 0 0 0 
0 0 0 0 0 0 
0 0 0 0 0 0 
0 0 0 0 0 0 
0 0 0 0 0 0 
0 0 0 0 0 0 
0 0 0 0 0 0 
0 0 0 0 0 0 
0 0 0 0 0 0 
0 0 0 0 0 0 
0 0 0 0 0 0 
0 0 0 0 0 0 
0 0 0 0 0 0 
0 0 0 0 0 0 
0 0 0 0 0 0 
0 0 0 0 0 0 
0 0 0 0 0 0 
0 0 0 0 0 0 
0 0 0 0 0 0 
0 0 0 0 0 0 
-0.03920342481275436 -0.003979319827181821 -0.09678495058722701 -0.002850697796235554 0.09475802000290799 -0.1138365144328244 
0 0 0 0 0 0 
0 0 0 0 0 0 
0.1385599038045401 -0.2259416804002067 0.06369271432431516 -0.1190470824098605 0.1324237257237023 -0.8453783661624539 
0.1586335705123614 -0.3789430330421310 0.1675164830793349 0.09412072704213167 -0.07718272290024605 -0.7476415251719313 
-0.3325424509593065 -0.02563268697257158 -1.059860412550139 -0.3203813144086230 -0.2450150393952607 1.308740140125234 
0 0 0 0 0 0 
0.6595344341398579 -0.5299263339811855 -0.3987268756843737 -0.5122346273455397 -0.1117098468473975 0.9888846058062256 
0 0 0 0 0 0 
-0.5870046391502964 0.3391704904275567 -0.02262532748829976 -0.01682153037313851 -0.1063368958911354 -0.1967245452693270 
-0.5249021953378088 0.2109010881121473 0.2024790929831269 -0.02452310925327682 -0.008102334598401468 -0.1285734957976603 
0 0 0 0 0 0 
-0.06137328254199464 0.2988890548613116 -0.9100702492882019 0.7571440255225931 -0.07198981675671795 -0.06649529770148851 
0.2092449661408362 -0.02459924323161351 0.2330065704126132 -0.1885850150228936 -0.01099779941867578 -0.06989437907746500 
-0.1168150285635806 0.2203305984755226 -0.8378660286772587 0.3579425203846600 0.1208139221223110 -0.1159223876400979 
-0.02332423714087881 -0.3946181822171413 0.4679068407710165 -0.006660169278434636 -0.09688407881763546 -0.1689426049917488 
0 0 0 0 0 0 
0.4521510337923694 -0.003921912158983278 0.01258558765179061 -0.07960644328991300 -0.007945213529657005 -0.02747835315075395 
-0.3242812113663440 -0.02430320134873271 1.030107022933146 -0.2766866913875579 0.005872494190674519 -0.2890189549543494 
-0.02699241779657035 -0.1996686518894807 -0.3159985822793981 0.003999921041292967 -0.1634677724822356 0.3801461193717504 
0 0 0 0 0 0 
0 0 0 0 0 0 
-0.07635545012300532 -0.004238705894985653 0.7100936076706326 -0.5652469159879404 -0.005459804685622391 -0.02733675658978127 
0 0 0 0 0 0 
0 0 0 0 0 0 
0 0 0 0 0 0 
0.4532710156615065 -0.07314111445951393 -0.2869947501481826 -1.041517971650658 -0.6771513054387066 0.2628773829444653 
-0.03395644952197048 -0.4330904577300137 -0.2354714623382070 0.2951184966748505 -0.7651931816425204 -0.01979991254924495 
0 0 0 0 0 0 
0 0 0 0 0 0 
-0.2637280231750450 -0.2397427816589963 -0.4846911429092551 -0.06665019236753060 0.8033392174571383 -0.2377904926247468 
0 0 0 0 0 0 
0 0 0 0 0 0 
0 0 0 0 0 0 
0 0 0 0 0 0 
0 0 0 0 0 0 
-0.0004068066332894830 0.007784994068669615 -0.05693679856243800 -0.02289738708683776 -0.003495179578536030 -0.001681869165667147 
0 0 0 0 0 0 
0 0 0 0 0 0 
0 0 0 0 0 0 
-0.5998829551525262 -0.003362826731275681 0.4272423455876327 -0.07386853929780787 -0.002921661707253335 -0.008150760707755457 
-0.01076378576848489 -0.0009502127493668781 -0.02090774777123407 0.01322988896148251 -0.0005590723764188002 -0.001090149100907801 
0 0 0 0 0 0 
0 0 0 0 0 0 
0 0 0 0 0 0 
0 0 0 0 0 0 
0 0 0 0 0 0 
0 0 0 0 0 0 
0 0 0 0 0 0 
