solver_type L2R_LR
nr_class 3
label 1 2 3
nr_feature 2097
bias 0.000000000000000
w
0.2169563070830690 0.3323732022646914 -0.9480066849532448 
-0.2718997463021048 0.3401334040319405 -0.2496780250340722 
-0.08927138532058944 0.2592623852393310 -0.3192445786598843 
0.2952132803138812 -0.2819318263394940 0.1131055096735114 
0.08275559961209822 -0.1013336886196143 0.1027114292949706 
0.1225650008853144 -0.001365681174232552 -0.1928295975256717 
-0.2487468611895616 -0.2571771867641609 0.2489025585198454 
-0.2186906698048794 0.6371620587741522 -0.4067995519067667 
-0.4796597284247864 -0.1245589910121810 0.6815907576367536 
0.08272884433319076 0.1263068695312026 -0.2913767261887024 
0.3271218296553548 -0.5109289399832084 0.2218597156087245 
-0.8707062277934478 0.3853470326750555 -0.5127432187299557 
-0.4068743686374617 0.7835273867741547 -0.3210283372313810 
-0.006438920299249648 0.07676051099015067 -0.3252718511987981 
-0.6399973520324413 0.4765879235092987 0.3827241111144365 
-0.2236984840643298 -0.1430227172499992 0.3524854464152372 
0.6667569278695388 -0.4571180438815756 -0.1490509490129974 
0.3833208658403539 -0.3370971770037232 -0.2543237019262263 
-0.5178532290431213 1.110712242545602 -0.8968837527273399 
-0.4519232612897218 0.7266626310674391 -0.09965761459299789 
0.4959477978096696 -0.3716137685555711 -0.1566944584797516 
0.5060189835737002 -0.5431236215837114 0.1377889847385549 
0.2506943302898216 -0.2832493738959361 0.1222704924266028 
0.3031391349884245 -0.3476292749886203 0.1685014040447668 
0.2246578206271647 0.03967215257216977 -0.3093724831138535 
-0.004040509446906288 -0.7136406114200717 0.4832921081755620 
0.1864125311968010 -0.8520057402469171 0.7282193712236986 
-0.02973902382913186 -0.2242407873993850 0.3043112245809995 
0.09220048414225479 -0.2467353758873991 0.1982944285404605 
0.05353753008115247 0.1913182353388472 -0.3478540555488158 
-0.1463895317727869 -0.02197184084752499 0.1987247470229738 
0.1851431355905356 0.05797268252653975 -0.3135216295958272 
-0.2402976889932887 0.9786602115071337 -0.6847957960755906 
-0.1166266524794437 0.6113857827462497 -0.6492571692912330 
0.2179616121380783 -0.5467471026803050 0.2997709033294192 
0.3637720369370128 -0.2594399932583961 -0.1862699414303195 
0.06593599730303076 0.1864928009621484 -0.4805265241840570 
-0.2289548313678170 0.4888600382463296 -0.3527954204042436 
-0.01379162520803000 0.08298160267860800 -0.1953142106583250 
-0.3609216277324302 -0.09686087600539621 0.3573002661836274 
-0.1027916130732281 0.4122672124502219 -0.4517865955861475 
-0.004360486992952356 -0.01357359955954701 0.09038984462377823 
0.3777139703108723 -0.3447051994266625 0.1022358252784407 
0.1734653000976497 -0.02791365734497677 -0.2366520240864533 
-0.1082174517006515 0.2612556692802789 -0.1815890002469056 
0.05632015387246196 -0.3184086745575028 0.5141726425048764 
0.8118935583989005 -0.8424961179940629 -0.1278122483372694 
-0.1671102859328620 -0.6061185947632206 0.7329952169449441 
-0.2982922065444438 -0.1090603299390318 0.3146677194592985 
-0.05765832046641321 0.4257284902503795 -0.3056923509332284 
0.04465738568304902 0.2693241946302141 -0.3049994594768362 
0.3355698209380930 -0.04831549800419739 -0.2672007906419694 
0.3072635449231837 -0.3078862686039557 -0.1424423336122299 
0.7808274722722537 -0.6455607694884460 -0.1096837717278484 
-0.3246505534305664 0.3030995363676774 -0.1245217457085261 
0.1714731407195833 0.1470307638469039 -0.4510244379787925 
0.2747566320031436 -0.2466501937737887 -0.06027917959367404 
0.08700708936939332 -0.3937654679669977 0.3007723465596785 
0.01742514028055791 0.1681161344570954 -0.3376170820740513 
0.2735537627793326 -0.2859836065834916 -0.06703980038880080 
-0.2534030852810291 -0.2275747185083591 0.2698724305814832 
-0.1389893241406917 0.2513915074026675 -0.1173531011348758 
-0.04231596965141043 0.3584222215444963 -0.1615824803066401 
0.02807102172733231 0.1866803825976902 -0.3754642952238503 
0.1396777123726384 -0.2605727386740135 -0.1073502778191716 
-0.2408048996541097 0.4150425116906647 -0.2136494442057981 
0.1705647214830650 -0.3755902315045367 -0.01892509841696136 
0.2371222928451854 -0.2878645356509567 -0.03143035965355887 
0.1191061495832180 -0.1328208636925592 -0.07200093735981808 
-0.3892216411187328 0.4562617831026603 -0.06790558888308935 
-0.01994182302167435 0.1614051271060252 -0.1211267331315624 
-0.4122554468143069 0.6657326174102818 -0.2516555793037480 
-0.09445104410429275 0.2618196267896524 -0.2114719854987975 
0.05558344686023928 0.1695652703094950 -0.2772606049298559 
-0.06043855768158318 -0.5571421180561820 0.4740216890100744 
-0.01768687928497561 0.1447118316467662 -0.08615776616855887 
-0.05069372519476330 0.09179211400188092 0.1111472411559726 
0.2995241691490935 -0.03449033479535808 -0.2068838142841595 
-0.1996310166563577 0.3701489006776630 -0.2473956840062849 
0.2295223762451289 -0.3225266423290743 -0.03691210583884973 
0.05924150729004590 -0.01896316048917889 -0.1700872803997801 
-0.09753079143286057 0.3580575097495612 -0.3972196303516410 
-0.1923846360037469 -0.2791108332574105 0.5773026234947234 
-0.2456182941426689 0.4984550401613127 -0.1269783625310533 
-1.180260525498931 0.7581133556737525 0.01722694277947344 
0.2031584536927979 -0.2569300894704281 -0.03897153416312819 
0.02004927221713299 0.3666800461044006 -0.2259233964630430 
-0.01401805189915820 0.003202732206494980 0.04094552589291670 
0.08542635569185739 0.03204169107343413 -0.09670350079692320 
-0.05386993447476413 0.1323693188016826 -0.09702995153454550 
0.1718535681290843 -0.04268044928187838 -0.2379670438974186 
-0.1387146651993079 -0.07231325779648684 0.1371548139998932 
-0.2745494244356184 0.3048206912115448 -0.07579877986470245 
-0.5156931684819726 0.5247185628004756 -0.1075779439261421 
0.07698859836209868 0.07049487493162407 -0.1585731463596167 
0.1014558810011946 0.09548598852546340 -0.1681135375144673 
-0.3601657457170927 0.5496298910058453 -0.09579032741461035 
0.2552260119101806 -0.2639919577240280 -0.04941415390906200 
-0.4192055581744826 0.5850946194692447 -0.1925951166205911 
-0.2241788827113298 0.4866796983045070 -0.1799256542900404 
-0.2973718137529349 -0.002451493582627358 0.5645943102685598 
0.1853612070280160 -0.1820610862249441 -0.1621819398534319 
0.1278188653949648 -0.1552528736041790 -0.04535557489253257 
0.007880682127833591 0.1667931813204308 -0.09463524201670527 
-0.05649530912560517 0.09022000317235432 -0.1016022305784294 
-0.07876566911906502 0.4120045587585586 -0.3111865954759819 
0.06755982613143824 -0.001309861636916621 -0.02536154206973455 
0.1671750914571436 -0.3423026314665392 -0.03766148647941799 
-0.01964642254410799 0.1716434853212448 -0.1184630927234321 
0.07565205567715160 0.1550522239651029 -0.1938596702809676 
-0.1291399460959440 0.1804737829011443 -0.1899805678009336 
0.2436675855603822 -0.1684021494753614 -0.1088200974876619 
0.1402395065280978 -0.1350118546453532 -0.02424485154983054 
-0.06075971136851002 -0.01829171818564026 0.009226951074801890 
-0.04231596965141043 0.3584222215444963 -0.1615824803066401 
-0.2092608893906210 0.2942176363323787 -0.04271335195188013 
0.002556814568572736 -0.02440486242417947 -0.05364479139021006 
-0.01977781222103867 -0.02988868020730152 -0.05122423643240566 
0.1937042213776017 -0.1736078261212874 -0.1235831477038105 
-0.1336884581638797 0.4025271994750675 -0.2617011325895444 
-0.07696269558579803 -0.08414925843865823 0.2279645981962246 
0.08409496202373330 -0.1249501609556585 -0.05106566295189263 
0.1682264836078602 -0.6070419592029043 0.5757377187724109 
0.05327735262755846 -0.09160840355932523 -0.04190984437058953 
0.03576820617613064 0.1194635634919157 -0.1300260285948260 
-0.5842771243050253 0.3028440473782357 0.05005287082191456 
-0.4762317706693282 -0.02116653491319543 0.3727280852364720 
-0.1224988480531820 -0.2226249686824161 0.3077604606161213 
0.1371408626639594 0.07706500726077335 -0.3363412564080457 
-0.1675164346393727 0.06921592824576474 0.2586224298315313 
-0.2744810083136807 0.03639368566984352 0.3441286741964877 
0.1251625619357239 -0.3424512005949039 0.2654954159411299 
0.5341289284359432 -0.1059709347734111 -0.3710261904813490 
-0.05399300285240849 0.4962160110499923 -0.5855989034066840 
0.05273749791533195 1.017528781141044 -1.694373284569506 
-0.03526105578679325 -0.2648922542420074 0.3740355599094445 
-1.489503289064367 2.074997530015767 -1.198935400685204 
1.018035410918218 -1.142159884355387 -0.1669462059843627 
1.529992179269299 -1.309148355731092 -0.4985905194374335 
-0.1040350761262048 -0.3809848695142407 0.4497984381063655 
-0.2737849432302353 0.1931678965324982 -0.06182941038788468 
-0.04308372274798915 -0.02939409604816512 -0.03634627520575658 
0.06814282939848666 0.5513275426011160 -0.6121270115516441 
0.4322156366081833 -0.3950697060415868 -0.03742737466195920 
0.04887527942708383 0.2922505688849889 -0.3865226004367316 
-0.06164063979310430 0.01736903701897839 0.08376393815614594 
-0.5408357495657421 0.5007282656143030 0.08231269987605980 
-0.004227067290721458 0.4851928424628836 -0.6404354236287864 
0.03787918552000312 -0.003387325800169946 -0.1067432217014434 
0.1247011984360469 -0.2778950605159326 0.09782344132851703 
-0.1440937959800251 0.09102070933524327 0.002480916306501723 
0.5637052454852150 -0.4475064241345356 -0.1844268684949656 
0.02881814715775434 -0.08955525659617213 0.1932209996457589 
0.4219607268434132 -0.6090668440324533 -0.01104599804641955 
0.4973787611479978 -0.3598344015148561 -0.01822797164528181 
-0.1393338244480875 -0.03783529760718785 0.07022660905024668 
0.008748146397787210 0.08375959372883635 -0.1572807248882609 
-0.03754011353244276 0.1970200167664671 -0.2460279269274617 
-0.4277488679496533 0.04089964966091524 0.4763797435687194 
0.4992350706032721 -0.4148890090166298 -0.1786542136763753 
-0.03651360196342711 -0.4353032524144499 0.4267023993526953 
0.3006127062745265 0.1556143180803938 -0.5433452549343064 
-0.4552087511411395 0.4444199673080433 -0.07578042271822082 
0.06851040053081618 0.1145007155183938 -0.2017856734087758 
-0.04602204202465396 0.3791683221157968 -0.3922492520689734 
0.2246760947984197 0.05644113601938509 -0.2198757807553341 
-0.08093597248588225 -0.5217853356301052 0.4919328028271290 
-0.003327739493426594 -0.1431122775289836 0.2299653710945137 
-0.2949937892460846 0.1987540846530526 -0.07595049954854250 
-0.06912922226121472 0.2812605734473977 -0.2641572590938324 
-0.4643264692829682 0.07964538743624669 0.3050250039807516 
-0.3050111471268145 0.1851640819527100 0.5166788776104292 
0.09229624951233738 -0.2749238184014394 0.2006099878477551 
-0.1832372974612793 0.4573229842547228 -0.4922510826172455 
0.06936154000428944 0.2085300715189843 -0.1582201103055901 
-0.6455780926705457 0.4460526855039862 0.1862627076474370 
0.06753298975381856 0.3122708397405266 -0.3993482088065774 
-0.3310302381412704 0.4086911863652649 -0.09752733847286857 
-0.4199254966885404 0.4609505257750395 -0.2381906838254990 
-0.3173919000790742 -0.1957322752679941 0.3382978578685512 
-0.04566786838971806 0.4329204993639175 -0.4080380969529712 
0.04476645363576043 0.02941563682002096 -0.05100165384724816 
0.2590851368963141 -0.2988137668550470 -0.03184498448573071 
-0.06821292477105771 -0.6367214463633077 0.5094518576344363 
-0.1782772799363212 0.5645027698791991 -0.3410703204407380 
-0.09235010532327423 -0.4590130815140266 0.6856205945327221 
0.3411142906727874 -0.6978449071711097 0.3208178716417445 
0.09687200877314912 -0.05011123081607598 -0.09128528601541580 
-0.07116389503951427 -0.3214859979812735 0.3430735021366541 
0.004730402071568995 0.1712941318924832 -0.2747463601418795 
0.2039000824085566 0.07804974653301854 -0.2990676145158235 
-0.4412456965506346 0.8575848212458407 -0.4425590295141968 
-0.06685822576274303 0.2186866190697172 -0.1683737406603994 
-0.09193403586818352 0.1438005440533600 -0.1471949417616004 
-0.06880837266574288 -0.4138414049980235 0.5044632310200364 
0.2541644067445573 -0.1030125553247338 -0.2825306285940657 
0.1780917141820397 -0.2092234576608813 -0.07541968210266718 
0.3067119266095070 0.03341121681146060 -0.1762474520256113 
-0.3374740694032898 0.3939226011418831 -0.04700600754161285 
0.06321002063853437 -0.07073416426804187 0.01347831243830673 
-0.5318302243657150 0.7669924371386094 -0.1175120026065884 
0.4282498609551382 -0.4408130310405430 -0.05935445942025694 
0.1573776246683878 0.1786413016376159 -0.3503902863207932 
-0.2748598371993680 -0.01781126898376070 0.4376318298764760 
-0.04998327076954297 0.2288518266703995 -0.1551087045974254 
0.05463920950665263 -0.01678139114305247 -0.04094919713191943 
-0.04506792488325054 -0.02071408514477202 0.02502779133765262 
0.1164526299961224 0.01162391223131348 -0.1028806423848306 
-0.1105700998956786 0.1764854005267846 -0.05071583749518970 
0.02261223899451032 0.3240387347596274 -0.1224814244844671 
0.3771654655471431 -0.2801522471392857 -0.1188377294129032 
-0.1024767291546407 -0.7180114461130939 0.8869196860959606 
-0.05205789324740708 -0.6805989472983363 0.6645076010582711 
-0.1710323744393716 0.2898074185086192 -0.05266190546680046 
0.2124077717931661 -0.2425818307913458 -0.06371806237284600 
-0.2454870688563188 0.5292014452906106 -0.2073480257388844 
-0.1343965618375018 0.2276818174881905 -0.07688379640536244 
-0.02116421473234687 -0.2129751549868255 0.3618153552990482 
-0.2386698738163368 0.4982304973553669 -0.1428958333350419 
-0.2111739426160044 0.4538815838822610 -0.2609148013631473 
-0.02968049179727910 0.1052398142727415 -0.09222763712068763 
-0.007247042348552447 0.008908441286128582 -0.1864090113249614 
-0.08903701063704542 -0.07293474681371813 -0.01754246313447863 
-0.01312638764488938 -0.2903599290541019 0.1886152935833124 
-0.04033697581027430 0.3151618365631289 -0.2062511034106176 
-0.03943940211089504 0.3455449962632584 -0.2743940567552730 
-0.1863652278425500 0.3400632528801713 -0.05981592098124971 
-0.09757111242513776 0.3615044571923960 -0.3165963721449426 
0.2023746412396053 -0.8350576357515983 0.5921319380349271 
-0.1246460790660965 0.1218451437894219 -0.05046731330131449 
-0.08702504592093734 -0.1421834466263388 0.2232769715343473 
-0.1433098732346880 0.06844631898337566 -0.07176777490657169 
0.2456392358773425 -0.05226704571457366 -0.1394555965778766 
0.07443736499606876 -0.1028592135243523 -0.02711622841164493 
-0.5640176699513691 0.8964434002820779 -0.4751677440476768 
-0.3130327147183389 -0.3584000376668157 0.7575055352714823 
0.06712778989361097 0.03244573698326907 -0.09094724251079280 
0.2150349164505093 -0.3534594925322547 0.1519056214167092 
0.1069210899051986 -0.1267583305479124 -0.1175469117663496 
-0.01850792068599676 0.09887619345541883 -0.06716604851168237 
-0.06247022301554372 0.1765126897586126 -0.08742543076628566 
-0.1837176229191745 0.1930954655817662 -0.06400474809759814 
-0.7771262481562751 1.205754889403286 -0.3782051496692608 
0.1158841414642273 0.01360097913594854 -0.1015536052911101 
0.02837566289974356 0.09885549580811655 -0.08904731611538830 
-0.04952419726953324 0.2896428392086450 -0.2400304335057655 
-0.03324830421742427 -0.2214964873896922 0.2976164366306874 
0.05072449447693171 0.3003693138642942 -0.2367668021360399 
-0.1622353600276634 0.09546370153083622 -0.04306231925381455 
-0.05193885564074237 0.1010461471117851 -0.05847819413136180 
0.001032660231460458 0.07081300371262574 -0.2188622754132679 
-0.3431181159564894 0.6852761538535609 -0.8476507947762537 
0.06779900208528224 -0.02533009785582456 -0.08055821211950595 
0.4986711449705140 -0.1593596040791503 -0.3373057928963517 
-0.1438234559313632 -0.05484120557821115 0.2009848832227879 
0.2752691107098881 0.005971500433884259 -0.1966094194715714 
-0.2146636639680841 0.5582406971282338 -0.4717335632052350 
-0.7002020837942129 0.3699179086155766 0.1152737449698186 
-0.1684145247089218 -0.7378633795976405 0.8957258873332030 
-0.1388709293131489 0.08386443694071466 -0.8257764435972810 
0.4323081947468755 -0.1447991057452425 -0.8001248046791560 
0.1341703531765118 0.1830729477837137 -0.3903540416974813 
0.6695524987307350 0.09632399799042886 -0.9098103203573747 
0.5815842628383093 -0.6025327082840999 -0.2264766544630633 
0.04019724767523853 0.02747721427041270 0.1027873573927233 
-0.008379744448779959 -0.04568707342848889 0.09068495321155602 
0.2465091584997109 -0.8665192176042221 0.5480685702973499 
0.7196888178821234 -0.4815958480723167 -0.4214324244605320 
0.5683613926222307 -0.4513067902673477 -0.3384248507236718 
-0.3933651771884072 -0.1153532088054767 0.4361796931948644 
-0.3112060500267145 0.5686521610645803 -0.5771321552797208 
0.6372721061660009 -0.6471752525327242 -0.1521516925055804 
0.02634268167863727 0.02431859360861859 -0.1066882624418806 
-0.05871551059315611 -0.2213012418088020 0.2367247149725475 
0.03440277878857607 -0.01396479828928629 0.1246928290293604 
0.2642272493950452 -0.3590418502806303 0.03180159880592950 
-0.04372319445079418 -0.2210836389457564 0.09280510669146312 
-0.5126978427789386 -0.02658798806951636 0.5669236279238028 
0.3753705946709427 0.1251071291727264 -0.3797316659761984 
-0.01396710292903519 0.2133370045238076 -0.01552440060661723 
-0.03754011353244276 0.1970200167664671 -0.2460279269274617 
0.3646879475698213 -0.1282480048357062 -0.2597847032930600 
0.08851458035007509 -0.4297813159073515 0.4192756556274680 
0.2728100585010005 -0.3938851533250714 0.1217410050697110 
-0.08996192648990657 -0.6878954744733056 0.7827729943205759 
-0.06414013215236315 0.6925276158019258 -0.7117164253474503 
-0.08214795985264706 0.2621433116460881 0.004090823564195966 
0.3028017459158670 0.07348134935053918 -0.3483925584870992 
-0.07254420186692649 0.4515587831504756 -0.4560209265082602 
0.2074047231766752 0.05922487639057399 -0.1781170371200758 
0.2517246522836984 -0.1154305943122214 -0.1452770193327404 
-0.2509905706896509 0.1730844784500489 0.08133278393142152 
0.3119817903699352 -0.2405549230459006 -0.01095943631426447 
-0.1481106307180575 -0.9435832278006738 1.048144935842809 
0.3425860384663732 -0.3919655110900016 -0.05065588190178065 
0.05502189223305939 0.05287181223434290 -0.07392940184410117 
-0.1247259810713142 0.1528870009362929 -0.1085347707262201 
-0.09446430487371348 -0.1964309903685841 0.6244941881184138 
0.09445322693782550 -0.1608723121267478 0.04968571894033606 
0.07863585195132136 0.1401423990537591 -0.2899648068090285 
0.2015552167510682 -0.2464971394996761 -0.08316364192524575 
0.03411150143565161 -0.6640696626678898 0.6256509816078160 
-0.04230636528524207 -0.3209941909654663 0.2897979126512449 
0.2187916475794795 0.1333440707191127 -0.4175355645389370 
-0.7518220207483397 0.5811174910570821 -0.08916487336274866 
-0.3641882250393868 -0.2925511227925595 0.3940811204560076 
0.1364711264327685 -0.2077120362837667 0.06393105779019076 
-0.04540727876189183 0.3823671258918176 -0.3445491255085568 
0.2662477836005245 -0.8115506556936638 0.3292508749188527 
0.4682838232412077 -0.2638302367592275 -0.1015363671702393 
0.2746636059492108 -0.3537643298710493 -0.07459752955170668 
0.1294680567874296 0.1061762345977520 -0.2964506927041819 
0.08457360133837104 -0.03896379059324492 -0.2104068496968859 
0.5221407127641201 -0.5460302383201814 -0.08022303769577672 
0.2033657130860677 -0.03632816284565644 -0.2403173579764465 
-0.04437125670635272 0.2323216384581933 -0.3352599488810968 
-0.07056508348272318 0.2254101254019233 -0.1748429551682629 
0.2590378890301837 -0.3431426200147708 -0.02483061677279461 
0.07527035357570538 -0.02026639680136558 -0.09596012869119347 
-0.09122916382148263 -0.0006218074922458540 0.3669219453444574 
0.1291179262330524 0.09778864547520001 -0.2960002707667906 
0.2702277812005602 -0.2641193912014244 -0.1506110303358250 
0.03522503612781192 -0.5678948381172688 0.5444597537931583 
0.02182259987647015 0.2428866993465977 -0.1006800629671413 
0.3845246971743345 -0.3003319629090146 -0.1214506209955954 
-0.03916825232231445 0.2369767860133760 -0.3579706116464828 
-0.2083251536226621 0.3045971011212487 -0.1703426314083879 
-0.1024197752235057 0.2134956435028977 -0.09575288746036746 
-0.06621881045676756 -0.03704411044198602 0.1350972062248300 
-0.2240696963867801 0.4185469030194410 -0.2012067198852064 
0.4950620257081524 -0.3617866134484258 -0.1515910671867069 
0.1619329618381541 0.03294458059273955 -0.1788192405122156 
0.4157973507207833 -0.5286868526937375 -0.05313598714319152 
0.2229485905517172 0.1133981642224785 -0.1713736419967775 
-0.07511923463433985 0.2130964017302239 -0.2393657351241852 
-1.756021551317343 1.392991984143233 -0.01535248248709674 
-0.6020166398683795 0.02725168151823276 0.8679043862379416 
-0.3965181511896202 0.7800203894962790 -0.5033434446520704 
-0.1070756140544935 0.2620265254139714 -0.1355331743565610 
-0.2777804570474168 0.7228901124781617 -0.2429661895173641 
-0.1710323744393716 0.2898074185086192 -0.05266190546680046 
-0.06513991945140224 0.3374161475738986 -0.2835386041633365 
0.2424311677152317 -0.1540369643064843 -0.1076322473422731 
0.07678274173805087 -0.1045498793825609 -0.03875935415226522 
0.2525603232585204 -0.1169001669375461 -0.1603139234040314 
0.3026742944050752 -0.1928210264442278 -0.1369026934183038 
0.3734897172772322 -0.3044552425772311 -0.09209012782999230 
0.3805875152141787 -0.2719076883768976 -0.1116102295975052 
-0.03420358975162745 0.1653169346226779 -0.1992534848167772 
-0.7771262481562751 1.205754889403286 -0.3782051496692608 
0.2206432359602192 -0.1771555943418379 -0.03149754182779003 
-0.2866706057404849 0.4866715031537031 -0.1819014674705360 
0.1712169793443366 -0.1294728354410422 -0.03794862413972112 
-0.07616463940939040 -0.4080630678798955 0.5610306890989055 
-0.02968049179727910 0.1052398142727415 -0.09222763712068763 
-0.05804501072902966 0.2008405060143706 -0.1184576947758852 
0.3105907532401896 -0.7352075672085503 0.5212619850148819 
-0.04542994769835930 0.2340706755079225 -0.1967276220533150 
0.1249909479505203 -0.1261704110190904 -0.02768163657741414 
0.08777487402022899 0.08131695624226902 -0.09180565049477671 
0.04367676441927815 -0.2676404180451826 0.1173924504315857 
0.2759176623125173 -0.1730896995336291 -0.09709339096422771 
-0.05680891630549990 -0.1818118018271644 0.2958682606719891 
-0.1246460790660965 0.1218451437894219 -0.05046731330131449 
0.1359631811512976 -0.1168552017394454 -0.02261219409589598 
0.1824275585118639 -0.02412921893011953 -0.1251953251555894 
-0.04920164170071446 -0.3247458983150666 0.3704775437079091 
0.05322174367842323 -0.1170768484134065 -0.04433034035008375 
0.3233243082862540 -0.3204709876577812 -0.03229220898330558 
0.07865481550964268 0.008194590442724735 -0.1257622437812821 
0.1547644659985093 -0.08709249073173612 -0.09448265255640512 
-0.05631020379535645 0.1387410636161018 -0.06550487559215203 
-0.05104856094415287 0.1843842234958679 -0.1550522388210384 
0.2382669741132340 -0.5273131776282953 0.3400706405381807 
-0.01483203311976830 -0.4920306680118208 0.3129566269240370 
0.2089972917184437 -0.2708543069833769 0.3223457493360876 
0.7050491836067252 -0.4809726362064635 0.09917432830158265 
-0.05782035711713459 -0.2060467850779321 0.5566139671364547 
0.05719696746649795 0.1578265399711786 -0.2187895548116460 
-0.2334335384820159 -0.2958810939557576 0.6023282043742004 
-0.3469009775978854 0.02839252405194561 -0.002456326111341547 
0.4659972893180014 -0.3202235677452583 -0.2918502945672263 
0.1981268718372741 -0.7862362805767634 0.4127242086707846 
-0.2137450168888855 0.6811312229332185 -0.6973462543719954 
-0.2500772207549953 1.483511275882901 -1.684871320766240 
-0.8170668493583889 0.5312272192652673 0.4046347234506569 
-1.204529684952551 2.002063073585705 -1.374578449695576 
0.2855508766356039 0.01149554860650016 -0.2243606986942412 
0.3490841961197558 -0.05861151027170188 -0.5435894396620674 
0.1678995236088374 -0.04946115664447726 -0.09358159201158346 
0.2407152344424012 -0.8249665232786967 0.4749993380363781 
-0.4939772390036317 0.7336122971711745 -0.2017714131074395 
0.06797969041161049 -0.1147430556473629 -0.1900165494880260 
0.3740857226916091 -0.3293071383463889 -0.2486904883736719 
-0.09961613675774633 -0.3058428545536716 0.5345941823245761 
0.2279602545947347 0.07989652573189422 -0.2454295381548861 
-0.02685614196292267 -0.04762299735963227 -0.01096656212775746 
-0.4610392440737615 1.040814783461402 -0.8830302878690784 
0.02896226772508007 -0.3233607958788914 0.2829760206078661 
0.3168940433459924 0.1140283274423566 -0.4457858780601738 
-0.09000233485563822 0.1128080287721331 -0.1598209504278830 
0.7784741500374965 -0.9223814648176776 -0.005372568231801838 
-0.2164634424145843 0.4219167820634491 -0.1897410595537254 
0.4215842713612159 -0.2575886737794271 0.009642717170145507 
0.04516304301727839 0.04643843296717331 0.01302222820276993 
0.2510328041547891 -0.5875510055550568 0.2730509365107459 
0.05353753008115247 0.1913182353388472 -0.3478540555488158 
0.05733428550958744 -0.3661844300391502 0.3412280928561248 
-0.01529701274284507 0.1400450195758379 -0.2677499802515993 
-0.2928831588868353 -0.3375315496387976 0.5515867164607752 
-0.9148679679641465 0.8965552972875362 -0.2426072570307823 
-0.2725273751475746 0.1594566598981784 0.1390064024272153 
-0.9402041095019928 0.8490359270993761 0.09604879598381506 
-0.4351522524791672 -0.03242429214496534 0.3777324040887002 
-0.2485335062577978 0.4720853696800298 -0.3902767785480071 
-0.7588056572983392 0.9585695282657896 -0.1633068037940823 
0.007861842719543108 0.5109062167669144 -0.5360127373318759 
-0.07545734339618668 0.04580211168131670 0.1362258385936249 
0.001702743561896387 0.3749212327707917 -0.3186539613247311 
0.05427654658749265 0.1468216809758108 -0.4039233032141335 
0.1487718174767927 -0.1603608135842486 -0.1500088873808832 
0.2338780906165522 -0.04591749712215758 -0.2799401519275597 
0.4926907326889425 -0.6128958651339383 -0.06173517574734245 
0.3671827244132115 -0.4192854247611727 -0.04728727329855606 
-0.4555205673386016 0.7427421501247858 -0.3641227748806249 
0.1971637409384437 -0.4283064756994737 -0.03201702802909585 
-0.04600501373296673 0.09728699752839473 0.003941061508469818 
-0.006052737156241068 -0.2622840373561401 0.2357507652527243 
0.2273708196443253 -0.9082138014836242 0.4382766596415173 
-0.2016501880782802 0.3053764201966785 -0.1149141841336021 
0.1003903904130429 0.07717051239107492 -0.3175619977504144 
-0.05389802118429506 -0.04842688678287166 0.1436354847262487 
-0.01842799667447951 0.1691815026143187 -0.1390223710812635 
0.2431642419018051 -0.2551079627813236 -0.06580197091573200 
-0.1993915341621617 0.5054623859474319 -0.3625415305749158 
-0.1007007200146079 -0.5388201290495870 0.6560049321040700 
0.6951212258819450 -0.5814209894973306 -0.09702486648860292 
0.1915501889231983 0.09137110844781654 -0.4297135298933612 
0.4203380699329958 -0.6308001888177276 0.2617612906351987 
-0.1928727133760418 -0.03186275602710983 0.2783183985196845 
-0.06752349362988741 -0.9043167234601893 0.7705540615229752 
0.2636640618326989 -0.4006775299095463 -0.07037856980055919 
0.2339146577475598 0.1114016754377945 -0.2094183814222481 
-0.3723264664462270 0.1688908721514260 -0.09574884006750843 
0.2325426462221240 -0.3349602022052354 -0.03763858032982360 
0.1233796167416270 0.1433845253133654 -0.4170631839070810 
0.5842932291992734 -0.3755364839361137 -0.1686110854365847 
0.03080245736471042 0.2539439055682146 -0.3160647194941014 
-0.3243110936900764 0.2331751405955271 -0.02369344394256776 
0.4524378673312441 -0.6093312708449121 -0.05693702723842073 
-0.1954359602108577 -0.1636186947454226 0.5573068912700168 
-0.7839494515492820 0.7870359313126609 -0.1634677030785809 
-0.1609562348214535 0.5629316916701014 -0.4161052381016074 
-0.1032776242151420 0.1670904224766154 -0.05627020018998646 
0.03274209634241091 0.4726416389463721 -0.5031351724527011 
0.2031584536927979 -0.2569300894704281 -0.03897153416312819 
-0.1432105505302055 0.07341180073736911 0.1385548721233997 
0.1863978715674515 -0.3144978081409389 -0.02946128666179146 
-0.06316590531179803 0.1255047659621422 -0.06474720714716022 
0.4379040279970032 -0.2018833165509771 -0.1379675079669913 
-0.01353900661531620 0.1162162720061514 -0.1551262082489111 
0.08542635569185739 0.03204169107343413 -0.09670350079692320 
0.02530348027086021 0.07583697195219109 -0.1695753045448435 
0.2583186481837301 -0.2763096068906538 -0.04876995546664555 
-0.05611258811741685 -0.01758733930657193 0.1302121225888167 
0.2431119539431973 -0.1454813674315357 -0.2519259500604043 
0.1903219643401363 0.08579336237878377 -0.2589637505884516 
-1.176507724429990 0.9341065888183298 -0.05514002432582279 
0.1173800674895481 -0.1963583038662184 -0.01259460470194662 
-0.1829009650259921 0.2873117042491395 -0.09281885099364375 
-0.5156931684819726 0.5247185628004756 -0.1075779439261421 
-0.3367561219554653 0.4804011435252622 -0.1656130699515478 
0.1878044536753067 -0.1715148673598097 -0.1243515361000494 
0.06597498845125407 -0.9298204906783090 0.6792882167639707 
-0.7354848297169441 1.127749554078264 -0.4862958808903356 
-0.09871818831614353 -0.5905388696378170 0.8838746902310911 
0.08814522030269628 -0.3429487903375320 0.1805653854871821 
0.1580427023360382 0.06798099350428700 -0.1300882871897431 
0.007913394581730975 0.08514225782827821 -0.1007781070351610 
-0.4522545957976752 0.6820591437169207 -0.1274313357177709 
0.1746493706198336 -0.2688086326239441 -0.02797707573610373 
0.1804981228687592 -0.1825314310169695 -0.07356526555102282 
0.1623472377481526 -0.1608733385905269 -0.03836021174997035 
-0.2340830741856401 0.4056176934656904 -0.08671077434277967 
0.002672748035141424 0.1060467838012095 -0.03464424901879761 
-0.1631171445914451 -0.3127280166817124 0.5481655432812622 
-0.02346958747924883 0.08955395322823408 0.05733872915176033 
0.02454708254740689 -0.2042133900071834 0.2345969594108736 
-0.3076702573427824 0.2272888256248706 0.2942250376259801 
-0.1291399460959440 0.1804737829011443 -0.1899805678009336 
0.2443620844139805 -0.004096005616685124 -0.1771650389483172 
0.02654838079008442 0.3093740616558151 -0.3928839430554382 
0.01370078923857509 0.1486212266993416 -0.1273118889506459 
0.02031218083748175 0.1873951877704109 -0.1653577741676988 
-0.2108543825359995 0.2678301031120576 -0.04961935927768087 
0.1940512672524871 -0.09836655315040850 -0.2084678669090494 
0.1402395065280978 -0.1350118546453532 -0.02424485154983054 
0.2122645446595692 -0.1776599109428530 -0.02505305011668912 
-0.04231596965141043 0.3584222215444963 -0.1615824803066401 
0.2269133199754489 -0.4085333212064997 -0.04821456767760007 
0 0 0 
0 0 0 
0 0 0 
0 0 0 
0 0 0 
0 0 0 
0 0 0 
0 0 0 
0 0 0 
0 0 0 
0 0 0 
0 0 0 
0 0 0 
0 0 0 
0 0 0 
0 0 0 
0 0 0 
0 0 0 
0 0 0 
0 0 0 
0 0 0 
0 0 0 
0 0 0 
-0.1334711835748401 0.8162836787148077 -0.7195082029155430 
0 0 0 
0 0 0 
0 0 0 
0 0 0 
0 0 0 
0 0 0 
0 0 0 
0 0 0 
0 0 0 
0 0 0 
0 0 0 
0 0 0 
0 0 0 
0 0 0 
0 0 0 
0 0 0 
0 0 0 
0 0 0 
0 0 0 
0 0 0 
0 0 0 
0 0 0 
0 0 0 
0 0 0 
0 0 0 
0 0 0 
0 0 0 
0 0 0 
0 0 0 
0 0 0 
-0.005254716897451604 -0.2229771030117291 0.09646439343821855 
0 0 0 
0 0 0 
0 0 0 
0 0 0 
0 0 0 
0 0 0 
0 0 0 
0 0 0 
0 0 0 
0 0 0 
0 0 0 
0 0 0 
0 0 0 
0 0 0 
0 0 0 
0 0 0 
0 0 0 
0 0 0 
0 0 0 
0 0 0 
0 0 0 
0 0 0 
0 0 0 
0 0 0 
0 0 0 
0 0 0 
0 0 0 
0 0 0 
0 0 0 
0 0 0 
0 0 0 
0 0 0 
0 0 0 
0 0 0 
0 0 0 
0 0 0 
0 0 0 
0 0 0 
0 0 0 
0 0 0 
-0.2264020716252180 -1.131791166267798 1.383416873198328 
0 0 0 
0 0 0 
0 0 0 
0 0 0 
0 0 0 
0 0 0 
0 0 0 
0 0 0 
0 0 0 
0 0 0 
0 0 0 
0 0 0 
0 0 0 
0 0 0 
0 0 0 
0 0 0 
0 0 0 
0 0 0 
0 0 0 
0 0 0 
0 0 0 
0 0 0 
0 0 0 
0 0 0 
0 0 0 
0 0 0 
0 0 0 
0 0 0 
0 0 0 
0 0 0 
0 0 0 
0 0 0 
0 0 0 
0 0 0 
0 0 0 
0 0 0 
0 0 0 
0 0 0 
0 0 0 
0 0 0 
0 0 0 
0 0 0 
0 0 0 
0 0 0 
0 0 0 
0 0 0 
0 0 0 
0 0 0 
0 0 0 
0 0 0 
0 0 0 
0 0 0 
0 0 0 
0 0 0 
0 0 0 
0 0 0 
0 0 0 
0 0 0 
0 0 0 
0 0 0 
0 0 0 
0 0 0 
0 0 0 
0 0 0 
0 0 0 
0 0 0 
0 0 0 
0 0 0 
0 0 0 
0 0 0 
0 0 0 
0 0 0 
0 0 0 
0 0 0 
0 0 0 
0 0 0 
0 0 0 
0 0 0 
0 0 0 
0 0 0 
0 0 0 
0 0 0 
0 0 0 
0 0 0 
0 0 0 
0 0 0 
0 0 0 
0 0 0 
0 0 0 
0 0 0 
0 0 0 
0 0 0 
0 0 0 
0 0 0 
0 0 0 
0 0 0 
0 0 0 
0 0 0 
0 0 0 
0 0 0 
0 0 0 
0 0 0 
0 0 0 
0 0 0 
0 0 0 
0 0 0 
0 0 0 
0 0 0 
0 0 0 
0 0 0 
0 0 0 
0 0 0 
0 0 0 
0 0 0 
0 0 0 
-0.005254716897451604 -0.2229771030117291 0.09646439343821855 
0 0 0 
0 0 0 
0 0 0 
0 0 0 
0 0 0 
0 0 0 
0 0 0 
0 0 0 
0 0 0 
0 0 0 
0 0 0 
0 0 0 
0 0 0 
0 0 0 
0 0 0 
0 0 0 
0 0 0 
-0.5813178398483052 -0.9669855516674507 1.251556628713701 
0 0 0 
0 0 0 
0 0 0 
0 0 0 
0 0 0 
0 0 0 
0 0 0 
0 0 0 
0 0 0 
0 0 0 
0 0 0 
0 0 0 
0 0 0 
0 0 0 
0 0 0 
0 0 0 
0 0 0 
0 0 0 
0 0 0 
0 0 0 
0 0 0 
0 0 0 
0 0 0 
0 0 0 
0 0 0 
0 0 0 
0 0 0 
0 0 0 
0 0 0 
0 0 0 
0 0 0 
0 0 0 
0 0 0 
0 0 0 
0 0 0 
0 0 0 
0 0 0 
0 0 0 
0 0 0 
0 0 0 
0 0 0 
0 0 0 
0 0 0 
0 0 0 
0 0 0 
0 0 0 
1.453984536931154 -1.346173340513031 -0.02997765800085058 
0 0 0 
0 0 0 
0 0 0 
0 0 0 
0 0 0 
0 0 0 
0 0 0 
0 0 0 
0 0 0 
0 0 0 
0 0 0 
0 0 0 
0 0 0 
0 0 0 
0 0 0 
0 0 0 
0 0 0 
0 0 0 
-0.004710263583482388 0.03180859974738191 -0.05298468658170150 
0 0 0 
0 0 0 
0 0 0 
0 0 0 
0 0 0 
0 0 0 
0 0 0 
0 0 0 
0 0 0 
0 0 0 
0 0 0 
0 0 0 
0 0 0 
0 0 0 
0 0 0 
0 0 0 
0 0 0 
0 0 0 
0 0 0 
0 0 0 
0 0 0 
0 0 0 
0 0 0 
0 0 0 
0 0 0 
0 0 0 
0 0 0 
0 0 0 
2.303117876441891 -1.632405673674609 -0.8602037402877164 
-0.009634687394850776 -0.3839102326125432 0.3011538814484730 
0 0 0 
0 0 0 
0 0 0 
0 0 0 
0 0 0 
0 0 0 
0 0 0 
0 0 0 
0 0 0 
0 0 0 
0 0 0 
0 0 0 
0 0 0 
0 0 0 
0 0 0 
0 0 0 
0 0 0 
0 0 0 
0 0 0 
0 0 0 
0 0 0 
0 0 0 
0 0 0 
0 0 0 
0 0 0 
0 0 0 
0 0 0 
0 0 0 
0 0 0 
0 0 0 
0 0 0 
0 0 0 
0 0 0 
0 0 0 
0 0 0 
0 0 0 
0 0 0 
0 0 0 
0 0 0 
0 0 0 
0 0 0 
0 0 0 
0 0 0 
0 0 0 
0 0 0 
0 0 0 
0 0 0 
0 0 0 
0 0 0 
0 0 0 
0 0 0 
0 0 0 
-0.5281633024616937 -0.8546873394130895 1.091274791776641 
0 0 0 
0 0 0 
0 0 0 
0 0 0 
0 0 0 
0 0 0 
0 0 0 
0 0 0 
0 0 0 
0 0 0 
0 0 0 
0 0 0 
-0.2440780654270514 0.1375942193321726 -0.6277890446742791 
0 0 0 
0 0 0 
0 0 0 
0 0 0 
0 0 0 
0 0 0 
0 0 0 
0 0 0 
0 0 0 
0 0 0 
0 0 0 
0 0 0 
0 0 0 
0 0 0 
0 0 0 
0 0 0 
0 0 0 
0 0 0 
0 0 0 
0 0 0 
0 0 0 
0 0 0 
0 0 0 
0 0 0 
0 0 0 
0 0 0 
0 0 0 
0 0 0 
0 0 0 
0 0 0 
0 0 0 
0 0 0 
0 0 0 
0 0 0 
0 0 0 
0 0 0 
0 0 0 
0 0 0 
0 0 0 
0 0 0 
0 0 0 
0 0 0 
0 0 0 
0 0 0 
0 0 0 
0 0 0 
0 0 0 
0 0 0 
0 0 0 
0 0 0 
0 0 0 
0 0 0 
0 0 0 
0 0 0 
0 0 0 
0 0 0 
0 0 0 
0 0 0 
0 0 0 
0 0 0 
0 0 0 
0 0 0 
0 0 0 
0 0 0 
0 0 0 
0 0 0 
0 0 0 
0 0 0 
0 0 0 
0 0 0 
0 0 0 
0 0 0 
-0.5871050450194990 0.4947717415279629 -0.5958155700349741 
0 0 0 
0 0 0 
0 0 0 
0 0 0 
0 0 0 
0 0 0 
0 0 0 
0 0 0 
-0.3313200344802599 0.0003944773310460159 0.2932572677323084 
-0.1019666860261972 -0.2324595959132488 0.5818917346597278 
0 0 0 
0 0 0 
0 0 0 
0 0 0 
-0.04953732475183406 0.2952102783063014 -0.2162359910580816 
0 0 0 
0 0 0 
0 0 0 
0 0 0 
0 0 0 
0 0 0 
0 0 0 
0 0 0 
0 0 0 
0 0 0 
0 0 0 
-0.2004908146233943 0.3975967726155624 -0.3281626221386827 
0 0 0 
0 0 0 
0 0 0 
0 0 0 
0 0 0 
0 0 0 
0 0 0 
0 0 0 
0 0 0 
0 0 0 
0 0 0 
0 0 0 
0 0 0 
0 0 0 
0 0 0 
0 0 0 
0.3430269795924535 -0.3571775221957887 -0.03197347463930752 
0 0 0 
0 0 0 
0 0 0 
0 0 0 
0 0 0 
0 0 0 
0 0 0 
0 0 0 
0 0 0 
0 0 0 
0 0 0 
0 0 0 
0 0 0 
0 0 0 
0 0 0 
0.7447317711193526 -0.8515012762167360 -0.01987808212844895 
0 0 0 
0 0 0 
0 0 0 
0 0 0 
0 0 0 
0 0 0 
0 0 0 
0 0 0 
0 0 0 
0 0 0 
0 0 0 
0 0 0 
0 0 0 
0 0 0 
0 0 0 
0 0 0 
0 0 0 
0 0 0 
0 0 0 
0 0 0 
0 0 0 
0 0 0 
0 0 0 
0 0 0 
0 0 0 
0 0 0 
0 0 0 
0 0 0 
0 0 0 
0 0 0 
0 0 0 
0 0 0 
0 0 0 
0 0 0 
0 0 0 
0 0 0 
0 0 0 
0 0 0 
0 0 0 
0 0 0 
0 0 0 
0 0 0 
0 0 0 
0 0 0 
0 0 0 
0 0 0 
0 0 0 
0 0 0 
0 0 0 
0 0 0 
0 0 0 
0 0 0 
-0.2102378484767461 -0.7831370278121721 0.9753980186949955 
0 0 0 
0 0 0 
0 0 0 
0 0 0 
0 0 0 
0 0 0 
0 0 0 
0 0 0 
0 0 0 
0 0 0 
0 0 0 
0 0 0 
0 0 0 
0 0 0 
0 0 0 
0 0 0 
0 0 0 
0 0 0 
0 0 0 
0 0 0 
0 0 0 
0 0 0 
0 0 0 
0 0 0 
0 0 0 
0 0 0 
0 0 0 
0 0 0 
3.896508663937819 -3.162096438434983 -1.456122503823306 
0 0 0 
0 0 0 
0 0 0 
0 0 0 
0 0 0 
0 0 0 
0 0 0 
0 0 0 
0 0 0 
0 0 0 
0 0 0 
0 0 0 
0 0 0 
0 0 0 
0 0 0 
0 0 0 
0 0 0 
0 0 0 
0 0 0 
0 0 0 
0 0 0 
0 0 0 
0 0 0 
0 0 0 
0 0 0 
0 0 0 
0 0 0 
0 0 0 
0 0 0 
0 0 0 
0 0 0 
0 0 0 
0 0 0 
0 0 0 
0 0 0 
0 0 0 
0 0 0 
0 0 0 
0 0 0 
0 0 0 
0 0 0 
0 0 0 
0 0 0 
0 0 0 
0 0 0 
0 0 0 
0 0 0 
-0.9604116712480150 0.5890324971060399 -0.2288276803853447 
0 0 0 
0 0 0 
0 0 0 
-0.005567669050680632 0.01405789840778610 -0.01895322239447375 
0 0 0 
0 0 0 
0 0 0 
0 0 0 
0 0 0 
0 0 0 
0 0 0 
0.3430269795924535 -0.3571775221957887 -0.03197347463930752 
0 0 0 
0 0 0 
0 0 0 
0 0 0 
0 0 0 
0 0 0 
-0.01780788422618591 -0.5751542491173219 0.6091020285281977 
0 0 0 
0 0 0 
0.7447317711193526 -0.8515012762167360 -0.01987808212844895 
0 0 0 
0 0 0 
0 0 0 
0 0 0 
0 0 0 
0 0 0 
0 0 0 
0 0 0 
0 0 0 
0 0 0 
0 0 0 
0 0 0 
0 0 0 
0 0 0 
0 0 0 
0 0 0 
0 0 0 
0 0 0 
0 0 0 
0 0 0 
0 0 0 
0 0 0 
0 0 0 
0 0 0 
0 0 0 
0 0 0 
0 0 0 
0 0 0 
0 0 0 
0 0 0 
0 0 0 
0.7447317711193526 -0.8515012762167360 -0.01987808212844895 
0 0 0 
0 0 0 
0 0 0 
0 0 0 
0 0 0 
0 0 0 
0 0 0 
0 0 0 
0 0 0 
0 0 0 
0 0 0 
0 0 0 
0 0 0 
0.3430269795924535 -0.3571775221957887 -0.03197347463930752 
0 0 0 
0 0 0 
0 0 0 
0 0 0 
0 0 0 
0 0 0 
0 0 0 
0 0 0 
0 0 0 
0 0 0 
0 0 0 
0 0 0 
0 0 0 
0 0 0 
0 0 0 
0 0 0 
0 0 0 
0 0 0 
0 0 0 
0 0 0 
0 0 0 
0 0 0 
-0.5871050450194990 0.4947717415279629 -0.5958155700349741 
0 0 0 
0 0 0 
0 0 0 
0 0 0 
0 0 0 
0 0 0 
0 0 0 
0 0 0 
0 0 0 
0 0 0 
0 0 0 
0 0 0 
0 0 0 
0 0 0 
0 0 0 
0 0 0 
0 0 0 
0 0 0 
0 0 0 
0 0 0 
0 0 0 
0 0 0 
0 0 0 
0 0 0 
0 0 0 
0 0 0 
0 0 0 
-0.05948701965723696 -0.8561317403928246 0.9429782832479013 
0 0 0 
0 0 0 
0 0 0 
0 0 0 
0 0 0 
0 0 0 
0 0 0 
0 0 0 
0 0 0 
0 0 0 
0 0 0 
0 0 0 
0 0 0 
0.02418633429618631 0.06110900460088669 -0.05160582880707364 
0 0 0 
0 0 0 
0 0 0 
0 0 0 
0 0 0 
0 0 0 
0 0 0 
0 0 0 
0 0 0 
0 0 0 
0 0 0 
-0.04799812623333322 0.6007851774643111 -0.6706064985954353 
0 0 0 
0 0 0 
0 0 0 
0 0 0 
0 0 0 
0 0 0 
0 0 0 
0 0 0 
0 0 0 
0 0 0 
0 0 0 
0 0 0 
0 0 0 
0 0 0 
0 0 0 
0 0 0 
0 0 0 
0 0 0 
0 0 0 
0 0 0 
0 0 0 
0 0 0 
0 0 0 
0 0 0 
0 0 0 
0 0 0 
0 0 0 
0 0 0 
0.03098126277947117 0.02237654630338878 -0.06338388125150372 
0 0 0 
-0.005109573175140663 -0.1852857440425881 0.05997153449362000 
0 0 0 
0 0 0 
0 0 0 
0 0 0 
0 0 0 
0 0 0 
0 0 0 
0 0 0 
-0.1031944177159320 0.05872525813300100 -0.004826648781233304 
0 0 0 
0 0 0 
0 0 0 
0 0 0 
0 0 0 
0 0 0 
0 0 0 
0 0 0 
0 0 0 
0 0 0 
0 0 0 
0 0 0 
0 0 0 
0 0 0 
0 0 0 
0 0 0 
0 0 0 
0 0 0 
0 0 0 
0 0 0 
0 0 0 
0 0 0 
0 0 0 
0 0 0 
0 0 0 
0 0 0 
0 0 0 
0 0 0 
0 0 0 
0 0 0 
0 0 0 
-0.2399266761393670 -0.8150281553916223 1.067813308902123 
0 0 0 
0 0 0 
0 0 0 
0 0 0 
0 0 0 
0 0 0 
0 0 0 
0 0 0 
0 0 0 
0 0 0 
0 0 0 
0 0 0 
0 0 0 
0 0 0 
0 0 0 
0 0 0 
0 0 0 
0 0 0 
0 0 0 
0 0 0 
0 0 0 
0 0 0 
0 0 0 
0 0 0 
0 0 0 
0 0 0 
0 0 0 
0 0 0 
0 0 0 
0 0 0 
0 0 0 
0 0 0 
0 0 0 
0 0 0 
0 0 0 
0 0 0 
0 0 0 
0 0 0 
0 0 0 
0 0 0 
0 0 0 
0 0 0 
0 0 0 
0 0 0 
0 0 0 
0 0 0 
0 0 0 
0 0 0 
0 0 0 
0 0 0 
0 0 0 
0 0 0 
0 0 0 
0 0 0 
0 0 0 
0 0 0 
0 0 0 
0 0 0 
0 0 0 
0 0 0 
0 0 0 
0 0 0 
0 0 0 
0 0 0 
0 0 0 
0 0 0 
0 0 0 
0 0 0 
0 0 0 
0 0 0 
0 0 0 
0 0 0 
0 0 0 
0 0 0 
0 0 0 
0 0 0 
0 0 0 
0 0 0 
0 0 0 
0 0 0 
0 0 0 
0 0 0 
0 0 0 
0 0 0 
0 0 0 
-0.06762448820189898 0.03847288177280242 -0.006318031553441737 
0 0 0 
0 0 0 
0 0 0 
0 0 0 
0 0 0 
0 0 0 
0 0 0 
0 0 0 
0 0 0 
0 0 0 
0 0 0 
0 0 0 
0 0 0 
0 0 0 
0 0 0 
0 0 0 
0 0 0 
-0.06762448820189898 0.03847288177280242 -0.006318031553441737 
0 0 0 
0 0 0 
0 0 0 
0 0 0 
0 0 0 
0 0 0 
0 0 0 
0 0 0 
0 0 0 
0 0 0 
0 0 0 
-0.005109573175140663 -0.1852857440425881 0.05997153449362000 
0 0 0 
0 0 0 
0 0 0 
0 0 0 
0 0 0 
0 0 0 
0 0 0 
0 0 0 
0 0 0 
0 0 0 
0 0 0 
0 0 0 
0 0 0 
0 0 0 
0 0 0 
0 0 0 
0 0 0 
-0.5734666096276997 -1.001311344301796 1.226882791606341 
0 0 0 
0 0 0 
0 0 0 
0 0 0 
0 0 0 
0 0 0 
0 0 0 
0 0 0 
0 0 0 
0 0 0 
0 0 0 
0 0 0 
0 0 0 
0 0 0 
0 0 0 
0 0 0 
0 0 0 
0 0 0 
0 0 0 
0 0 0 
0 0 0 
0 0 0 
0 0 0 
0 0 0 
0 0 0 
0 0 0 
0 0 0 
0 0 0 
0 0 0 
0 0 0 
0 0 0 
0 0 0 
0 0 0 
0 0 0 
0 0 0 
0 0 0 
0 0 0 
0 0 0 
0 0 0 
0 0 0 
0 0 0 
0 0 0 
0 0 0 
0 0 0 
0 0 0 
0 0 0 
0.3484259033985373 -0.5324779321926544 0.1230473701386210 
0 0 0 
0 0 0 
0 0 0 
0 0 0 
0 0 0 
0 0 0 
0 0 0 
0 0 0 
-0.01340157838602859 0.07537222440024587 -0.02963233010038974 
0 0 0 
0 0 0 
0 0 0 
0 0 0 
0 0 0 
0 0 0 
0 0 0 
0 0 0 
0 0 0 
0 0 0 
0 0 0 
0 0 0 
0 0 0 
0 0 0 
0 0 0 
0 0 0 
0 0 0 
0 0 0 
0 0 0 
0 0 0 
0 0 0 
0 0 0 
0 0 0 
0 0 0 
0 0 0 
0 0 0 
0 0 0 
0 0 0 
0 0 0 
0 0 0 
0 0 0 
0 0 0 
0 0 0 
0 0 0 
0 0 0 
0 0 0 
0 0 0 
0 0 0 
3.334740107701953 -2.424427779086711 -0.9080836030141575 
-0.01223093573378510 -0.2507458492324447 0.2917352792153548 
0 0 0 
0 0 0 
0 0 0 
0 0 0 
0 0 0 
0 0 0 
0 0 0 
0 0 0 
0 0 0 
0 0 0 
0 0 0 
0 0 0 
0 0 0 
0 0 0 
0 0 0 
0 0 0 
0 0 0 
0 0 0 
0 0 0 
0 0 0 
0 0 0 
0 0 0 
0 0 0 
0 0 0 
0 0 0 
0 0 0 
0 0 0 
0 0 0 
0 0 0 
0 0 0 
0 0 0 
0 0 0 
0 0 0 
0 0 0 
0 0 0 
0 0 0 
0 0 0 
0 0 0 
0 0 0 
0 0 0 
-0.1031944177159320 0.05872525813300100 -0.004826648781233304 
0 0 0 
0 0 0 
0 0 0 
0 0 0 
0 0 0 
0 0 0 
0 0 0 
0 0 0 
0 0 0 
0.09413300044367390 -0.04506967243008671 -0.04399449656081370 
0 0 0 
-0.7208642374272412 -0.1439346662406594 0.5849831411040455 
0 0 0 
0 0 0 
0 0 0 
0 0 0 
0 0 0 
0 0 0 
0 0 0 
-0.006895971801802773 0.2370281719056917 -0.2556181383635839 
0 0 0 
0 0 0 
0 0 0 
0 0 0 
-0.2440780654270514 0.1375942193321726 -0.6277890446742791 
0 0 0 
0 0 0 
0 0 0 
0 0 0 
0 0 0 
0 0 0 
0 0 0 
0 0 0 
0 0 0 
0 0 0 
0 0 0 
0 0 0 
0 0 0 
0 0 0 
0 0 0 
-0.4099538806846516 0.7057444937164246 -0.2974079924536621 
0 0 0 
0 0 0 
0 0 0 
0 0 0 
0 0 0 
0 0 0 
0 0 0 
0 0 0 
0 0 0 
0 0 0 
0 0 0 
0 0 0 
0 0 0 
0 0 0 
0 0 0 
0 0 0 
0 0 0 
0 0 0 
0.03098126277947117 0.02237654630338878 -0.06338388125150372 
0 0 0 
0 0 0 
-0.01340157838602859 0.07537222440024587 -0.02963233010038974 
0 0 0 
0 0 0 
0 0 0 
0 0 0 
0 0 0 
0 0 0 
0 0 0 
0 0 0 
0 0 0 
0 0 0 
0 0 0 
0 0 0 
0 0 0 
0 0 0 
0 0 0 
0 0 0 
0 0 0 
0 0 0 
0 0 0 
0 0 0 
0 0 0 
0 0 0 
0 0 0 
0 0 0 
0 0 0 
0 0 0 
0 0 0 
0 0 0 
0 0 0 
0 0 0 
0 0 0 
0 0 0 
-0.1031944177159320 0.05872525813300100 -0.004826648781233304 
0 0 0 
-0.8450398021505390 0.3574587048289013 0.1623548023702006 
0 0 0 
0 0 0 
0 0 0 
0 0 0 
0 0 0 
0 0 0 
0 0 0 
0 0 0 
-0.3425542163867686 0.3443809602751538 -0.2579735077680697 
-0.1381552397444989 -0.4540579561406710 0.7444334435351595 
0 0 0 
0 0 0 
0 0 0 
0 0 0 
0.04575683466678689 0.2471495048414806 -0.2545550652680200 
0 0 0 
0 0 0 
0 0 0 
0 0 0 
0 0 0 
0 0 0 
0 0 0 
0 0 0 
0 0 0 
0 0 0 
0 0 0 
-0.2755140925128309 0.5653104391617517 -0.4667962331718745 
0 0 0 
0 0 0 
0 0 0 
0 0 0 
0 0 0 
0 0 0 
0 0 0 
0 0 0 
0 0 0 
0 0 0 
0 0 0 
0 0 0 
0 0 0 
0 0 0 
0 0 0 
0 0 0 
-0.4773319901973542 0.7445944446332382 -0.4873823006924715 
0 0 0 
0 0 0 
0 0 0 
0 0 0 
0 0 0 
0 0 0 
0 0 0 
0 0 0 
0 0 0 
0 0 0 
0 0 0 
0 0 0 
0 0 0 
0 0 0 
0 0 0 
0.03526133646750997 -0.1055671053349607 -0.08273588532797573 
0 0 0 
0 0 0 
0 0 0 
0 0 0 
0 0 0 
0 0 0 
0 0 0 
0 0 0 
0 0 0 
0 0 0 
0 0 0 
0 0 0 
0 0 0 
0 0 0 
0 0 0 
0 0 0 
0 0 0 
0 0 0 
0 0 0 
0 0 0 
0 0 0 
0 0 0 
0 0 0 
0 0 0 
0 0 0 
0 0 0 
0 0 0 
0 0 0 
0 0 0 
0 0 0 
0 0 0 
0 0 0 
0 0 0 
0 0 0 
0 0 0 
0 0 0 
0 0 0 
0 0 0 
0 0 0 
0 0 0 
0 0 0 
0 0 0 
0 0 0 
0 0 0 
0 0 0 
0 0 0 
0 0 0 
0 0 0 
0 0 0 
0 0 0 
0 0 0 
0 0 0 
-0.1695807402892375 -0.7917732147072161 0.7030081447972109 
0 0 0 
0 0 0 
0 0 0 
0 0 0 
0 0 0 
-0.03204810513672129 0.008195896983963807 -0.001172332679291401 
0 0 0 
0 0 0 
0 0 0 
0 0 0 
0 0 0 
0 0 0 
0 0 0 
0 0 0 
0 0 0 
0 0 0 
0 0 0 
0 0 0 
0 0 0 
0 0 0 
0 0 0 
0 0 0 
0 0 0 
0 0 0 
-0.005039845787628456 0.01157653693676175 -0.009363923820154704 
0 0 0 
0 0 0 
0 0 0 
1.999953734177587 -1.223587731811672 -1.200943193687777 
0 0 0 
0 0 0 
0 0 0 
0 0 0 
0 0 0 
0 0 0 
0 0 0 
0 0 0 
0 0 0 
0 0 0 
0 0 0 
0 0 0 
0 0 0 
0 0 0 
0 0 0 
0 0 0 
0 0 0 
0 0 0 
0 0 0 
0 0 0 
0 0 0 
0 0 0 
0 0 0 
0 0 0 
0 0 0 
0 0 0 
0 0 0 
0 0 0 
0 0 0 
0 0 0 
0 0 0 
0 0 0 
0 0 0 
0 0 0 
0 0 0 
0 0 0 
0 0 0 
0 0 0 
0 0 0 
0 0 0 
0 0 0 
0 0 0 
0 0 0 
0 0 0 
0 0 0 
0 0 0 
0 0 0 
-1.016008789997393 0.6736053952833553 -0.06116686316294040 
0 0 0 
0 0 0 
0 0 0 
-0.005567669050680632 0.01405789840778610 -0.01895322239447375 
0.03098126277947117 0.02237654630338878 -0.06338388125150372 
0 0 0 
0 0 0 
0 0 0 
0 0 0 
0 0 0 
0 0 0 
-0.4000789894732649 0.6519161032600866 -0.4098078468395797 
0 0 0 
0 0 0 
0 0 0 
0 0 0 
0 0 0 
0 0 0 
-0.03944176574818015 -0.6217936455405730 0.6680431862261152 
0 0 0 
0 0 0 
0.1828386546725501 -0.2024680403729505 -0.07428357773560616 
0 0 0 
0 0 0 
0 0 0 
0 0 0 
0 0 0 
0 0 0 
0 0 0 
0 0 0 
0 0 0 
0 0 0 
0 0 0 
0 0 0 
0 0 0 
0 0 0 
0 0 0 
0 0 0 
0 0 0 
0 0 0 
0 0 0 
0 0 0 
0 0 0 
0 0 0 
0 0 0 
0 0 0 
0 0 0 
0 0 0 
0 0 0 
0 0 0 
0 0 0 
0 0 0 
0 0 0 
0.2148867598092714 -0.2106639373569144 -0.07311124505631476 
0 0 0 
0 0 0 
0 0 0 
0 0 0 
0 0 0 
0 0 0 
0 0 0 
0 0 0 
0 0 0 
0 0 0 
0 0 0 
0 0 0 
0 0 0 
0.02016947834841367 -0.1016322991252445 -0.08862398063930291 
0.1397603499567936 -0.2102183398858920 -0.02459763853229995 
0 0 0 
0 0 0 
0 0 0 
0 0 0 
0 0 0 
0 0 0 
0 0 0 
0 0 0 
-0.01781049986600765 0.08778581402083356 -0.05015138762602208 
0 0 0 
0 0 0 
0 0 0 
-0.1475773182050403 0.09690093503798983 -0.008452307592369562 
0 0 0 
0 0 0 
0 0 0 
0 0 0 
0 0 0 
0 0 0 
0 0 0 
0 0 0 
-0.8584413805365674 0.4328309292291441 0.1327224722698156 
0 0 0 
0 0 0 
0 0 0 
0 0 0 
0 0 0 
0 0 0 
0 0 0 
0 0 0 
0 0 0 
0 0 0 
0 0 0 
0 0 0 
0 0 0 
0 0 0 
0 0 0 
0 0 0 
0 0 0 
0 0 0 
0 0 0 
0 0 0 
0 0 0 
0 0 0 
0 0 0 
0 0 0 
0 0 0 
0 0 0 
0 0 0 
-0.05948701965723696 -0.8561317403928246 0.9429782832479013 
0 0 0 
-0.01029458713702699 0.04780390866890658 -0.02377587374661473 
0 0 0 
-0.3229131341177675 0.01913548299927717 -0.1249888887551839 
0 0 0 
-0.01599726974489454 -0.2613687494189326 0.1680963680514515 
0 0 0 
0.3117595759524153 -0.1078376254758351 -0.3503937782818650 
-0.01983925631692113 0.08336563765535206 -0.04064370195460195 
0 0 0 
-0.2327462515834460 0.4948997405579714 -0.2780582726854163 
0 0 0 
0 0 0 
0 0 0 
0 0 0 
0 0 0 
0 0 0 
0 0 0 
0.03565827038360869 -0.09060026698568190 -0.001800771048633755 
0 0 0 
0 0 0 
0 0 0 
0 0 0 
0 0 0 
0 0 0 
0 0 0 
0.7952905772091840 -0.4979774439209060 -0.1141244763803499 
0 0 0 
-0.2977167839931304 -0.4657917868989196 0.4577752091556235 
-0.03306768211653879 0.1814682378813199 -0.2077607498655064 
0.02053369610348006 0.06215530707291965 -0.2753105733489250 
0 0 0 
0 0 0 
-0.7291178726300389 0.8577399051977462 -0.4883684542350935 
0 0 0 
0 0 0 
0 0 0 
0 0 0 
0 0 0 
0 0 0 
0 0 0 
0 0 0 
0 0 0 
0 0 0 
0 0 0 
0 0 0 
0 0 0 
0 0 0 
