solver_type L2R_LR
nr_class 5
label 1 2 3 4 5
nr_feature 2097
bias 0.000000000000000
w
0.2132139257764085 0.09823173595864439 -0.2457817136440997 -0.1268513179881489 -0.009212591758845240 
-0.5567680208410007 -0.002482166409591523 0.01123103775551537 0.3500625765729651 -0.04016554889373344 
0.3478892657184949 -0.1583972995634155 0.1503753902535892 -0.4885312769905381 -0.2202912145118169 
-0.2119490615978060 0.1805458513543661 -0.1806136818897570 -0.03406766053352336 -0.1012306162896862 
-0.2286421918985925 0.2648845353009534 -0.1992842627806048 -0.03483618063935928 -0.09917214451497564 
-0.3056070834061762 0.08428337714738579 0.05542412639300673 0.09730247580201097 0.1114326175892865 
0.2112730838975592 0.1627216760917430 -0.1239649715498587 -0.4509263517030003 0.1219226971354898 
-0.08505203525882654 0.1760777882776503 0.2721323992809306 -0.4676079600098820 -0.1559226433654056 
-0.2241216429430351 0.1195266588258186 0.2873228205933060 -0.1303217602051944 -0.1226496561369886 
-0.05343865476695511 0.05208990314994298 -0.1864094787970947 -0.02776599662999972 -0.09700270041035744 
-0.1615520384519085 0.1030002514743865 -0.1641537055652359 -0.01637186641776434 -0.09464552037624574 
-0.6436242188594528 0.8682159831361013 -0.4794881888422149 -0.4256205169334768 -0.1534209927890147 
-0.1677361014860092 0.5404474408036090 -0.2111271713737631 -0.3484332897496806 -0.1001389602488027 
-0.1597901565937982 0.4498117748273992 -0.2006868361523090 -0.3076057024738491 -0.09834634744501515 
-0.1646403070123817 0.1443072997065924 -0.1707925884165001 -0.03986188316968665 -0.08620306321358936 
-0.1609377422591829 0.2726109180844931 -0.1376265365880081 -0.1140361477660646 -0.07613050339987118 
-0.1609377422591829 0.2726109180844931 -0.1376265365880081 -0.1140361477660646 -0.07613050339987118 
-0.2125380310534930 0.2155485365083459 0.05800093721535845 -0.1529068979543275 -0.09375717925826176 
-0.01374928873810563 0.02021438379288989 -0.09594943393254783 -0.06144411215349246 -0.04885596055168429 
-0.1126741557408759 0.02345354609165781 -0.09728054742975648 -0.08945517540644886 0.2948373704863588 
-0.3292208242589400 -0.1796778201147232 -0.1761595300132266 0.7568017418293078 0.2161419088079359 
0.003002961231432004 -0.1140619935798206 0.3544440268075427 -0.4349365841118037 -0.1333360010808725 
-0.09112707745501557 0.09791109690087417 -0.04977692526575297 -0.03426219308887906 -0.02724460233491756 
-0.05103250221897299 -0.07720718248285964 -0.04809385797955031 0.07630567488756874 -0.02312757369519929 
-0.005466859671610220 0.04643425774817118 -0.2511976956849035 0.1207162279598354 -0.1104462239880393 
-0.05354009003050646 0.1190648251201722 -0.04502086511168712 -0.04216174272312619 -0.02280011702995426 
-0.3508836285366626 0.1155422552006157 -0.2425275524656232 0.4197158877070107 -0.04895190736826589 
0.02569083312895795 0.01154934875270600 -0.02388620602410704 -0.07125448714961109 -0.01419736609510288 
0.06160245410290219 -0.2291526804552949 -0.06880956083163661 0.2598625931718669 -0.05863520584556899 
-0.1087943017362815 -0.2183856482171645 -0.1118240620728826 0.2831988064414913 0.3050030494041582 
-0.05036599269630850 -0.08342270257761710 -0.1469430173233680 0.09774010241224865 -0.07994565417603460 
-0.4806761794418344 -0.2791721699441250 0.7587128099072112 -0.03657817029534768 -0.04466871386270366 
-0.09167146815436598 -0.2352915886974116 0.1420312603265923 0.04042408963257461 0.3161311545885914 
-0.1236407684853964 0.1365547027789814 -0.03857692928966585 -0.01796717613503149 -0.01290937141684730 
-0.02100974942167786 0.03394235590798245 -0.01464159991256247 -0.02105666360806964 -0.009962034242680108 
0.4071123031023732 -0.1135105179024292 -0.1755366217636471 -0.1053359741837331 -0.05754749808155402 
0.002047499783566563 -0.08270940209179782 -0.2433737933409822 0.09987646391195940 -0.05552855158268830 
-0.01054105303359924 0.01883889150869560 -0.01519395480248738 -0.008989531052119347 -0.006166046273925401 
-0.09613046277860648 -0.003916721460490501 -0.01440582473944864 0.09244775141930443 -0.002094398197170492 
0.04517947008777648 0.009034733141864936 -0.01623225553014722 -0.03443920731301827 -0.007298867079816017 
-0.1252456223677281 0.09451937306396885 -0.02102491768509717 0.05984328620098429 -0.006582760435890041 
0.2872990668479408 -0.1580877492038261 -0.03075370968417724 -0.1164562194705194 -0.04710125536280947 
-0.01375572458048546 -0.1942771802306402 -0.04117465626353183 0.1654942601008469 -0.02005856812574927 
-0.1685079687810371 0.2564845447059867 -0.09901260190059868 -0.03335005877526560 -0.01399253825751167 
-0.007549773433313201 0.01307792646892152 -0.006875413424061290 -0.007222963132184815 -0.004518101471889515 
-0.01035919821651720 0.03210155298134370 -0.01709701822732664 -0.01482080515779281 -0.009365291059403515 
-0.1396947847232142 0.08284005005630858 -0.09658724077218618 0.09612917586052648 -0.01557139477333902 
-0.004731056159496596 0.006786357357046586 -0.006510152760821596 -0.004652377065489907 -0.004830225797494355 
-0.06863926918246958 -0.02146121082557601 0.004716504712780630 -0.08587596721556422 0.3450094357978416 
-0.01462057111950789 0.02399382545662813 -0.01364967067319393 -0.01448517128367839 -0.006458251609296802 
-0.01502767048782759 0.02689282455150276 -0.03319165172175937 -0.005267433427504831 -0.009240414733304477 
-0.2217182033295254 -0.1114401359132038 0.4785366778820288 -0.2037985788779026 -0.02858115643678045 
0.01846536829445372 -0.02465488034878129 0.4376823521063342 -0.3721675814805379 -0.03647110946964307 
-0.007145843266804289 0.02705799864616474 -0.01164485110922209 -0.01797258052981973 -0.005207302213033099 
0.06611470630322788 -0.1379449353300527 0.2813998541514268 -0.2139382214198919 -0.02031923138298178 
-0.009133495636526203 0.01134640561190973 -0.007257539104253480 -0.004206433471365628 -0.004040959286761145 
0.03630117365125896 0.006317310735358352 -0.05946374666289211 0.04857748737433252 -0.02226410692698684 
-0.01823571999180449 -0.02084794234553126 0.03030031124434296 -0.01020168076617645 -0.004534513999137534 
-0.007517816063092522 0.01156591172768582 -0.01091750057203934 -0.005624151133580856 -0.005378582567504303 
-0.006865789435012993 0.01602178240792520 -0.008040593613364407 -0.004661217995399500 -0.003546274906115808 
-0.05656698871489781 -0.02625835462625163 -0.07934040141389130 0.2011066215691416 -0.01324490043770719 
-0.05729997722224856 -0.05702159704496936 -0.02765131879356739 -0.03811629524909489 0.3519250582444154 
-0.003950423240280294 0.01760410107243533 -0.004523237764565204 -0.009018895991939425 -0.003913957943242116 
-0.02638450284394012 0.001149968599799436 0.03874448326125288 -0.01633655292063370 -0.005456782546071303 
-0.004097142180800621 0.002866224097499345 -0.004439420823456552 -0.0003623993189986262 -0.0005464177035096099 
-0.1323996558039728 -0.009084896737816919 -0.01762479920187886 0.1017460187541393 -0.007167110987163023 
-0.009477290817805333 0.02303853645816871 -0.008958183489195484 -0.008999902712538775 -0.006258977858342209 
-0.005255199418302361 0.0005963771764367235 -0.005714531261738913 -0.006190533154264696 -0.003761616271174467 
-0.1105420048450973 -0.06953262188940966 0.04510075843186363 0.09672691297909773 -0.01729061245096996 
-0.006677715905815367 0.004958414691995120 -0.004906879055263915 -0.001388052920216812 -0.002637872213373301 
0.03208120346663509 0.01076773532166904 -0.01338587295205074 -0.06219348313141324 -0.006462341316150819 
0.1035724129206931 -0.06048992698981764 -0.08017689347075246 -0.03141654243237042 -0.01970050156393639 
0.08516646073347010 0.04086966121030169 -0.06122786483137560 0.002105265061322328 -0.01661115647177433 
0.1068540240762057 0.02642795288325853 0.02505185485989284 -0.1865502960972680 -0.01723135557395119 
0.02779878238786283 0.02902515867925732 -0.06079766608925513 0.02725748707437471 -0.008725076140511295 
0.1374902650240046 -0.05563796412115469 -0.06347957824463785 -0.06029210267843532 -0.02427525986552125 
-0.005960107801159051 0.008925579450306722 -0.006746399427332575 -0.004403451099633523 -0.003785910967131101 
-0.004751670758122662 0.01043137144778800 -0.006560682617367824 -0.005771912833540244 -0.002708236354570682 
-0.004572037538519544 0.009481473714197957 -0.005188696114663620 -0.004735881928171582 -0.002436640881157431 
-0.01738610580117831 0.03353141626088342 -0.01327337073272598 -0.002835107835977878 -0.004041688579410714 
-0.003157294572124486 0.003768855272621908 -0.003091897177698452 -0.003163126190260083 -0.002237041327523854 
0.1748414106479819 -0.04322403840341673 -0.1586904697568281 0.04206316709244286 -0.01737995196442737 
-0.005039813288019363 0.003170151092560159 -0.003579648606612093 -0.0006557248774611594 -0.002882001945392438 
-0.009367543782078010 -0.02330589334814708 -0.04233067501117460 0.004164026276280213 -0.01666056357471820 
-0.005641619425517529 0.007074260234565375 -0.006233472496815689 -0.002695503532656799 -0.003536401548817568 
-0.003940785367238110 -0.001246405787249519 -0.01252197208643185 -0.003529753757070882 -0.003799834145425111 
0.03045329705196934 0.002017498642945126 -0.04568465310626992 -0.01868426136124670 -0.005052368363556889 
-0.1476281898837665 -0.07004467775764035 -0.06393264187270084 0.1116718453368123 0.3511281969175573 
0.04726967025769883 -0.04971881916584747 -0.01394703517592060 -0.04761949995226353 -0.02715923659102769 
-0.02624483900186585 -0.03531469290546318 0.07957512950318030 -0.08837014854171629 -0.01288061626288196 
0.3875671816434150 0.01749981267689018 -0.07524434682223961 -0.2916606554363719 -0.01950300330293252 
0.1495538001500655 0.1116787180390110 -0.08914518574229187 -0.07528977091844224 -0.01577178550269623 
0.07169203545848951 -0.004426388681232415 -0.04450924204027022 -0.05242298123054265 -0.007372177181479981 
-0.003725329234683567 0.004654289988627531 -0.002861960188088063 -0.003603120967449616 -0.002137900890779095 
0.01055232876385172 -0.006219025575611059 -0.01247702912012218 -0.01444306728835395 -0.005645342992377289 
0.2224378465919429 -0.01788693935886442 -0.05973300798108108 -0.2488699325800149 -0.02068168403271936 
-0.2783813255408905 0.1074611099800103 -0.1005641236378956 0.2493821864510494 -0.01041283589759188 
-0.002551129975566442 0.002447829858370327 -0.003418274154707875 -0.002006203002016807 -0.002018598183143894 
-0.009141059222971199 0.02389607369450411 -0.008395440881107542 -0.004562619863095224 -0.003153502196273971 
0.03664541411402719 -0.02429047994555259 -0.01151428799418227 -0.01191256151263785 -0.01666212451291127 
-0.003876865378752560 0.01568977473453910 -0.006942099162568654 -0.005549470918437167 -0.002659690845127471 
0.03977097113862031 -0.02772094520320742 -0.05027032472071951 -0.001450771394618615 -0.01438543191464212 
-0.007058581883577457 0.02036495243005528 -0.006716545650378319 -0.002953653737712338 -0.003180336251749325 
-0.008340894721430953 0.03061095340029052 -0.009816370784810265 -0.004693258915601265 -0.003954357138171288 
-0.1383949141459685 -0.04394345903778186 0.03775785632656056 0.2101112800889262 -0.01223383709155701 
-0.002358773239007949 0.001396856412893192 -0.002358303458199273 -0.0008244942953763840 -0.001709707889502324 
-0.2048580564855154 0.3862029084305407 -0.1366491454499598 -0.02517685834282297 -0.01595042265982327 
-0.03203299681607801 -0.02860303105054017 -0.03415065742376859 0.03519136269119940 -0.01075839381555662 
0.01358598231171702 -0.01136814899497059 -0.04101534642966739 0.002921525990619544 -0.01364068358853433 
-0.003263745445872354 0.002130139399224119 -0.003751968602619200 -0.0002077699041503908 -0.0003955756324296213 
-0.003054780005307397 0.004009779696074422 -0.006239835693085676 -0.002422439574720206 -0.001881986668113010 
-0.03506052273498485 -0.2587738322081611 -0.09319955098391042 0.3661182047584018 -0.02617323171539237 
-0.002512789455594688 0.01053645419725964 -0.008627039742521733 -0.004722596795980433 -0.001766642931669476 
-0.006417392299680753 0.01516691812570936 -0.004389806610780728 -0.007193301336880290 -0.003704734586434470 
0.03259701845318137 -0.08810089209110823 0.004860108628250280 0.04224678247027949 -0.009271765679369642 
-0.1085621422736381 -0.01547488032673301 -0.08343758099061907 0.1628181038436527 -0.006236915246705821 
-0.005982611437909717 -0.004314740093934964 -0.01505006337771361 -0.01140999716609972 -0.004895739775317402 
-0.1168364303773679 0.1066486804987445 -0.01399085177852242 -0.004803019467464017 -0.002839289644367832 
0.02387018857481671 -0.02658039408023577 0.02457496757213899 -0.03003104459000276 -0.007364263352996676 
-0.01224916688938306 0.02190294044136289 -0.006317756957553008 -0.007867212343936109 -0.004011349546374236 
0.2456051366814937 -0.009948349515449253 -0.04458759068098468 -0.1903152914487276 -0.006573385955914844 
-0.005135113554932229 0.002834075867409865 -0.002147153832150818 -0.0006081804061912041 -0.001437499617115028 
-0.003498356254717589 0.001480421993352252 -0.002523457998904194 -0.0005108071704120685 -0.001068823035638930 
-0.05513147217173899 0.03390077304280601 -0.009913856802794508 -0.001964048279819837 -0.001897811683254416 
0.3941977181428488 -0.03403884742526310 -0.3262088535413687 0.1760952745354466 -0.005444333905577244 
-0.1263365653216037 0.03540337859187150 -0.1106200027519116 0.01129640801536894 -0.07162773512105401 
0.2797521410634767 -0.004525569015910651 0.1015159506250544 -0.5955249839814700 0.03508861335622449 
-0.2149394878825112 0.09962097526108128 -0.5089107049274497 0.3163014523640132 -0.1908856949664370 
-0.1331468563498490 0.2735022473745872 -0.1942661484090194 -0.08429298955671986 -0.1717671242450831 
-0.04397148076407086 -0.1079021763162300 -0.07094749720103027 0.03836692143008025 -0.05617588370623419 
-0.5504488520013445 -0.04404279457297559 0.7512064169546562 -0.2615854259001023 -0.1487152019239464 
-0.4275674952887140 0.4235208386636630 -0.02678385683354322 -0.3014992039695232 -0.08910461265406114 
-0.3945820313385787 0.1535114955387480 0.003954771686993456 0.1968096180310182 -0.1115518984042812 
-0.4947715980392349 0.3089273902688961 -0.09086085776741597 0.04771288184607468 -0.08389239709620018 
-0.3303621281879378 0.1210611956911982 -0.1261118366969669 0.1842761455869815 -0.09851173402954778 
-0.03721132732661336 0.08245371536440783 -0.04600719818352828 -0.03485606823038219 -0.01867789419844889 
0.1294557763624406 -0.1423757567810703 -0.04395968208918529 -0.05760256127809501 -0.06980887292247738 
0.2993870879866979 0.08052632909800185 -0.1980950947650197 -0.1128932905348447 -0.09901121907810126 
-0.2654663314205579 -0.2832677073327208 0.3976685873416996 0.04643039892696831 -0.09257508937533865 
-0.2399944666576659 -0.3311987791451309 0.1233781234384469 0.3871435901685532 -0.06720895000542258 
-0.1916711344242985 0.3525061610070014 -0.1077632624639061 -0.07900136975545405 -0.02356994104174694 
-0.05109946439418380 0.1989086020859015 -0.08415338120555521 -0.07249678878022797 -0.01937216110977573 
-0.1288589080061936 -0.05491453650601389 0.2318437653183225 -0.04127005260955731 -0.05706927988985314 
0.1387642220598717 0.2047406722330621 -0.09483125431742961 -0.1739038807671619 -0.01455013554966843 
-0.3152701366188762 -0.2481043395320500 0.4378746328741301 -0.2015294583327051 -0.03029232097444586 
-0.3605376810066635 -0.008603813688167981 -0.1843190132210917 0.3948512333394261 -0.02257007228803494 
-0.1038070673929681 -0.04112998054911910 0.1094984381007728 0.09500019730803080 -0.03011238203441406 
-0.1913408863295562 -0.1719426021235086 0.1326084776947006 0.1052937934830487 -0.02106898375874272 
0.1957168154012268 -0.05164497012895554 -0.2483445836575762 0.1406715099743683 -0.01727749551472836 
-0.2100588789375999 0.08386397289962890 -0.1301306712267998 0.2035987560461485 -0.01349766062394666 
-0.2340844001636775 0.2841392625810025 -0.008514974845142218 -0.05987778816550105 -0.01899307046872155 
0.1264984699742715 0.03066165347635552 0.2675445326396111 -0.3829210547950368 -0.02719059238808343 
0.06338436300618652 0.03897089025359538 -0.03292210728006185 -0.1032808711681128 -0.02361493745194088 
-0.1955692245385065 -0.09151288737094640 0.1075022027988092 0.02491201846325046 -0.01562758043437209 
-0.1103835726280920 -0.03339920330288229 -0.05873246997202732 0.07290444465746480 -0.02274412858361359 
-0.1509880254399505 -0.01996069682720708 -0.07359594401066089 0.1612607241944563 -0.008621767847686120 
-0.07009099944418010 -0.04522863469526747 0.01037488667902466 0.03018730275878718 -0.01525412515247042 
-0.1376307211633547 -0.2765364968748913 0.2828338059984686 -0.04508079783394662 -0.02562422805354570 
-0.1464718548630837 0.07923644549162967 0.3810424474006510 -0.1987279639564795 -0.01015033527192722 
-0.02375772409457645 0.06943915840415914 -0.01565596996401051 -0.01372186474640252 -0.008210274128826356 
-0.002098403763451949 0.07716827404635146 0.09605423301764204 -0.1524494544896987 -0.01725174715160887 
-0.1808084681688253 -0.01845321041867642 -0.09886338041195278 0.1853470941412093 -0.01153403862696978 
0.1762467998502988 -0.06439406787738189 -0.06575021619480390 -0.1225040627217428 -0.02317270669478037 
0.06309030076353568 -0.1138469701434614 -0.05495596510470145 0.01133627327318872 -0.01374051945597568 
0.03522507530723199 0.08172200990566554 -0.06299299116752183 -0.07940399133481961 -0.01156213575660052 
0.03261375466548122 -0.02450570382762735 -0.08505238143477459 -0.007398772613887221 -0.02269740168848992 
0.02006138216062806 -0.02828954637105333 -0.03916679287489985 0.005612315417119704 -0.01167539062497723 
0.1256591811819524 -0.1338972322445750 -0.03276504307996839 -0.06592306106145714 -0.02004286354213565 
-0.08945748754906714 0.1628163737287115 -0.09608395052160706 -0.02752796860072940 -0.008601241641230951 
0.03691901738852208 -0.1141702413906752 -0.04887996092782682 0.03014936585792762 -0.01461549684213305 
-0.1190302028930684 0.08582275391037056 0.1657198331578335 -0.1280475494028346 -0.01138325860872836 
-0.1393488991891071 -0.01821197867870351 -0.08106114797756589 0.1718378540460492 -0.008216163967067970 
-0.1547495765502446 -0.04310592369246829 -0.06812367851342586 0.2456325171625953 -0.007120229134801120 
-0.03781088458834850 -0.03291602336626259 -0.1282084888078386 0.2140840441274814 -0.01576158598802489 
-0.1212982584401550 -0.01522477076545757 -0.1120030169474699 0.1723941380395510 -0.009915808140478934 
0.2104516022857107 -0.06279603813349117 -0.01398296429902825 -0.1470654998823168 -0.01291980254396717 
-0.2700077957044837 -0.01542998314528970 -0.06433253738035400 0.2519376740759809 -0.01115381745297202 
-0.1717181672586725 -0.02938374866835482 -0.06889538952219144 0.2436873513177283 -0.005581331622502708 
0.04450316920885266 0.002814952029165699 -0.09819306962147490 0.01534263464796230 -0.01435095570371955 
-0.05424717427356410 -0.07248819008102833 -0.02273791679091544 -0.02877233415203082 0.3561419229985560 
-0.04420469138479214 -0.01359754298501998 -0.07658541990314707 0.1118093744819453 -0.006733907764545419 
0.1187088444704017 -0.02876855936336191 -0.03622322554237036 -0.07775103488944728 -0.01141953138585374 
-0.3174867333067510 -0.03165266653329069 -0.09576958549101640 0.2756726497494925 -0.01548455393909545 
0.1031794515053765 -0.03680018442940777 -0.1050520283363899 -0.009945682132158537 -0.01324082211519341 
0.2025523281776142 -0.04586378561736718 -0.01453985724042125 -0.1105690387796171 -0.008713866593975989 
-0.1468373285517891 -0.1622227900419729 -0.06131726974197528 0.3252853056098746 -0.008751150494062340 
-0.3246499438661525 -0.01081373440518658 -0.09970663590957247 0.2787406116913453 -0.01453975702000642 
-0.06240604089332061 -0.01138570647436027 -0.02484146228054704 0.05140591498417198 -0.004750052982759875 
-0.1540743703975684 -0.01273779495361753 -0.05545607111210939 0.1373186857748307 -0.01010251781472286 
-0.004197626525794697 0.003115469992163840 -0.003273120845812998 -0.0006346647581179367 -0.001840342362749182 
0.08875223805862362 -0.05604631830541450 -0.04168291645633059 -0.05957782997610769 -0.01968553679212546 
-0.1085834221010139 -0.006868367288803279 0.0008124485917255079 0.07939889228646158 -0.003601924615843308 
-0.1035297696895860 -0.01578551590537807 0.3636316532185036 -0.1898685446038798 -0.004832400639459610 
-0.01175781782748264 -0.01413210141293381 0.07389248087392263 -0.06455502642826255 -0.003186153124169887 
-0.03552082487352436 0.03325807326430723 0.05282683996509658 -0.04153770651847723 -0.004530191857561493 
-0.06460094216275142 -0.009209806120058488 -0.02473641980429140 0.05658373665137614 -0.005063258373722183 
0.009046209880974612 -0.001878960851945204 -0.0008463575348651674 -0.01891164104536189 -0.003481868154676083 
-0.2428003320846918 0.1375322513615503 0.3981974110144854 -0.1822777011824387 -0.006213525510285306 
0.07692350333850212 -0.006329412168491335 -0.03963150209367065 -0.05328441038805026 -0.009787239530006510 
-0.003179927309786919 0.003347009752595677 -0.004499910835238111 -0.0007328629162740863 -0.001750248430696003 
-0.05594854442955322 0.03374669706713835 -0.04802448652243645 0.03374541532271968 -0.005031461626376117 
-0.01920067001916306 0.03840792994409844 -0.01307172059576989 -0.02436096410233766 -0.004159826442485568 
-0.1825354305996716 -0.02427921053650596 -0.02171193657488990 0.2163670028585350 -0.003854841354717863 
0.01571545224291192 -0.01790055536952386 -0.06450176841749564 0.03557424478946787 -0.006200976579999266 
-0.1785462575218231 -0.03318112782915473 0.1649466029601475 -0.01992789611842506 -0.004789920982340847 
-0.1403922523466240 -0.02551427536887287 -0.02582996417383935 0.1913029364422942 -0.004168417661717034 
-0.03488218039250902 0.07309333787639101 -0.03301029784930286 -0.02063779532892282 -0.005681935351562690 
-0.03242975228403588 0.002661093910807857 -0.05056834062922649 0.01271735900737619 -0.008590995434172868 
-0.07316096578466644 -0.01369111652557542 -0.02457461344249056 0.09661481157843255 -0.002951027134924507 
-0.2130432451814311 -0.05879527050274264 0.05367009979180151 0.1692917162284438 -0.005907213267065193 
-0.1403922523466240 -0.02551427536887287 -0.02582996417383935 0.1913029364422942 -0.004168417661717034 
-0.05943208288671742 0.02487641624805455 0.05155492352978350 -0.02417262646001828 -0.008149093366320734 
-0.1369150740015691 -0.02393514298145876 -0.01923071281057387 0.1851347922032508 -0.005049236410108527 
-0.003907290792402867 -0.02135412560077976 -0.01063556267899753 0.01189625418101761 -0.003998700076439001 
0.1176743456726059 -0.04038324683174710 -0.03831281780567025 -0.05557414236791042 -0.006908369368499747 
0.0009050272963694629 -0.002365033149579851 -0.006528808758116336 -0.002332361373383049 -0.007670067312223039 
-0.01207670718478185 0.01718907101012911 -0.009173269716902134 -0.01489811753658165 -0.003138154918641823 
0.04806984788190507 -0.03323828861487885 -0.02700650486930691 -0.0005682626276969855 -0.003940329900722570 
-0.04870246673415337 -0.01203359987753068 -0.007671050302660352 0.07617606764018418 -0.002403186668257390 
-0.03694816753634934 0.03988924127510191 -0.03777778675312755 -0.009525953256271456 -0.003751290084495676 
-0.04875537793059215 -0.01144042600461837 -0.03279578377340953 0.04766910192593064 -0.002935289936304745 
0.08749443178415095 -0.03662841068678571 -0.006250813107100047 -0.02978554453597435 -0.005869894548358193 
-0.03564913431790386 0.04315071891304173 -0.01319603910282852 -0.003326995320947691 -0.003970901672974916 
-0.01869815493991368 -0.07040132491221203 0.01601387090641658 -0.03577340585619089 -0.007483485096919882 
0.05449978962954152 -0.01644037801206824 -0.05940130725935492 -0.03154891303954224 -0.007518047575591511 
0.07446028311500145 0.02973124703485347 -0.06763045561455516 -0.05061687690454361 -0.007476538490144597 
-0.004248559818719863 0.004097900929944812 -0.004896124047471384 -0.001052167685511563 -0.002121193993475460 
-0.01051761878602120 0.02231225112887500 -0.004377466465307317 -0.006727058750436315 -0.001533901233728112 
-0.01695095523861532 0.02849314166913286 -0.01082125501042718 -0.01916035061775915 -0.004009505038207815 
-0.09114760998320440 -0.03649838301119081 0.04177311125937677 0.06565561213332204 -0.01366792155866864 
-0.01241074985910742 -0.004143662005043066 -0.03085696651669254 0.06038541818033678 -0.0004451267596974057 
-0.03805672517686069 -0.007166435130131620 -0.02218082868768665 0.03941564767000964 -0.003530738149906814 
0.02223922947227240 -0.01317223906334884 -0.01930097887123639 -0.01403258773421887 -0.01047403896241877 
0.01302515881484592 0.01951097887682464 -0.006171731298972145 -0.04622508175021890 -0.003403910040705831 
-0.1152156801743897 -0.01320425458790371 -0.03766723422960804 0.1202784629490725 -0.008728873614464764 
-0.06882368498125000 0.007260620372110851 0.1010720633639483 -0.02945586996015111 -0.002475243574059530 
-0.01062924288148374 0.04004767336169733 0.002819907240946525 -0.007512333410815645 -0.001845142011967886 
0.1057315957690290 -0.02367605972657317 -0.01551054475843702 -0.05986012717308254 -0.005059272170544017 
-0.1285217303530444 -0.008936668932939927 -0.03280409779938450 0.1107355362447296 -0.003337781396662367 
-0.1361732562296903 -0.03444165805915602 -0.05977627764729119 0.2992671377004320 -0.006152463893092182 
-0.04585456026573595 -0.03030705082534066 0.05427819640613736 -0.01784892459264832 -0.004518313212578833 
-0.03676006557556734 -0.008362933349271720 -0.03351760010955293 0.07237568549449913 -0.001664441592550466 
-0.02802874433477513 0.1250070121015087 -0.01507774006398314 -0.04740306125479284 -0.002704393985375875 
-0.04693465480265373 -0.01148000980499167 -0.01581118439744281 0.01536290754523950 -0.01183407637771326 
-0.01769794299354099 0.08886139980877711 -0.03823973554348299 -0.002204904474696464 -0.001339922003280977 
-0.03821667665712927 0.09009602754071099 -0.06573530546393662 -0.01937782299764802 -0.006232599556635034 
-0.3006177812614467 -0.01006433918197528 -0.04547393707761713 0.2757358752980393 -0.006500162005370943 
-0.3006177812614467 -0.01006433918197528 -0.04547393707761713 0.2757358752980393 -0.006500162005370943 
0.1297572163955180 0.01216696550702718 -0.02228128595612825 -0.07674478824243610 -0.005803588328659143 
-0.02496829362641896 -0.01745822958342517 0.08561080430143982 -0.1057864094987017 -0.008455687942740180 
-0.3810431054256697 0.2375124261804168 -0.5763063308330042 0.5747958166015773 -0.1815479107622076 
-0.01266694569094363 -0.08352312230515460 -0.2605163398054215 0.08514284900512195 -0.1697986280004679 
0.06110921195415929 -0.2611532555414464 0.08581826662434276 -0.04772369013600464 -0.1512150962261321 
-0.3260990453686478 0.5823494253640836 -0.2203163322322547 -0.2460372115281234 -0.09874802814337504 
0.2559873822895789 -0.01974848928619622 0.2638283562944621 -0.3948742099799353 -0.1415653012488747 
-0.5104548056181221 0.4475266235521022 -0.1532799580488354 0.007443372061424380 -0.09286652030644946 
-0.01592165570091298 0.09450500547717784 -0.08617162342375870 -0.03883199321746827 -0.09420406782853309 
-0.1284108241403283 0.08786298123146365 -0.1056488165516300 0.07665381364493275 -0.07641566192811243 
-0.2458306517090353 0.07559709676803802 0.09586564539826115 -0.03577095112243793 -0.04943121372129911 
0.4277652761176449 -0.2445796279849528 -0.05775834619653835 -0.3050651949463333 -0.05960676294602129 
-0.08750873917515255 0.1005105945284717 0.2195339360908013 -0.1701088697454188 -0.09107277970339960 
-0.002301403907779772 -0.1582450404179983 -0.05407760967353413 0.001803184167045052 -0.04563365398928405 
-0.3676311078103309 -0.3017788751605553 0.6069203445301732 -0.2712423140507848 -0.03933738431021265 
-0.004318933692490438 -0.01233291446641889 -0.1637192633443184 0.05553898025322069 -0.03374556137695824 
0.1079538602368340 0.07103820958467326 -0.1032623561681766 -0.1489540798110061 -0.03393373192546256 
-0.2948951307826858 0.1062561941739627 -0.1545219191808884 0.2475687257474597 -0.01936363771488169 
-0.1530921434147805 -0.1816865553576559 0.3347793023960686 -0.1423677738659534 -0.02267656582422072 
-0.1000784845249470 0.2394741218062201 -0.1230235980749451 -0.1000393191767496 -0.009214914681750981 
0.03342153128353038 -0.2554657563044301 -0.01631043416449012 0.1945948662834699 -0.02465830207350495 
-0.2012081208863629 -0.1137236460200900 0.1804859729290787 -0.01618813246167876 -0.01736944846843376 
0.1814369409292374 -0.03495970791696382 -0.2986965883152774 0.1806667318273179 -0.01005886806228313 
0.06825884825690506 0.01643673616683672 0.4702591821082848 -0.5321141038693480 -0.01647465373529938 
0.3162439680882296 -0.1618627263393086 -0.06895850125118626 -0.2481583678639985 -0.03112366321653713 
-0.09782846658748705 -0.04977512656086311 -0.02316047965806152 0.09128071257576989 -0.01395483652799795 
-0.1770597997040879 -0.2961597295397516 0.3397170008104981 -0.04804993075905977 -0.02955912637941607 
-0.1576419117083358 -0.02020587943477584 -0.1279928330083566 0.2400880835091058 -0.009532437529051913 
0.07918927226632207 -0.007906549352864240 -0.08114605399258439 -0.02194988908539398 -0.02017408540723575 
-0.01609743831617770 -0.06953471432875641 -0.01040987548209240 0.01287104205672970 -0.02412314249966255 
-0.1765362689766644 0.04376730524860827 0.3952337433179967 -0.1808744385543278 -0.01508002313974124 
0.09243300449446432 -0.1897501548881378 -0.08413385044589747 0.09199688840499900 -0.02061142057721803 
-0.1402672907643174 0.2318015697865210 -0.05400032974258361 -0.04261805629651844 -0.01343647757836218 
0.1577812138387679 -0.03326697456075183 -0.05251478953377472 -0.1145038269513779 -0.01674748349499906 
-0.1515749069481444 0.2290593676792812 -0.09949509991502534 -0.03179218070072710 -0.01043041774647234 
-0.1533335849319364 -0.02679045421502191 -0.1769531061005125 0.3043141056054834 -0.009134069340336403 
-0.04127118476366944 -0.2282394886792539 0.1672681977239424 0.1229877487217162 -0.009425330480898797 
-0.1045168535236888 0.03912489479553310 0.002786872455892705 0.05028722908095751 -0.01330088181048600 
-0.03604523614477731 -0.07093287612817253 -0.1013097399927143 0.2592438564001561 -0.01657224348214006 
-0.09289335820228051 -0.01579591363564875 -0.04319615822442101 0.09824368620115007 -0.006360717510584519 
-0.002072920584870091 0.04553212224434415 -0.07032282670484215 0.04408481931155238 -0.007876922095287073 
-0.1547495765502446 -0.04310592369246829 -0.06812367851342586 0.2456325171625953 -0.007120229134801120 
-0.1017794229815673 -0.01597030950269296 -0.08669323008680165 0.1723304749800793 -0.008144089892724686 
-0.5926746587079598 -0.03446416892430940 -0.1094827037275711 0.5681821183721517 -0.01966342564476337 
-0.1154382263206111 0.08048070379144741 0.3235423313154718 -0.2340114309171106 -0.009393177112516514 
-0.2048434218226784 -0.01472500897382370 -0.07466312640770390 0.2163894480068113 -0.009919586963880324 
0.3635809264426576 -0.3171975340970810 -0.02017389021325058 -0.008335804746314427 -0.005440040003942866 
-0.03699191648436706 0.02233354252251507 -0.07854414117112905 0.02417954956721452 -0.01242286302647719 
-0.06211645953564919 0.04865881503820600 -0.06240299383327365 0.03106363945783256 -0.005833944206902594 
0.03266855665698822 0.02656927500894468 0.02398100248455534 -0.08427032419774792 -0.01022018564750315 
-0.01469461558132500 0.08267104571659198 -0.05149094167285136 -0.06426915568636343 -0.009526205651487625 
-0.1717181672586725 -0.02938374866835482 -0.06889538952219144 0.2436873513177283 -0.005581331622502708 
0.1916805961268601 0.07000600343916606 -0.08479099535191831 -0.1878266582378284 -0.009731685352472914 
-0.1335868456844419 -0.02473933234995347 -0.1375692447665076 0.2700412298038318 -0.005853783530050738 
-0.04725637872945890 0.01424478885165851 0.04936217477682961 -0.02890105783198350 -0.009563640603421983 
0.04172509388084141 -0.02828762129804493 -0.01499844646790265 -0.03220166958331810 -0.008398979946539667 
0.004334048414085427 -0.02156468263219332 -0.03038364200904319 0.01474302704680682 -0.009799625511451531 
0.05072390643091686 0.007731151851522525 0.01464389165177923 -0.08794378717312412 -0.01334666263880413 
-0.06240604089332061 -0.01138570647436027 -0.02484146228054704 0.05140591498417198 -0.004750052982759875 
0.03719001456013073 -0.02299287284779368 -0.07389035173566279 0.01437903776344761 -0.01013606434064413 
-0.1452879063998243 0.02861458131421362 -0.02879876933063638 0.1847993275184334 -0.006327744031627154 
-0.08340924636597923 -0.04896889741460626 0.07538669677822667 0.008724672616288995 -0.01057578723553899 
-0.2473071023900225 0.08950812771155597 -0.1609158015467550 0.2595651501916793 -0.01599572491000110 
0.2311352964103998 0.009577796099287703 -0.05167201168248550 -0.2008510360089665 -0.008082285117077733 
-0.03048038062711749 -0.02742398256537713 -0.03215027578006106 0.1251887704993058 -0.009557884598619570 
-0.2597462963852950 -0.009788269497424147 -0.04420070937539875 0.2352752391206660 -0.007286380992616578 
-0.1250494297641570 0.09437809585067324 -0.02063792742171642 0.05999947066507121 -0.006454265346566530 
-0.2648042374823748 -0.01611735053729537 -0.03673856017044817 0.2498403966551536 -0.008183226771949315 
-0.1403922523466240 -0.02551427536887287 -0.02582996417383935 0.1913029364422942 -0.004168417661717034 
-0.03069316675873831 0.07248124171942473 -0.03740443802836076 -0.01464868509156411 -0.003753141694694389 
-0.06460094216275142 -0.009209806120058488 -0.02473641980429140 0.05658373665137614 -0.005063258373722183 
0.009046209880974612 -0.001878960851945204 -0.0008463575348651674 -0.01891164104536189 -0.003481868154676083 
-0.1825354305996716 -0.02427921053650596 -0.02171193657488990 0.2163670028585350 -0.003854841354717863 
0.2210454018424694 -0.03911447586745338 -0.06117166448731806 -0.1310483324496413 -0.007492905547808651 
0.06439787475915269 -0.01917802376985497 -0.03259558229118026 0.009506800633952728 -0.005226667127049436 
-0.1095862188595227 -0.01203986025044863 -0.05431483115227200 0.1365111866544174 -0.004505529241601072 
0.1137680982266101 -0.03502603861671313 -0.09883128957562336 0.1075046050374529 -0.008533545542978747 
-0.1403922523466240 -0.02551427536887287 -0.02582996417383935 0.1913029364422942 -0.004168417661717034 
0.09156887555817839 -0.03522390766388811 0.07295062087384757 -0.04972920935878546 -0.006726575176473594 
-0.1785312536604091 -0.009139883009625082 -0.04256129438738930 0.1822709410621825 -0.005827554588778617 
-0.1754674816783543 -0.03156469076728656 -0.01014615371038422 0.2013991895229073 -0.006335619874398030 
-0.03488218039250902 0.07309333787639101 -0.03301029784930286 -0.02063779532892282 -0.005681935351562690 
-0.02564388788575201 0.1794970657849869 -0.04868007076493707 -0.04303249175052801 -0.003132534807068525 
-0.07126451326349342 0.03633778539451202 0.08873605829916112 -0.05568492800620102 -0.007004956733442963 
0.02025227348204307 0.02178708752444281 -0.08041848613520267 0.03359787711258515 -0.004106179920361949 
-0.01469309413742750 0.04005743091296336 -0.01661397030066882 -0.03278327239469148 -0.01182357097028323 
-0.03294203497720534 0.02694066851622056 0.05181503531590596 -0.03762593026576236 -0.004962422974996745 
-0.003355636745422283 0.02906872063405626 -0.01194822575414337 -0.02540486159792574 -0.004121384506071231 
-0.1095862188595227 -0.01203986025044863 -0.05431483115227200 0.1365111866544174 -0.004505529241601072 
-0.1699409197182723 0.2814590811456480 -0.08612887172383174 -0.03005563927590648 -0.009846855117405798 
-0.1476670005055772 -0.04110450321625270 0.04662663624118236 0.1801940690878151 -0.005600060475774875 
-0.1403922523466240 -0.02551427536887287 -0.02582996417383935 0.1913029364422942 -0.004168417661717034 
-0.03870075389688935 -0.002303119584441082 -0.02250347833826226 0.03459769604025992 -0.004016623015522693 
-0.01207670718478185 0.01718907101012911 -0.009173269716902134 -0.01489811753658165 -0.003138154918641823 
-0.02683473175066695 -0.008470242972667434 -0.07239282863497370 0.08630708366977215 -0.005866274544757421 
0.04407687745853617 -0.02236556394319269 -0.02499432666070730 -0.02604614179648361 -0.009993415465087167 
-0.04870246673415337 -0.01203359987753068 -0.007671050302660352 0.07617606764018418 -0.002403186668257390 
-0.02588840522279767 0.03755337062747290 -0.01167572836059645 -0.02025888868179831 -0.003652315007908351 
-0.04875537793059215 -0.01144042600461837 -0.03279578377340953 0.04766910192593064 -0.002935289936304745 
0.08749443178415095 -0.03662841068678571 -0.006250813107100047 -0.02978554453597435 -0.005869894548358193 
-0.03787885101298531 0.05530408171914499 -0.01570944720537876 -0.03082987381667809 -0.004057164602088417 
-0.01869815493991368 -0.07040132491221203 0.01601387090641658 -0.03577340585619089 -0.007483485096919882 
-0.03865559459435995 -0.02264702266033217 0.1506357025027617 -0.08901413037363448 -0.007115755443815967 
-0.04019063441140291 -0.03196214307970056 -0.05327067107562000 0.09585313475494803 -0.004788745117094468 
-0.01695095523861532 0.02849314166913286 -0.01082125501042718 -0.01916035061775915 -0.004009505038207815 
-0.004363554449320145 -0.03809438571038213 -0.03967211512009727 0.05130054863597144 -0.01072371826845076 
-0.08873029693425409 0.02909898105267835 -0.03323437848820128 0.05536405081623320 -0.003579534166451954 
-0.3361481162468880 -0.009371256045196330 -0.04484237197068078 0.2624850119599113 -0.006666331369982939 
-0.01241074985910742 -0.004143662005043066 -0.03085696651669254 0.06038541818033678 -0.0004451267596974057 
-0.1777531530035872 0.03917236243108445 0.8654369119385099 -0.5110067431210323 -0.004116052803723906 
0.07928619015886022 -6.811251638754082e-05 -0.02486254747816060 -0.05024326281283221 -0.005067959614929927 
0.02223922947227240 -0.01317223906334884 -0.01930097887123639 -0.01403258773421887 -0.01047403896241877 
0.01302515881484592 0.01951097887682464 -0.006171731298972145 -0.04622508175021890 -0.003403910040705831 
-0.1620042743799421 0.07415377623735814 0.8306638600211746 -0.5407628609421771 -0.002748822388713452 
-0.07420985451514632 -0.009137374094337215 -0.03415482777653795 0.07939114878310022 -0.003562434762921193 
-0.1080557745794743 0.2723245914561450 -0.02823893008287214 -0.06290266506997766 -0.01623164023262291 
0.09878421609300615 -0.04087831781570971 -0.02100213833531226 -0.01464356056231813 -0.003683803109270605 
-0.007161610236009404 0.1089293954334053 -0.05941924172793241 -0.03190634892971790 -0.01186904179303858 
-0.1285217303530444 -0.008936668932939927 -0.03280409779938450 0.1107355362447296 -0.003337781396662367 
-0.03676006557556734 -0.008362933349271720 -0.03351760010955293 0.07237568549449913 -0.001664441592550466 
-0.04585456026573595 -0.03030705082534066 0.05427819640613736 -0.01784892459264832 -0.004518313212578833 
-0.006525013244082690 0.007088978820746609 -0.003080844596036485 -0.001221147580833549 -0.001905677195580625 
0.05751270332131820 -0.02698817689180509 -0.01770538859599573 -0.04478315984221132 -0.01034705358637814 
-0.01389009445494027 0.03763517507632223 -0.009137026561090212 -0.01947622352231741 -0.002699126760420182 
-0.1113227510906319 -0.01585310133296402 0.001582977676468739 0.02098251290203976 -0.005392675221916500 
-0.02496829362641896 -0.01745822958342517 0.08561080430143982 -0.1057864094987017 -0.008455687942740180 
0.003528321463516084 0.03182255207882287 -0.01897039498316795 -0.02193595158433367 -0.002712762376790318 
-0.3749845747471330 0.1853652606774738 -0.2682697721491336 0.1589675315055947 -0.07331750801115612 
-0.1388826930203169 -0.1607837314762838 -0.1540927005218178 0.09387247644052579 -0.08262858997781922 
0.3146517421719772 -0.1916766157505947 -0.05165350907431413 -0.4044651628301729 -0.2488632777361027 
-0.2119490615978060 0.1805458513543661 -0.1806136818897570 -0.03406766053352336 -0.1012306162896862 
0.1667715613163540 0.06244613193071454 -0.01410974079358178 -0.3558939617575532 0.08071355892552626 
-0.1881907259961689 0.1680940003875988 -0.1740283164264093 -0.03087173838801675 -0.09807571661015878 
-0.2793650347804815 0.2691131768827222 -0.1581174447717817 0.09627931926396463 0.1229947233801951 
-0.1299277595761238 -0.02525077987030622 0.08010013400045873 0.1440481403151409 -0.1787167017501748 
-0.2441838499469360 0.01513025313237881 0.2990986250038110 0.03947771834969108 -0.1256019871353270 
-0.1615520384519085 0.1030002514743865 -0.1641537055652359 -0.01637186641776434 -0.09464552037624574 
-0.01298718886453155 -0.04470063176341162 -0.1611535324428992 -0.02380155437865719 -0.09590627250554058 
-0.1227763077399860 0.4219007290161391 -0.2000277645770369 -0.2834444036815788 -0.09839650782759862 
-0.1788631249433065 0.2615274562782676 -0.1846268341787552 -0.1152288477224599 -0.08929289368092778 
-0.1148303628477750 0.3312650630399293 -0.1895874293555828 -0.2426168164057472 -0.09660389502381107 
-0.1609377422591829 0.2726109180844931 -0.1376265365880081 -0.1140361477660646 -0.07613050339987118 
-0.1609377422591829 0.2726109180844931 -0.1376265365880081 -0.1140361477660646 -0.07613050339987118 
-0.2125380310534930 0.2155485365083459 0.05800093721535845 -0.1529068979543275 -0.09375717925826176 
-0.2832530620446307 0.3880537360528857 -0.2545541108809957 -0.1920696150350300 -0.09962770279646332 
-0.01374928873810563 0.02021438379288989 -0.09594943393254783 -0.06144411215349246 -0.04885596055168429 
-0.1301237808919712 0.06166940122845740 -0.1052872867941545 -0.09719712419545624 0.2922995020462970 
-0.4782994159335240 0.01569332493483476 -0.1740067935442168 0.6488127997527969 0.2126884621288441 
-0.09112707745501557 0.09791109690087417 -0.04977692526575297 -0.03426219308887906 -0.02724460233491756 
-0.07181830424521943 -0.1395244910536687 0.2289758966168810 -0.1955131797940398 -0.1016647483388988 
-0.05103250221897299 -0.07720718248285964 -0.04809385797955031 0.07630567488756874 -0.02312757369519929 
0.2838727472305474 -0.4471656866608405 -0.2102868941042534 0.1714397323575424 -0.1191269159376594 
-0.2779569637574663 0.2452867798917255 -0.1537436788470384 0.04859790701497500 -0.05707899933779038 
-0.06274879421755906 0.1339577778215462 -0.04952384893425803 -0.05264308656340771 -0.02386189540575893 
0.09082182355689293 -0.008042129690729930 -0.02899774196047661 -0.09893171001422633 -0.01745097155240705 
-0.1334624598564787 0.09353668278020200 -0.1812551136330939 0.1018332617214603 -0.06171221756635850 
0.06010762948643376 -0.1463378234822738 -0.1214353560386340 0.2176294035287627 -0.05908337926542792 
-0.1087943017362815 -0.2183856482171645 -0.1118240620728826 0.2831988064414913 0.3050030494041582 
-0.09167146815436598 -0.2352915886974116 0.1420312603265923 0.04042408963257461 0.3161311545885914 
-0.04047528958195815 -0.04797891499159397 -0.1710485868532697 0.1063857321251843 -0.06148843828956835 
-0.1236407684853964 0.1365547027789814 -0.03857692928966585 -0.01796717613503149 -0.01290937141684730 
-0.1134185324737771 0.1855425023123583 -0.07326898487488304 -0.1219147423839853 -0.02665541145864409 
-0.01180104523462526 0.01904940320660852 -0.01013861608999157 -0.01057531976778812 -0.008900255866875435 
0.009548662528021131 -0.08471937852200222 0.2772971644650785 -0.2385621656910336 -0.05362974811745469 
-0.2722287637880076 -0.2457008858133825 0.3559817277369500 -0.01475998280993793 -0.02963592352253635 
-0.01054105303359924 0.01883889150869560 -0.01519395480248738 -0.008989531052119347 -0.006166046273925401 
-0.09613046277860648 -0.003916721460490501 -0.01440582473944864 0.09244775141930443 -0.002094398197170492 
-0.1252456223677281 0.09451937306396885 -0.02102491768509717 0.05984328620098429 -0.006582760435890041 
-0.01375572458048546 -0.1942771802306402 -0.04117465626353183 0.1654942601008469 -0.02005856812574927 
0.2253786183225101 -0.05841435101307788 -0.05962605922544403 -0.1176302951654120 -0.05466021640486526 
-0.01393229887369893 0.02399197299834532 -0.01288593893996336 -0.01132030674164443 -0.005446393260518435 
-0.007549773433313201 0.01307792646892152 -0.006875413424061290 -0.007222963132184815 -0.004518101471889515 
-0.01035919821651720 0.03210155298134370 -0.01709701822732664 -0.01482080515779281 -0.009365291059403515 
-0.09571602368234973 0.1380852996896384 -0.05257686408759477 -0.03008026414961876 -0.01048867444388514 
-0.004731056159496596 0.006786357357046586 -0.006510152760821596 -0.004652377065489907 -0.004830225797494355 
-0.2251920852035551 -0.1339651578511695 0.5410442524658611 -0.2330132703611191 -0.02899017132465305 
-0.07488942913396670 0.1024544576541758 -0.03631272154235403 -0.09404855975544854 -0.01979448042421143 
-0.01502767048782759 0.02689282455150276 -0.03319165172175937 -0.005267433427504831 -0.009240414733304477 
-0.01462057111950789 0.02399382545662813 -0.01364967067319393 -0.01448517128367839 -0.006458251609296802 
0.008311305750859631 0.007224696636533128 -0.02022949762498082 -0.02570990631367173 -0.01050687379202372 
-0.06637109184758848 -0.006267891704526197 -0.03526317821024147 -0.03842619981470822 0.3465835112161063 
-0.009133495636526203 0.01134640561190973 -0.007257539104253480 -0.004206433471365628 -0.004040959286761145 
-0.006922417053415881 -0.02707645578599904 -0.1142750714033589 0.06266261203127449 -0.02243887368581772 
-0.04048320702819599 -0.08802142158835971 -0.05372682223552509 0.1204609462110585 -0.008725838970588647 
0.5546395751376407 -0.01852094180085926 -0.3370081721876481 -0.03381184987404259 -0.005383219520056663 
-0.01823571999180449 -0.02084794234553126 0.03030031124434296 -0.01020168076617645 -0.004534513999137534 
-0.007517816063092522 0.01156591172768582 -0.01091750057203934 -0.005624151133580856 -0.005378582567504303 
-0.2744310571477175 0.1050793399582532 0.8601343928679840 -0.4588820930357079 -0.02604394812710465 
-0.05729997722224856 -0.05702159704496936 -0.02765131879356739 -0.03811629524909489 0.3519250582444154 
-0.003950423240280294 0.01760410107243533 -0.004523237764565204 -0.009018895991939425 -0.003913957943242116 
-0.02638450284394012 0.001149968599799436 0.03874448326125288 -0.01633655292063370 -0.005456782546071303 
-0.004097142180800621 0.002866224097499345 -0.004439420823456552 -0.0003623993189986262 -0.0005464177035096099 
-0.009477290817805333 0.02303853645816871 -0.008958183489195484 -0.008999902712538775 -0.006258977858342209 
0.04818824512118732 -0.03405524362386084 -0.05406879601563091 -0.03964360666220873 -0.02065700960329676 
-0.03164210502387903 0.01112834791759573 -0.05475664682586136 0.06184570556053925 -0.02433839175177210 
-0.006865789435012993 0.01602178240792520 -0.008040593613364407 -0.004661217995399500 -0.003546274906115808 
-0.04552423236072353 0.1667010208333189 -0.03296846741169533 -0.08744482454626427 -0.01016213063734443 
-0.006677715905815367 0.004958414691995120 -0.004906879055263915 -0.001388052920216812 -0.002637872213373301 
0.03208120346663509 0.01076773532166904 -0.01338587295205074 -0.06219348313141324 -0.006462341316150819 
0.1448700243122419 0.02456486828945920 -0.1833406007868648 0.03426012277474858 -0.01926251186939327 
-0.2851633432917925 0.2832810287668516 -0.1605726878716835 0.1445586741529119 -0.01175580456103439 
0.08516646073347010 0.04086966121030169 -0.06122786483137560 0.002105265061322328 -0.01661115647177433 
0.1068540240762057 0.02642795288325853 0.02505185485989284 -0.1865502960972680 -0.01723135557395119 
-0.1915114247654482 0.005872343118663463 -0.01427848261169499 0.1248649193255132 -0.005314637167865441 
-0.09351931540678860 -0.01091356207391134 -0.05627993397512348 0.08894793817248893 -0.01866877707181470 
-0.005960107801159051 0.008925579450306722 -0.006746399427332575 -0.004403451099633523 -0.003785910967131101 
0.1684261872554258 -0.1671540736859851 -0.05653749661614895 -0.03408002266965210 -0.01718327376174706 
-0.09049956425804555 -0.05267769340834868 -0.07706409169022820 0.1319643689846416 -0.01574301580816223 
-0.004751670758122662 0.01043137144778800 -0.006560682617367824 -0.005771912833540244 -0.002708236354570682 
-0.3591916606225949 -0.02663402419562701 -0.2066956468895888 0.4998193776006819 -0.01196064842104390 
0.1118764100321337 -0.03613295659388889 -0.002142944666462657 -0.1128658240563265 -0.01705081259753042 
-0.05126526632257209 -0.04096565601346886 0.07341733244770927 -0.03202967946074052 -0.01382983047870168 
-0.004572037538519544 0.009481473714197957 -0.005188696114663620 -0.004735881928171582 -0.002436640881157431 
-0.01738610580117831 0.03353141626088342 -0.01327337073272598 -0.002835107835977878 -0.004041688579410714 
-0.003157294572124486 0.003768855272621908 -0.003091897177698452 -0.003163126190260083 -0.002237041327523854 
-0.1607522988773409 -0.2764312078614721 -0.008167173690686190 0.3759649483248164 -0.01855406751632595 
0.05814080112272883 -0.008094958228229848 -0.008766687502180638 -0.08503353544259788 -0.009475817230346743 
-0.008679798893132562 0.01807437030709475 -0.005547510013713610 -0.01030270259202706 -0.002641992427444432 
0.2625942235129564 -0.02855815713140459 -0.1092927423517566 -0.2448215170113133 -0.02388687006631893 
-0.2357346153293538 0.1635964123297667 -0.1590651399098712 0.2054856319872681 -0.02334491370713342 
-0.005039813288019363 0.003170151092560159 -0.003579648606612093 -0.0006557248774611594 -0.002882001945392438 
-0.005641619425517529 0.007074260234565375 -0.006233472496815689 -0.002695503532656799 -0.003536401548817568 
0.1041598528347746 -0.04803167518472257 -0.05997144506803111 -0.04120191290394767 -0.02281444283941720 
-0.003940785367238110 -0.001246405787249519 -0.01252197208643185 -0.003529753757070882 -0.003799834145425111 
0.03045329705196934 0.002017498642945126 -0.04568465310626992 -0.01868426136124670 -0.005052368363556889 
0.08909918584044779 -0.04777243957597302 -0.05383081711713279 -0.03072451243029709 -0.01591808256377616 
0.1172223193821482 -0.04261485155269784 -0.03326448759680962 -0.07254236122854459 -0.01491096930097699 
0.04726967025769883 -0.04971881916584747 -0.01394703517592060 -0.04761949995226353 -0.02715923659102769 
0.06692329388955608 -0.03417221677020781 -0.02389527445345062 -0.06342486210886074 -0.01111772481411951 
-0.04001484998547867 -0.2521392468502730 -0.09482239728705305 0.3535628239092997 -0.02697264161605377 
0.01055232876385172 -0.006219025575611059 -0.01247702912012218 -0.01444306728835395 -0.005645342992377289 
-0.002551129975566442 0.002447829858370327 -0.003418274154707875 -0.002006203002016807 -0.002018598183143894 
-0.009141059222971199 0.02389607369450411 -0.008395440881107542 -0.004562619863095224 -0.003153502196273971 
-0.07854085790116311 -0.06812067762605346 -0.02893900674987248 0.008346338556261967 0.3545837229547458 
0.01695283672321699 -0.04520507557910765 0.006795763205679184 -0.01448575939816462 -0.005052486133721837 
0.005780186538833542 0.007421516717538927 0.02117775805958583 -0.03105764692393867 -0.008110218694271082 
-0.003876865378752560 0.01568977473453910 -0.006942099162568654 -0.005549470918437167 -0.002659690845127471 
-0.2521689273992875 0.1860021743402873 -0.1536421139646987 0.2506274385520133 -0.01477684327350969 
-0.007058581883577457 0.02036495243005528 -0.006716545650378319 -0.002953653737712338 -0.003180336251749325 
-0.008340894721430953 0.03061095340029052 -0.009816370784810265 -0.004693258915601265 -0.003954357138171288 
-0.002358773239007949 0.001396856412893192 -0.002358303458199273 -0.0008244942953763840 -0.001709707889502324 
0.1444547496954290 0.03907953842845643 -0.06083394586108331 -0.2045625823812459 -0.01667786729076042 
-0.003054780005307397 0.004009779696074422 -0.006239835693085676 -0.002422439574720206 -0.001881986668113010 
-0.003263745445872354 0.002130139399224119 -0.003751968602619200 -0.0002077699041503908 -0.0003955756324296213 
0.2294741555355716 0.002537746010885616 -0.07978435072313218 -0.06334857697582316 -0.01374417423194741 
-0.002512789455594688 0.01053645419725964 -0.008627039742521733 -0.004722596795980433 -0.001766642931669476 
-0.006417392299680753 0.01516691812570936 -0.004389806610780728 -0.007193301336880290 -0.003704734586434470 
0.1947932393084190 -0.05073187366093635 -0.02983219042640751 -0.1338682174115324 -0.01260299529237305 
-0.1168364303773679 0.1066486804987445 -0.01399085177852242 -0.004803019467464017 -0.002839289644367832 
-0.005135113554932229 0.002834075867409865 -0.002147153832150818 -0.0006081804061912041 -0.001437499617115028 
-0.01224916688938306 0.02190294044136289 -0.006317756957553008 -0.007867212343936109 -0.004011349546374236 
-0.05513147217173899 0.03390077304280601 -0.009913856802794508 -0.001964048279819837 -0.001897811683254416 
0 0 0 0 0 
0 0 0 0 0 
0 0 0 0 0 
0 0 0 0 0 
0 0 0 0 0 
0 0 0 0 0 
0 0 0 0 0 
0 0 0 0 0 
0 0 0 0 0 
0 0 0 0 0 
0 0 0 0 0 
0.01445393010375902 -0.05088568170624299 -0.02295534767311466 -0.008237793846536250 -0.01595152937218164 
0 0 0 0 0 
0 0 0 0 0 
0 0 0 0 0 
0 0 0 0 0 
0 0 0 0 0 
0 0 0 0 0 
0 0 0 0 0 
0 0 0 0 0 
0 0 0 0 0 
0 0 0 0 0 
0 0 0 0 0 
0.3643910904463781 -0.1527184950270537 -0.1116754581463784 -0.2694862504219409 -0.04414721403654501 
0 0 0 0 0 
0 0 0 0 0 
0 0 0 0 0 
0 0 0 0 0 
0 0 0 0 0 
0 0 0 0 0 
0 0 0 0 0 
0 0 0 0 0 
0 0 0 0 0 
0 0 0 0 0 
0 0 0 0 0 
0 0 0 0 0 
0 0 0 0 0 
-1.166182877409934 -1.112773638965709 2.893488668542746 -0.9347974243883623 -0.1321826424304252 
0 0 0 0 0 
0 0 0 0 0 
0 0 0 0 0 
0 0 0 0 0 
0 0 0 0 0 
0 0 0 0 0 
0 0 0 0 0 
0 0 0 0 0 
0 0 0 0 0 
0.04908285994537514 -0.01444899860226584 -0.008180800136772495 -0.02323276371622075 -0.005146833036076463 
0 0 0 0 0 
0 0 0 0 0 
0 0 0 0 0 
0 0 0 0 0 
0 0 0 0 0 
0 0 0 0 0 
0.02487808061250645 -0.01219288084802469 -0.01204842557672783 -0.01498743093387660 -0.002599213908342849 
0 0 0 0 0 
0 0 0 0 0 
0 0 0 0 0 
0 0 0 0 0 
0 0 0 0 0 
0 0 0 0 0 
0 0 0 0 0 
0 0 0 0 0 
0 0 0 0 0 
0 0 0 0 0 
0 0 0 0 0 
0 0 0 0 0 
0 0 0 0 0 
0 0 0 0 0 
0 0 0 0 0 
0 0 0 0 0 
0 0 0 0 0 
0 0 0 0 0 
0 0 0 0 0 
0 0 0 0 0 
0 0 0 0 0 
0 0 0 0 0 
0 0 0 0 0 
0 0 0 0 0 
0 0 0 0 0 
0 0 0 0 0 
0 0 0 0 0 
0 0 0 0 0 
0 0 0 0 0 
0 0 0 0 0 
0 0 0 0 0 
0 0 0 0 0 
0 0 0 0 0 
0 0 0 0 0 
0 0 0 0 0 
0 0 0 0 0 
0 0 0 0 0 
0 0 0 0 0 
-0.4713961765640872 -0.04365289489788117 -0.1050644825535768 0.5294173153146329 -0.01209229877321986 
0 0 0 0 0 
0.6609763847397555 -0.1159576889624735 -0.09542750045944833 -0.5046285974396795 -0.02415528019842061 
0 0 0 0 0 
0 0 0 0 0 
0 0 0 0 0 
0 0 0 0 0 
0 0 0 0 0 
0 0 0 0 0 
0 0 0 0 0 
0 0 0 0 0 
0 0 0 0 0 
0 0 0 0 0 
0 0 0 0 0 
0 0 0 0 0 
0 0 0 0 0 
0 0 0 0 0 
0 0 0 0 0 
-0.03939190070296605 -0.9934222707284850 -0.1580099919663323 1.259198265286910 -0.02528470455989001 
0 0 0 0 0 
0 0 0 0 0 
0 0 0 0 0 
0 0 0 0 0 
0 0 0 0 0 
0 0 0 0 0 
0 0 0 0 0 
0 0 0 0 0 
0 0 0 0 0 
0 0 0 0 0 
0 0 0 0 0 
0 0 0 0 0 
0 0 0 0 0 
0 0 0 0 0 
0 0 0 0 0 
0 0 0 0 0 
0 0 0 0 0 
0 0 0 0 0 
0.02432824847613287 -0.02133498273279747 -0.007044411647984258 -0.01254469279255284 -0.002804693548471882 
0 0 0 0 0 
0 0 0 0 0 
0 0 0 0 0 
0 0 0 0 0 
0 0 0 0 0 
0 0 0 0 0 
0 0 0 0 0 
0 0 0 0 0 
0 0 0 0 0 
0 0 0 0 0 
0 0 0 0 0 
0 0 0 0 0 
0 0 0 0 0 
0 0 0 0 0 
0 0 0 0 0 
0 0 0 0 0 
0 0 0 0 0 
0 0 0 0 0 
0 0 0 0 0 
0 0 0 0 0 
-0.05004954774776941 -0.07560366007319216 -0.01946479594510244 -0.02813766939391288 0.3579822653613052 
0 0 0 0 0 
0 0 0 0 0 
0 0 0 0 0 
0 0 0 0 0 
0 0 0 0 0 
0 0 0 0 0 
0 0 0 0 0 
0 0 0 0 0 
0 0 0 0 0 
0 0 0 0 0 
0 0 0 0 0 
0 0 0 0 0 
0 0 0 0 0 
0 0 0 0 0 
0 0 0 0 0 
0 0 0 0 0 
0 0 0 0 0 
0 0 0 0 0 
0.09240960075652539 -0.02651885005966427 -0.01970131794409568 -0.04405010402497048 -0.009452807333375347 
0 0 0 0 0 
0 0 0 0 0 
0 0 0 0 0 
0 0 0 0 0 
0 0 0 0 0 
0 0 0 0 0 
0 0 0 0 0 
0 0 0 0 0 
0 0 0 0 0 
0 0 0 0 0 
0 0 0 0 0 
0 0 0 0 0 
0 0 0 0 0 
0 0 0 0 0 
0 0 0 0 0 
0 0 0 0 0 
0 0 0 0 0 
0 0 0 0 0 
0 0 0 0 0 
0 0 0 0 0 
0 0 0 0 0 
0 0 0 0 0 
0 0 0 0 0 
0 0 0 0 0 
0 0 0 0 0 
0 0 0 0 0 
0 0 0 0 0 
0 0 0 0 0 
0 0 0 0 0 
0 0 0 0 0 
0 0 0 0 0 
0 0 0 0 0 
0 0 0 0 0 
0 0 0 0 0 
0 0 0 0 0 
0 0 0 0 0 
0 0 0 0 0 
0 0 0 0 0 
0 0 0 0 0 
0 0 0 0 0 
0.02487808061250645 -0.01219288084802469 -0.01204842557672783 -0.01498743093387660 -0.002599213908342849 
0 0 0 0 0 
0 0 0 0 0 
0 0 0 0 0 
0 0 0 0 0 
0 0 0 0 0 
0.004491217555002721 -0.004963321913401216 -0.01554040617300369 -0.004617617955842786 -0.008827287513027318 
0 0 0 0 0 
0 0 0 0 0 
0 0 0 0 0 
0 0 0 0 0 
0 0 0 0 0 
0 0 0 0 0 
0.004491217555002721 -0.004963321913401216 -0.01554040617300369 -0.004617617955842786 -0.008827287513027318 
0 0 0 0 0 
0 0 0 0 0 
0 0 0 0 0 
0 0 0 0 0 
0.8004441655585479 -0.2735678357546305 -0.2646772891590889 -0.4809878892345100 -0.08013703316689233 
0 0 0 0 0 
0 0 0 0 0 
0 0 0 0 0 
0.01916305273510431 -0.01034821282592031 -0.01110901886563817 -0.02387857551097208 -0.005927226291553220 
0 0 0 0 0 
0 0 0 0 0 
0 0 0 0 0 
0 0 0 0 0 
0 0 0 0 0 
0 0 0 0 0 
0 0 0 0 0 
0.4364163595303766 -0.3340814515923389 -0.1887822689711418 -0.1788292472322013 -0.09332825800356444 
0 0 0 0 0 
0 0 0 0 0 
0 0 0 0 0 
0 0 0 0 0 
0 0 0 0 0 
0 0 0 0 0 
0 0 0 0 0 
0 0 0 0 0 
0 0 0 0 0 
0 0 0 0 0 
0 0 0 0 0 
0 0 0 0 0 
0 0 0 0 0 
0 0 0 0 0 
0 0 0 0 0 
0 0 0 0 0 
0 0 0 0 0 
0 0 0 0 0 
0 0 0 0 0 
0 0 0 0 0 
0.09098009978169837 -0.009800965987779407 -0.01936589150645563 -0.04225511546548716 -0.002637535517664562 
0 0 0 0 0 
0 0 0 0 0 
0 0 0 0 0 
0 0 0 0 0 
0 0 0 0 0 
0 0 0 0 0 
0 0 0 0 0 
0 0 0 0 0 
0 0 0 0 0 
0 0 0 0 0 
0 0 0 0 0 
0 0 0 0 0 
0 0 0 0 0 
0.06628046114451977 -0.03040552819171969 -0.01056193013550648 -0.03990080021154370 -0.002882026329671546 
0 0 0 0 0 
0 0 0 0 0 
0 0 0 0 0 
0 0 0 0 0 
0 0 0 0 0 
0 0 0 0 0 
0 0 0 0 0 
0 0 0 0 0 
-1.959987474157259 3.048661206313111 -1.480524790123297 0.01483953408451918 -0.3510554374323163 
0 0 0 0 0 
0 0 0 0 0 
0 0 0 0 0 
0.09098009978169837 -0.009800965987779407 -0.01936589150645563 -0.04225511546548716 -0.002637535517664562 
0 0 0 0 0 
0.1110798584641753 -0.03444158864814780 -0.02144067933743357 -0.03695711324398641 -0.007743458972636827 
0 0 0 0 0 
0 0 0 0 0 
0 0 0 0 0 
0 0 0 0 0 
0 0 0 0 0 
0 0 0 0 0 
0 0 0 0 0 
-0.2215922388068553 -0.02693574924107819 -0.05265527807141422 0.3653147174918931 -0.004961978158297574 
0 0 0 0 0 
0 0 0 0 0 
0 0 0 0 0 
0 0 0 0 0 
0 0 0 0 0 
0 0 0 0 0 
0 0 0 0 0 
0 0 0 0 0 
0 0 0 0 0 
0 0 0 0 0 
0 0 0 0 0 
0 0 0 0 0 
0 0 0 0 0 
0 0 0 0 0 
0 0 0 0 0 
0 0 0 0 0 
0 0 0 0 0 
0 0 0 0 0 
0 0 0 0 0 
0.01916305273510431 -0.01034821282592031 -0.01110901886563817 -0.02387857551097208 -0.005927226291553220 
0 0 0 0 0 
0.09879574040607869 -0.02678521412838813 -0.1009687525172721 -0.02003408742611024 -0.01468329023467848 
0 0 0 0 0 
0 0 0 0 0 
0.2969930668269868 -0.05097357127620044 -0.04103578534472937 -0.1245330285278452 -0.007274445838229268 
0.1042374239209312 -0.005468557753440832 -0.02599877630438707 -0.1236030311144691 -0.002083083329315002 
0 0 0 0 0 
0 0 0 0 0 
0 0 0 0 0 
0 0 0 0 0 
0.01622788427608494 -0.003447465234237708 -0.002974641203122825 -0.02297698414177080 -0.003658624763470445 
0 0 0 0 0 
0 0 0 0 0 
0 0 0 0 0 
0 0 0 0 0 
0 0 0 0 0 
0 0 0 0 0 
0 0 0 0 0 
0 0 0 0 0 
0 0 0 0 0 
0 0 0 0 0 
0.01823193993174689 -0.03501025718588818 -0.01970591028968553 -0.003147956008362003 -0.01155769843990432 
0 0 0 0 0 
0 0 0 0 0 
0 0 0 0 0 
0 0 0 0 0 
0 0 0 0 0 
0 0 0 0 0 
0 0 0 0 0 
0 0 0 0 0 
0 0 0 0 0 
0 0 0 0 0 
0 0 0 0 0 
0 0 0 0 0 
0 0 0 0 0 
0 0 0 0 0 
0 0 0 0 0 
0 0 0 0 0 
0 0 0 0 0 
0 0 0 0 0 
0 0 0 0 0 
0 0 0 0 0 
0 0 0 0 0 
0 0 0 0 0 
0 0 0 0 0 
0 0 0 0 0 
0 0 0 0 0 
0 0 0 0 0 
0 0 0 0 0 
0 0 0 0 0 
0 0 0 0 0 
0 0 0 0 0 
0 0 0 0 0 
0.05620137866134792 -0.02748579846893992 -0.03633516761395337 -0.01697750436246193 -0.007558694634085884 
0 0 0 0 0 
0 0 0 0 0 
0 0 0 0 0 
0 0 0 0 0 
0.3904166581463522 -0.1017679819243700 -0.08646253766331284 -0.2351425745928207 -0.02534633667181929 
0 0 0 0 0 
0 0 0 0 0 
0 0 0 0 0 
0 0 0 0 0 
0 0 0 0 0 
0 0 0 0 0 
0 0 0 0 0 
0 0 0 0 0 
0 0 0 0 0 
0 0 0 0 0 
0 0 0 0 0 
0 0 0 0 0 
0.6698990113532775 -0.7971097037503784 -0.7656450057373545 -0.8842060254666604 -0.9404257291494693 
0 0 0 0 0 
0 0 0 0 0 
0 0 0 0 0 
0 0 0 0 0 
0 0 0 0 0 
0 0 0 0 0 
0 0 0 0 0 
0.07885439952746712 -0.03392242010353402 -0.04290220961006117 -0.03624947453700564 -0.01581022033211988 
0 0 0 0 0 
0 0 0 0 0 
0 0 0 0 0 
0 0 0 0 0 
0 0 0 0 0 
0 0 0 0 0 
0 0 0 0 0 
0.2247042970663607 -0.1415738365579263 -0.1519295587316353 -0.1039018202434758 -0.04508644720562877 
0 0 0 0 0 
0 0 0 0 0 
0 0 0 0 0 
0 0 0 0 0 
0 0 0 0 0 
0 0 0 0 0 
0 0 0 0 0 
0 0 0 0 0 
0 0 0 0 0 
0 0 0 0 0 
0 0 0 0 0 
0 0 0 0 0 
0 0 0 0 0 
0 0 0 0 0 
0 0 0 0 0 
0 0 0 0 0 
0 0 0 0 0 
0 0 0 0 0 
0 0 0 0 0 
0 0 0 0 0 
0 0 0 0 0 
-1.803990863587814 1.484887532308909 1.052512158978484 -0.8544752270958090 -0.1539291791866936 
0 0 0 0 0 
0 0 0 0 0 
0 0 0 0 0 
0 0 0 0 0 
0 0 0 0 0 
0 0 0 0 0 
0 0 0 0 0 
0 0 0 0 0 
0 0 0 0 0 
0 0 0 0 0 
0 0 0 0 0 
0 0 0 0 0 
0 0 0 0 0 
0 0 0 0 0 
0 0 0 0 0 
0 0 0 0 0 
0 0 0 0 0 
0 0 0 0 0 
0 0 0 0 0 
0 0 0 0 0 
0 0 0 0 0 
0 0 0 0 0 
0 0 0 0 0 
0 0 0 0 0 
0 0 0 0 0 
0 0 0 0 0 
0 0 0 0 0 
0 0 0 0 0 
0 0 0 0 0 
0 0 0 0 0 
0 0 0 0 0 
0 0 0 0 0 
0 0 0 0 0 
0.09240960075652539 -0.02651885005966427 -0.01970131794409568 -0.04405010402497048 -0.009452807333375347 
0.5303342354121903 -1.189725002175127 -0.7319793241848859 0.9603528307337259 -0.3614127905537926 
0 0 0 0 0 
0 0 0 0 0 
0 0 0 0 0 
0 0 0 0 0 
0 0 0 0 0 
0 0 0 0 0 
0 0 0 0 0 
0 0 0 0 0 
0.2357383585157847 -0.06765642526414026 -0.08970605655238258 -0.1535855477068565 -0.02879400446084329 
0.09518355297440348 -0.03304207532854744 -0.01203588772739501 -0.04309151704883318 -0.004067138177854533 
0 0 0 0 0 
0 0 0 0 0 
0 0 0 0 0 
0 0 0 0 0 
0 0 0 0 0 
0 0 0 0 0 
0 0 0 0 0 
0 0 0 0 0 
0 0 0 0 0 
0.04908285994537514 -0.01444899860226584 -0.008180800136772495 -0.02323276371622075 -0.005146833036076463 
0 0 0 0 0 
0 0 0 0 0 
0 0 0 0 0 
0 0 0 0 0 
0.01622788427608494 -0.003447465234237708 -0.002974641203122825 -0.02297698414177080 -0.003658624763470445 
0 0 0 0 0 
-1.132878481912004 -0.08924028973203442 -0.1859107879183898 1.306707463207904 -0.02490838098862744 
0 0 0 0 0 
0 0 0 0 0 
0 0 0 0 0 
0 0 0 0 0 
0 0 0 0 0 
0 0 0 0 0 
0 0 0 0 0 
0 0 0 0 0 
0 0 0 0 0 
0 0 0 0 0 
0 0 0 0 0 
0 0 0 0 0 
0 0 0 0 0 
-0.03620855158797175 -0.01046509754120593 -0.05067258769228074 0.1849672954366498 -0.01169097097222227 
0 0 0 0 0 
0 0 0 0 0 
0.7324450710601115 -0.3983845576753946 -0.4190062757704479 -0.4784264476316446 -0.1687044724478460 
0 0 0 0 0 
0 0 0 0 0 
0 0 0 0 0 
0 0 0 0 0 
0 0 0 0 0 
0 0 0 0 0 
0 0 0 0 0 
0 0 0 0 0 
0 0 0 0 0 
0 0 0 0 0 
0 0 0 0 0 
0 0 0 0 0 
0 0 0 0 0 
0 0 0 0 0 
0 0 0 0 0 
0.8690956008748381 -0.5523187484937464 -0.4423333665160724 -0.4371052907142626 -0.1931117479711531 
0 0 0 0 0 
0 0 0 0 0 
0 0 0 0 0 
0 0 0 0 0 
0.01330204501781752 -0.009030907732801817 -0.01750526725524492 -0.003977199225278745 -0.002567023394383144 
0 0 0 0 0 
0 0 0 0 0 
0 0 0 0 0 
0 0 0 0 0 
0 0 0 0 0 
0 0 0 0 0 
0 0 0 0 0 
0 0 0 0 0 
0 0 0 0 0 
0 0 0 0 0 
0 0 0 0 0 
0 0 0 0 0 
0.009904908928699704 -0.01367063608013334 -0.02025257064425048 -0.01548608010988777 -0.01374018424222954 
0 0 0 0 0 
0 0 0 0 0 
0 0 0 0 0 
0 0 0 0 0 
0 0 0 0 0 
0 0 0 0 0 
0 0 0 0 0 
0 0 0 0 0 
0 0 0 0 0 
0 0 0 0 0 
0 0 0 0 0 
0 0 0 0 0 
0 0 0 0 0 
0 0 0 0 0 
0 0 0 0 0 
0 0 0 0 0 
0 0 0 0 0 
0 0 0 0 0 
0 0 0 0 0 
0 0 0 0 0 
0 0 0 0 0 
0.01005014708986227 -0.01859538985146411 -0.005669494078408877 -0.01011270955291687 -0.007288689623490064 
0.1110798584641753 -0.03444158864814780 -0.02144067933743357 -0.03695711324398641 -0.007743458972636827 
0 0 0 0 0 
0 0 0 0 0 
0 0 0 0 0 
0 0 0 0 0 
0 0 0 0 0 
0 0 0 0 0 
0 0 0 0 0 
0 0 0 0 0 
0 0 0 0 0 
0 0 0 0 0 
0 0 0 0 0 
0.3015118151009862 -0.1144096508396132 -0.08226012352300220 -0.1664788885283889 -0.02068796531436297 
0 0 0 0 0 
0 0 0 0 0 
0 0 0 0 0 
0 0 0 0 0 
0 0 0 0 0 
0.01870666676206985 -0.02478377445267897 -0.02799300825607550 -0.01138024232772888 -0.01753656901669645 
0 0 0 0 0 
0 0 0 0 0 
0 0 0 0 0 
0 0 0 0 0 
0 0 0 0 0 
0 0 0 0 0 
0 0 0 0 0 
0 0 0 0 0 
0 0 0 0 0 
0 0 0 0 0 
0.9123924257749483 -0.1129855941199537 -0.2038810080825665 -0.07607637031607530 -0.004293041282715560 
0 0 0 0 0 
0 0 0 0 0 
0 0 0 0 0 
0 0 0 0 0 
0 0 0 0 0 
0 0 0 0 0 
0 0 0 0 0 
0.04615181177642951 -0.04887042188915264 -0.05245887394236486 -0.01671174973470424 -0.02274114416386697 
0 0 0 0 0 
0 0 0 0 0 
0 0 0 0 0 
0.04950375194910994 -0.007370989010520917 -0.01271708108491546 -0.03273093253209813 -0.003740473018408409 
0 0 0 0 0 
0 0 0 0 0 
0 0 0 0 0 
0 0 0 0 0 
0 0 0 0 0 
0 0 0 0 0 
0.2877432445341833 -0.1565155268450915 -0.02001456896868415 -0.007923704120387747 -0.003089716718789027 
0 0 0 0 0 
0 0 0 0 0 
0 0 0 0 0 
0 0 0 0 0 
0 0 0 0 0 
0.04332674081115026 -0.01206985145739842 -0.01152051780732318 -0.02081734030874974 -0.004305974297298883 
0 0 0 0 0 
0 0 0 0 0 
0 0 0 0 0 
0 0 0 0 0 
0 0 0 0 0 
0 0 0 0 0 
0 0 0 0 0 
0 0 0 0 0 
0 0 0 0 0 
0 0 0 0 0 
0 0 0 0 0 
0 0 0 0 0 
0 0 0 0 0 
0 0 0 0 0 
0 0 0 0 0 
0 0 0 0 0 
0 0 0 0 0 
0 0 0 0 0 
0 0 0 0 0 
0 0 0 0 0 
0 0 0 0 0 
0 0 0 0 0 
0 0 0 0 0 
0 0 0 0 0 
0 0 0 0 0 
0 0 0 0 0 
0 0 0 0 0 
0 0 0 0 0 
0 0 0 0 0 
0 0 0 0 0 
0 0 0 0 0 
0 0 0 0 0 
0 0 0 0 0 
0 0 0 0 0 
-1.927169554578003 -0.2615240984637008 0.2804586426010881 1.744079225254389 -0.1274733217043432 
0.007721084398198693 -0.006003965859298677 -0.01184392834361490 -0.006303536462331912 -0.004832464265044960 
0.04908285994537514 -0.01444899860226584 -0.008180800136772495 -0.02323276371622075 -0.005146833036076463 
-0.05004954774776941 -0.07560366007319216 -0.01946479594510244 -0.02813766939391288 0.3579822653613052 
-0.1694582578212643 -0.004871775217563434 -0.01148556756113744 0.1671971970841301 -0.001489407585072993 
0 0 0 0 0 
0 0 0 0 0 
0 0 0 0 0 
0 0 0 0 0 
0 0 0 0 0 
0 0 0 0 0 
0 0 0 0 0 
0.6619650108075491 -0.3281791530534445 -0.3595029901800987 -0.4491700051043875 -0.1431586347355071 
0 0 0 0 0 
0 0 0 0 0 
0 0 0 0 0 
0 0 0 0 0 
0 0 0 0 0 
0 0 0 0 0 
0.07905314267896810 -0.01597875043275343 -0.01000383396954149 -0.03577139834597976 -0.004615134356001521 
0 0 0 0 0 
0 0 0 0 0 
0.2913261909682223 -0.09061960211503843 -0.09618973805736895 -0.1662548570826725 -0.04008988684799585 
0 0 0 0 0 
0 0 0 0 0 
0 0 0 0 0 
0 0 0 0 0 
0 0 0 0 0 
0 0 0 0 0 
0 0 0 0 0 
0 0 0 0 0 
0 0 0 0 0 
0 0 0 0 0 
0 0 0 0 0 
0 0 0 0 0 
0 0 0 0 0 
0 0 0 0 0 
0 0 0 0 0 
0 0 0 0 0 
0 0 0 0 0 
0 0 0 0 0 
0 0 0 0 0 
0 0 0 0 0 
0 0 0 0 0 
0 0 0 0 0 
0 0 0 0 0 
0 0 0 0 0 
0 0 0 0 0 
0 0 0 0 0 
0 0 0 0 0 
0 0 0 0 0 
0 0 0 0 0 
0 0 0 0 0 
0 0 0 0 0 
0.1816394244244541 -0.05603486167458006 -0.04883083829483783 -0.1126194992894565 -0.01991578231363483 
0 0 0 0 0 
0 0 0 0 0 
0 0 0 0 0 
0 0 0 0 0 
0 0 0 0 0 
0 0 0 0 0 
0 0 0 0 0 
0 0 0 0 0 
0 0 0 0 0 
0 0 0 0 0 
0 0 0 0 0 
0 0 0 0 0 
0 0 0 0 0 
0.4180976610060841 -0.1762571036695979 -0.1964644125828252 -0.3213896093499397 -0.09214496123832512 
0.1643302609612133 -0.06407375277065114 -0.08820118193029954 -0.1173065104266360 -0.03582626394303713 
0 0 0 0 0 
0 0 0 0 0 
0 0 0 0 0 
0 0 0 0 0 
0 0 0 0 0 
0 0 0 0 0 
0 0 0 0 0 
0.02813684886044660 -0.04868089326602152 -0.03995848093393602 -0.01863403611824978 -0.02529788268213386 
0 0 0 0 0 
0 0 0 0 0 
0 0 0 0 0 
0 0 0 0 0 
0.08986400940811275 -0.05131050393608173 -0.09422811721997190 -0.05929724150294338 -0.02454000741958572 
0 0 0 0 0 
0 0 0 0 0 
0 0 0 0 0 
0 0 0 0 0 
0 0 0 0 0 
0.2877432445341833 -0.1565155268450915 -0.02001456896868415 -0.007923704120387747 -0.003089716718789027 
0 0 0 0 0 
0 0 0 0 0 
-1.273656628175623 0.2951625301337804 0.3205328347935961 0.1058776036379173 -0.5153419697404862 
0 0 0 0 0 
0 0 0 0 0 
0 0 0 0 0 
0 0 0 0 0 
0 0 0 0 0 
0 0 0 0 0 
0 0 0 0 0 
0 0 0 0 0 
0 0 0 0 0 
0 0 0 0 0 
0 0 0 0 0 
0.004491217555002721 -0.004963321913401216 -0.01554040617300369 -0.004617617955842786 -0.008827287513027318 
0 0 0 0 0 
0 0 0 0 0 
0 0 0 0 0 
0 0 0 0 0 
0 0 0 0 0 
0 0 0 0 0 
0.1631914261112989 -0.08977256871300521 -0.09734766741971602 0.1783146039971395 -0.01721535927026337 
0 0 0 0 0 
0 0 0 0 0 
0 0 0 0 0 
0 0 0 0 0 
0 0 0 0 0 
0 0 0 0 0 
0 0 0 0 0 
0 0 0 0 0 
0.1278395063756461 -0.02933486540370042 -0.01566033700416435 -0.06743428352473706 -0.007184455799916637 
0 0 0 0 0 
0 0 0 0 0 
0 0 0 0 0 
0 0 0 0 0 
0 0 0 0 0 
0 0 0 0 0 
0 0 0 0 0 
0.003780934298123977 -0.003080825311664808 -0.003603936325039306 -0.005989673422679209 -0.003690223111852987 
0 0 0 0 0 
0 0 0 0 0 
0 0 0 0 0 
0 0 0 0 0 
0 0 0 0 0 
0 0 0 0 0 
0 0 0 0 0 
0 0 0 0 0 
0 0 0 0 0 
0 0 0 0 0 
0 0 0 0 0 
0 0 0 0 0 
0 0 0 0 0 
0 0 0 0 0 
0 0 0 0 0 
0 0 0 0 0 
0 0 0 0 0 
0.3704238658417221 -0.2025643524117898 -0.1651159121121821 -0.2989517708685399 -0.07991240625204575 
0 0 0 0 0 
0 0 0 0 0 
0 0 0 0 0 
0 0 0 0 0 
0 0 0 0 0 
0 0 0 0 0 
0 0 0 0 0 
0 0 0 0 0 
0 0 0 0 0 
0 0 0 0 0 
0 0 0 0 0 
0 0 0 0 0 
0 0 0 0 0 
0 0 0 0 0 
0 0 0 0 0 
0 0 0 0 0 
0 0 0 0 0 
0 0 0 0 0 
0 0 0 0 0 
0 0 0 0 0 
0 0 0 0 0 
0 0 0 0 0 
0 0 0 0 0 
0 0 0 0 0 
0 0 0 0 0 
0 0 0 0 0 
0 0 0 0 0 
0 0 0 0 0 
0 0 0 0 0 
0 0 0 0 0 
0.02360726285375522 -0.01562979289797511 -0.009770850463250266 -0.01459809213824976 -0.002738796150324873 
0 0 0 0 0 
0 0 0 0 0 
0 0 0 0 0 
0 0 0 0 0 
0 0 0 0 0 
0 0 0 0 0 
0 0 0 0 0 
0 0 0 0 0 
0 0 0 0 0 
0 0 0 0 0 
0 0 0 0 0 
0 0 0 0 0 
0 0 0 0 0 
0 0 0 0 0 
0 0 0 0 0 
0 0 0 0 0 
0 0 0 0 0 
0 0 0 0 0 
0 0 0 0 0 
0 0 0 0 0 
0 0 0 0 0 
0 0 0 0 0 
0 0 0 0 0 
0 0 0 0 0 
0 0 0 0 0 
0 0 0 0 0 
0 0 0 0 0 
0 0 0 0 0 
0 0 0 0 0 
0 0 0 0 0 
0 0 0 0 0 
0 0 0 0 0 
0 0 0 0 0 
0 0 0 0 0 
0 0 0 0 0 
0 0 0 0 0 
0 0 0 0 0 
0 0 0 0 0 
0 0 0 0 0 
0 0 0 0 0 
0.4619255447329142 -0.1357038416953336 -0.1489884017074183 -0.2916395951705397 -0.04416825170064899 
0 0 0 0 0 
0 0 0 0 0 
0 0 0 0 0 
0 0 0 0 0 
0 0 0 0 0 
0 0 0 0 0 
0 0 0 0 0 
0 0 0 0 0 
0 0 0 0 0 
0 0 0 0 0 
0 0 0 0 0 
0 0 0 0 0 
0 0 0 0 0 
0 0 0 0 0 
0 0 0 0 0 
0 0 0 0 0 
0 0 0 0 0 
0 0 0 0 0 
0 0 0 0 0 
0 0 0 0 0 
0 0 0 0 0 
0 0 0 0 0 
0 0 0 0 0 
0 0 0 0 0 
0 0 0 0 0 
0 0 0 0 0 
0 0 0 0 0 
0 0 0 0 0 
0 0 0 0 0 
0 0 0 0 0 
0 0 0 0 0 
0 0 0 0 0 
0 0 0 0 0 
0 0 0 0 0 
0 0 0 0 0 
0 0 0 0 0 
0 0 0 0 0 
0 0 0 0 0 
0 0 0 0 0 
0 0 0 0 0 
0 0 0 0 0 
0 0 0 0 0 
0 0 0 0 0 
0 0 0 0 0 
0 0 0 0 0 
0 0 0 0 0 
0 0 0 0 0 
0 0 0 0 0 
0 0 0 0 0 
0 0 0 0 0 
0 0 0 0 0 
0 0 0 0 0 
0 0 0 0 0 
0 0 0 0 0 
0 0 0 0 0 
0 0 0 0 0 
0 0 0 0 0 
0 0 0 0 0 
0 0 0 0 0 
0 0 0 0 0 
0 0 0 0 0 
0 0 0 0 0 
0 0 0 0 0 
0 0 0 0 0 
0 0 0 0 0 
0 0 0 0 0 
0 0 0 0 0 
0 0 0 0 0 
0 0 0 0 0 
0 0 0 0 0 
0 0 0 0 0 
0 0 0 0 0 
0 0 0 0 0 
0 0 0 0 0 
0 0 0 0 0 
0 0 0 0 0 
0 0 0 0 0 
0 0 0 0 0 
0 0 0 0 0 
0 0 0 0 0 
0 0 0 0 0 
0 0 0 0 0 
0 0 0 0 0 
0 0 0 0 0 
0 0 0 0 0 
0 0 0 0 0 
0 0 0 0 0 
0 0 0 0 0 
0 0 0 0 0 
0 0 0 0 0 
0 0 0 0 0 
0 0 0 0 0 
0 0 0 0 0 
0 0 0 0 0 
0 0 0 0 0 
0 0 0 0 0 
0 0 0 0 0 
0 0 0 0 0 
0 0 0 0 0 
0 0 0 0 0 
0 0 0 0 0 
0 0 0 0 0 
0 0 0 0 0 
-0.07040633066283553 0.04979079826389100 -0.01355239736149930 -0.005675898719837364 -0.004650439969226048 
0 0 0 0 0 
0 0 0 0 0 
0 0 0 0 0 
0 0 0 0 0 
0 0 0 0 0 
0 0 0 0 0 
0 0 0 0 0 
0 0 0 0 0 
0 0 0 0 0 
0 0 0 0 0 
0 0 0 0 0 
0.02360726285375522 -0.01562979289797511 -0.009770850463250266 -0.01459809213824976 -0.002738796150324873 
0 0 0 0 0 
0 0 0 0 0 
0 0 0 0 0 
0 0 0 0 0 
0 0 0 0 0 
0 0 0 0 0 
0 0 0 0 0 
0 0 0 0 0 
0 0 0 0 0 
0 0 0 0 0 
0 0 0 0 0 
0 0 0 0 0 
0 0 0 0 0 
0 0 0 0 0 
0 0 0 0 0 
0 0 0 0 0 
0 0 0 0 0 
1.399251465090690 -1.033319896572376 -0.4138084751397012 -0.5713102101333959 -0.1614130630343142 
0 0 0 0 0 
0 0 0 0 0 
0 0 0 0 0 
0 0 0 0 0 
0 0 0 0 0 
0 0 0 0 0 
0 0 0 0 0 
0 0 0 0 0 
0 0 0 0 0 
0 0 0 0 0 
0 0 0 0 0 
0 0 0 0 0 
0 0 0 0 0 
0 0 0 0 0 
0 0 0 0 0 
0 0 0 0 0 
0 0 0 0 0 
0 0 0 0 0 
0 0 0 0 0 
0 0 0 0 0 
0 0 0 0 0 
0 0 0 0 0 
0 0 0 0 0 
0 0 0 0 0 
0 0 0 0 0 
0 0 0 0 0 
0 0 0 0 0 
0 0 0 0 0 
0 0 0 0 0 
0 0 0 0 0 
0 0 0 0 0 
0 0 0 0 0 
0 0 0 0 0 
0 0 0 0 0 
0 0 0 0 0 
0 0 0 0 0 
0 0 0 0 0 
0 0 0 0 0 
0 0 0 0 0 
0 0 0 0 0 
0 0 0 0 0 
0 0 0 0 0 
0 0 0 0 0 
0 0 0 0 0 
0 0 0 0 0 
0 0 0 0 0 
0.2765171629187558 -0.1178753656796456 -0.09358071148556603 -0.04848413973257753 -0.01147238181884278 
0 0 0 0 0 
0 0 0 0 0 
0 0 0 0 0 
0 0 0 0 0 
0 0 0 0 0 
0 0 0 0 0 
0 0 0 0 0 
0 0 0 0 0 
0 0 0 0 0 
0 0 0 0 0 
0 0 0 0 0 
0 0 0 0 0 
0 0 0 0 0 
0 0 0 0 0 
0 0 0 0 0 
0 0 0 0 0 
0 0 0 0 0 
0 0 0 0 0 
0.07949716823900388 -0.04981127740149669 0.0008360303426746006 -0.03314499082033948 -0.01321615362679883 
0 0 0 0 0 
0 0 0 0 0 
0 0 0 0 0 
0 0 0 0 0 
0 0 0 0 0 
0 0 0 0 0 
0 0 0 0 0 
0 0 0 0 0 
0 0 0 0 0 
0 0 0 0 0 
0 0 0 0 0 
0 0 0 0 0 
0 0 0 0 0 
0 0 0 0 0 
0 0 0 0 0 
0 0 0 0 0 
0 0 0 0 0 
0 0 0 0 0 
0 0 0 0 0 
0 0 0 0 0 
0 0 0 0 0 
0 0 0 0 0 
0 0 0 0 0 
0 0 0 0 0 
0 0 0 0 0 
0 0 0 0 0 
0 0 0 0 0 
0 0 0 0 0 
0.3651804836127213 -0.1391921071018886 -0.09874608908807145 -0.1757359524892773 -0.04080468367000349 
0.1472378858498901 -0.01426674391524818 -0.01543802396432067 -0.06349245940688172 -0.002959829695037325 
0 0 0 0 0 
0 0 0 0 0 
0 0 0 0 0 
0 0 0 0 0 
0 0 0 0 0 
0 0 0 0 0 
0 0 0 0 0 
0 0 0 0 0 
0 0 0 0 0 
0 0 0 0 0 
0 0 0 0 0 
0 0 0 0 0 
0 0 0 0 0 
0 0 0 0 0 
0 0 0 0 0 
0 0 0 0 0 
0 0 0 0 0 
0 0 0 0 0 
0 0 0 0 0 
0 0 0 0 0 
0 0 0 0 0 
0 0 0 0 0 
0 0 0 0 0 
0 0 0 0 0 
0 0 0 0 0 
0 0 0 0 0 
0 0 0 0 0 
0 0 0 0 0 
0 0 0 0 0 
0 0 0 0 0 
0 0 0 0 0 
0 0 0 0 0 
0 0 0 0 0 
0 0 0 0 0 
0 0 0 0 0 
0 0 0 0 0 
0 0 0 0 0 
0 0 0 0 0 
0 0 0 0 0 
0 0 0 0 0 
0 0 0 0 0 
0 0 0 0 0 
0 0 0 0 0 
0 0 0 0 0 
0 0 0 0 0 
0 0 0 0 0 
0 0 0 0 0 
0 0 0 0 0 
0 0 0 0 0 
0 0 0 0 0 
0 0 0 0 0 
0 0 0 0 0 
0.5795721655848294 -0.2703947390712900 -0.2502972089996179 -0.2946959962011137 -0.08724970462913159 
0 0 0 0 0 
0 0 0 0 0 
0 0 0 0 0 
0 0 0 0 0 
0 0 0 0 0 
0 0 0 0 0 
0 0 0 0 0 
0 0 0 0 0 
0 0 0 0 0 
0 0 0 0 0 
0 0 0 0 0 
0 0 0 0 0 
0.6698990113532775 -0.7971097037503784 -0.7656450057373545 -0.8842060254666604 -0.9404257291494693 
0 0 0 0 0 
0 0 0 0 0 
0 0 0 0 0 
0 0 0 0 0 
0 0 0 0 0 
0 0 0 0 0 
0 0 0 0 0 
0 0 0 0 0 
0 0 0 0 0 
0 0 0 0 0 
0 0 0 0 0 
0 0 0 0 0 
0 0 0 0 0 
0 0 0 0 0 
0 0 0 0 0 
0 0 0 0 0 
0 0 0 0 0 
0 0 0 0 0 
0 0 0 0 0 
0 0 0 0 0 
0 0 0 0 0 
0 0 0 0 0 
0 0 0 0 0 
0 0 0 0 0 
0 0 0 0 0 
0 0 0 0 0 
0 0 0 0 0 
0 0 0 0 0 
0 0 0 0 0 
0 0 0 0 0 
0 0 0 0 0 
0 0 0 0 0 
0 0 0 0 0 
0 0 0 0 0 
0 0 0 0 0 
0 0 0 0 0 
0 0 0 0 0 
0 0 0 0 0 
0 0 0 0 0 
0 0 0 0 0 
0 0 0 0 0 
0 0 0 0 0 
0 0 0 0 0 
0 0 0 0 0 
0 0 0 0 0 
0 0 0 0 0 
0 0 0 0 0 
0 0 0 0 0 
0 0 0 0 0 
0 0 0 0 0 
0 0 0 0 0 
0 0 0 0 0 
0 0 0 0 0 
0 0 0 0 0 
0 0 0 0 0 
0 0 0 0 0 
0 0 0 0 0 
0 0 0 0 0 
0 0 0 0 0 
0 0 0 0 0 
0 0 0 0 0 
0 0 0 0 0 
0 0 0 0 0 
0 0 0 0 0 
0 0 0 0 0 
0 0 0 0 0 
0 0 0 0 0 
0 0 0 0 0 
0 0 0 0 0 
0 0 0 0 0 
0 0 0 0 0 
0 0 0 0 0 
0.6991422330570985 -0.6477534574240479 -0.8139467496030104 -0.7670935889256743 -0.9000879841533247 
0 0 0 0 0 
0 0 0 0 0 
0 0 0 0 0 
0 0 0 0 0 
0 0 0 0 0 
0 0 0 0 0 
0 0 0 0 0 
0 0 0 0 0 
0.4634103669266472 -0.4509768749586249 -0.1688840424731105 -0.1762914448458053 -0.06305173142726100 
0.04813229481270624 -0.01107526123459691 -0.04447523563966493 -0.02930740997403357 -0.01121011411592241 
0 0 0 0 0 
0 0 0 0 0 
0 0 0 0 0 
0 0 0 0 0 
0.06030877970374231 -0.02786817297352762 -0.02450649192246868 -0.04895359931332888 -0.01963008616663324 
0 0 0 0 0 
0 0 0 0 0 
0 0 0 0 0 
0 0 0 0 0 
0 0 0 0 0 
0 0 0 0 0 
0 0 0 0 0 
0 0 0 0 0 
0 0 0 0 0 
0 0 0 0 0 
0 0 0 0 0 
-0.8060338843579447 -0.4232353286332091 0.9821610403586382 -0.02056096923025343 -0.03377424039338631 
0 0 0 0 0 
0 0 0 0 0 
0 0 0 0 0 
0 0 0 0 0 
0 0 0 0 0 
0 0 0 0 0 
0 0 0 0 0 
0 0 0 0 0 
0 0 0 0 0 
0 0 0 0 0 
0 0 0 0 0 
0 0 0 0 0 
0 0 0 0 0 
0 0 0 0 0 
0 0 0 0 0 
0 0 0 0 0 
-0.01832523465817854 -0.01686477439295009 -0.06874756352360849 -0.08742881613442086 -0.03039787606838516 
0 0 0 0 0 
0 0 0 0 0 
0 0 0 0 0 
0 0 0 0 0 
0 0 0 0 0 
0 0 0 0 0 
0 0 0 0 0 
0 0 0 0 0 
0 0 0 0 0 
0 0 0 0 0 
0 0 0 0 0 
0 0 0 0 0 
0 0 0 0 0 
0 0 0 0 0 
0 0 0 0 0 
-0.6041231052615696 -0.09347325352983052 -0.3133487116357288 0.7089194349873373 -0.04988250117922065 
0 0 0 0 0 
0 0 0 0 0 
0 0 0 0 0 
0 0 0 0 0 
0 0 0 0 0 
0 0 0 0 0 
0 0 0 0 0 
0 0 0 0 0 
0 0 0 0 0 
0 0 0 0 0 
0 0 0 0 0 
0 0 0 0 0 
0 0 0 0 0 
0 0 0 0 0 
0 0 0 0 0 
0 0 0 0 0 
0 0 0 0 0 
0 0 0 0 0 
0 0 0 0 0 
0 0 0 0 0 
0 0 0 0 0 
0 0 0 0 0 
0 0 0 0 0 
0 0 0 0 0 
0 0 0 0 0 
0 0 0 0 0 
0 0 0 0 0 
0 0 0 0 0 
0 0 0 0 0 
0 0 0 0 0 
0 0 0 0 0 
0 0 0 0 0 
0 0 0 0 0 
0 0 0 0 0 
0 0 0 0 0 
0 0 0 0 0 
0 0 0 0 0 
0 0 0 0 0 
0 0 0 0 0 
0 0 0 0 0 
0 0 0 0 0 
0 0 0 0 0 
0 0 0 0 0 
0 0 0 0 0 
0 0 0 0 0 
0 0 0 0 0 
0 0 0 0 0 
0 0 0 0 0 
0 0 0 0 0 
0 0 0 0 0 
0 0 0 0 0 
0 0 0 0 0 
0.3632891718647876 -0.1332742955162281 -0.1448378174373101 -0.2016962448752239 -0.04260281481915316 
0 0 0 0 0 
0 0 0 0 0 
0 0 0 0 0 
0 0 0 0 0 
0 0 0 0 0 
0 0 0 0 0 
0 0 0 0 0 
0 0 0 0 0 
0 0 0 0 0 
0 0 0 0 0 
0 0 0 0 0 
0 0 0 0 0 
0 0 0 0 0 
0 0 0 0 0 
0 0 0 0 0 
0 0 0 0 0 
0 0 0 0 0 
0 0 0 0 0 
0 0 0 0 0 
0 0 0 0 0 
0 0 0 0 0 
0 0 0 0 0 
0 0 0 0 0 
0 0 0 0 0 
0 0 0 0 0 
0 0 0 0 0 
0 0 0 0 0 
0 0 0 0 0 
0.1664748396897407 -0.1015182131481416 -0.08262567809382804 -0.1206163967014564 -0.04489801728097539 
0 0 0 0 0 
0 0 0 0 0 
0 0 0 0 0 
0 0 0 0 0 
0 0 0 0 0 
0 0 0 0 0 
0 0 0 0 0 
0 0 0 0 0 
0 0 0 0 0 
0 0 0 0 0 
0 0 0 0 0 
0 0 0 0 0 
0 0 0 0 0 
0 0 0 0 0 
0 0 0 0 0 
0 0 0 0 0 
0 0 0 0 0 
0 0 0 0 0 
0 0 0 0 0 
0 0 0 0 0 
0 0 0 0 0 
0 0 0 0 0 
0 0 0 0 0 
0 0 0 0 0 
0 0 0 0 0 
0 0 0 0 0 
0 0 0 0 0 
0 0 0 0 0 
0 0 0 0 0 
0 0 0 0 0 
0 0 0 0 0 
0 0 0 0 0 
0 0 0 0 0 
0 0 0 0 0 
0 0 0 0 0 
0 0 0 0 0 
0 0 0 0 0 
0 0 0 0 0 
0 0 0 0 0 
0 0 0 0 0 
0 0 0 0 0 
0 0 0 0 0 
0 0 0 0 0 
0 0 0 0 0 
0 0 0 0 0 
0 0 0 0 0 
0 0 0 0 0 
-1.507604521234401 -1.425679919353936 1.013806989760463 2.355511219840341 -0.3100377833051500 
-0.01091798704563838 -0.1324914719333803 0.1170493073892624 -0.02968362040656130 -0.009939868927759457 
0 0 0 0 0 
0 0 0 0 0 
0 0 0 0 0 
0 0 0 0 0 
0 0 0 0 0 
0 0 0 0 0 
0 0 0 0 0 
0 0 0 0 0 
0 0 0 0 0 
0 0 0 0 0 
-0.01832523465817854 -0.01686477439295009 -0.06874756352360849 -0.08742881613442086 -0.03039787606838516 
0 0 0 0 0 
0 0 0 0 0 
0 0 0 0 0 
0 0 0 0 0 
0 0 0 0 0 
0 0 0 0 0 
0.09744886908970855 -0.05061430628634193 -0.02810418742583647 -0.04887989385426979 -0.01139946830036689 
0 0 0 0 0 
0 0 0 0 0 
-0.6041231052615696 -0.09347325352983052 -0.3133487116357288 0.7089194349873373 -0.04988250117922065 
0 0 0 0 0 
0 0 0 0 0 
0 0 0 0 0 
0 0 0 0 0 
0 0 0 0 0 
0 0 0 0 0 
0 0 0 0 0 
0 0 0 0 0 
0 0 0 0 0 
0 0 0 0 0 
0 0 0 0 0 
0 0 0 0 0 
0 0 0 0 0 
0 0 0 0 0 
0 0 0 0 0 
0 0 0 0 0 
0 0 0 0 0 
0 0 0 0 0 
0 0 0 0 0 
0 0 0 0 0 
0 0 0 0 0 
0 0 0 0 0 
0 0 0 0 0 
0 0 0 0 0 
0 0 0 0 0 
0 0 0 0 0 
0 0 0 0 0 
0 0 0 0 0 
0 0 0 0 0 
0 0 0 0 0 
0 0 0 0 0 
-0.6041231052615696 -0.09347325352983052 -0.3133487116357288 0.7089194349873373 -0.04988250117922065 
0 0 0 0 0 
0 0 0 0 0 
0 0 0 0 0 
0 0 0 0 0 
0 0 0 0 0 
0 0 0 0 0 
0 0 0 0 0 
0 0 0 0 0 
0 0 0 0 0 
0 0 0 0 0 
0 0 0 0 0 
0 0 0 0 0 
0 0 0 0 0 
-0.01832523465817854 -0.01686477439295009 -0.06874756352360849 -0.08742881613442086 -0.03039787606838516 
-0.0007486244240081630 0.001469214604605161 -0.01129391881845577 -0.02043786321671514 -0.005765835147722578 
0 0 0 0 0 
0 0 0 0 0 
0 0 0 0 0 
0 0 0 0 0 
0 0 0 0 0 
0 0 0 0 0 
0 0 0 0 0 
0 0 0 0 0 
0 0 0 0 0 
0 0 0 0 0 
0 0 0 0 0 
0 0 0 0 0 
0 0 0 0 0 
0 0 0 0 0 
0 0 0 0 0 
0 0 0 0 0 
0 0 0 0 0 
0 0 0 0 0 
0 0 0 0 0 
0 0 0 0 0 
0 0 0 0 0 
0.6991422330570985 -0.6477534574240479 -0.8139467496030104 -0.7670935889256743 -0.9000879841533247 
0 0 0 0 0 
0 0 0 0 0 
0 0 0 0 0 
0 0 0 0 0 
0 0 0 0 0 
0 0 0 0 0 
0 0 0 0 0 
0 0 0 0 0 
0 0 0 0 0 
0 0 0 0 0 
0 0 0 0 0 
0 0 0 0 0 
0 0 0 0 0 
0 0 0 0 0 
0 0 0 0 0 
0 0 0 0 0 
0 0 0 0 0 
0 0 0 0 0 
0 0 0 0 0 
0 0 0 0 0 
0 0 0 0 0 
0 0 0 0 0 
0 0 0 0 0 
0 0 0 0 0 
0 0 0 0 0 
0 0 0 0 0 
0 0 0 0 0 
0.1711662471867964 -0.04140471686109884 -0.02718085481148753 -0.08825162383348680 -0.01149043009721552 
0 0 0 0 0 
0 0 0 0 0 
0.2614248385577370 -0.3363415785804188 -0.2462046715024877 -0.3349908584685428 -0.2068998751911567 
-0.06203314628116297 0.2889389590219878 -0.1855153503316616 -0.5823975812171214 -0.5639456820153648 
0 0 0 0 0 
0.2316691435559498 -0.2303391711650625 -0.1008189067102474 -0.1048647519473078 -0.05379344018039198 
0.008090085988338306 -0.2087977130872104 -0.06511287601413836 0.2816411539559281 -0.01785396924877284 
0.1486872632194343 -0.2309752944623585 -0.1891360556302116 0.06652952176480269 -0.05313557304494978 
0 0 0 0 0 
0.003328300422328883 -0.01030658231585077 -0.01464663968029855 -0.003609370321546198 -0.01190574202703439 
0.1126356578256459 -0.05403283966980842 -0.04662320663740390 -0.1026120696072741 -0.02429710655682337 
0 0 0 0 0 
0 0 0 0 0 
0 0 0 0 0 
0 0 0 0 0 
0 0 0 0 0 
-0.03390313193499059 -0.01525548349165940 0.08241270076909614 -0.1039020696255991 -0.008594340884974789 
0 0 0 0 0 
0 0 0 0 0 
0 0 0 0 0 
0 0 0 0 0 
0 0 0 0 0 
0 0 0 0 0 
0 0 0 0 0 
0 0 0 0 0 
0.8306762851835588 -0.5324148636137926 -0.3901540956412034 -0.8209271568298897 -0.3530485332833880 
0.0006201304981304113 -0.2593940454766625 -0.3539687087891095 -0.1235255284504039 -0.5570323062343762 
0 0 0 0 0 
0 0 0 0 0 
0.007390017934002006 0.002460520326124381 -0.02472401804307974 -0.006693193910472863 -0.003024944562018493 
-0.1363930904567811 -0.0006836512458610319 -0.07153525906062026 0.1851133986787923 -0.01232076697509748 
-0.0007310039457139696 0.003805575766973791 -0.0004673792822543732 -0.003883406086480216 -0.002412855407530275 
0 0 0 0 0 
0 0 0 0 0 
0 0 0 0 0 
-0.0005182731458254905 0.0002272407533287629 -0.0005209927291673351 -0.0001347985412151877 -0.0003042143650191908 
0 0 0 0 0 
-0.004869948196280008 0.005228900025631262 -0.007200865576303109 -0.007875987382159062 -0.002763347914801832 
0 0 0 0 0 
-0.02516158264592856 -0.01718523674546675 0.08384264309609050 -0.1060610044128293 -0.008799246377420390 
0 0 0 0 0 
0 0 0 0 0 
0 0 0 0 0 
0 0 0 0 0 
0 0 0 0 0 
0 0 0 0 0 
0 0 0 0 0 
-0.001113523871879439 0.0008458564593460475 -0.0009163297117048905 -0.0002183485320010345 -0.0007195140298168587 
