solver_type L2R_LR
nr_class 6
label 1 2 3 4 5 6
nr_feature 2097
bias 0.000000000000000
w
-0.3695347239369862 -0.2123676956762864 -0.6904784073770149 -0.5347298377174751 0.8649096983378893 -0.1828852306782751 
-0.2593552947583531 0.4096981427084545 -0.4325918792801934 -0.4986351583854071 0.1909689416228254 -1.016413406942280 
0.1017046787501249 -0.3513045233262930 0.2699171641928598 -0.6701420679475723 0.3249088163375493 -0.1471763883414457 
-0.4058315103472813 0.02560596084238122 0.1046712608125111 -0.4167270745546267 -0.02223135860434895 -0.01645015050232495 
0.8323612001587044 0.3502695669791751 -1.007964213174708 0.1620034216793507 0.2222947601375987 -0.5296799273349941 
-0.2129400737101783 -0.4226002912400785 0.04057972699081513 -0.5055433077718384 0.7925121382217755 -0.2925571343164226 
-0.2725363273458188 -0.2999400270014009 -0.5980870612103764 -0.1570638833978183 0.4785016758798984 -0.1935309582799195 
-0.9823143816543162 0.04704703501525753 0.01875148652539944 0.6074044325637749 -0.01880367637824622 0.2564992660516214 
0.2424986511644391 0.2802394058781335 -0.5153046919216785 -0.1871945387937999 -0.3770212130310950 -0.1819572036730159 
-0.6267102728936161 0.8453142593721624 -0.6424183007012343 -0.8301305499697977 -0.02528607968112484 -0.3771244479843505 
-0.4734712269834359 0.5616911342046185 -0.2966418404387711 -0.3631264700454376 -0.4181353274180230 -0.2682796512732908 
0.2683056673102424 -0.02371596876728761 -0.4565174094521246 0.4625705928281266 0.2573887905258900 -0.2993089579527879 
0.2707940236645005 -0.3845635677796987 -0.4581617373076005 -1.078547911475987 0.4423724831352998 -0.1082774051260937 
-0.7254182481799888 1.284613532403501 -0.7173055094812661 -0.6416247498101586 -1.027296431259565 0.4165369522915306 
-0.5148997731018825 0.2229890969081395 -0.6250824088528378 -0.3964509621229322 0.3882405269049185 -0.1416514515099525 
0.3657692556568772 -0.2228274684300710 -0.1795832242343179 0.1646634381140171 -0.2323666059171836 -0.3297664659012172 
0.03365972696967716 -0.4268081400643428 -0.5518998547704402 -0.3557552135481624 0.3354308028573692 -0.1212207989908637 
0.3310545858108780 -1.095130603958401 -0.1145259227302309 -0.1976423007866973 0.3414138373838319 -0.1051950835381002 
-0.4255012745174027 -0.3776484061464944 0.4564710417062199 0.2746004150728442 -0.04655262472216729 -0.2350177180650048 
-0.3583793955918658 -0.2080456733384870 -0.4262375875787625 -0.3300334839535440 0.1286695751201872 -0.09863775689144597 
-0.7684885737573633 -0.08969579249794242 0.7614483112113967 -0.1459088230916684 0.1997677728397392 -0.1392408395528548 
-0.1610272874505922 0.1973404782501391 -0.02278150152904446 -0.3020018318986235 -0.2419638007769588 -0.1910446795047195 
-0.4959757550913341 -0.09825386693363440 0.03954097813930881 -0.2633191736464050 0.1608961332883909 -0.1255738518312127 
0.01202212350915912 -0.3031228494593954 -0.2894113146798811 -0.5458326069199024 0.2951822535074554 -0.09978245821760684 
-0.4415880048858739 -0.5830629751173685 -0.4407591898531262 -0.2870349898079935 0.5760252631891156 -0.09168503490930277 
-0.3911436485608959 -0.3888799933149947 -0.4526621431104442 0.6117086544820455 0.4883799827261938 -0.08926057570904006 
-0.2517022111908301 -0.6809051911949369 -0.2361420796197457 -0.1793946382345460 0.6224505447503068 -0.06034047435681512 
-0.3221624545621148 -0.2029384811391680 0.1244820088839088 0.3385325358561694 0.2054398929217217 0.2620395754705591 
0.5400722181238772 0.1662177410811997 -0.4628675159719852 -0.3253552635499061 -0.1806531015061947 -0.1204234765151674 
-0.5269264324894293 0.9547030209431650 -0.1752967910360998 -0.1498646302671681 -0.7161069774230179 -0.07076058656689560 
-0.3363411136703207 0.3439425995522749 0.4744474543076147 0.5683034188376217 -0.4627996165561059 0.2518972071997808 
0.1619902421758384 0.4669162185691105 -1.027062522656532 -0.3702453624909445 -0.2218544299540526 -0.2758098004111892 
0.2361514873677163 -0.2434577389711639 -0.2188665487124109 0.1057804160131577 0.2032512893396140 -0.1530882438555070 
-0.4410836230748590 0.5216477713209344 -0.1012900311278775 0.6569000494274317 -0.6808477797006257 0.1359183343764796 
0.5564798025612926 0.2268277288973778 -0.5725498750283214 -0.2185492850508536 -0.4345557644623814 -0.1011649930455320 
-0.5071321363986803 -1.892160079995112 -0.4657930733623793 -0.1950007849756526 1.694687736870984 -0.07236844618620458 
0.3336413327088406 0.2356164446251315 -0.5525593209655970 -0.5100162416027455 -0.04825486297171773 -0.1766941032594252 
-0.2733435424424126 -0.05936351610228194 1.033161502113415 0.06142601441874961 -0.04079796919527867 -0.2327286949676710 
-0.3269531576861807 0.05588913535512140 -0.7711606408331044 -0.4027201147933249 0.4031873574956965 -0.2200054451148642 
-0.1398435958412767 0.03755776801321097 -0.3377547434177980 -0.1877748099297417 0.05522045543476015 -0.06213534865719059 
-0.6496061872782255 -0.4394615554951077 -0.4885052782875808 -0.6454278088850822 0.9051860488769828 -0.2766261180423587 
0.3084009511965938 0.5898538506868327 -0.3144867689866830 1.004481591350818 -1.249259265657598 -0.1646632520145097 
-0.1596606160541200 -0.8108673732287020 -0.1436708046082370 -0.1191743490768617 0.5450660467874489 -0.04962483842417591 
0.3885359114165355 0.6488365946386728 -0.09995834286981747 -0.2291385913209471 -0.9512334493207558 -0.05099508664528795 
-0.5269496476618154 1.220927682423749 -0.3567586652387295 -0.2474345424729867 -0.9388948378078186 -0.08073697500262132 
0.07402056461064897 -1.293893824696349 -0.3230541722762448 -0.2145282888874874 1.119284501300329 -0.07921445238379647 
-0.2502786366635358 0.4275939023699114 -0.4329969350702998 -0.2379498245769855 -0.3678059654835410 -0.1148362811711448 
-0.1681084196656993 0.5425622128183825 -0.1494109192121448 -0.1018097863990660 -0.5574057320156581 -0.03694531583962287 
0.2037915524605572 0.4485566354402049 -0.3565079657210022 -0.2593079349300507 -0.5025805716378490 -0.1058970316283189 
-0.4874464369814787 0.2799401750958159 -0.09353737657547678 0.2904039974635450 0.03119437554829870 0.4004430317860138 
-0.3286587395165845 0.08029038455627456 -0.3179867751827253 -0.3541134773290128 -0.04756480886844333 -0.05153133480038058 
-0.2763935819072895 0.008811746325383223 0.09125681734480334 0.3006438497096481 0.005638168335520845 -0.1212650363447430 
0.04831013809561658 0.1514416246918622 -0.07284809090001143 -0.08479245769062482 -0.2938889228545719 -0.08833626291416250 
-0.3971620769776900 0.5981928100828706 0.2909511245224444 0.1195671708985457 -0.3159450902497401 -0.1167323309786509 
-0.01379571343096852 0.05847700924274018 -0.06620490962006874 -0.1231881966369642 -0.3420478840533986 -0.06014754556943722 
-0.1952874655558057 0.7565988469567156 -0.2943536860942068 -0.1801470030395433 -0.6981652214832639 -0.04948860542995207 
0.8299420222025751 -1.078728632142221 0.7419195086186920 0.2595538278480354 -0.04073724371114895 -0.2036599313193402 
-0.007154331579856225 0.3230307886491625 -0.09667175440894620 -0.1825978217608207 -0.2543723949528906 -0.2513776725064155 
0.1161724781867280 0.2002495188640374 1.332346216630946 -0.4520936351744703 -0.8560251135392395 0.4223364739210661 
-0.1509969080369447 0.4005492115258632 -0.1343603738783281 0.3807997758576886 -0.1863275543181380 -0.09453154013176952 
-0.3165085443321488 -0.4883745608511732 0.5622412742866658 0.5257329321137804 0.2470255666416690 -0.05015129707242844 
-0.1500939957487001 -0.02935242501158202 -0.1449644574158558 -0.1045704136452824 0.1642995297900032 -0.04096180878863703 
-0.3676892103395995 0.4249469906406435 0.1835472259098744 -0.2509740180752147 -0.06776651361533097 -0.07367524381538446 
0.09550609318296059 0.1031070126762023 -0.2959201536925334 -0.1209491487372850 -0.08371140251866839 -0.006098743467843931 
-0.3044648304986495 0.6818496313748654 0.1756247848698622 -0.2525723731562786 -0.6700504886669749 -0.07641248083568059 
0.4522427333435442 -0.2459415416046323 -0.2521338598777062 -0.09891728844442156 -0.03426355779596660 -0.04568659443295770 
-0.08014916169725061 0.2791608207928465 -0.1509426126425636 -0.05569041399265449 -0.2744758870648057 -0.02791417853152139 
-0.1328510886926919 -0.1221203806976977 -0.1594316827650712 -0.1163703744546888 0.03943658948441410 -0.03008143143558455 
-0.2164107755435766 0.1941062430533193 0.1912079744230857 0.03128663394528868 0.07326568679041473 -0.1012528873305760 
-0.1496152610952917 0.1517742003815857 -0.3787595773327904 -0.3283659018099111 0.1239643432184937 -0.05497681376057659 
0.4011506913330135 0.2887554140026600 0.3074930921090969 0.6129551437556289 -0.4590993056720640 -0.05936282346754027 
-0.2036329057416099 0.6990537526065490 -0.2782646882913645 -0.1567128341957894 -0.5985506885308034 -0.04905037366393032 
-0.3865769815123734 0.03643762165893331 0.1262626074531285 -0.1056993525874584 0.3608019077663293 -0.04112230730885742 
-0.05592588893718746 0.1865615063043308 0.1511776775837478 -0.3227990044955461 -0.4410327428425160 -0.05402009119674464 
-0.8677972949114254 0.6493779377761010 -0.3395507123874347 -0.2139355385869157 -0.08731073411491637 -0.1248486465488150 
-0.2402585048671324 -0.3979004702343180 -0.3296105865164025 -0.1297652656777033 0.5817221560408424 -0.05651633517804520 
0.2992347886835815 0.3325235327902932 -0.6823687425744916 0.1782949723117691 -0.3552007154154036 0.3892732122838506 
0.4916389873518645 -0.8161550204584328 -0.04673435538574383 -0.5459967143029700 0.1457873993204814 -0.2195448646524568 
0.2345847143293799 0.2439458809752596 -0.7638693722102314 0.06439384566541512 -0.1543764577730943 -0.1057772822596736 
-0.3461173997651448 -1.407325947993839 -0.4084096683345191 -0.4399879721075099 1.373116460272877 -0.1503842792433431 
-0.1430779090614503 -0.5457353947417257 0.3250756824791659 -0.02777664965796955 0.1342167810630942 -0.04501359739352550 
-0.1464999011474265 0.3431218625144242 -0.2380131789392086 -0.1951711592876799 -0.3539997013526257 -0.02823157786082926 
-0.6360554113690375 0.2581252721335648 -0.4609603765054087 -0.2147983604298321 0.1955798736625155 -0.03929773866016247 
-0.1218854388653268 -0.2406901348317666 -0.1574747846055956 -0.09217884477197856 0.1762308182438239 -0.06170816420958522 
0.4880971180899130 -0.2400389600925405 -0.4674534574451429 -0.2409388277079862 0.001710335099968733 -0.1019679728387305 
-0.6819421257417260 0.08917726541856093 -0.4708360505726510 -0.3659281854058124 0.3477280497659498 -0.08753929429351785 
-0.4661261067968698 0.6465160963139264 0.07686204013492294 0.3251775634820894 -0.3248608383758287 -0.04568506991178373 
-0.5026434638530595 0.6192278741594296 -0.03108653948572483 -0.1190393834000137 -0.6094751297044476 -0.03856847136964946 
0.2351909192420021 0.7718018783111376 -0.5301516782360522 -0.5786625122883564 -0.4102992637652673 -0.06152217528245451 
-0.1924715270274100 0.1648522706605541 -0.1779013648498849 -0.1160954656915186 0.02979429179705681 -0.04401543853758465 
-0.01613132018841979 -0.06602724606058556 0.4010867228547924 -0.03508771767827233 -0.2749646584003440 -0.04604010196886109 
-0.1759941077500914 0.1453467336726253 -0.1704016389382918 -0.09024032085494195 -0.08646274680352860 -0.03132341383984445 
-0.2148126106052666 -0.5040196520781839 -0.7502961038955931 -0.1569555975852511 0.8262480227924424 -0.1152054521513648 
0.5897083770063270 0.7119389043477715 0.3837989706989492 -0.2764084308075342 -1.190405583730846 -0.1409525657371774 
-0.2266480125987853 0.4350307776304116 -0.1961478923874954 -0.2050178585045069 -0.2743315337171579 -0.04426057591744730 
-0.1119635835395769 0.4609784548191416 -0.1821437018051197 -0.01783462106421421 -0.5814406748652535 -0.03618493265147409 
-0.08287324824090357 0.5319473303155197 -0.1607603416951877 -0.04926081644037346 -0.4874045361515809 -0.03802905614284956 
0.07952616024442134 -0.4305253303148015 -0.1133743781366852 -0.1465495688705950 0.2558186616150764 -0.03822382591450693 
0.06897111565228001 0.2677804512689880 -0.3106211059692078 -0.1741160345578281 -0.5642590347132894 -0.02373375553282555 
-0.6860737854103104 0.4420210124113811 -0.1561779901213110 -0.5582871749542483 0.5474493453015786 -0.07057942229840082 
0.1068790565416232 0.6681598766239488 -0.4266868732799858 -0.2499621451007114 -0.6268712455586144 -0.04899963884665230 
-0.4048962198834221 -0.5056827270187553 0.1324465083052165 0.5743885363821732 0.5499803518223265 -0.1073012249292975 
0.08954126758031201 -0.2613203977827470 -0.1858063816654172 -0.2137896484872519 0.2603919152941719 -0.02292664415280123 
-0.1419572456440545 0.6146857485594591 -0.1295904110713331 -0.06934639902073470 -0.4937496322641001 -0.05198942970311213 
0.3050655917191226 1.449695836769483 -0.8553772125279454 -0.2105340246413844 -0.9641547660225704 -0.03023444058263631 
-0.1476954635574289 0.7365573269768203 -0.2596225952371918 -0.04730527978181245 -0.3933194214132245 -0.03922956191153412 
-0.1035267095976804 0.03903074842859858 -0.08149595404832369 -0.07343535332601489 -0.02050919174046367 -0.03408673635497688 
-0.07132214265284698 -0.2759223608708588 -0.1410005786215382 -0.2510300675066322 0.3957515324324423 -0.07754581045664469 
-0.2786144221130218 0.4329943723860226 0.01845563749883438 -0.1301744316931623 -0.5666814944223975 -0.03139363166310350 
-0.09918865696608682 -1.007478180098312 0.1999534059857638 -0.2679089220835878 0.4501469257349350 -0.1666156773896070 
-0.2137977998077409 -0.1597918034540212 -0.6612743049500971 -0.06407576212821768 0.6017810950146470 -0.09216704123138528 
-0.5644190559379201 -0.1194513651196512 1.422874570477476 0.1618503830216033 -0.4927491178862744 -0.09443235843037294 
-0.5917174318580432 -0.2902571296708792 0.2836428810367921 -0.2881191313959822 0.4322795870271021 -0.03797969915913539 
-0.07433877966946037 0.08547774909358805 0.08582081013945154 0.1241067285565549 0.2894625270338915 -0.09241948905614470 
0.6458208817233348 -0.3566740208093999 0.4968511544250998 -0.02808849882172460 -0.2128454870255535 -0.02456910586285861 
-0.1123605103184239 0.5681086838227104 -0.05949256865540386 -0.004535014292361943 -0.7292315970340484 -0.03231180143005424 
-0.1271755990951178 -0.4419934905170729 -0.2783197080684979 -0.1873195456155573 0.2731188249604976 -0.04219795243168475 
0.06503235245284822 -0.1900657182512043 0.7479229357617038 -0.01149087105984463 0.06687666298152233 -0.09152011242786046 
-0.1055823733395435 -0.07640920158620781 -0.1321659198079119 -0.1229783756797900 0.1955173560443801 -0.03494090717716945 
0.2279708366536820 -0.5513957393572646 0.5474605931908141 -0.2121240070125412 -0.8882071862153568 -0.1092512340965759 
-0.6396225188842071 1.772864603696513 -0.4055099451032064 -0.2950511070101151 -0.6309857199644353 -0.05032715979780823 
-0.1875656260747985 0.8295971352947449 -0.06510319036699208 -0.06196455466016895 -0.9373033357415301 -0.01845753348619882 
-0.2849639472300879 -0.09471648331211949 -0.1803893524465576 -0.04566326581715663 0.2646440578571792 -0.02870912011937456 
0.2498751391116409 -0.07401672064573038 0.6500426936543243 -0.3738631533464054 -0.3174049825233409 -0.2104759175379764 
-0.2138847764724888 0.5227697477004405 -0.2928849644330193 -0.3281508188311205 -0.1959514107661153 -0.05133692866165455 
-0.5211825246816606 -0.04769508936588186 -0.06390210856637883 0.4848510118617073 -0.05486096266806249 -0.5467383397909463 
-0.4091723243528744 0.3863222238991851 -0.5048764242929181 0.06078083746834643 -0.08308328796995088 -0.3799614948912693 
0.2274976686145328 -0.04691933219084207 0.2193666338940060 0.06289402942555179 -0.4233742217172830 -0.3862698236075282 
0.8847057541311524 -1.680405603858612 -0.4028066313303434 0.04631770323385991 -0.3334781067311575 0.1474416272767899 
-0.03706260566952952 -0.04074818499760091 0.01153273047582035 0.3398264844587520 -0.1884015076351944 0.01299169361292370 
0.1820077611175406 0.007744509766654549 -0.2580165086596572 -0.5396605625042107 0.2619671751378787 -0.6204334520852935 
0.7960286181782432 -0.8964495361458448 0.5163866873671992 -0.4743320679169774 0.2632338681106056 -0.2880450519703290 
-0.2849732549980967 -0.08518531147432908 0.4201022091769792 -0.4813917202456645 0.1233941528541485 -0.1882661176889032 
-1.086464005084936 -1.126639862409732 -0.5130996201306008 0.8666227406705460 -1.426259820585150 -0.3614679893699863 
-0.8991180600389734 0.06784787377972329 -0.9548872563951826 2.275937521393332 -1.564839599397389 -0.3190243198757546 
-0.1716262740368847 0.05191283354508806 0.08399871965902618 -0.2757322745808232 -0.006838284900424120 -0.2277848657280084 
-0.8580025364454577 -1.268997539935055 1.689509980367343 -1.773037564556485 -1.295958440137073 -0.3747623639054498 
1.460563325009382 -0.9287056887815383 -2.952545826511445 -2.056331937993249 -0.5271671195860320 -0.2425928762730423 
-0.003297762063528003 -0.1559554931788286 -0.01775386417043268 -0.1073126891851218 0.05278908365727600 0.1407473226416065 
0.1547437172932021 -0.4571203165242334 0.04054502319634538 -0.4308946648184853 0.3130898561284279 -0.1580053067612516 
-0.07935066977544200 0.06994989149193785 -0.5762555974500273 1.199163050798991 0.05330012723556871 -0.04983741376825138 
0.2176404015267093 -0.3322479415704038 0.09033347426300155 0.2859933841283645 -0.02211560319017210 0.07431796932860858 
-0.5852425716452923 0.2131436031638755 0.1281068164052179 -0.3583400728818995 0.1281256780655596 -0.6491330529975315 
-0.2558762897765893 0.1041494210876379 0.4340479462204611 0.3300179899629105 -0.7611881783004563 -0.3211873280571397 
-1.237400862594601 -1.223828797261164 1.501819921314638 -0.7201932662002059 -0.3437873801494990 -0.2081385646021690 
0.3282185653508760 0.4400723015083374 -1.503077919768420 -0.1608407511726988 -0.3783795784731951 -0.2726943854502205 
-0.7178116676643466 0.04811081422349960 -0.4419452447116560 -0.05781490291750567 0.6327071334304433 -0.3327164353804583 
0.3720330276805767 -0.6820402208055472 -0.6465376145661431 -0.05036461899970642 -0.4380398258285483 -0.1892988382552971 
0.4162446489179855 0.3983586940290394 -0.2928830135272584 -0.6337232185635374 -0.4285827474980946 -0.2749965693772274 
0.6415310355397920 0.08320694190119979 -0.3943989662764430 -0.3128226731052789 -0.1191565226726493 0.3863822103419248 
-0.08953930038255604 -0.9768933835805830 1.579543094814606 -1.240878971557277 -1.387850419545248 -0.2488195464795070 
0.1910558226771176 0.4838167910987722 0.07753387966340383 -0.02432769163922438 -0.5791128373862817 0.3017932775159070 
0.6572857303076665 -0.5982094383199212 -1.068253371093483 -0.5223733006716500 0.8364157442889499 -0.2144166649638805 
-1.034476169583174 0.6560886141394232 0.5706877889748527 -0.4764275065968189 -0.4078197974335702 -0.1287287382318235 
0.4351799951393254 -0.02082572292449869 0.3161771499654291 -0.4920271147480992 -0.3453676477731286 0.5590837020453744 
-0.3316353983717333 -0.03621801199616090 -1.228350949510563 0.8225824726139903 -0.2095066096343154 -0.1250033796551952 
0.4599790785583746 -0.01332319858282220 -0.7064615266870872 -0.4129980676988497 0.2347173963976992 -0.09439329969195910 
0.5856974907614707 -0.3310317468941120 -0.07786994472783555 -0.03891812824865772 -0.04262878635920277 -0.1430162539950269 
-0.1343753504273649 0.03193428114996787 -0.3882512106148718 -0.1482558726493368 -0.06863858799844927 -0.05380290994893690 
-0.6436957997931296 -0.5009500874677775 0.2299167403215094 -0.3372435157941957 0.7428686959008408 -0.1057657228288671 
-0.7922114466279511 0.04351987125751921 -1.305923446217219 -0.1122093617156980 0.7624471448619053 0.6075433075330354 
-0.2412504427265486 0.3869029046309077 -0.04427886029360047 -0.03143273599484658 -0.07991323783920784 -0.1097008213193836 
-0.5880568082604888 1.433064042779096 -0.2624274869530607 -0.4159696934821013 -1.041165890625596 -0.1260096101271015 
0.3586196816172204 -0.9376407424811410 -0.03662508110887448 -0.4280676265779552 0.8001417088270768 -0.04184976940518301 
0.4542074007102201 0.2118395692937148 -0.05823276047924940 -0.2255847147215261 -0.1121896591632846 -0.06142097124430976 
-0.4985387624910177 0.1243594385207090 0.4384104363347267 0.7948199043309535 -0.6051855818144037 -0.1100866082523619 
0.1548399912538869 -0.09881891618048944 0.1913388042211757 0.5555431075338361 -0.1726150985097661 1.143919888121027 
-0.1632321091762561 0.3232782997246689 -0.2857773112999063 -0.3887547089619250 0.1318443102429314 -0.07164775781212322 
-0.8732167617449410 -0.01127388557077514 -0.09177486491218884 -0.2338900014732419 0.4089048176768835 -0.07903831858374089 
0.1900465746081300 0.1258683369633720 0.7560852071795038 -0.2875231253936954 -0.6034880937301459 -0.1204677541413369 
0.1498624271022544 -0.5358483371696097 -0.3291419245692890 0.2901253518887854 0.5322816426994323 -0.1499453745146502 
-0.1624385915838126 0.2464223194942796 -0.1674671637395341 0.3692359296640378 -0.4203479571521953 -0.09182853972146031 
-1.063892666321242 -0.3498089330126947 1.644575301170406 -0.4626474404119633 -0.2208921675620932 -0.01139249258571514 
0.3288024091457507 0.7601226743294626 0.2214148337986518 -0.5720972651794446 -1.600604855164676 -0.2842692812702647 
-0.7530095214464313 -1.284903578510812 -1.356771229971478 -0.4382045208417344 2.266896175269387 -0.2304429002707641 
-0.1795892388539577 -0.9650032950760877 0.3877201644628093 -0.3381508509093180 0.8195424029583344 -0.09903867781562328 
-0.2655723724180934 -0.7848429843168155 0.8215444722678015 -0.5422540775089946 0.1448207739887621 -0.07684548904462267 
-0.1577340701243634 -0.7467942269866760 -0.1733561623207513 1.167326309057420 0.2343165414002370 -0.07466534229852172 
2.106971060693371 -1.230727915968210 -1.429657216383898 -0.4065361272230563 -0.8219747959765976 -0.07398604062455708 
0.1917384883333325 0.03825767376629728 -0.3117668986321153 -0.09790153686458368 -0.08277025133169601 -0.03657000249869383 
0.3811184092352846 -0.6409859082663636 -0.01153824444350107 0.4079612800540704 0.1069554562611099 0.6490976818804090 
-0.6837561377806707 0.3620306818401567 -0.6080742979099059 -0.1018357053750939 0.3940159143948230 -0.03430209277138106 
-0.4675467342896114 -0.8693031545268408 0.8333500899272267 -0.04749292165319920 0.9116916620961362 -0.05702013255561957 
0.5559184098843775 -0.9983316062761487 0.4710015147427711 0.8043045217691785 -0.3394899189345524 -0.04566587630431573 
-0.03450743082659412 0.9145976809175289 -0.1367382401062662 -0.07180560960941723 -0.8663446596034314 -0.04628675537251833 
-0.1779571551606057 -0.4017801271913751 1.116817808390797 -0.4735599762645050 -0.7463970980643370 -0.04085865609599239 
-0.8834432417959068 0.4157248203253713 -0.6155898134820882 -0.4767739614828139 0.3426885000970346 -0.1694356804320769 
0.1607421518163510 0.1399463790876191 -0.04631477506417334 0.1997001465920182 -0.2556260150068880 -0.1518444306026003 
-0.09228217741326251 0.2905938364791968 -0.1778047659976602 1.008192655657971 -0.6998003496641997 -0.09225256933122970 
0.3736993907912927 -0.2227816373470990 0.2549957514516098 -0.2379644021394047 0.1890449053501015 -0.04442673179005050 
0.3141799477744016 0.2057771296415590 -0.003341863111368238 -0.3359686007455403 -0.4210574314291364 -0.1284291491046081 
0.5746497510548745 -0.03989635011959767 -0.8199444230027594 -0.003336033390049229 -0.09688109032497920 -0.006838233964962448 
-0.6130608498786999 -0.4051857183622297 0.5879692467878422 0.2344447014288691 -0.4489382813486377 -0.08199366680658758 
-0.3572142080237080 -0.1788764529421894 -0.3101776436268342 -0.1119316992666588 0.3936832979450036 -0.06621106282336882 
0.1808609131114436 0.09021009804933248 -0.3915663063580712 -0.2690962024864948 0.4054337852659374 -0.01309749743758483 
-0.2779014394362532 0.3441536094961247 -0.1712709892630086 -0.06596830717596074 -0.3579225169506602 -0.03314740582800570 
-0.2148212104904834 -0.02329838447780538 -0.2237131526764495 0.3937036448658550 -0.02634630327908697 -0.001183977126146624 
-0.2248008864649971 0.3097966822397932 -0.1684970571509446 -0.2211893370218765 -0.03341576816965436 -0.01942589113552124 
-0.1289534607801345 -0.7091225779978391 -0.3741025399622777 -0.07147191288512185 1.137020555922914 -0.03697539521611051 
-0.08665219873431333 0.5459460112839215 -0.3559806175830180 -0.09400214903709708 -0.1711608119930041 -0.05550001143616185 
-0.2059596512246467 0.1110707795904377 -0.2082888047134381 0.02480425170083671 0.03724745179884937 -0.03969850179436128 
-0.2200588820165076 0.2573344774095318 -0.07969347976496141 -0.4603658885849360 0.1828864091473270 -0.08100558737427920 
0.5094057429044095 -0.3484417556497634 -0.4483601407170828 -0.1303102469566412 -0.03648085826175362 -0.03959840140208495 
-0.3317380976318463 0.7143206416391031 0.6138665044431171 -0.1259241084958435 -0.7837588875664376 -0.02097584237497545 
0.2387434719118130 -0.4952273857238976 0.4713877505089777 -0.02637648877463817 -0.1907302676585583 -0.04983421844390675 
0.3947856503748392 -0.09575490928556094 -0.1348639613895335 -0.1350413133211760 -0.03747884141957773 -0.03545165678088199 
0.2937529833774051 0.6329162042407727 -0.08173941514248063 -0.1198276994461820 -1.176490729648247 -0.02513907607223637 
-0.9323126713644115 -0.8534557247096519 -0.01351969385459081 0.6702089102478189 0.9872443801727484 -0.08896233324079665 
-1.165356301097028 -1.753426997615982 -1.155561514875296 -0.6433405573047393 2.803083882661425 -0.3647416956853249 
-0.8945792561088033 -0.5989573910260998 1.795767178507054 -0.3681989349157114 -0.5937086709133267 -0.04988380410259540 
-0.3655437043356445 0.3294008174795842 -0.3005369368861749 -0.2090253418767160 0.1571646262540231 -0.06266286408605860 
-0.2139450854905325 -0.9706930981861188 0.7208792425259758 0.1585255747949831 0.09086757149879471 -0.09655511567417219 
0.01437273146203905 -0.06898901835529245 0.1815398577694920 -0.3274330596384287 0.2529231426331358 -0.03993123742354458 
-0.4043953899717757 0.03092887985804848 -0.3307255139575286 0.8385432912490143 0.04745908835729031 -0.1236631834157931 
-0.1007885739780614 0.5943068340155782 -0.1712355110902339 -0.07522583761058710 -0.4627752232753604 -0.01683017162369314 
-0.1827771975386626 -0.1267556757315620 -0.07721540095524493 -0.04543333805694051 0.07267407718752159 -0.03922916356972189 
0.5970378161129881 -0.3528443199004424 0.2464694873080425 -0.3461934884549612 -0.2751965566491574 -0.02809118737910619 
0.8071634214219917 -0.03418834625412695 -0.8451073684383976 -0.2125536141548786 -0.07866912675851068 -0.005048217141659065 
-0.2503872096940510 0.1765367980608394 -0.2883395073714875 -0.08274621150882870 -0.4646253418378611 0.7845377084762427 
0.4336634165546683 -0.02624037925437026 -0.01141160592952213 -0.1286128058313480 -0.01122559992695413 -0.002702829514068762 
-0.1973481326282831 0.1040544784649356 -0.2119898834004118 -0.2152300134911953 -0.009021913758684424 -0.03379892066303947 
-0.4538864374819782 0.3407878237213079 0.7207370357370496 0.04992448503055056 -0.2896223796933445 -0.05336714826438849 
-0.1936142102691261 -0.01737892365134498 -0.3232717174309119 0.4230013764559190 -0.01914606091545310 -0.0007249077863946695 
0.1918088471374330 -0.8426703013184046 0.1271209725538404 -0.2013654803042799 -0.9124361236207540 -0.1457730661999850 
-0.2828145736897576 0.4368257613063257 0.3977682709587667 -0.1402422363707784 -0.4545843775068580 -0.04558451682419766 
-0.5113454067905909 1.103295591364603 0.04115735825042677 -0.2068355600788004 -0.8655668012855487 -0.06282998838822873 
-0.1276200085738680 -0.2611918132404211 -0.09299033222273716 -0.06130598721064328 0.001965122735846961 -0.03100184036536743 
-0.5369044492693645 0.4215300928592052 0.5097078472212659 -0.04733494902118779 -0.4844123533609255 -0.01374421891351031 
-0.1880492412965852 -0.01517014364567446 1.499546076957163 -1.365645728085561 -0.01790433946180411 -0.0006042936380098520 
1.573164604103167 -0.03818912937155648 1.113070329951765 -1.839017538505281 -0.005743068569600752 -0.002084785320810060 
-0.2251071947176469 -0.3501319992295254 0.3962356375035252 -0.1496818944953526 -0.02826134007648377 -0.1124543836733182 
-0.2252438389956278 -2.148553426148679 -0.1620207863594500 -0.03422186207774638 2.100872647401236 -0.02986897076364573 
0.6659772013786567 0.5735759947296313 -0.5965744058496614 -0.2081855835579305 -0.7903987880039838 -0.04576117975312343 
-0.3135885731614911 -0.07012026249700368 -0.3220221685402328 -0.1674278382603304 0.3626542023548234 -0.03232012902619805 
0.01919958601514602 -0.02601701201236113 0.3766259324725398 -0.08045325844115667 -0.4644441380895297 -0.07351966908583003 
-0.1459208687097953 0.4110926595509358 -0.2026287904256742 -0.1600009268031102 -0.2411201753866361 -0.03036934596475819 
0.3728000861534863 0.7846095978715505 -0.3574580128094433 -0.1393247187992286 -0.8349748663142657 -0.03551031473526106 
0.01809601205216824 0.2298969360638088 0.3898837760424083 0.2180731718861306 -0.06039528518922757 -0.09571621235730604 
-0.8398298347019023 0.3033343733862762 0.4336564985400936 -0.09607634963825716 -0.3942464799492246 -0.04415715100794575 
0.7674719176968562 -0.02782340096666039 0.4683092089666216 -0.3376739452820681 -0.5845313285102983 0.5209871613618815 
-0.1990019662748856 0.2216583779919164 -0.007397149386688878 -0.02164880757415204 -0.3330601599996090 -0.002157595351034838 
0.3217953667962161 0.1924067758817682 -0.3479385167912313 -0.3160537195860596 -0.1584657177426431 -0.03305567175002851 
-0.1793438549991264 -0.03358622506114082 -0.3596250115292698 0.3219741641680681 -0.005860332063161519 -0.001965356725247086 
-0.9403426354183395 -0.009374352295585092 -0.04833786945720802 -0.3479027018535219 0.9149939442348172 -0.05629046622270287 
-0.06491469886195697 0.2360769308818712 0.01651918126890005 -0.02215416147335354 -0.2408389013351980 -0.007974883768950435 
-0.2352906643959424 -0.2698814636368269 0.3417039262106099 -0.03525350215325399 0.2301096416026432 -0.02212787485018399 
0.1127402680505237 0.3861166876573141 -0.1232095735664695 -0.3560290933946668 -0.05557634480456408 -0.02041043925178940 
0.8137391629259603 -0.1947475644841077 0.1973031601021303 -0.2451513283085965 -0.6684251254140842 -0.1744826493792817 
-0.1796879715279497 -0.04185283734539869 0.4653098658536474 -0.1947794616600071 -0.007340487432013034 -0.001895784568013116 
-0.2493791803103292 -0.8970231384385848 -0.06308551535882022 0.03858772238111430 0.7368137229166250 -0.02887753207962829 
-0.1472155245311256 -0.2919600411469370 -0.6034290903112848 0.06867933978609232 0.4186107445539491 -0.5063061245544451 
-0.2367108434188139 0.06585841036273857 -0.07279274456610602 -0.8787039426542245 0.1359722579766979 -1.180543703086500 
0.2858404723372304 -0.5869530291086724 -0.1390878187449426 -0.03268370491197253 0.5474200062649290 0.1204810846008218 
0.3395437087456443 -0.2573520393542183 0.6453325574228005 -0.5509203615598698 -0.08469050973931208 0.4391322381618243 
-0.3305765952319371 0.1292441347556118 -0.2170412274355442 0.02361196420500951 0.06575485208555355 -0.5439430485575859 
0.1035601693088829 -0.1173373766217729 -0.1013068197867493 0.6492040860574150 -0.005509011711385305 -0.4892940577985863 
0.3223628308260884 0.8218051005959434 -0.07474907379786108 -0.8867693381524305 -0.7780721623641180 0.3800984558241086 
0.7382818989376770 0.1966103540623737 0.3245507820280044 -0.4619812280264308 -0.8341685409204606 -0.1861296891964374 
-1.025281554163718 -1.557932303965858 -0.2961473123495489 3.161569518944307 -1.941547109605014 -0.4302483095148527 
-1.950962596183716 -0.2066269621187448 0.5171212200202349 1.899014296073265 -0.6497792576254232 -0.4004219191020930 
-0.2463856960155509 0.1393970428413773 -0.5339688786612977 0.2671843125209109 0.1622002181137776 -0.9960924026001540 
-1.196224813869330 -1.128093851991748 3.429436038950386 -1.741080084841961 -1.790307496619938 -0.3992793517593439 
3.662288277669292 -2.270093958728387 -2.345525212797141 -2.163423312252225 -2.166678186112504 -0.3530861532969257 
0.2572183996830524 0.1619268421130341 0.2364643809743849 -1.457077467493449 -0.1630554946444646 -0.5891675212121794 
-0.3648862477575809 -0.5673737536718143 -0.1061728463099099 -0.2735161430071399 0.6768049939717616 -0.2458816887007357 
-0.05150728801531419 0.7972543036918138 0.1685833420810910 -0.5607129246994776 -0.4509664973287620 -0.5842479918109542 
-0.7038479258188852 -0.6466107107164737 -0.9961965965148084 -1.530279434173536 1.431504483816804 -0.9710266860560846 
0.3101241844441825 0.3027968369685226 0.2996026596995258 -1.378987687256424 -0.3516847659448625 0.07206112105311137 
-0.01761555107295968 -0.1857496085990195 -0.07818901667014876 -0.006549329223658565 0.2033537595009835 0.1921754790789382 
-0.4452998050057764 -0.003584351432408488 -0.1016581398634066 1.684497897753840 -0.8574085057523496 -0.3376093676016176 
-0.1713258400229913 -0.2104575016786024 -0.1680403003905931 0.09555508629819272 0.1053981867327068 -0.4238967795422622 
3.641814204644358 -2.114511366272264 -2.208382517786638 -0.3648962914557438 -1.941221908014245 -0.3551721331798330 
-0.6915677945211782 -1.845400181348626 2.851903040335031 -0.8243654003516259 -1.106005755683506 -0.2732467918744040 
-0.8025061512098932 0.9387682381044277 -0.1570418647213315 -0.8275164637171369 -0.3695167869347230 -0.4854881369832585 
-0.1720429410164649 0.01387829414255635 0.7827055265921117 -0.2503932937312767 -0.2572711244791368 0.1459418971241414 
0.6983750917461811 -0.8109113759151150 -0.6556300090787787 -0.09140016634008298 -0.4783350606216915 -0.1951461882176231 
-1.885851023417785 -0.6926244179083271 2.481974255726872 -0.5327232737424215 -1.472449502448740 -0.2836749473978270 
-0.4478238756035587 0.2667879136907982 -0.1651130240999037 -0.3145245738634357 0.4628080636116715 -0.1488972186135368 
-0.6643450996446012 0.6218315336317933 -0.2957234025702610 0.1364948841493752 -0.1784103255185734 -0.1999723918685217 
-0.4519853190192283 -0.1003486849100168 0.4681000040752508 0.6227894716711933 -0.2550967947553025 -0.1405201357096675 
1.203143590771798 -2.027876357619124 1.164678927856118 0.5019895718434755 -1.588970815529855 -0.3605234881543095 
0.07313345392538940 1.177658570535903 -0.2760043339217216 -0.1785340067429533 -1.307634160496689 -0.03808720755533103 
-0.2870347769275753 -0.4146274564956186 -1.185377882661293 1.106092980409415 -0.1136198836460097 -0.1189898462883634 
0.1138367149068303 0.1927739749260557 0.7929455381851780 -0.3653712332200883 -0.5186115952529717 -0.1696400728685885 
-0.04674846196327321 0.9308739466752632 0.3126832937991210 -0.3223207692156923 -0.8554569149026688 -0.1043552343571017 
0.2614450933291057 -0.2700558887916414 0.1210471233136264 0.7367887206875335 -0.1382320817941375 -0.1194182251912484 
1.430030578142800 -1.508051480016061 0.8720476044119863 -0.5352123789134067 -1.843730336601276 -0.3244829396876914 
-0.03103421893287958 -0.5898583131816659 -0.4009099463764285 -0.7505470858507748 0.1519177593308109 -0.06143784690592331 
-0.03642737271926487 -0.1689438745674373 -0.3841100279866528 -0.3853945226220941 0.2733488533987494 -0.1070424558744143 
-0.6023963589590651 0.08389186312832682 -0.5586865172607819 0.4648768197725141 0.1241135115132360 0.4632903237745674 
-0.2167564689416322 -0.1108546817045087 0.3465374413667796 -0.5036235713600024 -0.8521906270413100 -0.2271190418997200 
-0.7810977208345236 -0.1048222694567251 -0.1459315910618022 0.5316344194128891 0.3396479239602862 -0.1950231490378017 
1.607737330760618 0.09728551241206411 -1.994346620472984 -0.5350650227714905 -0.8453827519928653 -0.1099062584083129 
-0.1538465437933858 0.4188625062228286 -0.3870691142167703 -0.1230643842137602 -0.4801268034813300 -0.08774512360965547 
0.1623186989695918 -0.05303409116331078 -0.09198561568891407 -0.2330171085570942 0.08626440262449706 -0.1297630873065021 
-0.5106172149112104 0.7476208792839718 -0.2167478343520046 -0.2579138223742399 -0.05604349767578810 0.6333694560637766 
-0.4955347762322149 0.4880264327287980 -0.7185959864189974 -0.04820419185827957 0.4548179177856884 -0.05327483019274577 
0.5119375073860443 -0.2245923890132140 -0.7036765376581433 0.8797694133908313 -0.2035716383075505 -0.04829782254016020 
-0.09029507345278363 -1.242311702816435 0.5445753507289882 -0.2839215640323822 0.8190756707937478 -0.08425059407904414 
0.4408043935428572 0.6025302973818212 -0.4076390734205374 -0.1667463769146945 -1.125617797049923 -0.04614835082029415 
-0.2912917797189648 -0.04725457223609898 0.6417078244415033 0.3003854180016893 -0.4841818128315885 -0.03049539642332964 
-0.06654586803082277 0.4910861291853222 0.8644770781849369 -0.6193903157793813 -1.665670189277646 -0.06900703631703188 
-0.5484155973736837 -0.4557138690373173 -0.03623647549188425 0.4631913173602896 0.4856476755427647 -0.03724943170134511 
-0.3292431475458907 -0.3559974831669412 0.8547414106818951 -0.4871096736777362 -0.06426915725226418 -0.05463136471470435 
-1.063892666321242 -0.3498089330126947 1.644575301170406 -0.4626474404119633 -0.2208921675620932 -0.01139249258571514 
-0.03201446282996101 -0.4253348318768926 0.1350056372648935 0.2975851705560237 0.6332020861482538 -0.09506472851053255 
0.8559558920963161 0.002133525534660449 -0.4223606227029916 0.005373730223460424 -0.1297520764402825 -0.09885482778689140 
0.2616557710137032 -0.9007633394505640 -0.4747515759609680 1.762287136796330 -0.5893530318673580 -0.1198662711248960 
-0.6943121109393660 -0.4358959936754781 -0.4907727719424192 -0.1583070770040207 0.9464467548462514 0.7265006736927588 
1.158414030606518 -0.03889561955588154 -0.3263556870434661 -0.03876901746943287 -0.7820206860833776 -0.03368235260305017 
-0.1306213758989298 -0.1683176309490781 0.3839762301319708 0.1087924189101234 -0.06364019085061270 -0.07438625108906388 
0.2860310037070354 0.4074958627504563 0.07842399359165736 -0.4093444035347222 -0.1657497130123152 -0.1622379160139870 
-0.5568901440670424 0.1260386468809226 0.1198651137880355 -0.08746967430424799 0.1028583436622186 -0.05299229525772924 
-0.4560585128184271 0.7939192745695773 0.2393366438343410 -0.2637848947571507 -0.4289541809412886 -0.09630328368002324 
-0.05728292891671135 -0.02117538193170506 -0.5790123497618057 0.2512967309969765 0.2259592165804590 -0.1303799762577468 
-0.7154564099203974 -1.359861742083775 0.2321757888130777 0.02745441815429622 1.384875975065110 -0.05444807626267711 
0.6006191795116999 -0.07365551189128768 -0.8246216321489692 -0.004709241734242280 -0.1383852376073662 -0.009578917670004851 
0.1232570930377546 -0.5466054285705587 -0.2234109037147095 -0.4991054087137474 0.8287910053680636 -0.2234340594669450 
-0.4813883548298296 -0.4451587281704699 0.5633678642449550 0.2323534070013439 -0.4911053911782876 -0.08226219538076689 
0.1326589314624116 0.08636739121128265 -0.4239233053553770 -0.2854497646043805 0.4311825330337867 -0.02188484802523148 
-0.4006685633243140 0.7372049009064707 -0.5453649765471011 -0.1630248526391906 0.05413428437467563 -0.07177270126840754 
-0.2148212104904834 -0.02329838447780538 -0.2237131526764495 0.3937036448658550 -0.02634630327908697 -0.001183977126146624 
0.2453704944126768 0.1203160130458159 -0.1717380836748521 0.3812612976949205 -0.06320872707485996 0.5226557717639974 
-0.4236401758326949 0.6475985495585692 -0.7081171867946845 0.4198178062861021 0.05264961723945110 -0.08816614891587611 
0.05463616346103969 0.02945481784290049 -0.2176765540132271 -0.1027676067267416 0.2688914303591626 -0.06981578764414201 
1.254750504519611 -1.392801283777834 1.361786786766443 0.2269056572724275 -1.972321388786476 -0.1231604294519069 
0.06619528266454563 0.5566157890631546 -0.3302890982084337 -0.1307412328385038 -0.9776074574173120 -0.05162397597732978 
0.8350800114215472 0.7916424013305747 -0.6163881021306006 -0.2081030894669670 -1.180352864251790 -0.05302113279426800 
-0.1362874885320486 -0.6386198816686173 0.6439459585355447 0.4858083430264752 -0.1221066958981931 -0.07524155746951944 
0.5094057429044095 -0.3484417556497634 -0.4483601407170828 -0.1303102469566412 -0.03648085826175362 -0.03959840140208495 
0.3947856503748392 -0.09575490928556094 -0.1348639613895335 -0.1350413133211760 -0.03747884141957773 -0.03545165678088199 
-0.3470240640956126 -0.2693699263170626 0.09490568147091549 0.3782139378664174 0.3745849543960579 -0.08843890282472576 
-0.3392291490089116 0.2965548736187686 0.2870520482428095 -0.1015194220875530 -1.033737624803583 -0.05976069313109322 
-0.2010808446716378 0.8534772033622513 -0.09926672004042161 -0.03928993143427784 -0.7304176876991816 -0.03053860009535821 
0.6279005121019248 0.5998710549004236 -0.3234831567193179 -0.06122802990073738 -0.7302452034700390 -0.009648791248762667 
0.05693276124522644 -0.6719182199194484 1.227639066802389 -0.3552606103711544 -1.122623588467906 -0.05042658102302405 
0.02417203467662547 0.2375972274685574 -0.6308351562201900 0.2623377847586244 0.2063091186422596 -0.04472226889954936 
-0.09426496861899461 0.4131033933970204 -0.3280112359225573 0.3927270161929918 0.09177437311917047 -0.05138999852823806 
-0.3678025993254490 0.7909707944312694 0.01829292510703921 -0.08616896138568103 -0.4862672863295426 -0.02670744585977121 
0.09319440003100575 -0.01392678321852830 0.3487273301518374 -0.05401027883910653 -0.06299190611922388 -0.01789200129637950 
0.4336634165546683 -0.02624037925437026 -0.01141160592952213 -0.1286128058313480 -0.01122559992695413 -0.002702829514068762 
-0.1936142102691261 -0.01737892365134498 -0.3232717174309119 0.4230013764559190 -0.01914606091545310 -0.0007249077863946695 
0.8071634214219917 -0.03418834625412695 -0.8451073684383976 -0.2125536141548786 -0.07866912675851068 -0.005048217141659065 
-0.3155967403082524 -0.2627442529871271 0.1284109002819318 -0.1143965492966313 0.06954105166026503 0.7799385364527377 
-0.4151065410957879 0.4866006649774639 -0.7447030223369665 -0.3071628687156557 0.1893917524361948 -0.09741770655929070 
-0.05500918740503073 -0.1417592216259657 0.2764665360010860 -0.3267334884739621 0.08976240391392716 -0.01084273277347930 
-0.1880492412965852 -0.01517014364567446 1.499546076957163 -1.365645728085561 -0.01790433946180411 -0.0006042936380098520 
-0.1453673564935797 -0.7246574537114958 -0.1061908948349970 -0.02428402518511897 0.7778183960095287 -0.02729698004011735 
1.573164604103167 -0.03818912937155648 1.113070329951765 -1.839017538505281 -0.005743068569600752 -0.002084785320810060 
-0.7616411747286178 -0.6124446978245298 -0.3979430246785757 -0.4902977050881022 1.580911695674755 -0.07599949208120332 
-0.3640249975776370 -0.4298563222690335 -0.1285276370877364 -0.07429341226889555 0.7023326320401715 -0.02412449155005281 
-0.3770033938430620 0.8431489598162186 0.02438635421336754 -0.2310685835581968 -0.3141377387470293 -0.03188239656942822 
0.4170111541767043 -0.07436088182294974 -0.5574384050921621 -0.2354667314447629 -0.06483695726893057 -0.07976964957567353 
-0.6961990533320296 1.374161918523905 -0.5943437810464001 -0.1311784613048971 -0.3565322756535932 -0.05189004056843718 
-0.1845144264490156 -1.124161546176051 0.4090307728764232 0.5656508929600210 0.3742437079169024 -0.02581554997185166 
-0.3839039024816983 -0.08735301785860473 -0.2288974379651536 0.5773338472464030 0.05280227646863285 -0.05746650246400786 
-0.4065467999691440 0.2148867751818216 -0.4943619386372609 -0.1183317397284484 0.3282760985723319 -0.05235961118076637 
0.05121120261476305 -0.2159387674194367 -0.6947474816156765 0.2913071700102679 0.9140924048524606 -0.1036215458736326 
-0.1649727126396240 0.06530401854093572 -0.05139507610651815 -0.04350941629570241 -0.07630980653011658 -0.03609131403970550 
-0.1990019662748856 0.2216583779919164 -0.007397149386688878 -0.02164880757415204 -0.3330601599996090 -0.002157595351034838 
0.4628016953218485 -0.2974822032455523 0.2899938693830249 -0.3565841878880872 0.1177251141578343 -0.04455133265963299 
-0.1793438549991264 -0.03358622506114082 -0.3596250115292698 0.3219741641680681 -0.005860332063161519 -0.001965356725247086 
-0.1845344612064355 0.7482046609221648 -0.2927596130790610 -0.1444461315489254 -0.4376227912918924 -0.02877616982782578 
-0.1172988437112479 0.2990287651308921 -0.05764278669949992 -0.1553210984225900 -0.03836271497643785 -0.006062231650290470 
-0.3819620710794209 -1.338278475994947 -0.1784131445058775 -0.02248396068766752 1.754597483743758 -0.01073333701838835 
-0.1190824126494476 -1.072263044159800 -0.1274799279550823 -0.1120830795159685 1.133775452949156 -0.02057016582707418 
0.6151233666728905 0.4213723399589861 -0.9070081359144020 1.021866879887432 -1.040299256494841 -0.07232417071783181 
-0.1796879715279497 -0.04185283734539869 0.4653098658536474 -0.1947794616600071 -0.007340487432013034 -0.001895784568013116 
0.3059841673660885 -0.7333760178949673 0.01591105303706751 -0.08894886630511627 0.3866991832770238 -0.01860238572797190 
-0.2368889504801083 -0.03566715389388220 -0.4892902446575800 0.4297329656470271 -0.004112327112487818 -0.001691792919087688 
-0.08851537502111097 0.4377280576511439 -0.1420344205047559 -0.05802983603292443 -0.4943866149249873 -0.007355708685414101 
-0.09796023244776197 -0.3421479912385810 -0.1473571178234875 -0.02864015415384191 0.2357029917917220 -0.01845973768999930 
-0.002054219832778663 0.2939555627866323 -0.02441260030990996 -0.0007254603419789386 -0.2897038088771305 -0.001359615852801255 
0.3228744666617061 0.1907086273940840 -0.3443322960055261 -0.3158392525992972 -0.1542178524041264 -0.03300911433774707 
-0.1435624348687463 0.08060825378091611 -0.4150563098171651 -0.1945741953225524 -0.09196925535878035 -0.01271751548632448 
-0.03011830077595845 0.2196847885071019 0.2071499194098767 1.121778581893782 -0.6327894615096086 0.05154701009132286 
0.2709295969908852 -0.1534518890631504 -0.01071993633933160 -0.05374412065331884 -0.3437119164006994 -0.3084727894635351 
0.09713273817353671 -0.1243685342141540 -0.04910752713577744 0.3469513569379809 -0.1274473311602548 0.1113539387274821 
0.1278881185904166 0.04955561246424270 -0.7771195736673878 -0.5871758399643151 0.3102238229712404 0.03717255665177222 
-0.5746604310468876 -0.2377587539723404 1.135614923546703 0.6729762812839384 -1.191518581810286 0.08355403135504700 
0.1303661427294544 -0.5073235777094123 0.3118451090729197 -0.5289292214513723 0.6802138569297345 -0.4845501477800608 
-0.5638116824984547 0.02777453876488477 0.5077168527851934 -0.07469479441519711 0.02092710130476590 0.3481676356905581 
0.2708677725402162 -0.2443162139660787 -0.1467196837161169 -0.3220002030278807 0.4176961291295478 -0.1245916661240189 
-1.024114763876432 0.3935730776830722 -0.5943522462681032 -0.03203898398762331 0.5393963366739211 -0.7984891328770943 
0.1311755315699528 0.1474355836607900 -0.6584496232726236 0.08808940579133703 0.2045417796175396 -0.6891121387734958 
-0.4081288739925157 0.003615595509678189 -0.1014469581048320 -0.5435568227939511 0.1531125731979278 -0.2833585790064512 
0.05961641500763934 0.4726095172009923 0.01026750952081609 -0.3568286849686987 -0.7518023064357536 -0.2938539727312653 
-0.4030192540676161 0.5386784312069237 -1.155958310914422 -1.088788806090730 0.3533307838538151 -0.1153066306274111 
-0.8498563712175468 1.686160040851798 -0.9464732931786136 -0.4105302610996849 -0.9245941435740865 -0.1392717637077738 
-0.5046567107541409 0.06110074573784797 -0.3944310774612025 -0.5873388327392763 -0.2381564446476748 -0.4329355350604663 
0.09703565267053865 0.6312059450961468 0.4747244647396627 -0.4565450986916059 -0.9742621855581595 -0.1382902647301126 
-0.04297218423091403 0.5668107512216503 -0.3684087179831178 0.3287466007011058 -0.2113588767299715 -0.3161829959882778 
0.4962081615905623 -0.2510598802945430 0.04245197913849842 0.1247734930793640 0.1169071818914635 -0.2733623173811353 
-0.6058556254680538 0.4882687877278051 -0.4394594278055459 -0.3398671962140595 -0.1190575676908199 -0.1089197749306543 
0.6225981655501039 -0.2367066450215734 -0.4168309774035205 -0.08717724924960772 0.1851642371155464 0.3487318802295958 
-0.3679364607119335 -0.4284128399492761 -0.4321468370866755 -0.3350009440003136 0.6260877258302258 -0.1045497562586151 
0.05985986396280023 -0.8468909737270636 -0.1414097828075328 0.2616421658795923 0.2420549564270795 0.9896936202735219 
-0.09644640498996672 -0.06001798095834306 -0.1007255145788001 -0.1430915215120608 0.2014256421681234 -0.1365867429106928 
-0.1605079762734279 0.1254774229114539 -0.01170015335468887 -0.3017584810042031 -0.1755612021960680 -0.1905631288053377 
-0.6934150443981026 0.3261868042630880 -0.4542266855389426 -0.5885178199434534 0.1824093169035841 0.1349226188807194 
-0.1164150660334501 0.2236563162663004 -0.5665436907759417 -0.2945001028949115 0.1207085592445956 -0.1296988946515418 
-0.4133557729939258 -0.1203643506375132 0.1963076675685052 -0.2461286789079273 0.1070407393730150 -0.1197447874159388 
-0.4023379297138579 0.2474570706782353 -0.4120713255859604 -0.2764609005584552 -0.05063059191787501 -0.08762938957664818 
-0.1655628753930025 0.01018024758736385 -0.07101124170592335 1.060530170483112 -0.6176645895670272 -0.3925813945566390 
-0.4098424095147323 -0.1722353713232826 -0.4627629121227753 0.5988704128994808 0.2405021733662547 -0.09208154272307152 
-0.2063263330243144 -0.4913575644952636 -0.1840723645517038 -0.1697793996213999 0.3500474012686304 -0.05302798697661425 
0.4572277366567119 -1.227353789950519 0.3213018146046528 0.1988402366012592 0.2010186381215743 0.2289166854225196 
-0.7197571373300000 -0.7495090701610222 0.1556670530495853 0.7393851455668475 0.4511473264951167 -0.1902811281481904 
-0.3312414523343762 0.9641016765009933 -0.1333466692648128 -0.1415807107299043 -0.9208552125571620 -0.06946605236598860 
-0.1054164463975230 -0.7788313853403069 -0.2702793026826616 -0.2362396569411545 0.9864540474479904 0.1425706395131909 
-0.1541850496843418 -0.1068597591600714 -0.8276254726690075 -0.3558753924374093 0.5855051573069557 -0.2703528148302712 
0.1981747087042685 0.4477022846128567 -0.6121958615794306 -0.5401247844916056 -0.1926633613041424 -0.1803756311040690 
-0.4209413597348936 -0.5008630917606117 -0.5249429452809133 -0.2388597417800131 0.6144659018883172 -0.07613904513312957 
-0.4187849076040675 0.8229675915872281 -0.6080486116291838 -0.4070388772236631 -0.4805460625051022 -0.2282528201682373 
-0.3813975050838220 -0.1922593637511608 1.070974164013356 0.4661682322463553 -0.7509319757009475 -0.1243804904071697 
-0.1431599368335663 -1.183423407583693 -0.1234215932445543 -0.1153114386202083 0.8124544511529961 -0.04827623114357092 
0.4019160309327883 0.6699825979154853 -0.1056734621988132 -0.2285642766119899 -0.9373002414417348 -0.05008441472101797 
-0.01764485728525903 1.480387174710038 0.3022043109178639 -0.4041042596038306 -1.105063688016510 -0.1008592376595787 
0.01935903042574613 -1.015927758260734 -0.3262268576580849 -0.1586345893675186 1.054382205071567 -0.06467523831636078 
0.1683183399291402 -0.2503440204099979 -0.3244476037736940 -0.4717367542456662 0.3433508824575903 0.3135283130673897 
-0.5241950308336442 0.7114530859492173 -0.5041487450523235 -0.5967158341969640 -0.1919835219608843 -0.2629475235658237 
-0.01102045392308697 -0.7841253321724334 -0.4249729851864479 -0.2438670875729425 0.6196850408436600 -0.07633348856389001 
-0.3348921270240624 0.2506186033167734 -0.3282362863458564 -0.2272404222494604 0.02147324781761708 -0.07408386278684155 
0.1579851775804557 -0.3458298344100649 0.4658472201960512 0.2302653289614665 -0.4567602486174327 0.5559620140011001 
-0.2440514703489769 0.5317058006780109 -0.4216384772520530 -0.2357813941516823 -0.4355623273057205 -0.1120603828821151 
-0.4667897887173790 0.05494773501914097 -0.2078905481339041 -0.1554904099252097 -0.07832850129805954 -0.05116273796487483 
-0.1240752767274445 -0.08433555325955346 -0.1058571002416428 -0.08100233276737012 -0.2120357796242293 -0.03518930805679442 
0.2409081012959497 -0.006040421028025027 -0.3374661260669915 -0.2562210727888193 -0.1404046180557924 -0.09758260326654498 
-0.2844408526578602 -0.1290421163181217 -0.2850488752671903 -0.3470562288657219 0.05930362098323316 -0.05024778316141192 
0.1284809134403010 0.4366145075465273 -0.05179333437233406 0.9091053767838584 -0.5204109448239402 -0.2562173699674664 
-0.1558851340972682 0.8515413473320324 -0.1981667685411932 -0.2166108481148457 -0.3070540379633231 -0.2868306529368845 
-0.3617147071931809 0.5959312949690450 -0.2132862232172324 -0.1067366611224474 -0.2577204122964684 -0.05659153931374305 
0.3082914031503728 -0.7276164440655911 -0.2403679032770365 -0.3429371916653929 0.9715250918336731 -0.07144003785194780 
-0.1617038556404318 0.9792602997914663 -0.1045566672872935 -0.1029780136180411 -0.9679405495588518 -0.04641380819500723 
-0.6075721871451389 0.6999610220951071 -0.09604386359683803 0.6299177746888820 -0.1031671552271834 -0.1498610138555484 
-0.3165085443321488 -0.4883745608511732 0.5622412742866658 0.5257329321137804 0.2470255666416690 -0.05015129707242844 
-0.1226031956692638 0.4279318863321650 -0.1259580881614754 -0.1013808853668139 -0.3673026921462529 -0.04002307221096332 
-0.3676892103395995 0.4249469906406435 0.1835472259098744 -0.2509740180752147 -0.06776651361533097 -0.07367524381538446 
-0.1622808360863460 1.467653898368061 -0.3935069233590568 -0.2210002405380917 -1.575519318817635 -0.05762677832456132 
0.8334317552324870 -0.7935320110620890 0.3570335770611450 -0.7112733520849169 -0.01591377724256416 -0.2022957677362828 
-0.4080805455489128 0.3907546986176194 0.8828380866094002 0.2740365071806262 -0.9613947983490620 -0.05622805755330411 
-0.4104460547550152 0.3619347370890990 -0.1325679862955407 0.7591748515869410 -0.3995719538937295 -0.07135236909275898 
-0.08014916169725061 0.2791608207928465 -0.1509426126425636 -0.05569041399265449 -0.2744758870648057 -0.02791417853152139 
-0.2262829018992203 0.2416584275486109 0.2542451535974061 -0.2369346004802109 -0.4143206454105970 -0.07314810940853333 
0.4083666485147433 0.8111019724846056 0.2761596948174760 0.003279730228692650 -1.466121452652444 -0.1226873599765686 
0.6340854050401696 -0.07692702685193636 0.9594645322341294 -1.034858292317453 -0.7819518565940273 -0.05350177590340925 
0.2646808121277736 -0.7490136484122132 0.2382805976102444 -0.1048069925176244 0.3803398615198365 -0.02870206081256050 
-1.077172041814063 -0.5243731839929072 -0.1286282649239332 -0.1277162513148235 1.102124346727466 -0.1180280284292533 
-0.2094523830063225 0.8595123722839000 -0.4494860234727792 -0.1813209654249920 -0.6115783920661847 -0.04537194939781850 
-0.1114302774732939 -0.1617165665630413 -0.1565939350131165 -0.1117431144115488 0.06968651495065131 -0.02888785202115668 
-0.5221934649789175 0.7857496556741360 -0.4944190511154283 -0.2380463974475994 -0.5472390196424055 -0.04686449812072540 
-0.1222076666731587 -0.1026919874563999 -0.6085924292680966 0.1080503841078695 -0.1078422909726858 0.3766701922049482 
0.1501762330795319 -0.2997900895267801 0.2654514348885377 -0.2558003568700621 -0.02362951572529295 -0.04562926904495040 
0.4499171637955426 -0.1047234493418750 0.3391558349051141 0.6293391922817452 -0.02494157089677894 -0.05579024509182804 
-1.852855692698574 1.251184343408488 0.8122782068235809 0.1486325804967716 -0.5185231848435283 -0.1267141903764469 
-0.03078278450523716 0.3620427360004022 0.1605821715465569 -0.3196976278546939 -0.5455713170466453 -0.05002954230777751 
0.8337166403907049 -0.1273625704459031 -0.1594096112319741 -0.1555743717036912 -0.09976278537916360 -0.02763110012177492 
-0.4517870804278114 0.03256018526330239 -0.5205765212655379 -0.3312884270633115 0.2668126279757966 -0.07941122281597589 
-0.8487580880784337 0.005489400255114164 -0.1186667014098359 -0.1965712376525644 0.4724718269444715 -0.1210184351099307 
-0.1953401907887478 -0.1778534127925384 -0.2738203591260219 -0.09411761197073470 0.3512111736852272 -0.03468838037606654 
-0.4072420318235778 -1.134943531530071 -0.5050500154675446 -0.4891510379544988 1.532413587662311 -0.1668150990893267 
-0.1218854388653268 -0.2406901348317666 -0.1574747846055956 -0.09217884477197856 0.1762308182438239 -0.06170816420958522 
0.7814532666249494 -1.242167336241473 -0.6192751523928333 -0.2710787766509292 0.7581450474105211 -0.1409741690224307 
-0.2614425569878295 0.4172440292440010 0.2436777102848099 -0.1901587357956640 -0.5697754126283536 -0.1073001734102463 
-0.5026434638530595 0.6192278741594296 -0.03108653948572483 -0.1190393834000137 -0.6094751297044476 -0.03856847136964946 
-0.2999219085264560 -0.05483406809793737 -0.2893330292305997 -0.02332990600707663 0.3681452566203153 -0.04406654365597569 
-0.4074836986552211 1.244508883605086 -0.5254950926372816 -0.1552768497962851 -0.8324647708521989 -0.06084720075506165 
-0.1924715270274100 0.1648522706605541 -0.1779013648498849 -0.1160954656915186 0.02979429179705681 -0.04401543853758465 
-0.2064381097296131 -0.3467831372818943 0.7166522378575361 0.3781825624408626 -0.2022597177649153 -0.03818164258733386 
-0.01613132018841979 -0.06602724606058556 0.4010867228547924 -0.03508771767827233 -0.2749646584003440 -0.04604010196886109 
-0.1759941077500914 0.1453467336726253 -0.1704016389382918 -0.09024032085494195 -0.08646274680352860 -0.03132341383984445 
0.5862277569329815 0.05478858373693184 0.3621833859434531 -0.2813489078607712 -0.2845326787909275 -0.1411622280417793 
-0.2657079873309726 0.1466612758459302 -0.02805973270339626 -0.4884393861054117 0.3853807500575235 -0.1071372022148545 
-0.3393681929726207 -0.3356948340979848 -0.3269742009029523 -0.2171720061270527 0.8218111143117773 -0.09414900935091883 
-0.1243897530486613 -0.01400862861515168 -0.2944201331181425 -0.07816405490234110 -0.5090837996689953 0.8273229993919762 
-0.07379180282067560 0.4824332838252467 -0.1579645969639150 -0.1476645286034037 -0.6786917113809575 -0.02050528583856958 
-0.1119635835395769 0.4609784548191416 -0.1821437018051197 -0.01783462106421421 -0.5814406748652535 -0.03618493265147409 
-0.3100823718064862 -0.1503373609382873 0.5006480709858830 -0.4240637854905023 0.4507437781463413 -0.04796648078439084 
-0.2059975529719572 0.2466080532043248 -0.1872884737642166 -0.2029146805654039 -0.1756616897930027 -0.04041377854340437 
0.07952616024442134 -0.4305253303148015 -0.1133743781366852 -0.1465495688705950 0.2558186616150764 -0.03822382591450693 
0.1068790565416232 0.6681598766239488 -0.4266868732799858 -0.2499621451007114 -0.6268712455586144 -0.04899963884665230 
0.08954126758031201 -0.2613203977827470 -0.1858063816654172 -0.2137896484872519 0.2603919152941719 -0.02292664415280123 
0.4673484828839231 -0.3055801742831888 1.545318123680834 -1.211232181536802 -0.5740844182552310 -0.09232862960815467 
-0.1035267095976804 0.03903074842859858 -0.08149595404832369 -0.07343535332601489 -0.02050919174046367 -0.03408673635497688 
-0.07132214265284698 -0.2759223608708588 -0.1410005786215382 -0.2510300675066322 0.3957515324324423 -0.07754581045664469 
-0.2786144221130218 0.4329943723860226 0.01845563749883438 -0.1301744316931623 -0.5666814944223975 -0.03139363166310350 
-0.1014257912334041 0.1335390575692162 -0.1912175186625085 -0.03920207054687609 -0.03607478237390725 -0.03839075418017904 
0.4130243789858156 -0.6945679160039016 0.03587937790377728 -0.2312791341514265 0.1734224212505306 -0.06617724981021161 
-0.1407876326654879 0.6026871263845662 -0.2768263856913564 -0.06372511280149402 -0.3526239115035197 -0.05106639922284465 
-0.1645433868465569 0.6771222581886359 -0.07218429578766102 -0.3334865062221860 -0.8256143441864794 -0.08482093955061347 
0.6458208817233348 -0.3566740208093999 0.4968511544250998 -0.02808849882172460 -0.2128454870255535 -0.02456910586285861 
-0.3990744945312081 -0.07619290612604590 -0.4645133734264284 -0.2743192852848144 0.6242137643306657 -0.03257275432203369 
-0.01615347740335170 0.3335660950463718 0.1928898610896476 0.1286499022403804 -0.1013574476261540 -0.09060836572656797 
-0.007346891876108534 0.4355125877204333 -0.4313051965344874 -0.3424886260542372 -0.1237602257656726 -0.2122854666029321 
-0.1055823733395435 -0.07640920158620781 -0.1321659198079119 -0.1229783756797900 0.1955173560443801 -0.03494090717716945 
-0.1875656260747985 0.8295971352947449 -0.06510319036699208 -0.06196455466016895 -0.9373033357415301 -0.01845753348619882 
-0.2512297498744642 -0.1704826356631173 -0.09027596174200758 -0.1099188702839443 0.1907642694320704 -0.02813992618781389 
-0.2849639472300879 -0.09471648331211949 -0.1803893524465576 -0.04566326581715663 0.2646440578571792 -0.02870912011937456 
-0.5086672796333548 0.03327784511568008 -0.3023118007944798 -0.1976306891954071 0.5673798099595418 -0.03626346885098587 
-0.03631406208785815 -1.331413122549336 -0.3617378702918080 -0.2515102294093685 1.410385901374597 -0.08156611124986936 
0 0 0 0 0 0 
0 0 0 0 0 0 
0 0 0 0 0 0 
0 0 0 0 0 0 
0 0 0 0 0 0 
0 0 0 0 0 0 
0 0 0 0 0 0 
0 0 0 0 0 0 
0 0 0 0 0 0 
0 0 0 0 0 0 
0 0 0 0 0 0 
0 0 0 0 0 0 
0 0 0 0 0 0 
0 0 0 0 0 0 
0 0 0 0 0 0 
0 0 0 0 0 0 
0 0 0 0 0 0 
0 0 0 0 0 0 
0 0 0 0 0 0 
0 0 0 0 0 0 
0 0 0 0 0 0 
0 0 0 0 0 0 
0 0 0 0 0 0 
0 0 0 0 0 0 
-0.1027690133665526 -0.04043495344759044 -0.01197026464170700 -0.01769366176731279 0.07292579593258905 -0.01085118466401905 
0 0 0 0 0 0 
0 0 0 0 0 0 
0 0 0 0 0 0 
0 0 0 0 0 0 
0 0 0 0 0 0 
0 0 0 0 0 0 
0 0 0 0 0 0 
0 0 0 0 0 0 
0 0 0 0 0 0 
0 0 0 0 0 0 
0 0 0 0 0 0 
0 0 0 0 0 0 
0 0 0 0 0 0 
0 0 0 0 0 0 
0 0 0 0 0 0 
0 0 0 0 0 0 
0 0 0 0 0 0 
0 0 0 0 0 0 
0 0 0 0 0 0 
0 0 0 0 0 0 
0 0 0 0 0 0 
0 0 0 0 0 0 
0 0 0 0 0 0 
0 0 0 0 0 0 
0 0 0 0 0 0 
0 0 0 0 0 0 
0 0 0 0 0 0 
0 0 0 0 0 0 
0 0 0 0 0 0 
0 0 0 0 0 0 
0 0 0 0 0 0 
0 0 0 0 0 0 
0 0 0 0 0 0 
0 0 0 0 0 0 
0 0 0 0 0 0 
0 0 0 0 0 0 
0 0 0 0 0 0 
0 0 0 0 0 0 
0 0 0 0 0 0 
0 0 0 0 0 0 
0 0 0 0 0 0 
0 0 0 0 0 0 
0 0 0 0 0 0 
0 0 0 0 0 0 
0 0 0 0 0 0 
0 0 0 0 0 0 
0 0 0 0 0 0 
0 0 0 0 0 0 
0 0 0 0 0 0 
0 0 0 0 0 0 
0 0 0 0 0 0 
0 0 0 0 0 0 
0 0 0 0 0 0 
0 0 0 0 0 0 
0 0 0 0 0 0 
0 0 0 0 0 0 
0 0 0 0 0 0 
0 0 0 0 0 0 
0 0 0 0 0 0 
0 0 0 0 0 0 
0 0 0 0 0 0 
0 0 0 0 0 0 
0 0 0 0 0 0 
0 0 0 0 0 0 
0 0 0 0 0 0 
0 0 0 0 0 0 
0 0 0 0 0 0 
0 0 0 0 0 0 
0 0 0 0 0 0 
0 0 0 0 0 0 
0 0 0 0 0 0 
0 0 0 0 0 0 
0 0 0 0 0 0 
0 0 0 0 0 0 
0 0 0 0 0 0 
0 0 0 0 0 0 
0 0 0 0 0 0 
0 0 0 0 0 0 
0 0 0 0 0 0 
0 0 0 0 0 0 
0 0 0 0 0 0 
0 0 0 0 0 0 
0 0 0 0 0 0 
0 0 0 0 0 0 
-0.1162305249498743 0.5544292960665202 -0.1794890434752267 -0.06620136523292117 -0.6001952969971415 -0.04705489396254846 
0 0 0 0 0 0 
0 0 0 0 0 0 
0 0 0 0 0 0 
0 0 0 0 0 0 
0 0 0 0 0 0 
0 0 0 0 0 0 
0 0 0 0 0 0 
0 0 0 0 0 0 
0 0 0 0 0 0 
0 0 0 0 0 0 
0 0 0 0 0 0 
0 0 0 0 0 0 
0 0 0 0 0 0 
0 0 0 0 0 0 
0 0 0 0 0 0 
0 0 0 0 0 0 
0 0 0 0 0 0 
0 0 0 0 0 0 
0 0 0 0 0 0 
0 0 0 0 0 0 
0 0 0 0 0 0 
0 0 0 0 0 0 
0 0 0 0 0 0 
0 0 0 0 0 0 
0 0 0 0 0 0 
0 0 0 0 0 0 
0 0 0 0 0 0 
0 0 0 0 0 0 
0 0 0 0 0 0 
0 0 0 0 0 0 
0 0 0 0 0 0 
0 0 0 0 0 0 
0 0 0 0 0 0 
0 0 0 0 0 0 
0 0 0 0 0 0 
0 0 0 0 0 0 
0 0 0 0 0 0 
0 0 0 0 0 0 
0 0 0 0 0 0 
0 0 0 0 0 0 
0 0 0 0 0 0 
0 0 0 0 0 0 
0 0 0 0 0 0 
0 0 0 0 0 0 
0 0 0 0 0 0 
-0.2189995383164268 0.5139943426189298 -0.1914593081169337 -0.08389502700023395 -0.5272695010645528 -0.05790607862656751 
0 0 0 0 0 0 
0 0 0 0 0 0 
0 0 0 0 0 0 
0 0 0 0 0 0 
0 0 0 0 0 0 
0 0 0 0 0 0 
0 0 0 0 0 0 
0 0 0 0 0 0 
0 0 0 0 0 0 
0 0 0 0 0 0 
0 0 0 0 0 0 
0 0 0 0 0 0 
0 0 0 0 0 0 
0 0 0 0 0 0 
0 0 0 0 0 0 
0 0 0 0 0 0 
0 0 0 0 0 0 
0 0 0 0 0 0 
0 0 0 0 0 0 
0 0 0 0 0 0 
0 0 0 0 0 0 
0 0 0 0 0 0 
0 0 0 0 0 0 
0 0 0 0 0 0 
0 0 0 0 0 0 
0 0 0 0 0 0 
0 0 0 0 0 0 
0 0 0 0 0 0 
0 0 0 0 0 0 
0 0 0 0 0 0 
0 0 0 0 0 0 
0 0 0 0 0 0 
0 0 0 0 0 0 
0 0 0 0 0 0 
0 0 0 0 0 0 
0 0 0 0 0 0 
0 0 0 0 0 0 
0 0 0 0 0 0 
0 0 0 0 0 0 
0 0 0 0 0 0 
0 0 0 0 0 0 
0 0 0 0 0 0 
0 0 0 0 0 0 
0 0 0 0 0 0 
0 0 0 0 0 0 
0 0 0 0 0 0 
0 0 0 0 0 0 
0 0 0 0 0 0 
0 0 0 0 0 0 
0 0 0 0 0 0 
0 0 0 0 0 0 
0 0 0 0 0 0 
0 0 0 0 0 0 
0 0 0 0 0 0 
0 0 0 0 0 0 
0 0 0 0 0 0 
0 0 0 0 0 0 
0 0 0 0 0 0 
0 0 0 0 0 0 
0 0 0 0 0 0 
0 0 0 0 0 0 
0 0 0 0 0 0 
0 0 0 0 0 0 
0 0 0 0 0 0 
0 0 0 0 0 0 
0 0 0 0 0 0 
0 0 0 0 0 0 
0 0 0 0 0 0 
0 0 0 0 0 0 
0 0 0 0 0 0 
0 0 0 0 0 0 
0 0 0 0 0 0 
0 0 0 0 0 0 
0 0 0 0 0 0 
0 0 0 0 0 0 
0 0 0 0 0 0 
0 0 0 0 0 0 
0 0 0 0 0 0 
0 0 0 0 0 0 
0 0 0 0 0 0 
0 0 0 0 0 0 
0 0 0 0 0 0 
0 0 0 0 0 0 
0 0 0 0 0 0 
0 0 0 0 0 0 
0 0 0 0 0 0 
0 0 0 0 0 0 
0 0 0 0 0 0 
0 0 0 0 0 0 
0 0 0 0 0 0 
0 0 0 0 0 0 
0 0 0 0 0 0 
0 0 0 0 0 0 
0 0 0 0 0 0 
0 0 0 0 0 0 
0 0 0 0 0 0 
0 0 0 0 0 0 
0 0 0 0 0 0 
0 0 0 0 0 0 
0 0 0 0 0 0 
0 0 0 0 0 0 
0 0 0 0 0 0 
0 0 0 0 0 0 
0 0 0 0 0 0 
0 0 0 0 0 0 
0 0 0 0 0 0 
0 0 0 0 0 0 
0 0 0 0 0 0 
0 0 0 0 0 0 
0 0 0 0 0 0 
0 0 0 0 0 0 
0 0 0 0 0 0 
0 0 0 0 0 0 
0 0 0 0 0 0 
0 0 0 0 0 0 
0 0 0 0 0 0 
0 0 0 0 0 0 
0 0 0 0 0 0 
0 0 0 0 0 0 
0 0 0 0 0 0 
0 0 0 0 0 0 
0 0 0 0 0 0 
0 0 0 0 0 0 
0 0 0 0 0 0 
0 0 0 0 0 0 
0 0 0 0 0 0 
0 0 0 0 0 0 
0 0 0 0 0 0 
0 0 0 0 0 0 
0 0 0 0 0 0 
0 0 0 0 0 0 
0 0 0 0 0 0 
0 0 0 0 0 0 
0 0 0 0 0 0 
0 0 0 0 0 0 
0 0 0 0 0 0 
0 0 0 0 0 0 
0 0 0 0 0 0 
0 0 0 0 0 0 
0 0 0 0 0 0 
0 0 0 0 0 0 
0 0 0 0 0 0 
0 0 0 0 0 0 
0 0 0 0 0 0 
0 0 0 0 0 0 
0 0 0 0 0 0 
0 0 0 0 0 0 
0 0 0 0 0 0 
0 0 0 0 0 0 
0 0 0 0 0 0 
0 0 0 0 0 0 
0 0 0 0 0 0 
0 0 0 0 0 0 
0 0 0 0 0 0 
0 0 0 0 0 0 
0 0 0 0 0 0 
0 0 0 0 0 0 
0 0 0 0 0 0 
0 0 0 0 0 0 
0 0 0 0 0 0 
0 0 0 0 0 0 
0 0 0 0 0 0 
0 0 0 0 0 0 
0 0 0 0 0 0 
0 0 0 0 0 0 
0 0 0 0 0 0 
0 0 0 0 0 0 
0 0 0 0 0 0 
0 0 0 0 0 0 
0 0 0 0 0 0 
0 0 0 0 0 0 
0 0 0 0 0 0 
0 0 0 0 0 0 
0 0 0 0 0 0 
0 0 0 0 0 0 
0 0 0 0 0 0 
0 0 0 0 0 0 
0 0 0 0 0 0 
0 0 0 0 0 0 
0 0 0 0 0 0 
0 0 0 0 0 0 
0 0 0 0 0 0 
0 0 0 0 0 0 
0 0 0 0 0 0 
0 0 0 0 0 0 
0 0 0 0 0 0 
0 0 0 0 0 0 
0 0 0 0 0 0 
0 0 0 0 0 0 
0 0 0 0 0 0 
0 0 0 0 0 0 
0 0 0 0 0 0 
0 0 0 0 0 0 
0 0 0 0 0 0 
0 0 0 0 0 0 
0 0 0 0 0 0 
0 0 0 0 0 0 
0 0 0 0 0 0 
0 0 0 0 0 0 
0 0 0 0 0 0 
0 0 0 0 0 0 
0 0 0 0 0 0 
0 0 0 0 0 0 
0 0 0 0 0 0 
0 0 0 0 0 0 
0 0 0 0 0 0 
0 0 0 0 0 0 
0 0 0 0 0 0 
0 0 0 0 0 0 
0 0 0 0 0 0 
0 0 0 0 0 0 
0 0 0 0 0 0 
0 0 0 0 0 0 
0 0 0 0 0 0 
0 0 0 0 0 0 
0 0 0 0 0 0 
0 0 0 0 0 0 
0 0 0 0 0 0 
0 0 0 0 0 0 
0 0 0 0 0 0 
-0.1772757859300327 0.3303868378426753 -0.1288337265260935 -0.08913701296078218 -0.1645962596242252 -0.01770424275229161 
0 0 0 0 0 0 
0 0 0 0 0 0 
0 0 0 0 0 0 
0 0 0 0 0 0 
0 0 0 0 0 0 
0 0 0 0 0 0 
0 0 0 0 0 0 
0 0 0 0 0 0 
0 0 0 0 0 0 
0 0 0 0 0 0 
0 0 0 0 0 0 
0 0 0 0 0 0 
0 0 0 0 0 0 
0 0 0 0 0 0 
-0.5388250336328247 -0.4950024866420226 -0.3610799961760174 -0.6120916189581393 -0.2970181877936967 -0.7126315543098909 
0 0 0 0 0 0 
0 0 0 0 0 0 
0 0 0 0 0 0 
0 0 0 0 0 0 
0 0 0 0 0 0 
0 0 0 0 0 0 
0 0 0 0 0 0 
0 0 0 0 0 0 
0 0 0 0 0 0 
0 0 0 0 0 0 
0 0 0 0 0 0 
0 0 0 0 0 0 
0 0 0 0 0 0 
0 0 0 0 0 0 
0 0 0 0 0 0 
0 0 0 0 0 0 
0 0 0 0 0 0 
0 0 0 0 0 0 
0 0 0 0 0 0 
0 0 0 0 0 0 
0 0 0 0 0 0 
0 0 0 0 0 0 
0 0 0 0 0 0 
0 0 0 0 0 0 
0 0 0 0 0 0 
0 0 0 0 0 0 
0 0 0 0 0 0 
0 0 0 0 0 0 
0 0 0 0 0 0 
0 0 0 0 0 0 
0 0 0 0 0 0 
0 0 0 0 0 0 
0 0 0 0 0 0 
0 0 0 0 0 0 
0 0 0 0 0 0 
0 0 0 0 0 0 
0 0 0 0 0 0 
0 0 0 0 0 0 
0 0 0 0 0 0 
0 0 0 0 0 0 
0 0 0 0 0 0 
0 0 0 0 0 0 
0 0 0 0 0 0 
0 0 0 0 0 0 
0 0 0 0 0 0 
0 0 0 0 0 0 
0 0 0 0 0 0 
0 0 0 0 0 0 
0 0 0 0 0 0 
0 0 0 0 0 0 
0 0 0 0 0 0 
0 0 0 0 0 0 
0 0 0 0 0 0 
0 0 0 0 0 0 
0 0 0 0 0 0 
0 0 0 0 0 0 
0 0 0 0 0 0 
0 0 0 0 0 0 
0 0 0 0 0 0 
0 0 0 0 0 0 
0 0 0 0 0 0 
0 0 0 0 0 0 
0 0 0 0 0 0 
0 0 0 0 0 0 
0 0 0 0 0 0 
0 0 0 0 0 0 
0 0 0 0 0 0 
0 0 0 0 0 0 
0 0 0 0 0 0 
0 0 0 0 0 0 
0 0 0 0 0 0 
0 0 0 0 0 0 
-0.1772757859300327 0.3303868378426753 -0.1288337265260935 -0.08913701296078218 -0.1645962596242252 -0.01770424275229161 
0 0 0 0 0 0 
0 0 0 0 0 0 
0 0 0 0 0 0 
0 0 0 0 0 0 
0 0 0 0 0 0 
0 0 0 0 0 0 
0 0 0 0 0 0 
0 0 0 0 0 0 
0 0 0 0 0 0 
0 0 0 0 0 0 
0 0 0 0 0 0 
0 0 0 0 0 0 
0 0 0 0 0 0 
0 0 0 0 0 0 
-0.1772757859300327 0.3303868378426753 -0.1288337265260935 -0.08913701296078218 -0.1645962596242252 -0.01770424275229161 
0 0 0 0 0 0 
0 0 0 0 0 0 
0 0 0 0 0 0 
0 0 0 0 0 0 
0 0 0 0 0 0 
0 0 0 0 0 0 
0 0 0 0 0 0 
0 0 0 0 0 0 
0 0 0 0 0 0 
0 0 0 0 0 0 
0 0 0 0 0 0 
0 0 0 0 0 0 
0 0 0 0 0 0 
0 0 0 0 0 0 
0 0 0 0 0 0 
0 0 0 0 0 0 
0 0 0 0 0 0 
0 0 0 0 0 0 
0 0 0 0 0 0 
0 0 0 0 0 0 
0 0 0 0 0 0 
0 0 0 0 0 0 
0 0 0 0 0 0 
0 0 0 0 0 0 
0 0 0 0 0 0 
0 0 0 0 0 0 
0 0 0 0 0 0 
0 0 0 0 0 0 
-0.2678228163090552 0.1237083889552873 -0.2632366273357796 -0.1089093367683395 -0.3546782890327026 -0.08972617599298240 
0 0 0 0 0 0 
0 0 0 0 0 0 
0 0 0 0 0 0 
0 0 0 0 0 0 
0 0 0 0 0 0 
0 0 0 0 0 0 
0 0 0 0 0 0 
0 0 0 0 0 0 
0 0 0 0 0 0 
0 0 0 0 0 0 
0 0 0 0 0 0 
0 0 0 0 0 0 
0 0 0 0 0 0 
0 0 0 0 0 0 
0 0 0 0 0 0 
-0.09021134678486628 -0.1637597030464692 -0.1558972878081255 -0.05785604344798020 -0.09045220495612781 0.7013452013762694 
0 0 0 0 0 0 
0 0 0 0 0 0 
0 0 0 0 0 0 
0 0 0 0 0 0 
0 0 0 0 0 0 
0 0 0 0 0 0 
0 0 0 0 0 0 
0 0 0 0 0 0 
0 0 0 0 0 0 
0 0 0 0 0 0 
0 0 0 0 0 0 
0 0 0 0 0 0 
0 0 0 0 0 0 
0 0 0 0 0 0 
0 0 0 0 0 0 
0 0 0 0 0 0 
0 0 0 0 0 0 
0 0 0 0 0 0 
0 0 0 0 0 0 
0 0 0 0 0 0 
0 0 0 0 0 0 
0 0 0 0 0 0 
0 0 0 0 0 0 
0 0 0 0 0 0 
0 0 0 0 0 0 
0 0 0 0 0 0 
0 0 0 0 0 0 
0 0 0 0 0 0 
0 0 0 0 0 0 
0 0 0 0 0 0 
0 0 0 0 0 0 
0 0 0 0 0 0 
0 0 0 0 0 0 
0 0 0 0 0 0 
0 0 0 0 0 0 
0 0 0 0 0 0 
0 0 0 0 0 0 
0 0 0 0 0 0 
0 0 0 0 0 0 
0 0 0 0 0 0 
0 0 0 0 0 0 
0 0 0 0 0 0 
0 0 0 0 0 0 
0 0 0 0 0 0 
0 0 0 0 0 0 
0 0 0 0 0 0 
0 0 0 0 0 0 
0 0 0 0 0 0 
0 0 0 0 0 0 
0 0 0 0 0 0 
0 0 0 0 0 0 
0 0 0 0 0 0 
0 0 0 0 0 0 
0 0 0 0 0 0 
0 0 0 0 0 0 
0 0 0 0 0 0 
0 0 0 0 0 0 
0 0 0 0 0 0 
0 0 0 0 0 0 
0 0 0 0 0 0 
0 0 0 0 0 0 
0 0 0 0 0 0 
0 0 0 0 0 0 
0 0 0 0 0 0 
0 0 0 0 0 0 
0 0 0 0 0 0 
0 0 0 0 0 0 
0 0 0 0 0 0 
0 0 0 0 0 0 
0 0 0 0 0 0 
0 0 0 0 0 0 
0 0 0 0 0 0 
0 0 0 0 0 0 
0 0 0 0 0 0 
0 0 0 0 0 0 
0 0 0 0 0 0 
0 0 0 0 0 0 
0 0 0 0 0 0 
0 0 0 0 0 0 
0 0 0 0 0 0 
0 0 0 0 0 0 
0 0 0 0 0 0 
0 0 0 0 0 0 
0 0 0 0 0 0 
0 0 0 0 0 0 
0 0 0 0 0 0 
0 0 0 0 0 0 
0 0 0 0 0 0 
0 0 0 0 0 0 
0 0 0 0 0 0 
0 0 0 0 0 0 
0 0 0 0 0 0 
0 0 0 0 0 0 
0 0 0 0 0 0 
0 0 0 0 0 0 
0 0 0 0 0 0 
0 0 0 0 0 0 
0 0 0 0 0 0 
0 0 0 0 0 0 
0 0 0 0 0 0 
0 0 0 0 0 0 
0 0 0 0 0 0 
0 0 0 0 0 0 
0 0 0 0 0 0 
0 0 0 0 0 0 
0 0 0 0 0 0 
0 0 0 0 0 0 
0 0 0 0 0 0 
0 0 0 0 0 0 
0 0 0 0 0 0 
0 0 0 0 0 0 
0 0 0 0 0 0 
0 0 0 0 0 0 
0 0 0 0 0 0 
0 0 0 0 0 0 
0 0 0 0 0 0 
0 0 0 0 0 0 
0 0 0 0 0 0 
0 0 0 0 0 0 
0 0 0 0 0 0 
0 0 0 0 0 0 
0 0 0 0 0 0 
0 0 0 0 0 0 
0 0 0 0 0 0 
0 0 0 0 0 0 
0 0 0 0 0 0 
0 0 0 0 0 0 
0 0 0 0 0 0 
0 0 0 0 0 0 
0 0 0 0 0 0 
0 0 0 0 0 0 
0 0 0 0 0 0 
0 0 0 0 0 0 
0 0 0 0 0 0 
0 0 0 0 0 0 
0 0 0 0 0 0 
0 0 0 0 0 0 
0 0 0 0 0 0 
0 0 0 0 0 0 
0 0 0 0 0 0 
0 0 0 0 0 0 
-0.04882327799262834 -0.3902859536636421 -0.07177731921884593 -0.02501430976810553 0.1725912120318502 -0.03182009736641488 
0 0 0 0 0 0 
0 0 0 0 0 0 
0 0 0 0 0 0 
0 0 0 0 0 0 
0 0 0 0 0 0 
0 0 0 0 0 0 
0 0 0 0 0 0 
0 0 0 0 0 0 
0 0 0 0 0 0 
-0.09021134678486628 -0.1637597030464692 -0.1558972878081255 -0.05785604344798020 -0.09045220495612781 0.7013452013762694 
0 0 0 0 0 0 
0 0 0 0 0 0 
0 0 0 0 0 0 
0 0 0 0 0 0 
0 0 0 0 0 0 
0 0 0 0 0 0 
0 0 0 0 0 0 
0 0 0 0 0 0 
0 0 0 0 0 0 
0 0 0 0 0 0 
0 0 0 0 0 0 
0 0 0 0 0 0 
0 0 0 0 0 0 
0 0 0 0 0 0 
0 0 0 0 0 0 
0 0 0 0 0 0 
0 0 0 0 0 0 
0 0 0 0 0 0 
0 0 0 0 0 0 
0 0 0 0 0 0 
0 0 0 0 0 0 
0 0 0 0 0 0 
0 0 0 0 0 0 
0 0 0 0 0 0 
0 0 0 0 0 0 
0 0 0 0 0 0 
0 0 0 0 0 0 
0 0 0 0 0 0 
0 0 0 0 0 0 
0 0 0 0 0 0 
0 0 0 0 0 0 
-0.09021134678486628 -0.1637597030464692 -0.1558972878081255 -0.05785604344798020 -0.09045220495612781 0.7013452013762694 
0 0 0 0 0 0 
0 0 0 0 0 0 
0 0 0 0 0 0 
0 0 0 0 0 0 
0 0 0 0 0 0 
0 0 0 0 0 0 
0 0 0 0 0 0 
0 0 0 0 0 0 
0 0 0 0 0 0 
0 0 0 0 0 0 
0 0 0 0 0 0 
0 0 0 0 0 0 
0 0 0 0 0 0 
-0.04882327799262834 -0.3902859536636421 -0.07177731921884593 -0.02501430976810553 0.1725912120318502 -0.03182009736641488 
-0.02964451883276134 0.09630092406600539 -0.03096207258235254 -0.02192679839318979 -0.4368391767427770 -0.03099548811441991 
0 0 0 0 0 0 
0 0 0 0 0 0 
0 0 0 0 0 0 
0 0 0 0 0 0 
0 0 0 0 0 0 
0 0 0 0 0 0 
0 0 0 0 0 0 
0 0 0 0 0 0 
-0.09372643139378145 -0.9490977134398386 0.03099035768587932 -0.4140452692290087 0.2222563608631292 -0.6052011355646194 
0 0 0 0 0 0 
0 0 0 0 0 0 
0 0 0 0 0 0 
0 0 0 0 0 0 
0 0 0 0 0 0 
0 0 0 0 0 0 
0 0 0 0 0 0 
0 0 0 0 0 0 
0 0 0 0 0 0 
0 0 0 0 0 0 
0 0 0 0 0 0 
0 0 0 0 0 0 
-0.1772757859300327 0.3303868378426753 -0.1288337265260935 -0.08913701296078218 -0.1645962596242252 -0.01770424275229161 
0 0 0 0 0 0 
0 0 0 0 0 0 
0 0 0 0 0 0 
0 0 0 0 0 0 
0 0 0 0 0 0 
0 0 0 0 0 0 
0 0 0 0 0 0 
0 0 0 0 0 0 
0 0 0 0 0 0 
0 0 0 0 0 0 
0 0 0 0 0 0 
0 0 0 0 0 0 
0 0 0 0 0 0 
0 0 0 0 0 0 
0 0 0 0 0 0 
0 0 0 0 0 0 
0 0 0 0 0 0 
0 0 0 0 0 0 
0 0 0 0 0 0 
0 0 0 0 0 0 
0 0 0 0 0 0 
0 0 0 0 0 0 
0 0 0 0 0 0 
0 0 0 0 0 0 
0 0 0 0 0 0 
0 0 0 0 0 0 
0 0 0 0 0 0 
0 0 0 0 0 0 
0 0 0 0 0 0 
0 0 0 0 0 0 
0 0 0 0 0 0 
0 0 0 0 0 0 
0 0 0 0 0 0 
0 0 0 0 0 0 
0 0 0 0 0 0 
0 0 0 0 0 0 
0 0 0 0 0 0 
0 0 0 0 0 0 
0 0 0 0 0 0 
0 0 0 0 0 0 
0 0 0 0 0 0 
0 0 0 0 0 0 
0 0 0 0 0 0 
0 0 0 0 0 0 
0 0 0 0 0 0 
0 0 0 0 0 0 
0 0 0 0 0 0 
0 0 0 0 0 0 
0 0 0 0 0 0 
0 0 0 0 0 0 
0 0 0 0 0 0 
0 0 0 0 0 0 
0 0 0 0 0 0 
0 0 0 0 0 0 
0 0 0 0 0 0 
0 0 0 0 0 0 
0 0 0 0 0 0 
0 0 0 0 0 0 
0 0 0 0 0 0 
0 0 0 0 0 0 
0 0 0 0 0 0 
0 0 0 0 0 0 
0 0 0 0 0 0 
0 0 0 0 0 0 
0 0 0 0 0 0 
0 0 0 0 0 0 
0 0 0 0 0 0 
0 0 0 0 0 0 
0 0 0 0 0 0 
0 0 0 0 0 0 
0 0 0 0 0 0 
0 0 0 0 0 0 
0 0 0 0 0 0 
0 0 0 0 0 0 
0 0 0 0 0 0 
0 0 0 0 0 0 
0 0 0 0 0 0 
0 0 0 0 0 0 
0 0 0 0 0 0 
0 0 0 0 0 0 
0 0 0 0 0 0 
0 0 0 0 0 0 
0 0 0 0 0 0 
0 0 0 0 0 0 
0 0 0 0 0 0 
0 0 0 0 0 0 
0 0 0 0 0 0 
0 0 0 0 0 0 
0 0 0 0 0 0 
0 0 0 0 0 0 
0 0 0 0 0 0 
0 0 0 0 0 0 
0 0 0 0 0 0 
0 0 0 0 0 0 
0 0 0 0 0 0 
0 0 0 0 0 0 
0 0 0 0 0 0 
0 0 0 0 0 0 
0 0 0 0 0 0 
0 0 0 0 0 0 
0 0 0 0 0 0 
0 0 0 0 0 0 
0 0 0 0 0 0 
0 0 0 0 0 0 
0 0 0 0 0 0 
0 0 0 0 0 0 
0 0 0 0 0 0 
0 0 0 0 0 0 
0 0 0 0 0 0 
0 0 0 0 0 0 
0 0 0 0 0 0 
0 0 0 0 0 0 
0 0 0 0 0 0 
0 0 0 0 0 0 
0 0 0 0 0 0 
0 0 0 0 0 0 
0 0 0 0 0 0 
0 0 0 0 0 0 
0 0 0 0 0 0 
0 0 0 0 0 0 
0 0 0 0 0 0 
0 0 0 0 0 0 
0 0 0 0 0 0 
0 0 0 0 0 0 
0 0 0 0 0 0 
0 0 0 0 0 0 
0 0 0 0 0 0 
0 0 0 0 0 0 
0 0 0 0 0 0 
0 0 0 0 0 0 
0 0 0 0 0 0 
0 0 0 0 0 0 
0 0 0 0 0 0 
0 0 0 0 0 0 
0 0 0 0 0 0 
0 0 0 0 0 0 
0 0 0 0 0 0 
0 0 0 0 0 0 
0 0 0 0 0 0 
0 0 0 0 0 0 
0 0 0 0 0 0 
0 0 0 0 0 0 
0 0 0 0 0 0 
0 0 0 0 0 0 
0 0 0 0 0 0 
0 0 0 0 0 0 
0 0 0 0 0 0 
0 0 0 0 0 0 
0 0 0 0 0 0 
0 0 0 0 0 0 
0 0 0 0 0 0 
0 0 0 0 0 0 
0 0 0 0 0 0 
0 0 0 0 0 0 
0 0 0 0 0 0 
0 0 0 0 0 0 
0 0 0 0 0 0 
0 0 0 0 0 0 
0 0 0 0 0 0 
0 0 0 0 0 0 
0 0 0 0 0 0 
0 0 0 0 0 0 
0 0 0 0 0 0 
0 0 0 0 0 0 
0 0 0 0 0 0 
0 0 0 0 0 0 
0 0 0 0 0 0 
0 0 0 0 0 0 
0 0 0 0 0 0 
0 0 0 0 0 0 
0 0 0 0 0 0 
0 0 0 0 0 0 
0 0 0 0 0 0 
0 0 0 0 0 0 
0 0 0 0 0 0 
0 0 0 0 0 0 
0 0 0 0 0 0 
0 0 0 0 0 0 
0 0 0 0 0 0 
0 0 0 0 0 0 
0 0 0 0 0 0 
0 0 0 0 0 0 
0 0 0 0 0 0 
0 0 0 0 0 0 
0 0 0 0 0 0 
0 0 0 0 0 0 
0 0 0 0 0 0 
0 0 0 0 0 0 
0 0 0 0 0 0 
0 0 0 0 0 0 
0 0 0 0 0 0 
0 0 0 0 0 0 
0 0 0 0 0 0 
0 0 0 0 0 0 
0 0 0 0 0 0 
0 0 0 0 0 0 
0 0 0 0 0 0 
0 0 0 0 0 0 
0 0 0 0 0 0 
0 0 0 0 0 0 
0 0 0 0 0 0 
0 0 0 0 0 0 
0 0 0 0 0 0 
0 0 0 0 0 0 
0 0 0 0 0 0 
0 0 0 0 0 0 
0 0 0 0 0 0 
0 0 0 0 0 0 
0 0 0 0 0 0 
0 0 0 0 0 0 
0 0 0 0 0 0 
0 0 0 0 0 0 
0 0 0 0 0 0 
0 0 0 0 0 0 
0 0 0 0 0 0 
0 0 0 0 0 0 
0 0 0 0 0 0 
0 0 0 0 0 0 
0 0 0 0 0 0 
0 0 0 0 0 0 
0 0 0 0 0 0 
0 0 0 0 0 0 
0 0 0 0 0 0 
0 0 0 0 0 0 
0 0 0 0 0 0 
0 0 0 0 0 0 
0 0 0 0 0 0 
0 0 0 0 0 0 
0 0 0 0 0 0 
0 0 0 0 0 0 
0 0 0 0 0 0 
0 0 0 0 0 0 
0 0 0 0 0 0 
0 0 0 0 0 0 
0 0 0 0 0 0 
0 0 0 0 0 0 
0 0 0 0 0 0 
0 0 0 0 0 0 
0 0 0 0 0 0 
0 0 0 0 0 0 
0 0 0 0 0 0 
0 0 0 0 0 0 
0 0 0 0 0 0 
0 0 0 0 0 0 
0 0 0 0 0 0 
0 0 0 0 0 0 
0 0 0 0 0 0 
0 0 0 0 0 0 
0 0 0 0 0 0 
0 0 0 0 0 0 
0 0 0 0 0 0 
0 0 0 0 0 0 
0 0 0 0 0 0 
0 0 0 0 0 0 
0 0 0 0 0 0 
0 0 0 0 0 0 
0 0 0 0 0 0 
0 0 0 0 0 0 
0 0 0 0 0 0 
-0.01025175579198406 -0.002926190594523535 -0.05088279693746575 0.008231963651931618 -0.002223036659795161 -0.002279818942913532 
0 0 0 0 0 0 
0 0 0 0 0 0 
0 0 0 0 0 0 
0 0 0 0 0 0 
0 0 0 0 0 0 
0 0 0 0 0 0 
0 0 0 0 0 0 
0 0 0 0 0 0 
0 0 0 0 0 0 
0 0 0 0 0 0 
0 0 0 0 0 0 
0 0 0 0 0 0 
0 0 0 0 0 0 
0 0 0 0 0 0 
0 0 0 0 0 0 
0 0 0 0 0 0 
0 0 0 0 0 0 
0 0 0 0 0 0 
0 0 0 0 0 0 
0 0 0 0 0 0 
0 0 0 0 0 0 
0 0 0 0 0 0 
0 0 0 0 0 0 
0 0 0 0 0 0 
0 0 0 0 0 0 
0 0 0 0 0 0 
0 0 0 0 0 0 
0 0 0 0 0 0 
0 0 0 0 0 0 
0 0 0 0 0 0 
0 0 0 0 0 0 
0 0 0 0 0 0 
0 0 0 0 0 0 
0 0 0 0 0 0 
0 0 0 0 0 0 
0 0 0 0 0 0 
0 0 0 0 0 0 
0 0 0 0 0 0 
0 0 0 0 0 0 
0 0 0 0 0 0 
0 0 0 0 0 0 
0 0 0 0 0 0 
0 0 0 0 0 0 
0 0 0 0 0 0 
0 0 0 0 0 0 
0 0 0 0 0 0 
0 0 0 0 0 0 
0 0 0 0 0 0 
0 0 0 0 0 0 
0 0 0 0 0 0 
0 0 0 0 0 0 
0 0 0 0 0 0 
0 0 0 0 0 0 
0 0 0 0 0 0 
0 0 0 0 0 0 
0 0 0 0 0 0 
0 0 0 0 0 0 
0 0 0 0 0 0 
0 0 0 0 0 0 
0 0 0 0 0 0 
0 0 0 0 0 0 
0 0 0 0 0 0 
0 0 0 0 0 0 
0 0 0 0 0 0 
0 0 0 0 0 0 
0 0 0 0 0 0 
0 0 0 0 0 0 
0 0 0 0 0 0 
0 0 0 0 0 0 
0 0 0 0 0 0 
0 0 0 0 0 0 
0 0 0 0 0 0 
0 0 0 0 0 0 
0 0 0 0 0 0 
0 0 0 0 0 0 
0 0 0 0 0 0 
0 0 0 0 0 0 
0 0 0 0 0 0 
0 0 0 0 0 0 
0 0 0 0 0 0 
0 0 0 0 0 0 
0 0 0 0 0 0 
0 0 0 0 0 0 
0 0 0 0 0 0 
0 0 0 0 0 0 
0 0 0 0 0 0 
0 0 0 0 0 0 
0 0 0 0 0 0 
0 0 0 0 0 0 
0 0 0 0 0 0 
0 0 0 0 0 0 
0 0 0 0 0 0 
0 0 0 0 0 0 
0 0 0 0 0 0 
0 0 0 0 0 0 
0 0 0 0 0 0 
0 0 0 0 0 0 
0 0 0 0 0 0 
0 0 0 0 0 0 
0 0 0 0 0 0 
0 0 0 0 0 0 
0 0 0 0 0 0 
0 0 0 0 0 0 
0 0 0 0 0 0 
0 0 0 0 0 0 
0 0 0 0 0 0 
0 0 0 0 0 0 
0 0 0 0 0 0 
0 0 0 0 0 0 
0 0 0 0 0 0 
0 0 0 0 0 0 
-0.3651902403923941 -0.6487706091096265 -0.3075562034377153 -0.07044043766263546 0.7166905663447961 -0.08036590698004065 
0 0 0 0 0 0 
0 0 0 0 0 0 
0 0 0 0 0 0 
0 0 0 0 0 0 
0 0 0 0 0 0 
0 0 0 0 0 0 
0 0 0 0 0 0 
0 0 0 0 0 0 
0 0 0 0 0 0 
0 0 0 0 0 0 
0 0 0 0 0 0 
0 0 0 0 0 0 
0 0 0 0 0 0 
0 0 0 0 0 0 
0 0 0 0 0 0 
0 0 0 0 0 0 
0 0 0 0 0 0 
0 0 0 0 0 0 
0 0 0 0 0 0 
0 0 0 0 0 0 
0 0 0 0 0 0 
0 0 0 0 0 0 
0 0 0 0 0 0 
0 0 0 0 0 0 
0 0 0 0 0 0 
0 0 0 0 0 0 
0 0 0 0 0 0 
0 0 0 0 0 0 
0 0 0 0 0 0 
0 0 0 0 0 0 
0 0 0 0 0 0 
0 0 0 0 0 0 
0 0 0 0 0 0 
0 0 0 0 0 0 
0 0 0 0 0 0 
0 0 0 0 0 0 
0 0 0 0 0 0 
0 0 0 0 0 0 
0 0 0 0 0 0 
0 0 0 0 0 0 
0 0 0 0 0 0 
0 0 0 0 0 0 
0 0 0 0 0 0 
0 0 0 0 0 0 
0 0 0 0 0 0 
0 0 0 0 0 0 
0 0 0 0 0 0 
0 0 0 0 0 0 
0 0 0 0 0 0 
-0.5388250336328247 -0.4950024866420226 -0.3610799961760174 -0.6120916189581393 -0.2970181877936967 -0.7126315543098909 
0 0 0 0 0 0 
0 0 0 0 0 0 
0 0 0 0 0 0 
0 0 0 0 0 0 
0 0 0 0 0 0 
0 0 0 0 0 0 
0 0 0 0 0 0 
0 0 0 0 0 0 
0 0 0 0 0 0 
0 0 0 0 0 0 
0 0 0 0 0 0 
0 0 0 0 0 0 
0 0 0 0 0 0 
0 0 0 0 0 0 
0 0 0 0 0 0 
0 0 0 0 0 0 
0 0 0 0 0 0 
0 0 0 0 0 0 
0 0 0 0 0 0 
0 0 0 0 0 0 
0 0 0 0 0 0 
0 0 0 0 0 0 
0 0 0 0 0 0 
0 0 0 0 0 0 
0 0 0 0 0 0 
0 0 0 0 0 0 
0 0 0 0 0 0 
0 0 0 0 0 0 
0 0 0 0 0 0 
0 0 0 0 0 0 
0 0 0 0 0 0 
0 0 0 0 0 0 
0 0 0 0 0 0 
0 0 0 0 0 0 
0 0 0 0 0 0 
0 0 0 0 0 0 
0 0 0 0 0 0 
0 0 0 0 0 0 
0 0 0 0 0 0 
0 0 0 0 0 0 
0 0 0 0 0 0 
0 0 0 0 0 0 
0 0 0 0 0 0 
0 0 0 0 0 0 
0 0 0 0 0 0 
0 0 0 0 0 0 
0 0 0 0 0 0 
0 0 0 0 0 0 
0 0 0 0 0 0 
0 0 0 0 0 0 
0 0 0 0 0 0 
0 0 0 0 0 0 
0 0 0 0 0 0 
0 0 0 0 0 0 
0 0 0 0 0 0 
0 0 0 0 0 0 
0 0 0 0 0 0 
0 0 0 0 0 0 
0 0 0 0 0 0 
0 0 0 0 0 0 
0 0 0 0 0 0 
0 0 0 0 0 0 
0 0 0 0 0 0 
0 0 0 0 0 0 
0 0 0 0 0 0 
0 0 0 0 0 0 
0 0 0 0 0 0 
0 0 0 0 0 0 
0 0 0 0 0 0 
0 0 0 0 0 0 
0 0 0 0 0 0 
0 0 0 0 0 0 
-0.01025175579198406 -0.002926190594523535 -0.05088279693746575 0.008231963651931618 -0.002223036659795161 -0.002279818942913532 
0 0 0 0 0 0 
0 0 0 0 0 0 
0 0 0 0 0 0 
0 0 0 0 0 0 
0 0 0 0 0 0 
0 0 0 0 0 0 
0 0 0 0 0 0 
0 0 0 0 0 0 
-0.01025175579198406 -0.002926190594523535 -0.05088279693746575 0.008231963651931618 -0.002223036659795161 -0.002279818942913532 
0 0 0 0 0 0 
0 0 0 0 0 0 
0 0 0 0 0 0 
0 0 0 0 0 0 
0 0 0 0 0 0 
0 0 0 0 0 0 
0 0 0 0 0 0 
0 0 0 0 0 0 
0 0 0 0 0 0 
0 0 0 0 0 0 
0 0 0 0 0 0 
0 0 0 0 0 0 
0 0 0 0 0 0 
0 0 0 0 0 0 
0 0 0 0 0 0 
0 0 0 0 0 0 
0 0 0 0 0 0 
0 0 0 0 0 0 
0 0 0 0 0 0 
0 0 0 0 0 0 
0 0 0 0 0 0 
0 0 0 0 0 0 
0 0 0 0 0 0 
0 0 0 0 0 0 
0 0 0 0 0 0 
0 0 0 0 0 0 
0 0 0 0 0 0 
0 0 0 0 0 0 
0 0 0 0 0 0 
0 0 0 0 0 0 
0 0 0 0 0 0 
0 0 0 0 0 0 
0 0 0 0 0 0 
0 0 0 0 0 0 
0.2130538863646425 -0.1758739087870545 0.1916260485060660 -0.1925660819157557 -0.5140537290477444 -0.04896313869255215 
0 0 0 0 0 0 
0 0 0 0 0 0 
0 0 0 0 0 0 
0 0 0 0 0 0 
0 0 0 0 0 0 
0 0 0 0 0 0 
0 0 0 0 0 0 
0 0 0 0 0 0 
0 0 0 0 0 0 
0 0 0 0 0 0 
0 0 0 0 0 0 
0 0 0 0 0 0 
0 0 0 0 0 0 
0 0 0 0 0 0 
0 0 0 0 0 0 
-0.4967584409386309 -0.7205009569203560 -0.3285856457946212 -0.1375018052071156 0.4960575644168575 0.5735806257569388 
0 0 0 0 0 0 
0 0 0 0 0 0 
0 0 0 0 0 0 
0 0 0 0 0 0 
0 0 0 0 0 0 
0 0 0 0 0 0 
0 0 0 0 0 0 
0 0 0 0 0 0 
0 0 0 0 0 0 
0 0 0 0 0 0 
0 0 0 0 0 0 
0 0 0 0 0 0 
0 0 0 0 0 0 
0 0 0 0 0 0 
0 0 0 0 0 0 
0 0 0 0 0 0 
0 0 0 0 0 0 
0 0 0 0 0 0 
0 0 0 0 0 0 
0 0 0 0 0 0 
0 0 0 0 0 0 
0 0 0 0 0 0 
0 0 0 0 0 0 
0 0 0 0 0 0 
0 0 0 0 0 0 
0 0 0 0 0 0 
0 0 0 0 0 0 
0 0 0 0 0 0 
0 0 0 0 0 0 
0 0 0 0 0 0 
0 0 0 0 0 0 
0 0 0 0 0 0 
0 0 0 0 0 0 
0 0 0 0 0 0 
0 0 0 0 0 0 
0 0 0 0 0 0 
0 0 0 0 0 0 
0 0 0 0 0 0 
0 0 0 0 0 0 
0 0 0 0 0 0 
0 0 0 0 0 0 
0 0 0 0 0 0 
0 0 0 0 0 0 
0 0 0 0 0 0 
0 0 0 0 0 0 
0 0 0 0 0 0 
0 0 0 0 0 0 
0 0 0 0 0 0 
0 0 0 0 0 0 
0 0 0 0 0 0 
0 0 0 0 0 0 
0 0 0 0 0 0 
0 0 0 0 0 0 
0 0 0 0 0 0 
0 0 0 0 0 0 
0 0 0 0 0 0 
0 0 0 0 0 0 
0 0 0 0 0 0 
0 0 0 0 0 0 
0 0 0 0 0 0 
0 0 0 0 0 0 
0 0 0 0 0 0 
0 0 0 0 0 0 
0 0 0 0 0 0 
0 0 0 0 0 0 
0 0 0 0 0 0 
0 0 0 0 0 0 
0 0 0 0 0 0 
0 0 0 0 0 0 
0 0 0 0 0 0 
0 0 0 0 0 0 
0 0 0 0 0 0 
0 0 0 0 0 0 
0 0 0 0 0 0 
0 0 0 0 0 0 
0 0 0 0 0 0 
0 0 0 0 0 0 
0 0 0 0 0 0 
0 0 0 0 0 0 
0 0 0 0 0 0 
0 0 0 0 0 0 
0 0 0 0 0 0 
0 0 0 0 0 0 
0 0 0 0 0 0 
0 0 0 0 0 0 
0 0 0 0 0 0 
0 0 0 0 0 0 
0 0 0 0 0 0 
0 0 0 0 0 0 
0 0 0 0 0 0 
0 0 0 0 0 0 
0 0 0 0 0 0 
0 0 0 0 0 0 
0 0 0 0 0 0 
0 0 0 0 0 0 
0 0 0 0 0 0 
0 0 0 0 0 0 
0 0 0 0 0 0 
0 0 0 0 0 0 
0 0 0 0 0 0 
0 0 0 0 0 0 
0 0 0 0 0 0 
0 0 0 0 0 0 
0 0 0 0 0 0 
0 0 0 0 0 0 
0 0 0 0 0 0 
0 0 0 0 0 0 
0 0 0 0 0 0 
0 0 0 0 0 0 
0 0 0 0 0 0 
0 0 0 0 0 0 
0 0 0 0 0 0 
0 0 0 0 0 0 
0 0 0 0 0 0 
0 0 0 0 0 0 
0 0 0 0 0 0 
0 0 0 0 0 0 
0 0 0 0 0 0 
0 0 0 0 0 0 
0 0 0 0 0 0 
0 0 0 0 0 0 
0 0 0 0 0 0 
0 0 0 0 0 0 
0 0 0 0 0 0 
0 0 0 0 0 0 
0 0 0 0 0 0 
0 0 0 0 0 0 
0 0 0 0 0 0 
0 0 0 0 0 0 
0 0 0 0 0 0 
0 0 0 0 0 0 
0 0 0 0 0 0 
0 0 0 0 0 0 
0 0 0 0 0 0 
0 0 0 0 0 0 
0 0 0 0 0 0 
0 0 0 0 0 0 
0 0 0 0 0 0 
0 0 0 0 0 0 
0 0 0 0 0 0 
0 0 0 0 0 0 
0.2130538863646425 -0.1758739087870545 0.1916260485060660 -0.1925660819157557 -0.5140537290477444 -0.04896313869255215 
0 0 0 0 0 0 
0 0 0 0 0 0 
0 0 0 0 0 0 
0 0 0 0 0 0 
0 0 0 0 0 0 
0 0 0 0 0 0 
0 0 0 0 0 0 
0 0 0 0 0 0 
0 0 0 0 0 0 
-0.1013233529735628 -0.07165274169536996 -0.09734790192241219 -0.05254594638518680 -0.2203743497980771 0.6542290830554988 
0 0 0 0 0 0 
0 0 0 0 0 0 
0 0 0 0 0 0 
0 0 0 0 0 0 
0 0 0 0 0 0 
0 0 0 0 0 0 
0 0 0 0 0 0 
0 0 0 0 0 0 
0 0 0 0 0 0 
0 0 0 0 0 0 
0 0 0 0 0 0 
0 0 0 0 0 0 
0 0 0 0 0 0 
0 0 0 0 0 0 
0 0 0 0 0 0 
0 0 0 0 0 0 
0 0 0 0 0 0 
0 0 0 0 0 0 
0 0 0 0 0 0 
0 0 0 0 0 0 
0 0 0 0 0 0 
0 0 0 0 0 0 
0 0 0 0 0 0 
0 0 0 0 0 0 
0 0 0 0 0 0 
0 0 0 0 0 0 
0 0 0 0 0 0 
0 0 0 0 0 0 
0 0 0 0 0 0 
0 0 0 0 0 0 
0 0 0 0 0 0 
-0.1013233529735628 -0.07165274169536996 -0.09734790192241219 -0.05254594638518680 -0.2203743497980771 0.6542290830554988 
0 0 0 0 0 0 
0 0 0 0 0 0 
0 0 0 0 0 0 
0 0 0 0 0 0 
0 0 0 0 0 0 
0 0 0 0 0 0 
0 0 0 0 0 0 
0 0 0 0 0 0 
0 0 0 0 0 0 
0 0 0 0 0 0 
0 0 0 0 0 0 
0 0 0 0 0 0 
0 0 0 0 0 0 
0.2130538863646425 -0.1758739087870545 0.1916260485060660 -0.1925660819157557 -0.5140537290477444 -0.04896313869255215 
-0.05123736649792569 -0.0004637997156873173 0.001305260755885588 -0.04258948487689156 -0.0007746639805183976 -0.0005357230814104074 
0 0 0 0 0 0 
0 0 0 0 0 0 
0 0 0 0 0 0 
0 0 0 0 0 0 
0 0 0 0 0 0 
0 0 0 0 0 0 
0 0 0 0 0 0 
-0.3651902403923941 -0.6487706091096265 -0.3075562034377153 -0.07044043766263546 0.7166905663447961 -0.08036590698004065 
-0.3461920762404406 0.3326458279645469 -0.2705855038723676 -0.3428016418723640 -0.4971733363011265 -0.5807401393758740 
0 0 0 0 0 0 
0 0 0 0 0 0 
0 0 0 0 0 0 
-0.03024484757267397 -7.760611535961455e-05 0.07631845956550629 -0.01451542115929330 -0.0002586521298616066 -0.0002825503185193046 
0 0 0 0 0 0 
0 0 0 0 0 0 
0 0 0 0 0 0 
0 0 0 0 0 0 
0 0 0 0 0 0 
0 0 0 0 0 0 
0 0 0 0 0 0 
0 0 0 0 0 0 
-0.01025175579198406 -0.002926190594523535 -0.05088279693746575 0.008231963651931618 -0.002223036659795161 -0.002279818942913532 
0 0 0 0 0 0 
0 0 0 0 0 0 
0 0 0 0 0 0 
0 0 0 0 0 0 
0 0 0 0 0 0 
0 0 0 0 0 0 
0 0 0 0 0 0 
0 0 0 0 0 0 
0 0 0 0 0 0 
0 0 0 0 0 0 
0 0 0 0 0 0 
0 0 0 0 0 0 
0 0 0 0 0 0 
0 0 0 0 0 0 
0 0 0 0 0 0 
0 0 0 0 0 0 
0 0 0 0 0 0 
0 0 0 0 0 0 
0 0 0 0 0 0 
0 0 0 0 0 0 
0 0 0 0 0 0 
0 0 0 0 0 0 
0 0 0 0 0 0 
0 0 0 0 0 0 
0 0 0 0 0 0 
0 0 0 0 0 0 
0 0 0 0 0 0 
0 0 0 0 0 0 
0 0 0 0 0 0 
0 0 0 0 0 0 
-0.06096873178224000 0.3922296339155107 -0.2510885973479929 -0.4022278288362074 -0.1119446026575961 -0.4481537717083607 
0.1536105063782190 0.4769007630373133 -0.1105541328128614 -0.5378673652409295 -0.4195718314928572 -0.5463783587031242 
0 0 0 0 0 0 
0 0 0 0 0 0 
-0.07719562578037340 -0.1200692914764177 0.3463874656578169 -0.3744315943774192 -0.03321080773152445 -0.02791104640660177 
-0.01405932473824463 -0.001274998018677820 -0.04586792162464611 0.02101582428723896 -0.0003483135362674329 -0.0001625590481201972 
0 0 0 0 0 0 
0 0 0 0 0 0 
0.05295079039742534 -0.02991815700145400 0.3627004884112332 -0.02065361456330577 -0.06010061062039369 -0.01273815390396068 
-0.1948117540812717 -0.1316953102480523 -0.2786471944052473 0.4707877614701602 -0.2936493352784537 0.5988967415181187 
-0.3554391878462081 -0.8260837306801395 -0.2271925533990537 0.2278538163733194 0.3253397774109054 -0.2599912515175610 
0 0 0 0 0 0 
0 0 0 0 0 0 
0.008180597874791300 -0.02160630146462624 -0.1089279959851502 0.008986955093736445 -0.01083494314510361 -0.01285678531339810 
0 0 0 0 0 0 
-0.05109230405624828 -0.2334850947087130 -0.04788955466999825 -0.005555573164999118 0.3073024792618185 -0.003336369226910211 
0 0 0 0 0 0 
0 0 0 0 0 0 
0 0 0 0 0 0 
0 0 0 0 0 0 
0 0 0 0 0 0 
0 0 0 0 0 0 
0 0 0 0 0 0 
-0.3054942918069539 -0.5550012259607852 -0.5018074753401356 -0.5696402863603142 0.9394788455292673 -1.249013571521694 
-0.008173138439978474 0.5053218462792034 -0.3178228287275836 -0.2692655825094674 -0.3648169954049852 -0.01833507290060360 
0 0 0 0 0 0 
0 0 0 0 0 0 
0 0 0 0 0 0 
0 0 0 0 0 0 
0 0 0 0 0 0 
0 0 0 0 0 0 
0 0 0 0 0 0 
-0.09021134678486628 -0.1637597030464692 -0.1558972878081255 -0.05785604344798020 -0.09045220495612781 0.7013452013762694 
0.2520974955301986 0.08578732103142074 0.5263362873954440 -0.7369865545606401 -0.4508746106268678 -0.1009844357001584 
-0.1067631104578554 -0.0005795787523946196 0.3097232409331415 -0.04510409119243042 -0.001487347057344451 -0.0002801133126454369 
0 0 0 0 0 0 
-0.2802806416739357 -0.3667711461939290 -0.2216119326286070 1.066760939112521 -0.3288658752715538 -0.04536356225114922 
0 0 0 0 0 0 
0 0 0 0 0 0 
0 0 0 0 0 0 
0 0 0 0 0 0 
0 0 0 0 0 0 
0 0 0 0 0 0 
0 0 0 0 0 0 
0 0 0 0 0 0 
0 0 0 0 0 0 
