solver_type L2R_LR
nr_class 4
label 1 2 3 4
nr_feature 2097
bias 0.000000000000000
w
-0.003302991947251738 -0.02524030809117155 0.1086788811553552 -0.4027355297924143 
-0.01141321603608434 -0.04848036527856710 0.2084309285607102 -1.047614069515027 
-0.1815679345947785 -0.08919589453483070 0.1190568905549411 0.1983632375200631 
0.2197911607711013 -0.1476369065238686 0.06281409945927396 -1.047838399934551 
0.05428187339685864 -0.1793994615475982 0.3023258252606019 -0.6941431681331286 
-0.1436500816572575 -0.06294425596464508 0.3541566448478171 0.07847267925155316 
0.5730007358442513 -0.4039296659099142 -0.08364652248536693 0.1229144851622762 
0.1676614093200650 -0.3336301715594953 0.1049904868431591 0.1047934412686396 
-0.1418887237629771 0.01308860856908232 -0.06491860024817090 -0.2074393546492107 
-0.7490081484981549 1.026183879722025 -0.7405493551722679 0.2429306514127511 
0.2555299343429867 -0.08546708830269086 -0.1915932856326690 -0.6223154583307180 
-0.1519344912208900 0.1576313182663852 -0.04648550578708278 -0.1990719042164847 
0.07876875786842875 -0.1487368601792558 0.03699635174163606 -0.5151697710258352 
0.3501498407002616 -0.6437597978343552 0.4802037372501516 -0.2650798831768563 
-0.2450035163710027 0.6570718705694228 -0.5075435076599785 -0.3262631029853186 
-0.3185218277606083 -0.02167059885110185 0.1203709876083491 -0.4306360164520856 
-0.2701269918342901 0.05289595616785293 0.02525619831170040 0.4699062701651348 
-0.1198702667547512 0.6308025354661368 -0.9461651206019884 0.4327285130377308 
-0.1535746972703170 -0.2349551419396172 0.5118235179921340 -0.1914297877635937 
0.6328148526814938 -0.4512274576012600 0.01433991379652176 -0.1992922134478735 
0.2479174450284081 -0.5270995884183773 0.2278657836407584 0.1344693022909893 
0.08419062218481416 -0.1188079311854471 0.1137692639520984 -0.02506693609236993 
-0.3943283878235950 -0.1964569490558838 0.3299988829340826 -0.1126325346171537 
0.03090207177723203 -0.02549339747308888 0.02360507700330063 -0.02712263446078115 
-0.2357995028756804 0.6278153115783085 -0.2437452956067540 -0.1447533166872244 
-0.1085852882623997 -0.2321252947376126 0.4542339586576014 -0.3173079591461984 
0.1729875274664790 -0.2573582326610027 -0.4415168083463388 0.2195032012118686 
0.3141962919604835 -0.5919461489457045 0.1751553201291657 -0.2035717206236694 
-0.2469191451246111 0.1016075451292717 0.2479183923121540 -0.2603847192324965 
0.3074452817048543 0.1028390147635809 -0.4754528195940856 -0.1740057938192924 
-0.5561694722966220 0.08829058911209517 0.4133606435168781 -0.1247858433200430 
0.04141672606781697 0.1585975524141853 -0.1498011572949606 -0.2249436462297278 
-0.3260411370492519 0.4181066388347526 0.06205722040659498 -0.4898049420780310 
0.04890578619359759 -0.009188181907319664 0.06596386578425024 -0.1144844899179515 
1.084164958551421 -1.116302942974732 -0.3675900844428834 -0.1068015713541132 
-0.02410871495603348 0.2600249993094518 -0.07394088087239477 -0.2057763392376722 
-0.7380653690214259 0.3565452438839868 0.2129949595164066 -0.1584657309719983 
-0.7590466623169674 0.6896845492737362 -0.09768311819722017 -0.2581914729091168 
-0.6625360711569133 0.4529921465412327 0.2430054581926802 -0.09608883430333973 
-0.4592068501051066 0.2792053377958758 0.5074134475077204 -0.2346007092550300 
-0.1332513643037601 -0.1505070278032939 0.2541972582140410 -0.1054707455195189 
-0.5146161992650262 0.3252559058939499 0.3672892593421232 -0.09298049150589771 
0.01154968755884023 -0.01174921684903441 0.03394684136359082 -0.02556386930106530 
0.4420453313584026 -0.1287145910835480 -0.1003122640525350 -0.2393843544808654 
0.5679530727890345 -0.3123019578423903 -0.1937927402439167 -0.04154688029090077 
-1.558606620735130 1.186100188910758 0.3901882648622078 -0.07279093447292107 
0.7479814590363507 -0.4722946059877165 -0.5165142167092405 -0.04942868101014970 
0.1437307252721425 -0.2789453691019918 0.1770860129699692 -0.1715603611005667 
0.3399455021647516 0.1900299911364165 -0.4416781200474285 -0.2428613518923144 
-0.09980499411194431 -0.3400100665709095 0.5827216289648488 -0.1944037491139906 
0.1946832659646955 -0.1819995332362324 0.1546327844789400 -0.1319496809640375 
0.1790605518900706 -0.3617803593912016 0.2818999978736641 -0.06823219003893508 
-0.2199340305632495 -0.4467711168312262 0.7007946139813483 -0.2867689872020163 
0.1269979721404704 0.3210911564432565 -0.2586165485574514 -0.2955106417219040 
0.5233285406266607 -0.1359194203674827 -0.8274849149035300 -0.05275772504211482 
0.02725640327202464 -0.4804665728997656 0.2173645228452909 -0.05993665807556516 
0.3678093213179163 -0.3166114128330155 -0.1119226951072141 -0.1065875692493804 
0.9854411229418572 -0.6904366660234994 -0.6638187275263063 -0.08677850427072585 
-0.2994058774163931 0.5159569272370877 -0.5097527059577014 -0.09586292357173520 
-0.2712004529864528 0.1939009530648606 0.2172517563859384 -0.06201107427107981 
-0.006367046893512512 0.1236678889745352 -0.05478001322281510 -0.08896471200113970 
0.2404993749092416 0.4260094922966696 -0.3621046958448392 -0.06767665591695475 
0.3632003268095572 -0.4303111531178949 0.03432662330724920 -0.07742963423306393 
-0.8845505046483304 0.9083704878614879 -0.01291143964825029 -0.03143101751586859 
-0.6064153395287363 0.4418290835164880 -0.2487273735267848 -0.05344540152235826 
0.7276637226774261 -0.2036949571556149 -0.8498647767440786 -0.07687905721262678 
-0.2301768404265876 0.5032778203467310 -0.1995081554077690 -0.1188485307638727 
-0.8850873004506190 0.1452354386038377 0.6279557881257465 -0.05832044166244058 
-0.2206531830502377 0.7287647461153914 -0.6050846834881833 -0.06797729455967004 
0.1226486329845945 -0.01903275150711673 0.04042460256631592 -0.01516562895578756 
0.2369399853018686 -0.1176592637187259 -0.06793081582846763 -0.08544702453426582 
-0.1905040471654912 0.08074639982294993 0.04238996994336072 -0.04805290936853608 
-0.2641251514551180 0.02965272688725194 -7.409526235335576e-05 -0.0003528757222851291 
0.3549171000935992 0.03054098687034833 -0.2871891768079378 -0.09045441663941461 
-0.5252113329463436 0.2802360131543762 -0.1010054670362748 0.07151073695615393 
0.2042841520708988 -0.6886316301667301 0.7611780896352189 -0.5224753530255578 
0.3651049337266341 -0.02408711315139429 -0.2946964424686364 -0.06458903240921936 
0.04487318477734005 0.2234014751939185 -0.3954183941082624 -0.08316330630066475 
-0.3890081888638941 -0.1250437249823733 0.08348972612669430 -0.03038389385786578 
-0.6477024609435491 0.5606938820778283 -0.2100754954614332 -0.008221200044826390 
-0.3496419604832995 0.2829400523891641 0.02999372386680578 -0.04637784189029600 
-0.4188720597645604 0.7937142904927074 -0.4484971378391942 -0.1338396887428710 
-0.06977414150751082 -0.08056274234919070 0.3697548667235279 -0.09391814213405822 
0.1213361933818517 -0.6938956073462396 0.4789692457947430 -0.2360688544608074 
0.8457169117105999 -0.2224978863252702 -0.2586273529609262 -0.07260132905032238 
0.3971008370474717 0.04236580833914867 -0.4006283571068107 -0.09565926475915258 
0.01620628299138672 -0.3991324921253565 0.6543109503084054 -0.09150793300181498 
0.08472155914980886 -0.01626660000557862 0.03859135884385132 -0.04472973033657160 
-0.1645147905075197 0.3122152432486086 -0.1479587615984022 -0.09865802140792117 
0.3841245244655596 -0.3567280951672299 -0.1391524256445552 -0.03563223384491088 
-0.4846395182693160 0.3623004065903842 -0.2422449974545549 -0.04168231298249143 
-0.4042796051011672 0.06651150018619098 0.4505031055129886 -0.03238833495101444 
0.1234572364796702 0.1427535120961183 -0.2199477278472372 -0.1590109561312628 
0.7120445380425054 -0.0009129457307202136 -1.339611152988500 0.8446580748862653 
0.2083407797945538 0.06029899660151052 0.07833540454015031 -0.2295534572005848 
0.1828792086378455 -0.1338963626417085 0.03093759735087126 -0.2123595345917314 
-0.1757551615334017 0.3230344178400458 -0.2620321781891143 -0.04243419033103751 
-0.3660532934502568 0.5837173228647994 -0.1090705121014313 -0.03911547250573773 
0.05265205236061994 0.5788152862454529 -0.5738802464956703 -0.1011067690391254 
-0.2958627524675120 -0.4307290862930014 0.6484768299530466 -0.06748028498705545 
0.5190081562335191 -0.01270681896784357 -0.2087928748036464 -0.07420284009699098 
0.1162663760951221 -0.006702408309290357 -0.1453073922558120 -0.05277743024263299 
0.07405165658957082 0.001594821773999944 -0.2563282632725004 -0.02444205602939706 
-0.3794423735885388 0.1133108775902916 0.3109670706615935 -0.02608906061675664 
-0.2641687245716372 0.8178299229998470 -1.247925960602129 0.5327581684668290 
-0.3281229949200977 -0.05015184911492106 0.5301218974556382 -0.2968600893120016 
-0.3003924802323581 0.5904954367760331 -0.7600562885750642 0.7299181789148724 
-0.3559936609127082 0.5568226818127786 -0.4457279607337879 -0.03228612104715490 
0.09631256232865240 0.1657763189671652 -0.2463924830308643 -0.05884400444723875 
-0.2007162109046996 -0.3520740669806000 0.4867288436289495 -0.06817033158922951 
0.2454571994682373 0.07125938089691994 -0.3762306478256856 0.1809000064836534 
-0.2528468884497638 -0.1026919153633905 0.1221097378888408 -0.03208120147882438 
-0.6162490490138535 -0.005835787710819798 0.1917731903589848 0.2333982723972269 
0.1305085119918822 -0.06398665216168713 -0.1132223849457711 -0.02556590239195663 
-0.4249935216812570 0.3754764503701685 -0.02180050729452775 -0.05797192909730286 
0.09249648229124494 -0.4679463471824389 0.1950931491869760 -0.08194203377637325 
-0.3499969187069498 0.02408317367010369 0.7110166244438635 -0.1069540652469312 
-0.1241708238411254 0.1665962570323421 -0.1882499945731845 -0.03599430339800584 
-0.3372208176204037 -0.03302555724657462 0.3564141548694368 -0.02769513359151393 
-0.3306981369630386 0.5550066139990599 -0.3692215352438074 -0.0006815523889098864 
0.4062297987162665 0.1018037763497530 -0.4230228507064358 -0.01216562320027500 
0.7277022128027260 -0.6653842080800644 0.2024752038114123 -0.1162915013685237 
-0.3584260222478991 -0.2450008793320210 0.1059932870032542 0.3642633791719301 
-0.4741060174985883 0.07846747175733300 0.4247906832516499 -0.04205715644015197 
-0.2291205716018211 0.05472553728773862 0.2609264958456482 -0.006755286856211666 
-0.2385052096578535 0.1432334164674430 0.09440576027340843 -0.2952970360380359 
-0.1569433992742180 0.2517389281907956 -0.1180325960675827 0.5904558179591802 
-0.1288566352559549 0.06194465044543867 0.1154988957216562 -0.4247209554901750 
0.6596815154345567 -0.6455621354250781 0.05147998800009185 0.3995486129299172 
0.03680402639541471 0.05921978499935320 0.1695867943843494 -0.4011685858314279 
0.1419234751007093 0.02045153446559143 -0.4617785055264391 0.3007636480423480 
-0.2988902878831338 0.2728212089815924 0.08015719434367226 0.1374423162946820 
-0.2169831109496710 0.2371200542733899 -0.01540367336331103 0.1336749137425490 
-0.1064220549981745 -0.03145502043854433 0.2111924343733220 -0.02816963581060038 
0.4009283518906161 -0.3160018599402665 0.03774330393432801 -0.5191198932613594 
0.05047374251524180 0.1374568113136788 -0.1705726303733142 0.07911832674427266 
0.3334526747381557 0.09618656088673967 -0.5425714803984326 0.2597237289863607 
-0.3236960470078169 0.4740542477089476 -0.09659295694207710 0.08389857839179427 
0.4996223842283389 0.03354800873179823 -0.3183850795957409 -0.4079718214333356 
-0.1628222117945193 0.7127412628269811 -0.6798993402311401 -0.2625263307446072 
-0.1764688875536629 0.03686461811215231 -0.002085203359555248 0.2110761957003765 
-0.5585335895337203 0.2513530835919199 -0.1656481827712115 -0.08259271702567583 
-0.03857651047592688 -0.1530826020151946 0.04439742372996017 -0.07243044256656150 
0.6636840940387896 -0.7846856036629295 0.2166932312600478 -0.4316350601770233 
-0.2681133674856253 0.5268735670474862 -0.4533192791171053 -0.01548763865245607 
-0.09961101853917440 -0.09951016774683263 -0.01834811696781006 -0.2366281366661550 
-0.1552965078320459 -0.4939282833965210 0.8014179843676795 -0.004509306810712873 
0.2055842105176043 -0.2145033798946157 -0.02222360068220981 0.08601685220101321 
-0.1304827084811377 0.2454030993672051 -0.2830099908847034 -0.3368296754364145 
-0.07507133810995396 -0.08905910408647641 -0.01113419287838452 -0.06907861199608932 
0.1554641898163837 -0.06737969188467251 -0.02674756304989785 0.1713221893014640 
-0.4553496412523756 0.07110986132314658 0.2469299413457266 -0.07535283076869778 
-0.2070652345999972 0.2734385009398713 0.1075192231036465 -0.4203041406404845 
0.008179248474839364 -0.1165661676388817 0.2274294971649772 -0.3048227074751380 
-0.2375880688048613 0.04560658464083211 0.2897142534935692 -0.1973909018913019 
-0.3412672621423392 0.01146305458571553 -0.003899009513633825 0.3069478792191070 
-0.8550738801641752 0.3782188981259892 0.5601657333149339 -0.3131491462712803 
0.3589596543989811 0.1009950523381102 -0.3758520241262605 -0.2922584147246781 
0.2337588055150901 -0.1271508693971971 -0.1570795702276864 0.1281136845165015 
-0.7248829846273732 0.3403997835693166 0.3773299916586950 0.3249006769058984 
-0.5462801141311548 0.3096630900403443 0.1516532361419887 0.4255339188570970 
-0.2331066202977848 0.3911339086395331 -0.1560844159244159 0.3902908981366416 
-0.04872916652066864 0.1211699696671536 -0.1192501836079335 -0.1602427928186828 
0.03577235081849937 -0.4905939607127037 0.1372985479828222 0.2917942124925149 
-0.2920454399196547 0.9984033588945500 -0.9788085725964470 0.5800026741533792 
-0.1540209521205466 0.2454690024305368 -0.1292545410983759 0.2946085446946595 
-0.1985713117733684 0.4159735541538988 -0.3837560488048697 -0.1319140664086580 
-0.03635322964400334 -0.5422829059703475 0.6356346515608666 0.2403515515442673 
0.5132773483069424 -0.2692349505348938 0.003427585029944374 -0.2103601953743012 
0.05721429582128458 0.1247391557735487 -0.2097225515346198 0.3323459675859256 
-0.1806438976262703 0.2970118128912027 -0.03598705426622357 -0.07851177731327101 
0.008729787445444505 0.5025209669300263 -0.3705037575176531 -0.001348016330544447 
-0.2965428925418880 -0.08231552593815981 -0.2953207799787387 0.5929715427539923 
-0.1404404142797465 0.2368123824044446 -0.4196280582714247 0.02578670975107705 
-0.08641112424104148 0.1626516680382418 -0.01453770707498082 -0.1261499257190937 
-0.05193418006404219 0.5113695564113737 -0.4654273346831883 -0.3588046275635258 
-0.4072084851123489 0.1143533206023230 0.1942165712201250 -0.2518120348954214 
0.07900312005353230 -0.02955329157567452 -0.08655393332310625 -0.2822414383220413 
-0.09009393379054079 -0.08110307910355787 0.1761699588429623 -0.1381824353063982 
-0.2718028833983154 0.1992106605646480 0.1228696118959310 -0.07652653543404600 
0.06336470930809603 0.3593128554322794 -0.4074342190253992 -0.1967742284671771 
-0.06467397655236477 -0.3201179906075213 0.4194029598460196 -0.1746957386217805 
0.2132366109732335 0.2800909324117449 -0.7529143350510350 -0.1029995086824066 
0.0008232898527464951 0.1156085471580391 0.02910991680510194 -0.1407879787997008 
0.2637511122729548 -0.1424185855069551 -0.09369021782586906 -0.07802227830757467 
0.5637262561549002 -0.4545379808979165 -0.3036540825842115 -0.1653773995123928 
-0.1457189541391771 0.1376558963830761 -0.1971554370129207 -0.1146154108535770 
0.2403885999285224 -0.1081473305647015 -0.08427767278255364 -0.2229353707378405 
-0.2797640847989411 0.6458083339487506 -0.4933703493221070 -0.1763784632799587 
0.07634983910094267 0.2204912521506326 -0.4473961743033690 -0.1417680298827802 
0.1918848571948507 -0.2389586844902033 -0.02891072727637190 -0.06955856233996277 
-0.1139107264741723 -0.2123417849537997 0.1036320096897020 0.4323639550368351 
0.004923574496131278 -0.1208194528619548 0.3735501575036584 -0.2211838130015077 
-0.09070772694138927 0.1355232876954822 -0.08753157352031982 -0.07365887430366436 
-0.5564072001452687 0.2691379318211400 0.2931279085257848 -0.1814843407884874 
-0.1218587309094236 -0.01053986432462042 0.1318258096566025 0.06457144812789097 
0.6450396977544219 -0.6884146193819448 -0.05592724206580686 -0.1487213679017743 
0.8139776934308576 -0.8853761607033713 -0.04979993757149168 -0.1492247049024296 
-0.3384723171237055 -0.1414672942984030 0.2559093858702058 -0.1791226442212013 
-0.3141232737865886 0.2707538781594410 -0.04886918451656819 -0.1139132864103751 
-0.2284186293749608 0.06291614020528019 -0.1899899748506403 0.5207142237157056 
-0.09238017042690581 -0.1302137046282563 0.1718708132513568 0.6555437140923266 
0.2734479164895050 -0.03800362223343223 -0.2319309149453038 -0.09145390298664885 
0.4250539765108172 0.1532987894398463 -0.1781972524365848 -0.1248182993038516 
-0.1262038627391104 0.2444268644591240 -0.001279687979479104 -0.2464058638757002 
-0.1860754652114145 0.01437285165073495 0.2822909805860225 -0.07979563925041990 
-0.2291827875358838 -0.2522391155916901 0.6472163746509738 -0.08127189349252402 
-0.1403674046598636 -0.4445483704618009 0.4539337544622621 -0.1885837938360838 
-0.1284181159911316 -0.6242108249320926 0.7155109831081795 -0.04513122004919791 
0.2805326096598350 -0.3121972056086912 0.1491475827657939 -0.09340280138332997 
0.2108896049807759 -0.07159660592620333 -0.1972968659553743 -0.1013153332466930 
0.4258972283540344 -0.7940017590018269 0.4486118210225322 -0.06404416731888118 
0.2223397846241727 -0.2515828407054494 0.1234252056707018 -0.08070883632301688 
-0.4066437937981144 0.3136395995891703 0.1465938268350282 -0.09779708974245167 
0.008990854125085337 -0.1281108134867440 0.2116275581951266 0.08938237158943753 
0.1651800106552855 -0.4036232229260211 0.01865807969889210 0.6207125413678382 
0.5996899798906912 -0.09618588933187525 -0.2313089302870175 -0.1054716161672919 
-0.06192035173053761 0.04699969041720065 -0.2302609558717038 -0.1789808978066323 
-0.5771280985084435 0.08561307999657775 0.2229608356212036 0.4498921314350003 
-0.4900973152080292 0.4271666544647784 0.06237819209078292 -0.2571590684101296 
0.1383143580111514 -0.4091089355880966 0.4108724497532954 -0.06259440140425881 
0.1082020051286289 -0.4971469169662819 0.3944354999641712 -0.1625325427911560 
0.3571998169283643 -0.1655880638030927 -0.1369525295466212 -0.1322357857924470 
-0.02672123658178130 0.1474486214566927 -0.09694627457550392 -0.1131672905746625 
0.06195931585909201 -0.09844519638143781 0.2753096152060978 -0.1947428714612860 
0.2083112187868081 -0.3626142168155491 0.2168727819834096 -0.07129822430283289 
-0.1338630073049968 0.1459586611458041 -0.06813561140203848 -0.2998087603549645 
0.6279055682455592 -0.4710542191163108 -0.2749062079308100 -0.08508330504436776 
-0.3942219935127383 -0.2449980230787792 0.3894425177211505 -0.1074548593427601 
0.3441934287683217 -0.6210856375823527 0.1627932258741053 -0.07960592208370965 
-0.2623805609118385 0.2572521447868562 0.004182850786895783 -0.1704036046180411 
-0.1001555156376756 0.1621112348478528 -0.04045091996727961 -0.1452100080157086 
0.05612381874508600 0.02691935879762973 0.2327766440286989 -0.09162593792523276 
-0.1853345455480382 0.1419074507897710 0.02594328838588720 -0.1057010140793564 
-0.06473678774739719 0.09517103165035591 -0.1257361891646872 -0.06792029102415628 
0.3413486034008859 -0.4962665744699427 0.06656546337787164 -0.1118378615328080 
0.3933732984986470 -0.7785877417316046 0.6076595076626605 -0.03526548102984689 
-0.4357510112281656 0.04923826812786786 0.3014575322953671 -0.08973978314942940 
-0.7754013604606378 0.3363912543968567 0.3057257928387787 -0.1390602725426094 
-0.3907942442806841 0.1774897833643145 0.6009462338788931 -0.06814198961297446 
0.1409249455046776 -0.6342240346276609 0.3312913081669993 0.1444259308957328 
-0.2452047660252416 0.2092644743313344 0.1724337320346540 -0.1532829632443229 
-0.03704548696379922 0.002385026122271792 0.2248692866535314 -0.06751948290501097 
-0.1227709913520092 -0.09203878444447743 0.4335856081330165 -0.1987884726006367 
0.05893441843997757 -0.2705820938788761 0.4253715263760896 -0.09514966933585295 
0.1493403899114627 -0.3610332617141897 -0.1318453006356212 0.5144548696563537 
-0.2122328441788391 0.1809580285156399 0.07136159252620136 -0.06613152868573524 
-0.008676933599375571 -0.005173118443146199 -0.1436725705842995 -0.1094718788201626 
-1.118892073609174 0.8612687915927745 -0.04978970986225586 0.5072349626936967 
-0.7333379850511257 0.2679076593519385 0.4635615764345217 -0.1238651097768088 
0.05348005527841181 -0.05400096936649845 0.1620452270104579 -0.9613510971516325 
0.1348334495025798 -0.2476589705465679 0.2002130136342187 -0.4605071771710278 
0.2146226471154508 -0.0009521751455622634 -0.2572027477585112 -0.1376073886592319 
-0.4995831546387403 0.3640376450343576 0.1867189742598455 -0.2634552881143051 
0.04423953428033523 0.1789100190241036 -0.4210619621556752 -0.06225678416468443 
-0.3828087410747714 0.4465438089676561 -0.04094091827848562 -0.8784765909936340 
0.2990643179729343 -0.3402266325281843 0.04781842078711091 0.4149798242725907 
0.4671313422969228 -0.4945808980368182 0.2257916435038450 0.05269085442475464 
0.08530731460422933 0.1775055845760882 -0.2506918567001303 0.09327366393785619 
0.1011466488123893 0.08196374322110420 -0.2338048951723166 -0.5640585337431167 
-0.006631563310194016 -0.02632779431309976 0.05329819891262748 0.2303875969759867 
-0.3335236504068954 0.02374775124634895 0.05143284088890427 0.2544326067610132 
0.09491001244429861 -0.2912930210799412 0.1506996627995185 -0.2693010351873169 
-0.2737491436254136 0.4261891394695435 -0.2612653117186699 -0.5329689488051240 
0.1859970612195830 0.1226045422535359 -0.3329723059722326 -0.1529111004517837 
-0.1088920611478135 -0.06357957767549537 0.09021419816786273 0.2714971447466090 
-0.08270666007196541 0.1885841464325350 0.008745136507752549 -0.2485147482289807 
0.5118855309632989 -0.7312358705650799 0.1763052815483667 0.1079272617261543 
-0.1846337245380740 -0.3191482655201102 0.6567362508515364 -0.04699179407671424 
-0.5386171753216665 0.05108368095862267 -0.1023305202019665 -0.2186542224381263 
0.07834748792267940 0.1223096993554696 0.002664262203925239 0.007436977313310954 
0.3815922642979726 -0.5008268327547533 0.1602100160458919 -0.04499654320514237 
-0.1278832504392496 -0.03665494851986247 0.2684738420103288 0.03555025643925220 
-0.07306145068580247 0.2810641059905691 -0.4012148107094842 -0.01170197037704657 
-0.3908660084223924 0.4987985407058565 -0.2935800658440830 -0.3371322846467440 
0.1194655054450758 -0.3538259459345055 0.3190490637193416 0.09908569597297605 
0.3107711524478599 0.05820346266345484 -0.4653387258158531 0.4568899884082958 
0.06159198479705114 -0.05551019244001868 0.04060444901227291 -0.3036894727864954 
1.080544379303821 -0.8972593540931552 -0.2141280546158520 -0.1951400838326505 
-0.1644303073558028 0.1824257962112562 0.2572508964572196 0.3082561856519844 
-0.3516287772998983 0.4604935982846539 -0.5341668550707726 -0.09123956042046555 
0.2107734992708932 -0.3869463910987323 0.03234140345169067 0.5898468669291241 
-0.2593855200236896 0.2593379203986763 0.05098721890821658 -0.1648074201022267 
1.094289954123442 -1.270510646060955 0.02744192854811360 0.1106306022520172 
-0.3562430145716356 0.1181819429591533 0.2391680840927744 0.09280730168530385 
0.3501196998163832 -0.09616105655455258 -0.1969236075669331 -0.08329180644048498 
-0.1233385687797935 0.2135425388995206 -0.2787660638530912 0.4303120834950714 
0.3024453011801127 -0.6059068432168532 0.1668480264197250 0.2806480233473955 
0.3089861435736972 -0.3599040040275326 0.07855285152095784 -0.09578281662323254 
-0.2444463713061219 0.2448357166465019 -0.1173453124924753 -0.3445866734519632 
-0.1443800079230187 0.4120941601183338 -0.03515071012784922 0.09832675919630408 
0.05721429582128458 0.1247391557735487 -0.2097225515346198 0.3323459675859256 
0.008729787445444505 0.5025209669300263 -0.3705037575176531 -0.001348016330544447 
0.08963335750682268 -0.1755600105773817 -0.2093285329488555 -0.1267404498355797 
-0.04578271187918932 -0.5735442174146490 0.5235141164391119 -0.2523374560575059 
0.5676280648019698 -0.4621476587904799 0.3218788173657596 -0.2320940724477743 
-0.4742901737783296 0.2048626207912535 0.3765982357648441 -0.2093849871775098 
0.7511380045482771 -0.6457523066725916 -0.1422884655553643 -0.1555001024114094 
0.05017119829685546 0.1584845954291792 -0.4221293266156856 -0.3723800502017577 
0.9257534318725444 -0.8865500398740406 -0.02898095212923680 -0.2385045261353556 
-0.07441290907693836 0.1645181159097336 0.2358324007144568 -0.3017061268115650 
0.1755630606449893 0.3971407776637426 -0.5846961492805803 0.2651649165820326 
-0.08641112424104148 0.1626516680382418 -0.01453770707498082 -0.1261499257190937 
0.4061525185992413 -0.3178367312474267 0.09657832086608997 -0.1744059210236469 
0.6696832025972825 -0.6210228581231269 -0.009474373820588109 -0.2662568094679996 
-0.5998169095184942 0.4701148080666815 0.1573448879161966 -0.2415786445878196 
0.08612888804695967 -0.1965023580977965 0.07712081505826959 -0.1396545869265541 
0.08446930392558924 -0.3452514936855035 0.2355710492112642 -0.1759144096939812 
-0.02769863163817316 0.2213373630787824 0.02408978934815007 -0.1462995555993495 
0.05769634256471179 -0.07415917044865950 0.2072363598089480 -0.1960125383987471 
0.4736445058294223 -0.04228733619159817 -0.2381783605617338 -0.1859898629828062 
-0.3719579385278177 0.2715144858766051 0.1511313684281850 -0.2446140603433490 
0.2128444744219538 0.02262641309900897 -0.2056897006347371 -0.07596240652811746 
-0.04070779555555268 -0.1287666162845067 0.2386180065914759 -0.1613737263621347 
0.2340230207648180 0.1130664764766638 -0.2523940639580595 -0.1421318419418528 
-0.5455260396130956 0.5256402566936265 0.02549199442786050 0.05598370058922570 
0.2637511122729548 -0.1424185855069551 -0.09369021782586906 -0.07802227830757467 
0.4162348215214048 0.05141793632349537 -0.4093103556568019 -0.2841433147403634 
-0.3227906623298071 0.02378699560030202 0.03772336417461168 0.4307134853396341 
0.1019465913050744 -0.1402563350495184 -0.1397212115129667 -0.1683606181831211 
-0.09070772694138927 0.1355232876954822 -0.08753157352031982 -0.07365887430366436 
0.01845378939698545 -0.2350616249814218 0.3996015625462013 -0.3000965215783962 
-0.008692446738467028 0.2793009426805765 -0.3914503219858412 0.5654223516910352 
-0.3502730535246114 -0.1527837857653960 0.2923024368298414 -0.1835443206358546 
-0.1723663899835060 -0.1508622461952628 0.3943349696974945 -0.1197941232992872 
-0.09846847850677999 -0.1354473893342123 0.1783549316919731 0.6495429321159373 
-0.4635443089912805 0.2304937086599031 0.3347834117935196 -0.1046023735849954 
-0.2432322258008691 0.3291095704675583 -0.1869773880459628 -0.07013716704841881 
0.2201577346730137 -0.07601837083266103 0.08714627548492451 -0.1719084038068370 
-0.2224125436252658 0.2461165055895295 0.07388288095801920 -0.09724342293752113 
0.6411512785199959 -0.2006337370709546 -0.7193556005029748 -0.09729962596709597 
0.05249514678249893 0.5140294906348684 -0.6990554876769973 -0.07926132636631852 
0.6236713023518430 -0.3183193969203256 -0.3129070943511574 -0.1936740801947027 
0.2340469395812359 -0.07971853470746128 -0.2600590836091261 -0.1123162373891576 
-0.2289515200068812 -0.08873051679265771 0.1937555706174888 -0.07631778872657412 
-0.2200013983088107 0.1890210551629275 0.3085062589792791 -0.2745529702438435 
0.5843885290679142 -0.6263998828062689 -0.1472416827330761 -0.1465046974865161 
0.1499111438388625 0.6457697594111826 -0.8784201959337200 -0.1596030708086955 
-0.5368552291511962 0.2891409608289270 0.3497453560281065 -0.08453460219416334 
0.4258972283540344 -0.7940017590018269 0.4486118210225322 -0.06404416731888118 
-0.5651552259308494 0.07474030224267603 0.1787391374823656 0.4411373013677045 
-0.2936920582264450 -0.2913777886580560 0.3803431991784625 -0.1497502882576648 
0.5580091731730085 -0.5231145806835963 -0.2819202357989495 -0.1436373477052151 
0.1482960865490691 0.1313379624763629 -0.1470672434578552 -0.1048884738741423 
-0.04579371639326604 0.1491011018277158 -0.1063836559543646 -0.1977056929619080 
-0.1520627638778751 0.1121488632417985 -0.01334792948293164 -0.09536935764325286 
0.008990854125085337 -0.1281108134867440 0.2116275581951266 0.08938237158943753 
-0.06192035173053761 0.04699969041720065 -0.2302609558717038 -0.1789808978066323 
-0.09960221737906742 -0.08973942523732188 0.2753527958413517 -0.1451463418403869 
0.2902561925686856 -0.08846207013218844 -0.05272619377638237 -0.1422493242954664 
0.2564046735754634 0.2421065465625237 -0.5504315331618957 -0.08851354667401883 
-0.4900973152080292 0.4271666544647784 0.06237819209078292 -0.2571590684101296 
-0.7827144026859548 1.169403505621184 -0.6626872515381670 -0.09425833449967151 
0.3595853821339947 -0.1814946123972518 -0.1397201115197086 -0.1324385134277341 
0.2089497110370589 -0.3633211025335763 0.2149705159667662 -0.07155149505488990 
0.01165548098526388 -0.4974167114158166 0.5081569844101927 -0.04292146861607470 
0.02466906533865278 0.3186665626431571 -0.2221047719862056 -0.1163954895971051 
0.3886538849856023 -0.2897086997886821 -0.03447019136365396 -0.1098909146135106 
0.2005714997350645 -0.1553147011487890 0.1104178508404682 -0.1112037480953733 
-0.6169353388500265 1.017843092701815 -0.7499726653465222 0.03659392008129662 
-0.4505389321838617 0.5230462711857923 -0.09084967316954187 -0.07514744522227945 
-0.5705031712134557 0.5159713186604372 0.2517896034603367 -0.1688514136024004 
-0.05882497424744229 0.08863544314419823 -0.005906392869795227 -0.3285199787622097 
-0.4210456222070391 0.007779281184912208 0.4263004903131537 -0.06138277235882306 
-0.4219666751279020 0.3085496701651754 0.05308820533346161 -0.09872581154656730 
-0.1461437136992090 -0.1297162075553947 0.2532772722039103 -0.07979095995071193 
-0.4840362683413147 0.3880697070729783 0.3448150058042748 -0.2634553175737652 
0.2691113100543318 -0.6395052125707517 0.2314372985241307 0.2935685581606248 
-0.06473678774739719 0.09517103165035591 -0.1257361891646872 -0.06792029102415628 
-1.444262891953783 1.088125449735882 -0.05328777901562606 0.6896824454455933 
0.1740550769232598 -0.6787314756625242 0.5201774223480403 -0.1142524107238695 
-0.4630526801774528 0.3409310082642940 0.09078133547163932 -0.1355372535614225 
-0.1904769857150186 0.06311323063894131 0.2151229638484217 -0.1225629076901129 
-0.3660916989986189 0.8857690718141417 -0.6486410200995093 0.1429493563745096 
0.6115676724521069 -0.7262106138859107 0.2184945663943932 -0.08240441491091266 
-0.02746135379027393 0.08234072256434397 -0.07048875158618254 -0.02236727620262655 
0.007533484172083667 0.06777224280415135 -0.1299229974342965 0.2363413309305315 
0.1089279489034931 0.1471703977066510 -0.1934177957338678 -0.8598771365138450 
0.1403687635358614 0.1388265004566500 -0.3196596476112373 0.3615912026947196 
-0.04322337996087050 0.008009182107667820 -0.06325555675162198 0.3914431978919364 
0.1317189398506876 -0.3672662418806676 0.3407949811875305 -0.5948856328008404 
0.2150650944864123 -0.1103082298585358 -0.1703345462458190 0.1069675297721650 
-0.1548144831414422 0.4775305465201780 -0.4385009157108208 -0.5030873276454760 
-0.06588303086350136 0.08909024727731461 0.04271960696913022 0.3086520544210237 
-0.1678220637591864 -0.3305107055482962 0.4109444061309360 0.3235727851883856 
0.07556457793532796 0.2775964733634413 -0.3279887851117100 -0.04543745119404968 
0.9730508979441725 -0.9654425063504550 0.05928313714935674 -0.03209260518223929 
0.2953643740896234 0.01774798868090971 0.03606370194231732 -0.4685789613195036 
-0.02725921685976059 -0.2151648056962847 0.2507971612118998 -0.2134146615710257 
0.1243291104667841 0.2042077326188676 -0.5105083033522796 0.6618905547052906 
-0.007025873529805111 -0.03823674838794816 0.2046317667719763 -0.1839731227809945 
0.2487368536665275 -0.06840282408869162 -0.2433379873938879 0.5319450263857940 
-0.1233630273755993 -0.06648272539697613 0.001710237993241953 -0.2294546983637247 
0.2353427855034551 -0.5035284630307231 0.2834319714083350 0.2401236058026887 
-0.04521131252648913 -0.07687789055780479 0.1830968489809566 0.02111695327825293 
0.5672972661170952 -0.1629345506853555 -0.09335186625609691 -0.2234087776382364 
0.3726199419392648 -0.06270846299177758 -0.2636003018199322 -0.2787741025091403 
0.2002903641689913 0.1803760031406595 -0.3563219571074948 0.3507473506923997 
-0.3334687711862474 0.2042098293068312 -0.1049163399566635 0.1754549463268149 
-0.06271056405729304 -0.02822263992476966 -0.002327152422276651 0.2906162452775939 
0.3560893933174503 -0.5007526578499765 0.3054404049803468 -0.3062717105478060 
-0.1308291900004046 0.2406888677208046 0.02700200784190159 -0.1144769936712856 
-0.4019617721386318 0.8305000208607317 -0.7936114931103055 -0.3187264261419837 
0.003111917392559657 -0.04982168928343966 0.08397795763205756 -0.03630215537130558 
-0.4573519079657097 1.027097387240606 -0.9636078555690340 0.001571396933162830 
-0.08792407216975817 0.5371215818993709 -0.2694330946826383 -0.1813985906830154 
-0.3842420715946092 -0.4663564013702741 0.6213903592562706 -0.3413168125085992 
-0.3756463195777065 0.2554501245057144 0.2449859476287096 -0.1770792801366300 
-0.1191561775841380 0.7234426742872511 -0.4509833760311955 -0.2194934985421961 
-1.041512541148470 1.056186767717771 -0.5291200727385240 -0.2304693917110040 
0.3993238782921600 -0.2442517206502417 -0.1169644689731923 -0.1519937877351080 
0.1551547539848190 -0.1328819441587630 0.3051340299080818 -0.1204797810975649 
1.041953811561718 -1.147320474738035 0.04823683751409898 -0.3205065826557398 
-0.5883012615474550 0.8206757759982615 -0.4997086771284529 -0.1328030992324392 
-0.4614889540027132 0.8159377702671960 -0.7511680996365968 -0.08899491163424092 
0.09920250494001272 0.09483953826856326 -0.2545286799998195 -0.08696558211957090 
-0.7303834260522685 0.7085821080304130 0.03058844072516556 -0.2187563245673976 
-0.3102529386580110 0.2978235748033805 -0.2051803231076891 0.2556963428484689 
-0.5672672267949335 0.3375699521357290 0.2108574689997356 -0.1939547753667237 
-0.04581676501109198 0.1598885559704705 -0.1597162605812076 -0.1308306900840507 
-0.5051966745938700 0.2084546300494546 0.2780491478799937 -0.1665580418696178 
-0.2057798244911789 0.4502137570283126 -0.5316673093217983 -0.02449525407168551 
0.01154968755884023 -0.01174921684903441 0.03394684136359082 -0.02556386930106530 
0.6106890428256134 -0.5769955540935419 -0.3753508202724509 -0.05562658082762500 
-0.04409374653298484 -0.5956959749135694 0.2009484534912831 0.3606040776731949 
-0.04589057312842099 -0.1613198234366975 0.09116931518005070 0.1334841451826603 
0.04640013788922082 0.1563614879526979 0.1310645314290816 -0.1208339949309948 
-0.4016839502362885 0.4220274938304444 -0.1786676325504673 -0.04706089218108217 
0.7204029176751394 -0.5530284645246276 -0.3516370696738091 -0.1872730750246248 
-0.4865353092896975 0.7415816809330206 -0.5070304551513619 -0.06290447075808617 
-0.1576569069307673 0.1768925942541198 -0.1457202951925551 0.4137632420337606 
0.3164048762233971 -0.2415422503164203 0.08985329783106154 -0.1152376341091350 
0.2683565160588466 -0.5269499226321557 0.4940102938111434 -0.1774041742169850 
0.08751176375807230 -0.1873932401941820 -0.3733185658990067 0.2558191910168041 
0.3678093213179163 -0.3166114128330155 -0.1119226951072141 -0.1065875692493804 
-0.02771963052478075 0.06379452762232841 -0.2277061413836802 -0.06026008490271352 
-0.4745339509792330 0.008849560854865260 -0.01371344277034815 0.4868825963005879 
-0.4595659989272797 0.6798306358756463 -0.6719313073146187 0.1555692433009867 
0.1785353791702018 -0.1581724585085844 -0.1314344944405812 -0.1698295867887767 
0.1460362594147239 -0.01351711859843770 -0.3498008994180534 -0.1093977517034930 
0.2862283989110962 -0.2193860798210707 -0.4816134346267604 -0.06730451974579901 
1.284025074301650 -1.105388643399922 0.1146191509819751 -0.2516436143046605 
-0.2613407691099866 -0.06951745687663692 0.2952220230009435 -0.03075095405211983 
-0.2244701968880989 0.5323263718001688 -0.4792498851893309 -0.1068758787168515 
-0.4283503285660026 0.2888460399108661 0.2398490498980626 -0.1361904804539317 
-0.1286390008001311 0.2896804764711393 -0.1557070584553378 -0.09321120242202350 
0.3430350563538538 -0.2329350278087258 0.007239141872533382 -0.06189707664373889 
0.1226486329845945 -0.01903275150711673 0.04042460256631592 -0.01516562895578756 
0.05714052115303358 0.1243662663007974 -0.3089874339636362 0.6723777033737408 
0.6263216298735136 -0.2899643296953589 -0.02147630925177688 -0.2780834059472171 
0.06874581597028556 0.05917287556207734 -0.4172755972498728 -0.01761910057640338 
-0.4293822936214909 -0.4173622003858306 0.2877660939595253 0.6984778926434082 
-1.010170835476700 0.2808813862097759 0.6547719931475163 -0.1852690473780849 
-0.3544905308708504 0.7141042167065261 -0.2145942878917458 -0.1670468295549293 
-0.2641251514551180 0.02965272688725194 -7.409526235335576e-05 -0.0003528757222851291 
0.04649793128269709 0.2954411234805276 -0.2109293227194897 -0.1224675910254431 
-0.6172595224967014 0.6327775590895248 -0.3426691932787596 -0.02009282087056872 
0.8733271354643214 -0.9349711241784752 0.1935095868122442 -0.03615119170394541 
-0.2898115860422640 0.1021986058578466 0.2687153820908728 -0.05126122895444453 
-0.1350949535600939 -0.2026580217600672 0.6494452719398756 -0.1470470957421889 
-0.01508472900658262 0.02029581749944113 -0.1059884906900112 -0.07916963745749266 
-0.3162493508664998 0.03210244629735527 0.09244365127446182 -0.1103234851752944 
-0.7574316779853627 0.3588559174126418 0.1160547240070057 -0.1198523305976621 
-0.5823966587288983 0.7898160606252672 -0.3383492945841170 -0.06211136862069379 
-0.6550355017573345 0.6601775795532947 -0.04602391602071285 -0.01689740915338910 
0.5298773787388502 -0.2022751128715171 -0.2743913547226048 0.2160801942762874 
0.06576557739168544 -0.1740275924340286 -0.1734274437430383 -0.006045291572116239 
0.2030601421264158 0.08239852650330759 -0.1927383812420334 -0.04702636707075644 
0.3385361154737452 -0.4549951543041928 -0.08130274797929354 -0.1042607840145749 
-0.2558903647716781 0.2625281651522758 0.1390790281463651 -0.04517300835179303 
0.6307261189365062 -0.5067843498659793 -0.05967788882068495 -0.04715202002658228 
-0.6026917913678833 1.086209720322136 -0.6807560365944983 -0.05424302312494547 
0.01296554239521746 -0.4601761989574465 0.6119165510966179 -0.04794143213782055 
0.1226083985559278 -0.3898016132805575 0.2427854600314219 -0.06317788727758570 
0.1839144316300714 -0.2629598435726116 0.004742186969891545 -0.02673462739585263 
-0.8048337023312665 0.6765887104523570 0.05640103122318053 -0.1721050668098084 
0.04081734781163869 -0.1885081375356409 0.2007157683809226 -0.08804956758506556 
0.06401610106383154 -0.08762875937057317 -0.09126803927716026 -0.003891232196042996 
0.3624052454710824 0.04842986364052027 -0.3333527418289504 -0.2263019315184856 
-0.08750616261789208 0.2491858489745645 -0.3914349522090801 0.04099198105621342 
-0.08166102858956970 0.1512134793838997 -0.1597619060836731 -0.01451923011845390 
0.03946917534404016 -0.6676668340243621 0.5474708208970128 -0.1590826516128889 
-0.8197690470877665 0.2767311725280379 0.4939400253796950 -0.09278879558725331 
-0.3323515346595402 0.5691511675527668 -0.04463298172056539 -0.01294213101428117 
-0.1264194977419071 0.2027374058211971 -0.1633387422217875 -0.06698482618537101 
0.3789039258886829 -0.7478720425252938 0.03406448575227538 -0.1009581874644172 
0.4431656291921116 0.06266005123630906 -0.5286508470844751 -0.02014945029041021 
0.5132670232960372 -0.2057557303079594 -0.3699416424673847 -0.02802773778832407 
0.6447945648675265 0.02973212125357118 -0.5135265607165623 -0.09865094832473076 
-0.1377103733841430 0.8823173609779578 -0.5870902746220292 -0.08892890634553896 
0.1691665514745436 -0.5911533777630901 0.1373865949032677 -0.02051933488069386 
0.5880926787060902 -0.4969725704177448 0.05195347857227572 -0.07179187017609577 
-0.4174074941571266 0.8422029229890928 -0.1930102209279280 -0.01683371999607755 
0.3412814661657991 -0.3169625662879672 0.3365005896137814 -0.5282025220945130 
0.4656620593258175 -0.4174782769280053 0.1530653232883580 -0.06229893825333819 
-0.1450642019468794 0.5836226532057729 -0.5003878267444415 -0.05170650719069772 
0.1072070325746377 0.01969649664250863 -0.1410753079121981 -0.05154155669573472 
-0.4069861060785219 -0.04270534703865456 0.5945243647964993 -0.05101552635887252 
0.08323408348703100 -0.3301746076901840 0.3719869765870075 -0.01126504496857149 
-1.136315593019016 1.126725167633472 -0.4597073467745271 -0.3156488700091318 
0 0 0 0 
0 0 0 0 
0 0 0 0 
0 0 0 0 
0 0 0 0 
0 0 0 0 
0 0 0 0 
0 0 0 0 
0 0 0 0 
0 0 0 0 
0 0 0 0 
0 0 0 0 
0 0 0 0 
0 0 0 0 
0 0 0 0 
0 0 0 0 
0 0 0 0 
0 0 0 0 
0 0 0 0 
0 0 0 0 
0 0 0 0 
0 0 0 0 
0 0 0 0 
1.846797682659485 -1.599353068880507 -1.308243686034871 -0.05109891690402534 
0 0 0 0 
0 0 0 0 
0 0 0 0 
-0.2418442477419303 -0.2583409746752874 0.8701556908343054 -0.001724862428846620 
0 0 0 0 
0 0 0 0 
0 0 0 0 
0 0 0 0 
0 0 0 0 
0 0 0 0 
0 0 0 0 
0 0 0 0 
0 0 0 0 
0 0 0 0 
0 0 0 0 
0 0 0 0 
0 0 0 0 
0 0 0 0 
0 0 0 0 
0 0 0 0 
0 0 0 0 
0 0 0 0 
0 0 0 0 
0 0 0 0 
0 0 0 0 
0 0 0 0 
0 0 0 0 
0 0 0 0 
0 0 0 0 
0 0 0 0 
0 0 0 0 
0 0 0 0 
0 0 0 0 
0 0 0 0 
0 0 0 0 
0 0 0 0 
0 0 0 0 
0 0 0 0 
0 0 0 0 
0 0 0 0 
0 0 0 0 
0 0 0 0 
0 0 0 0 
0 0 0 0 
0 0 0 0 
0 0 0 0 
0 0 0 0 
0 0 0 0 
0 0 0 0 
0 0 0 0 
0 0 0 0 
0 0 0 0 
0 0 0 0 
0 0 0 0 
0 0 0 0 
0 0 0 0 
0 0 0 0 
0 0 0 0 
0 0 0 0 
0 0 0 0 
0 0 0 0 
0 0 0 0 
0 0 0 0 
0 0 0 0 
0 0 0 0 
0 0 0 0 
0 0 0 0 
0 0 0 0 
0 0 0 0 
-2.274811868454047 1.765539815121668 0.5586224731109011 -0.2283151836790808 
0 0 0 0 
-1.785219288663059 -0.3688558423487847 1.890490529418837 0.6029880614439556 
0 0 0 0 
0 0 0 0 
0 0 0 0 
0 0 0 0 
0 0 0 0 
0 0 0 0 
0 0 0 0 
0 0 0 0 
0 0 0 0 
0 0 0 0 
0 0 0 0 
0 0 0 0 
0 0 0 0 
0 0 0 0 
0 0 0 0 
0 0 0 0 
0 0 0 0 
0 0 0 0 
0 0 0 0 
0 0 0 0 
0 0 0 0 
0 0 0 0 
0 0 0 0 
0 0 0 0 
0 0 0 0 
0 0 0 0 
0 0 0 0 
0 0 0 0 
0 0 0 0 
0 0 0 0 
0 0 0 0 
0 0 0 0 
0 0 0 0 
0 0 0 0 
0 0 0 0 
0 0 0 0 
0 0 0 0 
0 0 0 0 
0 0 0 0 
0 0 0 0 
0 0 0 0 
0 0 0 0 
0 0 0 0 
0 0 0 0 
0 0 0 0 
0 0 0 0 
0 0 0 0 
0 0 0 0 
0 0 0 0 
0 0 0 0 
0 0 0 0 
0 0 0 0 
0 0 0 0 
0 0 0 0 
0 0 0 0 
0 0 0 0 
0 0 0 0 
0 0 0 0 
0 0 0 0 
0 0 0 0 
0 0 0 0 
0 0 0 0 
0 0 0 0 
0 0 0 0 
0 0 0 0 
0 0 0 0 
0 0 0 0 
0 0 0 0 
0 0 0 0 
0 0 0 0 
0 0 0 0 
0 0 0 0 
0 0 0 0 
0 0 0 0 
0 0 0 0 
0 0 0 0 
-0.8750359584982083 -0.6749363433401361 1.745712601325691 -0.06352943141476063 
0 0 0 0 
0 0 0 0 
0 0 0 0 
0 0 0 0 
0 0 0 0 
0 0 0 0 
0 0 0 0 
0 0 0 0 
0 0 0 0 
0 0 0 0 
0 0 0 0 
0 0 0 0 
0 0 0 0 
0 0 0 0 
0 0 0 0 
0 0 0 0 
0 0 0 0 
0 0 0 0 
0 0 0 0 
0 0 0 0 
0 0 0 0 
0 0 0 0 
0 0 0 0 
0 0 0 0 
0 0 0 0 
0 0 0 0 
0 0 0 0 
0 0 0 0 
0 0 0 0 
0 0 0 0 
0 0 0 0 
0 0 0 0 
0 0 0 0 
0 0 0 0 
0 0 0 0 
0 0 0 0 
0 0 0 0 
0 0 0 0 
0 0 0 0 
0 0 0 0 
0 0 0 0 
0 0 0 0 
0 0 0 0 
0 0 0 0 
0 0 0 0 
0 0 0 0 
0 0 0 0 
0 0 0 0 
0 0 0 0 
0 0 0 0 
0 0 0 0 
0 0 0 0 
0 0 0 0 
0 0 0 0 
0 0 0 0 
0 0 0 0 
0.9798123654784272 -1.961105395632298 0.1186984185032389 1.087213202052243 
0 0 0 0 
0 0 0 0 
0 0 0 0 
0 0 0 0 
0 0 0 0 
0 0 0 0 
0 0 0 0 
0 0 0 0 
0 0 0 0 
0 0 0 0 
0 0 0 0 
0 0 0 0 
0 0 0 0 
0 0 0 0 
0 0 0 0 
0 0 0 0 
0 0 0 0 
0 0 0 0 
0 0 0 0 
0 0 0 0 
0 0 0 0 
0 0 0 0 
0 0 0 0 
0 0 0 0 
0 0 0 0 
0 0 0 0 
0 0 0 0 
0 0 0 0 
0 0 0 0 
0 0 0 0 
0 0 0 0 
0 0 0 0 
0 0 0 0 
0 0 0 0 
0 0 0 0 
0 0 0 0 
0 0 0 0 
0 0 0 0 
0 0 0 0 
0 0 0 0 
0 0 0 0 
0 0 0 0 
0 0 0 0 
0 0 0 0 
0 0 0 0 
0 0 0 0 
2.096785145747492 -1.657751474842923 -1.817578571930215 -0.5941967051221435 
0 0 0 0 
0 0 0 0 
0 0 0 0 
0 0 0 0 
0 0 0 0 
0 0 0 0 
0 0 0 0 
0 0 0 0 
0 0 0 0 
0 0 0 0 
0 0 0 0 
0 0 0 0 
0 0 0 0 
0 0 0 0 
0 0 0 0 
0 0 0 0 
0 0 0 0 
0 0 0 0 
-2.876220146152051 -2.772069740932313 4.616650010766356 -0.002647886807123108 
0 0 0 0 
0 0 0 0 
0 0 0 0 
0 0 0 0 
0 0 0 0 
0 0 0 0 
0 0 0 0 
0 0 0 0 
0 0 0 0 
0 0 0 0 
0 0 0 0 
0 0 0 0 
0 0 0 0 
0 0 0 0 
0 0 0 0 
0 0 0 0 
0 0 0 0 
0 0 0 0 
0 0 0 0 
0 0 0 0 
0 0 0 0 
0 0 0 0 
0 0 0 0 
0 0 0 0 
0 0 0 0 
0 0 0 0 
0 0 0 0 
0 0 0 0 
-3.694858775813138 -3.224982605960625 4.847379574390406 0.4550579172047550 
0 0 0 0 
0 0 0 0 
0 0 0 0 
0 0 0 0 
0 0 0 0 
0 0 0 0 
0 0 0 0 
0 0 0 0 
-1.798888573686910 -0.6402890749653324 2.411394836028546 -0.02358003056235182 
0 0 0 0 
0 0 0 0 
0 0 0 0 
0 0 0 0 
0 0 0 0 
0 0 0 0 
0 0 0 0 
0 0 0 0 
0 0 0 0 
0 0 0 0 
0 0 0 0 
0 0 0 0 
0 0 0 0 
0 0 0 0 
0 0 0 0 
0 0 0 0 
0 0 0 0 
0 0 0 0 
0 0 0 0 
0 0 0 0 
0 0 0 0 
0 0 0 0 
0 0 0 0 
0 0 0 0 
0 0 0 0 
0 0 0 0 
0 0 0 0 
0 0 0 0 
0 0 0 0 
0 0 0 0 
0 0 0 0 
0 0 0 0 
0 0 0 0 
0 0 0 0 
0 0 0 0 
0 0 0 0 
0 0 0 0 
0 0 0 0 
0 0 0 0 
0 0 0 0 
0 0 0 0 
0 0 0 0 
0 0 0 0 
0 0 0 0 
-2.221471138156145 0.4965525485935742 2.028413828124505 -1.006544409385309 
0 0 0 0 
0 0 0 0 
0 0 0 0 
-0.5339068485393194 0.3645469553127522 0.1115687978524125 -0.05811158966776784 
0 0 0 0 
0 0 0 0 
0 0 0 0 
0 0 0 0 
0 0 0 0 
0 0 0 0 
0 0 0 0 
0 0 0 0 
-0.3407991847289172 -0.5575685403032937 -0.4676789575662511 -0.2408334117921503 
0 0 0 0 
0 0 0 0 
0 0 0 0 
0 0 0 0 
0 0 0 0 
-0.5339068485393194 0.3645469553127522 0.1115687978524125 -0.05811158966776784 
0 0 0 0 
0 0 0 0 
0 0 0 0 
0 0 0 0 
0 0 0 0 
0 0 0 0 
0 0 0 0 
0 0 0 0 
0 0 0 0 
0 0 0 0 
0 0 0 0 
0 0 0 0 
0 0 0 0 
0 0 0 0 
0 0 0 0 
0 0 0 0 
0 0 0 0 
0 0 0 0 
0 0 0 0 
0 0 0 0 
0 0 0 0 
0 0 0 0 
0 0 0 0 
0 0 0 0 
0 0 0 0 
0 0 0 0 
0 0 0 0 
0 0 0 0 
0 0 0 0 
0 0 0 0 
0 0 0 0 
0 0 0 0 
0 0 0 0 
-1.114849599558308 1.321013076084967 -0.2985988410208065 -0.2210456836309437 
0 0 0 0 
0 0 0 0 
0 0 0 0 
0 0 0 0 
0 0 0 0 
0 0 0 0 
0 0 0 0 
0 0 0 0 
0 0 0 0 
0 0 0 0 
0 0 0 0 
0 0 0 0 
0 0 0 0 
0 0 0 0 
0 0 0 0 
0 0 0 0 
0 0 0 0 
0 0 0 0 
0 0 0 0 
0 0 0 0 
0 0 0 0 
0 0 0 0 
0 0 0 0 
0 0 0 0 
0 0 0 0 
0 0 0 0 
0 0 0 0 
0 0 0 0 
0 0 0 0 
0 0 0 0 
0 0 0 0 
0 0 0 0 
-0.05583330776198891 -0.02480105281240688 -0.4410790133588339 -0.1505863367126917 
0 0 0 0 
0 0 0 0 
0 0 0 0 
0 0 0 0 
0 0 0 0 
0 0 0 0 
0 0 0 0 
0 0 0 0 
-0.7396015595249263 0.5819074179297506 1.054806865671331 0.2821726133321947 
0.6637779136220989 -0.4655647617142244 -0.3149851054583164 -0.02631344177200675 
0 0 0 0 
0 0 0 0 
0 0 0 0 
0 0 0 0 
0 0 0 0 
0 0 0 0 
0 0 0 0 
0 0 0 0 
0 0 0 0 
0 0 0 0 
0 0 0 0 
0 0 0 0 
-0.4767244749381787 -0.4377322997943930 1.098418887402508 -0.4622457345718831 
0 0 0 0 
0 0 0 0 
0 0 0 0 
0.2584978244815521 -1.085420509398964 0.9570871795474217 0.5895570408975834 
0 0 0 0 
0 0 0 0 
0 0 0 0 
0 0 0 0 
0 0 0 0 
0 0 0 0 
0 0 0 0 
0 0 0 0 
0 0 0 0 
0 0 0 0 
0 0 0 0 
0 0 0 0 
0 0 0 0 
0 0 0 0 
0 0 0 0 
0 0 0 0 
-0.4317870944907768 0.1229350979710825 0.1469804084919441 -0.01131543366761834 
0 0 0 0 
0 0 0 0 
0 0 0 0 
0 0 0 0 
0 0 0 0 
0 0 0 0 
0 0 0 0 
0 0 0 0 
0 0 0 0 
0 0 0 0 
0 0 0 0 
0 0 0 0 
0 0 0 0 
0 0 0 0 
0 0 0 0 
-0.3586999196110191 0.4711283702340783 -0.7489980165397166 0.08280129607692367 
0 0 0 0 
0 0 0 0 
0 0 0 0 
0 0 0 0 
0 0 0 0 
0 0 0 0 
0 0 0 0 
0 0 0 0 
0 0 0 0 
0 0 0 0 
0 0 0 0 
0 0 0 0 
0 0 0 0 
0 0 0 0 
0 0 0 0 
0 0 0 0 
0 0 0 0 
0 0 0 0 
0 0 0 0 
0 0 0 0 
0 0 0 0 
0 0 0 0 
0 0 0 0 
0 0 0 0 
0 0 0 0 
0 0 0 0 
0 0 0 0 
0 0 0 0 
0 0 0 0 
0 0 0 0 
0 0 0 0 
0 0 0 0 
0 0 0 0 
0 0 0 0 
0 0 0 0 
0 0 0 0 
0 0 0 0 
0 0 0 0 
0 0 0 0 
0 0 0 0 
0 0 0 0 
0 0 0 0 
0 0 0 0 
0 0 0 0 
0 0 0 0 
0 0 0 0 
0 0 0 0 
0 0 0 0 
0 0 0 0 
0 0 0 0 
0 0 0 0 
0 0 0 0 
-0.4776581189975326 -1.207312285402525 1.361937046136202 1.293853493107429 
0 0 0 0 
0 0 0 0 
0 0 0 0 
0 0 0 0 
0 0 0 0 
0 0 0 0 
0 0 0 0 
0 0 0 0 
0 0 0 0 
0 0 0 0 
0 0 0 0 
0 0 0 0 
0 0 0 0 
0 0 0 0 
0 0 0 0 
0 0 0 0 
0 0 0 0 
0 0 0 0 
0 0 0 0 
0 0 0 0 
0 0 0 0 
0 0 0 0 
0 0 0 0 
0 0 0 0 
0 0 0 0 
0 0 0 0 
0 0 0 0 
0 0 0 0 
-1.248039691495847 -0.8617827457721255 -0.2591177641220805 2.576382107832766 
0 0 0 0 
0 0 0 0 
0 0 0 0 
0 0 0 0 
0 0 0 0 
0 0 0 0 
0 0 0 0 
0 0 0 0 
0 0 0 0 
0 0 0 0 
0 0 0 0 
0 0 0 0 
0 0 0 0 
0 0 0 0 
0 0 0 0 
0 0 0 0 
0 0 0 0 
0 0 0 0 
0 0 0 0 
0 0 0 0 
0 0 0 0 
0 0 0 0 
0 0 0 0 
0 0 0 0 
0 0 0 0 
0 0 0 0 
0 0 0 0 
0 0 0 0 
0 0 0 0 
0 0 0 0 
0 0 0 0 
0 0 0 0 
0 0 0 0 
0 0 0 0 
0 0 0 0 
0 0 0 0 
0 0 0 0 
0 0 0 0 
0 0 0 0 
0 0 0 0 
0 0 0 0 
0 0 0 0 
0 0 0 0 
0 0 0 0 
0 0 0 0 
0 0 0 0 
0 0 0 0 
-3.772975073565812 -3.633263813090484 5.165295287436653 0.1523807656549266 
0 0 0 0 
0 0 0 0 
0 0 0 0 
0 0 0 0 
0 0 0 0 
0 0 0 0 
0 0 0 0 
0 0 0 0 
0 0 0 0 
0 0 0 0 
0 0 0 0 
-0.4317870944907768 0.1229350979710825 0.1469804084919441 -0.01131543366761834 
0 0 0 0 
0 0 0 0 
0 0 0 0 
0 0 0 0 
0 0 0 0 
0 0 0 0 
0.4251402457449329 -0.6061208510286887 -0.5243879753399517 0.8830546648287912 
0 0 0 0 
0 0 0 0 
-0.3586999196110191 0.4711283702340783 -0.7489980165397166 0.08280129607692367 
0 0 0 0 
0 0 0 0 
0 0 0 0 
0 0 0 0 
0 0 0 0 
0 0 0 0 
0 0 0 0 
0 0 0 0 
0 0 0 0 
0 0 0 0 
0 0 0 0 
0 0 0 0 
0 0 0 0 
0 0 0 0 
0 0 0 0 
0 0 0 0 
0 0 0 0 
0 0 0 0 
0 0 0 0 
0 0 0 0 
0 0 0 0 
0 0 0 0 
0 0 0 0 
0 0 0 0 
0 0 0 0 
0 0 0 0 
0 0 0 0 
0 0 0 0 
0 0 0 0 
0 0 0 0 
0 0 0 0 
-0.3586999196110191 0.4711283702340783 -0.7489980165397166 0.08280129607692367 
0 0 0 0 
0 0 0 0 
0 0 0 0 
0 0 0 0 
0 0 0 0 
0 0 0 0 
0 0 0 0 
0 0 0 0 
0 0 0 0 
0 0 0 0 
0 0 0 0 
0 0 0 0 
0 0 0 0 
-0.4317870944907768 0.1229350979710825 0.1469804084919441 -0.01131543366761834 
-0.4317870944907768 0.1229350979710825 0.1469804084919441 -0.01131543366761834 
0 0 0 0 
0 0 0 0 
0 0 0 0 
0 0 0 0 
-3.106731941729518 3.464644964709756 0.3065581323348342 -0.1474830291893041 
0 0 0 0 
0 0 0 0 
0 0 0 0 
0 0 0 0 
0 0 0 0 
0 0 0 0 
0 0 0 0 
0 0 0 0 
0 0 0 0 
0 0 0 0 
0 0 0 0 
0 0 0 0 
0 0 0 0 
0 0 0 0 
0 0 0 0 
0 0 0 0 
-0.05583330776198891 -0.02480105281240688 -0.4410790133588339 -0.1505863367126917 
0 0 0 0 
0 0 0 0 
0 0 0 0 
0 0 0 0 
0 0 0 0 
0 0 0 0 
0 0 0 0 
0 0 0 0 
0 0 0 0 
0 0 0 0 
0 0 0 0 
0 0 0 0 
0 0 0 0 
0 0 0 0 
0 0 0 0 
0 0 0 0 
0 0 0 0 
0 0 0 0 
0 0 0 0 
0 0 0 0 
0 0 0 0 
0 0 0 0 
0 0 0 0 
0 0 0 0 
0 0 0 0 
0 0 0 0 
0 0 0 0 
0.4010166085604241 -0.7107626972710736 0.5518809342016852 -0.1353361124654811 
0 0 0 0 
0 0 0 0 
0 0 0 0 
0 0 0 0 
0 0 0 0 
0 0 0 0 
0 0 0 0 
0 0 0 0 
0 0 0 0 
0 0 0 0 
0 0 0 0 
0 0 0 0 
0 0 0 0 
1.392771707241443 -0.5322875333000907 -0.7391997920399479 -1.051508148711433 
0 0 0 0 
0 0 0 0 
0 0 0 0 
0 0 0 0 
0 0 0 0 
0 0 0 0 
0 0 0 0 
0 0 0 0 
0 0 0 0 
0 0 0 0 
0 0 0 0 
0 0 0 0 
0 0 0 0 
0 0 0 0 
0 0 0 0 
0 0 0 0 
0 0 0 0 
0 0 0 0 
0 0 0 0 
0 0 0 0 
0 0 0 0 
0 0 0 0 
0 0 0 0 
0 0 0 0 
0 0 0 0 
0 0 0 0 
0 0 0 0 
0 0 0 0 
0 0 0 0 
0 0 0 0 
0 0 0 0 
0 0 0 0 
0 0 0 0 
0 0 0 0 
0 0 0 0 
0 0 0 0 
0 0 0 0 
0 0 0 0 
0 0 0 0 
0 0 0 0 
0 0 0 0 
0 0 0 0 
0 0 0 0 
0 0 0 0 
0 0 0 0 
0 0 0 0 
0 0 0 0 
0 0 0 0 
0 0 0 0 
0 0 0 0 
0 0 0 0 
0 0 0 0 
0 0 0 0 
0 0 0 0 
0 0 0 0 
0 0 0 0 
0 0 0 0 
0 0 0 0 
0 0 0 0 
0 0 0 0 
0 0 0 0 
0 0 0 0 
0 0 0 0 
0 0 0 0 
0 0 0 0 
0 0 0 0 
0 0 0 0 
0 0 0 0 
0 0 0 0 
0 0 0 0 
0 0 0 0 
0 0 0 0 
0 0 0 0 
0 0 0 0 
0 0 0 0 
-0.1411603977255616 -0.008986362077341306 0.01217657044051570 -0.008787918984953812 
0 0 0 0 
0 0 0 0 
0 0 0 0 
0 0 0 0 
0 0 0 0 
0 0 0 0 
0 0 0 0 
0 0 0 0 
0 0 0 0 
0 0 0 0 
0 0 0 0 
0 0 0 0 
0 0 0 0 
0 0 0 0 
0 0 0 0 
0 0 0 0 
0 0 0 0 
0 0 0 0 
0 0 0 0 
0 0 0 0 
0 0 0 0 
0 0 0 0 
0 0 0 0 
0 0 0 0 
0 0 0 0 
0 0 0 0 
0 0 0 0 
0 0 0 0 
0 0 0 0 
0 0 0 0 
0 0 0 0 
0 0 0 0 
0 0 0 0 
0 0 0 0 
0 0 0 0 
0 0 0 0 
0 0 0 0 
0 0 0 0 
0 0 0 0 
0 0 0 0 
0 0 0 0 
0 0 0 0 
0.3630617747439202 -0.9501923900970338 0.4064267465037638 0.1167170305530389 
0 0 0 0 
0 0 0 0 
0 0 0 0 
0 0 0 0 
0 0 0 0 
0 0 0 0 
0 0 0 0 
0 0 0 0 
0 0 0 0 
0 0 0 0 
0 0 0 0 
0 0 0 0 
0 0 0 0 
0 0 0 0 
0 0 0 0 
0 0 0 0 
0 0 0 0 
0 0 0 0 
0 0 0 0 
0 0 0 0 
0 0 0 0 
0 0 0 0 
0 0 0 0 
0 0 0 0 
0 0 0 0 
0 0 0 0 
0 0 0 0 
0 0 0 0 
0 0 0 0 
0 0 0 0 
0 0 0 0 
0 0 0 0 
0 0 0 0 
0 0 0 0 
0 0 0 0 
0 0 0 0 
-0.4475641192642070 0.3640598315855051 -0.003828857417660840 -0.05670040813711801 
0 0 0 0 
0 0 0 0 
-0.08853752270606108 -0.08448867034040614 0.1706214358925795 -0.1609858352861959 
0 0 0 0 
0 0 0 0 
0 0 0 0 
0 0 0 0 
0 0 0 0 
0 0 0 0 
0 0 0 0 
0 0 0 0 
0 0 0 0 
0 0 0 0 
0 0 0 0 
0 0 0 0 
0 0 0 0 
0 0 0 0 
0 0 0 0 
0 0 0 0 
0 0 0 0 
0 0 0 0 
0 0 0 0 
0 0 0 0 
0 0 0 0 
0 0 0 0 
0 0 0 0 
0 0 0 0 
0 0 0 0 
0 0 0 0 
0 0 0 0 
0 0 0 0 
0 0 0 0 
0 0 0 0 
0 0 0 0 
0 0 0 0 
0 0 0 0 
0 0 0 0 
0 0 0 0 
0 0 0 0 
0 0 0 0 
0 0 0 0 
0 0 0 0 
0 0 0 0 
0 0 0 0 
0 0 0 0 
0 0 0 0 
0 0 0 0 
0 0 0 0 
0 0 0 0 
0 0 0 0 
0 0 0 0 
0 0 0 0 
0 0 0 0 
0 0 0 0 
0 0 0 0 
0 0 0 0 
0 0 0 0 
0 0 0 0 
0 0 0 0 
0 0 0 0 
0 0 0 0 
-0.01130303521644845 0.3296065221984074 -0.4257467481803293 -0.1064165706102421 
0 0 0 0 
0 0 0 0 
0 0 0 0 
0.002516614652308657 -0.1916110846841989 0.08662321558719491 0.2715326404038538 
0 0 0 0 
0 0 0 0 
0 0 0 0 
0 0 0 0 
0 0 0 0 
0 0 0 0 
0 0 0 0 
0 0 0 0 
0 0 0 0 
0 0 0 0 
0 0 0 0 
0 0 0 0 
0 0 0 0 
0 0 0 0 
0 0 0 0 
0 0 0 0 
0 0 0 0 
0 0 0 0 
0 0 0 0 
0 0 0 0 
0 0 0 0 
0 0 0 0 
0 0 0 0 
0 0 0 0 
0 0 0 0 
0 0 0 0 
0 0 0 0 
0 0 0 0 
-0.2187893598551146 0.4145933400796685 -0.4613728635005741 -0.09108514095663299 
0 0 0 0 
0 0 0 0 
0 0 0 0 
0 0 0 0 
0 0 0 0 
0 0 0 0 
0 0 0 0 
0 0 0 0 
0 0 0 0 
0 0 0 0 
0 0 0 0 
0 0 0 0 
0 0 0 0 
0 0 0 0 
0 0 0 0 
0 0 0 0 
0 0 0 0 
0 0 0 0 
0 0 0 0 
0 0 0 0 
0 0 0 0 
0 0 0 0 
0 0 0 0 
0 0 0 0 
0 0 0 0 
0 0 0 0 
-0.2187893598551146 0.4145933400796685 -0.4613728635005741 -0.09108514095663299 
0 0 0 0 
0 0 0 0 
0.4118775747203591 -0.4748562189174614 -0.09136286568416918 -0.007260789651306192 
0 0 0 0 
0 0 0 0 
0 0 0 0 
0 0 0 0 
0 0 0 0 
0 0 0 0 
0 0 0 0 
0 0 0 0 
0 0 0 0 
0 0 0 0 
0 0 0 0 
0 0 0 0 
0 0 0 0 
0 0 0 0 
0 0 0 0 
0 0 0 0 
0 0 0 0 
0 0 0 0 
0 0 0 0 
0 0 0 0 
0 0 0 0 
0 0 0 0 
0 0 0 0 
0 0 0 0 
0 0 0 0 
0 0 0 0 
0.002516614652308657 -0.1916110846841989 0.08662321558719491 0.2715326404038538 
0 0 0 0 
0 0 0 0 
0 0 0 0 
0 0 0 0 
0 0 0 0 
0 0 0 0 
0 0 0 0 
0 0 0 0 
0 0 0 0 
0 0 0 0 
-0.1815371479113250 0.4176210641525404 -0.4493251057846536 0.08689261302025009 
0 0 0 0 
0 0 0 0 
0 0 0 0 
0 0 0 0 
0 0 0 0 
0 0 0 0 
0 0 0 0 
0 0 0 0 
0 0 0 0 
0 0 0 0 
0 0 0 0 
0 0 0 0 
0 0 0 0 
0 0 0 0 
0 0 0 0 
0 0 0 0 
0 0 0 0 
0 0 0 0 
0 0 0 0 
0 0 0 0 
0 0 0 0 
0 0 0 0 
0 0 0 0 
0 0 0 0 
0 0 0 0 
0 0 0 0 
0 0 0 0 
0 0 0 0 
0 0 0 0 
0 0 0 0 
0 0 0 0 
0 0 0 0 
0 0 0 0 
0 0 0 0 
0 0 0 0 
-0.3054712933796946 0.3939823789956461 -0.3161246969545293 -0.01040208554184677 
0 0 0 0 
0 0 0 0 
0 0 0 0 
0 0 0 0 
0 0 0 0 
0 0 0 0 
0 0 0 0 
0 0 0 0 
0 0 0 0 
0 0 0 0 
0 0 0 0 
0 0 0 0 
0 0 0 0 
0 0 0 0 
0 0 0 0 
0.1004249720188613 -0.02109948865840692 -0.1778799858216691 -0.02789102511429934 
0 0 0 0 
0 0 0 0 
0 0 0 0 
0 0 0 0 
0 0 0 0 
0 0 0 0 
0 0 0 0 
0 0 0 0 
-0.3407991847289172 -0.5575685403032937 -0.4676789575662511 -0.2408334117921503 
0 0 0 0 
0 0 0 0 
0 0 0 0 
0 0 0 0 
0 0 0 0 
0.1004249720188613 -0.02109948865840692 -0.1778799858216691 -0.02789102511429934 
0 0 0 0 
0 0 0 0 
0 0 0 0 
0 0 0 0 
0 0 0 0 
0 0 0 0 
0 0 0 0 
0 0 0 0 
0 0 0 0 
-0.4269438678946692 0.5361944197576790 -0.1528305011694523 -0.6993095843351409 
0 0 0 0 
0 0 0 0 
0 0 0 0 
0 0 0 0 
0 0 0 0 
0 0 0 0 
0 0 0 0 
0 0 0 0 
0 0 0 0 
0 0 0 0 
0 0 0 0 
0 0 0 0 
0 0 0 0 
0 0 0 0 
0 0 0 0 
0 0 0 0 
0 0 0 0 
0 0 0 0 
0 0 0 0 
0 0 0 0 
0 0 0 0 
-0.3145336722267242 0.4078077168669179 -0.03992329798903407 -0.02441045977632291 
0 0 0 0 
0 0 0 0 
0 0 0 0 
0 0 0 0 
0 0 0 0 
0 0 0 0 
0 0 0 0 
0 0 0 0 
0 0 0 0 
0 0 0 0 
0 0 0 0 
0 0 0 0 
0 0 0 0 
0 0 0 0 
0 0 0 0 
0 0 0 0 
0 0 0 0 
0 0 0 0 
0 0 0 0 
0 0 0 0 
0 0 0 0 
0 0 0 0 
0 0 0 0 
0 0 0 0 
0 0 0 0 
0 0 0 0 
0 0 0 0 
0 0 0 0 
0 0 0 0 
0 0 0 0 
0 0 0 0 
0 0 0 0 
0 0 0 0 
-0.08853752270606108 -0.08448867034040614 0.1706214358925795 -0.1609858352861959 
-0.09184605242160342 -0.01825483165899887 -0.1274764807730990 -0.1080037046072519 
0 0 0 0 
0 0 0 0 
0 0 0 0 
0 0 0 0 
0 0 0 0 
0 0 0 0 
0 0 0 0 
0 0 0 0 
-0.01130303521644845 0.3296065221984074 -0.4257467481803293 -0.1064165706102421 
0 0 0 0 
0 0 0 0 
0 0 0 0 
0 0 0 0 
0 0 0 0 
0 0 0 0 
0 0 0 0 
0 0 0 0 
0 0 0 0 
0 0 0 0 
0 0 0 0 
0 0 0 0 
0 0 0 0 
0 0 0 0 
0 0 0 0 
-0.1815371479113250 0.4176210641525404 -0.4493251057846536 0.08689261302025009 
0 0 0 0 
0 0 0 0 
0 0 0 0 
0 0 0 0 
0 0 0 0 
0 0 0 0 
0 0 0 0 
0 0 0 0 
0 0 0 0 
0 0 0 0 
0 0 0 0 
0 0 0 0 
0 0 0 0 
-0.1411603977255616 -0.008986362077341306 0.01217657044051570 -0.008787918984953812 
0 0 0 0 
0 0 0 0 
0 0 0 0 
0 0 0 0 
0.2046479426806822 -0.2681514499437600 -0.4312862646859227 0.6594101113604084 
0 0 0 0 
0 0 0 0 
0 0 0 0 
0 0 0 0 
0 0 0 0 
0 0 0 0 
0 0 0 0 
0 0 0 0 
0 0 0 0 
0 0 0 0 
0 0 0 0 
0 0 0 0 
0 0 0 0 
0 0 0 0 
0 0 0 0 
0.07288524958144886 0.07882882587278718 -0.2756022200058500 -0.3963038528217928 
0 0 0 0 
0 0 0 0 
0 0 0 0 
0 0 0 0 
0 0 0 0 
0 0 0 0 
0 0 0 0 
0 0 0 0 
0 0 0 0 
0 0 0 0 
-0.7315206347910186 0.9845667901282886 -0.4535839274583607 -0.005540063759016438 
0 0 0 0 
0 0 0 0 
0 0 0 0 
0 0 0 0 
0 0 0 0 
0 0 0 0 
0 0 0 0 
0 0 0 0 
0 0 0 0 
0 0 0 0 
0 0 0 0 
0 0 0 0 
0 0 0 0 
0 0 0 0 
0 0 0 0 
0 0 0 0 
0 0 0 0 
0 0 0 0 
0 0 0 0 
0 0 0 0 
0 0 0 0 
0 0 0 0 
0 0 0 0 
0 0 0 0 
0 0 0 0 
0 0 0 0 
0 0 0 0 
0 0 0 0 
0 0 0 0 
0 0 0 0 
0 0 0 0 
0 0 0 0 
0 0 0 0 
0 0 0 0 
0 0 0 0 
0 0 0 0 
0 0 0 0 
0 0 0 0 
0 0 0 0 
0 0 0 0 
0 0 0 0 
0 0 0 0 
0 0 0 0 
0 0 0 0 
0 0 0 0 
0 0 0 0 
0 0 0 0 
0 0 0 0 
0 0 0 0 
0 0 0 0 
0 0 0 0 
0 0 0 0 
0 0 0 0 
0 0 0 0 
0 0 0 0 
0 0 0 0 
0 0 0 0 
0 0 0 0 
0 0 0 0 
0 0 0 0 
0 0 0 0 
0 0 0 0 
0 0 0 0 
0 0 0 0 
0 0 0 0 
-0.1411603977255616 -0.008986362077341306 0.01217657044051570 -0.008787918984953812 
1.073710192288288 -0.4847387046862527 -0.3436957753888226 0.4660146256165805 
0 0 0 0 
0 0 0 0 
0 0 0 0 
0 0 0 0 
0.4118775747203591 -0.4748562189174614 -0.09136286568416918 -0.007260789651306192 
0 0 0 0 
0 0 0 0 
0 0 0 0 
0 0 0 0 
0 0 0 0 
0 0 0 0 
0 0 0 0 
0 0 0 0 
0 0 0 0 
0 0 0 0 
0 0 0 0 
-0.08853752270606108 -0.08448867034040614 0.1706214358925795 -0.1609858352861959 
0 0 0 0 
0 0 0 0 
0 0 0 0 
0 0 0 0 
0 0 0 0 
0 0 0 0 
0 0 0 0 
0 0 0 0 
0 0 0 0 
0 0 0 0 
0 0 0 0 
0 0 0 0 
0 0 0 0 
0 0 0 0 
0 0 0 0 
0 0 0 0 
0 0 0 0 
0 0 0 0 
0 0 0 0 
0 0 0 0 
0 0 0 0 
0 0 0 0 
0 0 0 0 
0 0 0 0 
0 0 0 0 
0 0 0 0 
0 0 0 0 
0 0 0 0 
0 0 0 0 
0 0 0 0 
0 0 0 0 
0 0 0 0 
0 0 0 0 
0 0 0 0 
0 0 0 0 
-0.1244119431969860 -0.7949296714814083 1.052218907881385 -0.2286045653811845 
0 0 0 0 
0 0 0 0 
0 0 0 0 
0 0 0 0 
0 0 0 0 
0 0 0 0 
0 0 0 0 
0 0 0 0 
0 0 0 0 
0 0 0 0 
-0.5704016582961440 0.3546508107051306 0.07678673124814184 -0.3214033856140980 
0 0 0 0 
0 0 0 0 
0 0 0 0 
0 0 0 0 
0 0 0 0 
0 0 0 0 
0 0 0 0 
0 0 0 0 
0 0 0 0 
-0.2577169039648928 0.3029971404695217 0.01221232558111079 -0.3133616751739007 
0 0 0 0 
0 0 0 0 
0 0 0 0 
0 0 0 0 
-0.3054712933796946 0.3939823789956461 -0.3161246969545293 -0.01040208554184677 
0 0 0 0 
0 0 0 0 
0 0 0 0 
0 0 0 0 
0 0 0 0 
0 0 0 0 
0 0 0 0 
0 0 0 0 
0 0 0 0 
0 0 0 0 
0 0 0 0 
0 0 0 0 
0 0 0 0 
0 0 0 0 
0 0 0 0 
0 0 0 0 
0 0 0 0 
0 0 0 0 
0 0 0 0 
0 0 0 0 
0 0 0 0 
0 0 0 0 
0 0 0 0 
0 0 0 0 
0 0 0 0 
0 0 0 0 
-0.03892754410977922 -0.1115961996101474 0.4735851890816850 -0.2222765342172677 
0 0 0 0 
0 0 0 0 
0 0 0 0 
0 0 0 0 
0 0 0 0 
0 0 0 0 
0 0 0 0 
0 0 0 0 
0 0 0 0 
0 0 0 0 
0 0 0 0 
0 0 0 0 
0 0 0 0 
-0.09591893672554624 0.2943538483965649 -0.1512574531851562 0.1196119234790991 
-1.012149152029562 0.3137891529724761 -1.650343723145480 1.925432663755658 
0 0 0 0 
0 0 0 0 
0 0 0 0 
0 0 0 0 
0 0 0 0 
0 0 0 0 
0 0 0 0 
0 0 0 0 
0.1007361514245154 0.2577830460506373 -0.6716116137091556 -0.01255668830593779 
0 0 0 0 
-0.1411603977255616 -0.008986362077341306 0.01217657044051570 -0.008787918984953812 
0 0 0 0 
0.3306021535463467 -0.2241683145967351 -0.2878145455869609 -0.08294217764789208 
0 0 0 0 
0 0 0 0 
0 0 0 0 
0 0 0 0 
0 0 0 0 
0 0 0 0 
0 0 0 0 
0 0 0 0 
-0.4063797246483276 0.3895528852079193 -0.1673997787621330 -0.1324141643835748 
0 0 0 0 
0 0 0 0 
0 0 0 0 
0 0 0 0 
0 0 0 0 
0 0 0 0 
0 0 0 0 
0 0 0 0 
0 0 0 0 
0 0 0 0 
0 0 0 0 
0 0 0 0 
0 0 0 0 
0 0 0 0 
0 0 0 0 
0 0 0 0 
0 0 0 0 
0 0 0 0 
0 0 0 0 
0 0 0 0 
0 0 0 0 
0 0 0 0 
0 0 0 0 
0 0 0 0 
0 0 0 0 
0 0 0 0 
0 0 0 0 
0 0 0 0 
0 0 0 0 
-0.05005546832750778 -0.2842863727649737 0.2942514700153068 -0.01323836516190852 
0 0 0 0 
0 0 0 0 
0.5775975663836140 -0.2102654385389674 -0.5682368773803316 -0.2837670719157662 
0 0 0 0 
-0.3554745387780782 0.2938318505848031 -0.5672383091198764 0.5489639666790890 
-0.4243783193192539 0.5662453335989794 -0.8200204262057508 0.1588939216506024 
0.2189514963160466 -0.2780972015572453 -0.1269108690481580 -0.4032608078202593 
-0.007133951226169184 -0.01180739215289316 0.01533533232545702 -0.003349607386263312 
0 0 0 0 
0 0 0 0 
0 0 0 0 
0 0 0 0 
-0.7251833885197538 -1.033178527807053 1.987973641309790 -0.1066147734008010 
0.02599259050819506 -0.009642443198624335 -0.01092010833813672 -0.006062177751556080 
0 0 0 0 
0 0 0 0 
0.3488293599068851 0.1253452787678362 -0.3776613411098567 -0.1456368618471757 
0 0 0 0 
0 0 0 0 
0 0 0 0 
0 0 0 0 
0 0 0 0 
0 0 0 0 
0 0 0 0 
0 0 0 0 
-0.1440339976337899 0.5451862139328090 -0.03874168224268463 -0.1033084075385761 
0 0 0 0 
-0.2856990962165280 -0.4726813581895678 -0.1061673126581886 0.8122746337034411 
-0.1957179410917948 -0.7080302659280188 -0.6926637863309464 1.024005040819908 
0.5459082562326998 0.2340125114687005 0.5938573568929746 -2.441394374646948 
-0.2442663493654792 -0.1481335902018108 0.5071527370844472 -0.01026864215368694 
0 0 0 0 
0 0 0 0 
0 0 0 0 
0 0 0 0 
0 0 0 0 
0 0 0 0 
0 0 0 0 
-0.01699005665395078 -0.007922051385429806 -0.7311162703117908 0.4778583380237303 
0 0 0 0 
0 0 0 0 
0 0 0 0 
0 0 0 0 
0 0 0 0 
0 0 0 0 
0 0 0 0 
